0.06698714556037899 0.9279566636095902 -0.22190806695144305 0.4122592270860026 0.22215127428344417 0.526806925848307 -0.5874766859866878 -0.1891782213600417 0.4904027995228333 0.7719558670426714 -0.7631668637626228 0.24093658765639803 -0.5077740312844565 -0.9856691498187129 0.41467576912664184 -0.8610179626026231 -0.5482707676998431 0.46603198469937523 0.30042764311657333 -0.20644915081424475 0.6024905362585855 0.8079143471523069 0.4100087946895876 0.5249619327114667 -0.7255502001088332 0.37603616711841625 -0.16349763994801947 -0.14486671472117085 0.1413237044846969 -0.9523731560580435 -0.5421260124527805 -0.04713148372681464 -0.0630631582179475 0.18185604933926203 0.00037159820854126835 -0.6068365626880807 -0.8637375956961146 -0.7994776999386547 -0.9714726150826103 0.16377998744326727 0.9394704311673583 -0.009408035867470676 -0.20699812165665854 -0.8206800382404127 0.3533596090182986 0.17841057338145447 -0.9233207061579043 0.9075609372695544 -0.49872888879327376 -0.12304351945679737 0.44715768150679214 -0.2793278842719833 0.8045362387883115 0.1281816096520496 0.977594496053104 0.7736359324828492 0.26374566312044245 -0.23759993767981857 -0.6264215865983322 0.14409732005069653 -0.8494999644568066 0.3786838309157412 -0.9395946050801547 0.9432642837434133 0.8729748397625782 -0.6355502835746137 0.6472171943827316 -0.3671693228691894 -0.26764420914455467 0.6824878584667293 0.3101480268666448 0.5146140266114176 -0.43829477011836215 0.4337991324233125 -0.11319423590256565 0.9740939958952296 -0.547988466872001 0.33918696427569567 -0.05087147883506046 -0.5582004850181408 -0.1261394795746671 0.756580742949867 0.9159432544955646 0.07026276478133564 -0.41894711175353794 -0.09582596112803055 -0.6508395345436737 -0.3463998178162242 -0.27071752783474023 -0.4973291535864258 0.3223418104594378 0.428722169335318 -0.4876390480285506 0.9569677590703869 0.3489203769712268 -0.8670729455855681 0.8288960821028589 -0.9630511333239706 0.02295276928772962 0.09242847038044212 0.5621123594512079 0.2626859921003047 0.9235138962940693 -0.5027382524718558 0.7274766941886414 -0.7002501634952355 0.016416553167831232 0.8653342174697175 -0.1594841846977379 -0.4388127920703262 -0.8388563366564199 -0.3863459373589495 0.32033907930143846 0.9766989699766242 -0.5917187477665142 -0.321565944925021 0.29041908422919765 -0.2647754412734491 -0.6977190225096617 0.8229624663204511 0.8589392825965316 0.18670017354408266 0.8879193424694568 -0.754700140049628 -0.448697290555632 0.033134234240322406 -0.3323248948602039 -0.7162232080189436 0.8903995877136587 -0.7556353803913527 -0.33471114584599787 -0.0983449663006666 0.23022001378924478 -0.8415963105301361 -0.023391578399903374 0.308157340368871 0.3186959279097884 0.9626662564020972 0.12110093582796935 0.5678573473096116 -0.036657543606264165 0.7252634914978953 0.5746112747824588 0.6652554313578807 0.5235889758996369 -0.6518753432742451 0.8304279815446446 0.5764175438457148 0.25882631187734656 0.7068474911274769 0.45940150609424446 -0.5736994015857715 -0.37609653284487693 -0.8986456735912642 0.9389809883589686 0.3584351064074191 0.15516403365506817 -0.8939713499781561 0.05083879752629795 0.9105085345865325 0.5112854446403038 0.28947891822116156 -0.5036511922028843 0.6022680578442473 0.9228138793052751 0.1559880951396125 -0.7183353236315242 -0.18778386957969428 -0.2356782929152217 0.7101990771221702 -0.2663584178021099 0.10527955703838074 0.15197077104397913 0.4082516282562696 -0.7103725470606552 0.06510436678072101 -0.2224278330439072 0.25384814575248066 0.45592873643174664 -0.18581924599956207 -0.5951357376068 -0.6239586643866009 0.09813129431281956 -0.3068402045665427 0.5751827448774619 0.46440907307101775 0.5929867659203806 0.6717144935388604 0.739487376734109 0.195419785395504 -0.06681320272231873 -0.46169983717279284 0.35787146236022344 -0.5708963320477864 0.38870309954554216 -0.3961962487728614 -0.8170065943241116 0.04123924828073555 0.4749844921061193 -0.6900348968083654 0.63398460322354 0.6676820003040164 0.12883735234795518 -0.7701053821152364 0.44164573594680623 -0.9520890142980284 -0.5373337412480473 -0.1310756787706491 -0.9746378363872746 0.624199759631061 0.7374230079180698 -0.47020539853540444 0.9667826204249932 -0.37771381313179075 -0.8733576723741725 0.15578366853049946 -0.2577581649569027 -0.17964569366003152 -0.7018912062810567 -0.4600512439245749 0.4260718817449563 0.005529413372211412 0.5548074648715231 -0.14383232596258888 -0.629931983313597 0.6886224414602939 -0.9629772535873925 -0.45924285162914424 0.7455941516576534 0.3093192475621198 0.6883841462367131 0.5394215325249203 0.310314447383706 -0.8198056827712569 -0.11281738994904834 0.6881528745505666 -0.9281840092315978 0.4548190498404117 0.3184772368653737 -0.5562895332695303 0.7761705934369791 -0.7685037043246179 0.2353583949557666 0.704772819882591 0.6256398930945828 0.6144778931015268 -0.49719476288852593 0.07877738886877392 0.38126883014170576 0.619445739150652 0.04320874894302797 -0.06346536694739924 -0.7524252196610977 0.02119512003735788 -0.5091912339780308 -0.2185926644584248 0.9826225727717572 0.9714664551440638 -0.9880191681463135 -0.6778521173943493 -0.31147028454816617 0.48749927172138735 0.1911882547216647 0.6918400762246445 -0.27634152120287375 0.7548907338208473 0.6296717633125009 -0.1380220357481221 -0.355888041850694 0.8169677602304365 -0.7073411267993025 -0.0829838077617225 0.6727770100759193 -0.25688662736076157 0.8260319274117115 0.48574822447804444 0.7479072303912245 -0.5216917752679163 -0.953936286327548 0.282898821735472 -0.8530018753357458 -0.3230474651952469 -0.6876600934351084 -0.42906370981099057 0.536844095775718 -0.26070677214303656 0.46678233671861774 0.819659557314267 -0.8212281619541927 0.7475500068364189 -0.7222102535121024 -0.311516520106678 0.9165792303511703 0.7785054829750916 -0.03608475726798108 0.747176309983522 -0.05085318610146697 -0.7695334911924769 0.226591536906663 -0.9993677252465732 0.8192355423279077 -0.46845401779961693 0.2699908473021098 0.43574909130991507 -0.035310692087721016 0.9446656298856672 -0.8920777964274358 -0.33381961316173414 -0.0170971155279378 0.1971213159102052 -0.3163411867255569 0.8610762613279012 0.7408511486661072 -0.3589651148988451 0.5541824117144099 0.03329996714271187 0.8110608954916976 0.8905424576609704 -0.5315760749359877 0.8757928939506103 -0.7323895969908785 -0.6967111602928872 0.6028982020371115 -0.24968847450247642 -0.23897089578294461 -0.8837966584494771 0.40067269782202325 0.8305520383962198 0.9956069014080318 -0.6569754265581889 -0.12389870059932923 -0.2872552055880921 -0.7808670080897456 0.40587392680253415 0.5348283293492552 -0.7874812299954232 0.5203308038334369 0.462651275697723 0.26227140281911293 0.527438512878033 -0.375926133959603 -0.3482954150469621 0.8734922400069368 -0.11837529669468515 -0.6754746976095171 -0.5118360615453961 0.4548255067550669 -0.8726416769401101 -0.8711010700649509 0.9413555437624969 0.11864796409133395 -0.15821991594908438 0.4148531693709233 -0.07615394234846658 -0.16335440539500098 -0.3755112028970005 0.8666773940994663 0.14633801556798365 -0.21673740341200737 0.13266003507583024 0.477411714844789 -0.6897288947400866 -0.7510135561951343 -0.927365418143048 -0.31574079251253795 -0.4273862286348926 -0.5668527513596406 0.04944072568956389 -0.47129671234421344 0.03699463959914799 0.1210288472873856 -0.8268593802453856 -0.6625211894550636 0.46017635169181814 -0.26868305438450985 -0.9964997228732793 -0.7871219532219501 -0.46659892744994014 0.5128669477755992 -0.08266108905766241 0.41582035684385854 -0.3248505600368266 -0.9380100690680042 -0.08082987149102941 0.5934273152245768 -0.2874767155547604 -0.5845366758566478 0.0246982033004552 -0.0585832023418403 -0.6287446899645371 -0.8322788124693135 -0.66845455379298 -0.3169677505372068 0.5501759852844268 -0.904007509427946 -0.4051054116752154 -0.772545824335316 0.938626542591085 0.7922072193499156 -0.7044391726168542 0.49785736521288165 0.4431217658750062 0.9312948798869879 -0.3229703870314632 -1.0284467519880371 0.024581211562210138 0.374072325339508 0.5794363198489096 -0.44217536347242137 0.6611553183396939 0.6846792670814956 -0.32453820303543496 0.38494581911470055 -0.4532507727543184 0.48246800748822016 0.0140997089904952 0.33036519335086834 -0.3820377148669813 -0.3766739103842822 0.04391576527951324 0.18852369559111248 0.262675171810947 0.10082387441554874 -0.5499429462243934 -0.08253040755851616 -0.33556981546562953 -0.43191327104026356 0.8442839360956653 -0.5809962305864266 -0.7900026119936681 0.207950646970926 -0.7983300950750212 -0.6181562163709259 -0.5427294088832904 -0.7252955121659777 0.3370859346304297 0.8013825344626551 0.17223944411192219 -0.17361492681453375 -0.15952894018898717 0.8013397028880582 0.5618615405480514 0.4075767349590539 -0.688466686849529 0.958460336842976 0.5641505062239099 0.8069140369517995 0.6194665091919822 0.8446759604623424 0.34719868754166794 -0.40140506663301445 -0.40238895733038826 0.7079037867030848 0.31134295003943363 -0.377307569349325 0.57870595768264 0.5066985700328241 0.6544985511740244 0.5997799836360025 -0.48411498976848266 0.43617779163822334 0.5150925083661999 0.7762330468737425 0.9310180128099826 0.41883301008907525 -0.14282436474220198 -0.46448020111834354 0.051542220211556 -0.69369936208528 -0.49798117993624536 -0.27148765226857197 0.9196109234675908 -0.8458302900723078 -0.4248306529926608 -0.6904545876527548 0.7834585076761467 -0.8656073756276421 0.8512040385329356 -0.4845299020049343 0.6332664629668046 -0.9711574070237514 -0.2155145446452408 0.6346855339937288 -0.8190937683682462 -0.5415016268549998 -0.4164910871354675 -0.31903882872623346 0.18075278433698574 -0.8417579286639608 -0.6451039043077678 0.1669850851930012 -0.8893422121743558 0.7953402734631562 -0.7849589148602675 -0.4001483355057527 -1.0160392104907408 -0.823778512895986 -0.19317682631954244 -0.8390034727851144 0.5525849308046276 -0.3502373236659348 -0.9610125168245276 -0.5604423888748162 0.7630591410761791 0.2119751219113255 -0.7059877531336767 -0.4879775740169334 -0.12499369067395939 -0.8489097167941649 -0.3815800617621107 0.09100243258228492 -0.7118780867206406 0.3358761672293317 0.7699402563005203 0.3164672297911632 0.5852228613716929 0.22421751872200968 0.7758109939995799 0.5206346964030225 -0.07399837516325249 0.5791819207864964 0.6138456834820546 -0.9188418423490162 0.7426641795492747 0.6871571837018684 0.774385438887094 -0.048989111893450454 -0.166315522708067 0.8326737676769507 -0.5298766632278695 0.23068837834659453 0.6809347272385922 0.07324877124982354 -0.13901924549512112 -0.04354204989170274 -0.8434397760329712 -0.17882169015869478 -0.7029500099706066 -0.7438288181820667 0.7519175272446085 0.485697103151586 0.4232322296032977 0.15769373744368181 -0.20208412550842408 0.4920934450464193 0.10565213773946541 -0.8373505299101636 -0.5385950925925164 -0.8876931549127215 -0.6873415344822529 0.9239601783941072 -0.13879084185491733 -0.5436083833383107 0.6180850345373334 0.9082424378447104 -0.6551910374994361 -0.21670056959885278 -0.5680977611114202 -0.22687364787243613 0.11647964597603466 0.07730218550874013 0.8941546655553563 -0.16970077520190158 -0.4222144949316735 0.31167159644541054 0.040570039322422716 0.7698312217612601 0.7638405451516233 -0.9292441533215752 0.022922785779323298 0.36166638185903505 0.4280504886009415 -0.20458075584977528 -0.607029739643704 0.7786916237681926 0.8820193834297057 -0.6663146189048467 0.3957708945942762 -0.8099078041125235 0.43565676612890936 -0.35906422326635185 -0.9198606610010986 -0.8619692294462167 0.8619713420220276 0.7937649683115916 -0.19239737809530652 -0.21405316223716853 -0.3819184421911297 0.11432784558489084 -0.7740778161584991 0.25278345818366116 0.2734775675539767 0.5993884974595586 0.5608943559719713 -0.610160302589125 0.7822907785593229 0.8267473431879168 0.8700785987894616 -0.10174277035962451 0.6767502081269684 0.31450599497508236 -0.010704267223868934 -0.2731283104780617 -0.07909890269253136 -0.6394432916354631 -0.9290663288630008 -0.6884660675605447 -0.12273650539378606 0.3802621988558635 -0.8674351586927488 0.07368431642374573 -0.5234175996638921 -0.7326847763093078 0.15603681808211436 0.6057592863752316 -0.9426308294844905 0.4743109018064695 0.4442148719488157 0.41150176468233457 -0.15851310556568443 -0.10145346909923106 -0.8219676491673398 0.35342224882995055 0.27540224392601387 0.7648940727717599 -0.1117539119131945 -0.19531782164359618 0.7193285310863022 0.3582307163312422 -0.0520922853966581 -0.060857799696984786 0.8335746052144172 -0.5845273487629311 -0.33995019085540223 0.7232936129665101 0.8548865972493244 -0.0987452273901212 -0.27273383288692216 0.5648923094129139 0.0943488308575773 -0.027766859470751023 0.9947407901233453 -0.36158852024365884 -0.44953200922981984 -0.7052171107615621 -0.40136735259988265 0.6511764080136039 -0.49743864031926194 0.45950238104696955 -0.6511261076217981 0.44673074169556115 0.2819583991952487 0.670361358512143 -0.048374475205073604 -0.48186289601265003 -0.9443095388727805 -0.3046489741315576 -0.8789961005283801 0.5246384918983772 0.1772111255891555 0.8775415619376927 -0.4195300363046273 0.9095861377990015 -0.2834620837105277 -0.4423972991787139 -0.11351866523056602 -0.3402824283718846 0.5929647277921687 -0.15499740528114564 -0.10911960452425351 -0.04900541521826025 0.547619737208221 -0.30423017394236584 0.30175117317291766 -0.727541335505745 0.5249746555909923 0.9102381069134864 -0.724034452924063 0.7828345606067556 0.6930371884639897 0.5935127800863698 0.07588631768026957 -0.4964543946854058 0.8451981165474507 -0.9560804817983027 -0.08790236611243163 0.9273579065052345 -0.23571369235567388 -0.5288953211101619 -0.7810851475385285 -0.03810065704609679 0.5155111538812848 0.031699165105922515 -0.9573206792342918 0.9266218189917722 0.4654014835054563 0.8229789629597744 0.3343259564441401 0.3490560760611825 -0.39320910694735667 -0.9705429044429466 0.38908948078113204 0.3055704135661095 -0.5966285970924132 0.3683984160224021 0.3515211191496167 0.734669270130855 -0.4086178388538457 -0.8350950830785695 0.9707971828235382 -0.4271408464977227 -0.2798455461840584 0.2023288913707565 0.14562651958982106 -0.5246520905548517 0.40856356005541644 -0.3693089285706832 0.9693267244763082 -0.11595495866705065 0.6012996265450148 -0.43804026165103244 0.4611483478557713 -0.05434838463021974 0.596438848910102 -0.5248433048240031 -0.5480568307503635 0.02601022584549595 -0.757449745865777 -0.9054496315464662 0.7287262644768446 0.6480468230296923 0.5166188648606354 -0.7598307163585734 0.843279840849193 0.4658630544600037 -0.7503869295356373 -0.5971854537887142 0.22930602478740625 0.15452708434017262 -0.7602943315555414 -0.3543127438772861 -0.932688847921376 0.07883579347760919 0.6873530413379545 0.08314969130195836 0.2533905329199458 0.6035373817041936 -0.03323086951897188 0.31844988813430675 0.5673670310284097 -0.9065004178204101 0.12775360678405123 0.6529649767224683 0.536894318650682 -0.35659538811877667 -0.3643321200057741 0.9796019048129099 -0.10120194001819471 -0.4708285286862186 0.20659045254816855 -0.8586487822645086 0.7779095519544648 0.4167104238411601 0.7801772841328238 -0.421577220715379 -0.4682774060288874 0.5885242686194627 0.4235070639571163 -0.26670654266173394 0.7069579078072677 -0.8843686930497585 -0.7676004554587781 0.8183192655670037 0.9806875943931126 -0.25743424473974535 0.9729064941335838 -0.9141539464948334 0.6434550852868579 0.4347845012671434 0.6315579776031826 -0.49542580185357865 -0.8030993714612744 0.6844169961230833 0.5041487685639112,0.17504215736281314 0.23406881484001674 -0.5288745098515097 0.8289972384492599 -0.705257065501061 -0.8289921503224587 -0.6737482665819023 0.0017625693477918425 -0.1572173128899057 0.6325869135660449 -0.9942831061800685 -0.5960769400126711 -0.08730923451990114 0.5609907311599343 0.9752485670433202 0.1398027895294931 0.206900835471872 -0.08710772548631684 -0.7665177881220189 -0.16945383038343564 -0.2610348797125588 0.36168441919883576 -0.7184358057784241 -0.9508188077645174 0.10134871031036075 -0.3109966655436538 -0.3166348902800433 -0.2353028037349536 0.05506777448066513 0.4845893919366373 -0.2930656353611234 -0.3780489007820267 -0.44586498935554375 0.6322965690401745 -0.7955111797881727 0.012958332012614631 -0.5945906112474418 -0.02163995026504997 0.3627515428126997 0.07619332916901156 -0.07496895558867017 0.04712256314334907 -0.1312957454060986 -0.7345767986983696 0.011795485815916515 0.5307956807768243 0.8717642029989165 0.17620008820145233 0.2607127048689615 -0.8157009022749839 -0.38118607805040083 0.8153559357845601 0.19548500662458856 -0.5199121207908153 -0.3612509071927903 -0.5101707351252462 -0.18597166381480457 0.9248867827296434 0.748194921367523 0.11455492411021018 0.5663584884747681 0.4442736552606945 0.14038029423182624 -0.07156762222779911 -0.42557170270973804 -0.1236578862519611 0.9130198495613265 -0.811450263953007 -0.6817493680724063 0.8648007829214056 0.9221274844485209 0.8996282281690999 -0.8656294763010334 -0.3462977307396066 -0.8395603706391573 0.03718928934228477 -0.49611283265538714 0.7579967589311745 -0.6096599601398666 0.28780885607939743 -0.4754077972972166 -0.3156903113328122 0.5150619870824116 -0.15651339446711865 -0.36454475057419833 0.554826221018599 -0.532093130943595 0.6566306039681054 -0.7363163196149953 0.2295924365224792 0.7859669227128913 -0.7069078499774285 0.27876820936345864 -0.2744099935549219 -0.6478545474799837 -0.8607138661465149 0.038925363887892084 0.9450756232713398 0.9614705852537159 -0.16219935714886444 -0.4249316700979236 0.8390382239231482 -0.023220917561066305 0.7467935067500808 -0.6920793338814607 -0.39565603880623906 -0.11352869833318686 0.7535384823006088 0.8751479478690588 0.16954231238410888 0.8660920052608543 -0.013317709602592043 -0.45752663970465335 0.6317561745155811 -0.309930601245175 -0.7670940123370611 0.5826518694171602 0.5252351017553025 0.18271643645445781 0.418373291142091 0.4314282956715095 0.5842325102207596 -0.1563078215332186 -0.5612265986971624 0.07542197700700864 -0.8784905710428437 0.7050264407261663 -0.26962371330618534 0.5618167088149941 0.2799780596194054 0.361958991239474 0.35540068768998917 0.3467886016659732 0.89779119570688 -0.987831690534722 0.9620178727865482 0.2088691694488301 -0.4498046265938754 -0.3618760528463987 0.6927952458891726 0.30236874440906303 -0.3385304884839422 0.8975615115193316 -0.8993842805105816 -0.9798619460862924 0.47581922626868217 -0.7177359863722382 -0.21268841471006592 -0.030001498844093595 0.21675354669428887 0.16933849623289607 0.06076326367586921 -0.4393291042061366 0.6140588306160409 0.27181191524382525 0.04015412128285151 0.050198965097321004 -0.9175823119323515 0.15905496312348025 0.5029200096449893 0.6223625147283111 0.9765217017410271 -0.15223727011820742 -0.26144319288767925 -0.8008331169783834 -0.11777835735629029 0.6047687760345801 -0.40803778396593215 -0.7750948944401865 0.851369356712451 -0.4127676377469882 0.07099172660812474 0.3642074918537633 0.5594238304677731 -0.6833584877970941 0.2898614343202958 0.8300163684134568 0.4215019432617466 0.14816936102554917 -0.31055171409501353 -0.29205661530821814 0.9533368933200206 0.02341108179301124 0.5552912750964661 -0.9099248394221231 -0.15834894657278947 0.6964987802291932 0.24123941963842294 0.13890005022185223 0.4162985918463398 -0.6320563407503074 -0.7001544771059272 -0.3863438322594646 -0.1006236241492857 -0.8322481728025753 -0.30890346443491445 -0.2616462580164596 -0.32866067307834435 0.5290939956090133 0.1931239285723218 0.7292172380856958 0.11155074559250844 -0.4674186508180045 -0.44968399098947465 0.22391056212150456 -0.09555991843687271 -0.10378803552500983 -0.441575164002796 -0.7792170365958623 0.5427497610721685 0.8775404655706285 -0.2289580942082843 0.1558557944054489 -0.9588200569297134 -0.9796526090222455 0.43563248114542236 -0.2036230493969274 0.8311838910371948 -0.9120309468327682 -0.5366880323166957 0.3377825240403264 0.06396864013886672 -0.3929967216435175 0.45043658324605196 -0.2569618226672059 0.11695843608677836 -0.35896762340076804 -0.43378846947292876 0.6160239342115705 0.3113138885145684 0.35736959878753566 0.6787863271518201 0.47296940175800445 -0.28026497859829375 0.5958894421443298 -0.8673040539159473 -0.19818466974847412 0.9695404587447428 0.18498893210455303 -0.7266480697795602 -0.5801388913624974 0.8356349315940625 0.7046722286363316 0.37197222397742097 0.6909548848722955 -0.9741678973793638 0.45882266384138864 0.04741702305694415 -0.4549958816404254 0.5530998623242575 -0.9842320037450385 0.2563687553702887 0.49686527690712823 -0.7147485780092705 0.47435502741534225 0.8536682596325101 0.12796959270472824 -0.31813942217178454 -0.6102318200774901 0.5431934668853424 -0.26447296633834033 -0.7168520165975611 -0.6166446032864196 0.5419406499344782 0.15183222006839825 -0.20991880883779662 -0.8681361960049749 0.901458421485522 0.7711211598560987 -0.481327487492048 0.25560526767984865 0.6975166458936664 0.9461428037108662 0.014675317036596056 0.16859339477278182 -0.7647955752556918 -0.7925280771520455 -0.35654903437042484 0.04477851763484277 -0.6651598136058887 0.3267973756174172 0.6256642659156058 0.46121759439842885 -0.14389825680907306 -0.8403468966898426 0.6844671402557955 -0.5045950647695564 -0.49011699656655877 0.3242330881492303 -0.1388313253644641 -0.9655897253258128 0.5933774574087125 -0.988307170304151 -0.04041424827145755 0.10602559203714274 0.4028535099100103 -0.36665563015807445 -0.17155742681555694 -0.011735136533578563 -0.5397685085865405 0.11639884187440035 -0.2991833796779982 -0.9143264617666963 -0.6174347242420082 -0.4823011133092789 -0.03929941486364418 0.14742290238275355 0.5465138549653636 0.2271703200496975 -0.3739911448558866 -0.8702160785203926 -0.2838545799664874 0.3910129875339303 0.705670759459924 -0.38164955722935523 0.2609592379252691 0.7752719837042114 -0.17701227080510012 0.20550818382412667 -0.40800500172722426 -0.8596451983746346 0.9208178453753555 0.6394898735226184 0.6142124883122366 -0.4852927357636773 -0.8198684031258013 0.8772077891693376 -0.8596134925060877 -0.0033611644943795644 0.4620056017512114 0.4701259398383249 -0.36568407951016213 -0.6989602537037705 0.18132703186927185 -0.7029410419945904 -0.9239674951494301 -0.786302113716012 -0.6351600941882636 -0.0349534246605426 0.12545546036580757 -0.08154243841430005 -1.0059459281596297 0.27186488216615284 0.018257021615891354 0.43588344977532945 0.5555260400327403 0.42806970514503156 0.5157705779465294 0.19612923549800898 0.13556052303606075 0.7872720898561059 -0.574502369676887 -0.12545561873650887 0.07323630631249198 0.7611902650397357 0.16398495614664677 0.4921561881708554 0.5271447315500438 0.6178903685047384 0.18864983734868224 0.07932720483427655 0.7498133844243258 0.7763358499176809 -0.9228753056714647 0.8467305732489094 0.8785033152334016 0.6280393367749926 -0.6454015439201636 -0.22885189627912988 0.5019407276696302 -0.25427536315609556 -0.9807760851737747 0.6146347175117699 0.38403475200076237 -0.45489329247319693 0.04493544693480165 0.8042500922062172 0.5081568922265411 0.3951611504280232 -0.25932015222123506 0.019392379963053933 0.3281050073001861 -0.3349599226820713 0.3418419642413805 0.2945658729943724 -0.24683376019476758 0.8529361083862191 0.8590732917112026 -0.3734693543488754 0.4123907536503662 -0.6434263353615786 -0.3325391281106229 0.12260069060985845 0.2941801846350598 0.5088094554252245 0.27090118597287405 -0.36156162718439816 -0.5568313201583053 0.7141579155645292 0.3073625760739245 -0.4804337786886747 -0.6861373962445056 0.9064957776338326 -0.46395608643408587 -0.6807911932718265 0.668516905278585 0.7064360216218497 0.08208303555182518 -0.7959872165646787 0.799783612303243 -0.02697240175853745 0.34140245113108003 -0.8765710010505353 -0.5154112519929311 -0.13011546514046396 -0.31985049433931 -0.1586627438329733 0.84888352501462 -0.4789226730699532 0.9211793745541506 -0.6430964418705161 0.01450419750820986 -0.8875530297247474 -0.8326796136487383 0.24326990439702373 0.9001906940835303 -0.1963033792742829 0.23275708018843227 0.6151785480804289 0.2685186178870683 0.12370765606921776 -0.4445336738074307 -0.16994007323177363 0.8563790378084298 0.8045447570804146 -0.9003887823130571 0.584545586158572 0.7268753039217143 0.575749936827546 0.23649350268701438 -0.867926949945626 0.936360003015084 -0.12912543525010578 -0.3215067864197718 0.3416107838287345 0.16853867883260257 -0.10521780975962972 0.10325359142844182 -0.9635627069928197 0.7323948690331665 0.09046169730610432 0.9961275449564688 -0.3625028865101182 0.8882372438867613 -0.77587525422594 -0.8046769235802248 -0.7174323096889864 -0.8753923530714113 -0.2810685874127229 0.71496071591593 -0.12103339385137411 0.35101436651155166 0.6795323945223687 0.19415074067794552 0.6034646002349984 -0.41045080963989533 0.24122633924127682 0.42349871015930335 -0.30185410775921717 0.7010605491522026 -0.6972182160944712 -0.014953935535941537 -0.4702996566700479 0.6863921834858849 -0.05361407974786416 0.3049938061403137 0.6349658248272876 -0.9202640981803694 0.7179870255207736 -0.593246944516386 0.3246362292701068 0.7527045194390012 -0.27223001676111397 -0.5752280470633523 -0.26327103432426135 0.06734179024698862 -0.5306040023850245 -0.48229021680623907 -0.3373733704027516 -0.05105164506019181 0.7761358943978979 -0.509482407436949 0.00038257977440071323 0.25355594765468625 -0.48639235040330697 -0.8314552771485427 0.39065033610812255 0.23211871055407696 -0.5432373524646145 -0.42427442497248574 0.4763776113615444 0.5108433088367499 -0.043446699623380214 -0.37858749621317345 -0.5469488685950434 -0.6307654932735689 -0.13400090420032762 -0.7090315750840741 -0.2683056752142751 0.6430952425790251 -0.9570302466231703 -0.6305351611561468 0.4923554402866695 -0.21295498482419833 -0.21997059399503785 -0.7445450231060226 -0.7272249698149107 -0.18061365979404195 -0.4596765493878505 0.8343946753686542 -0.5871954195528922 0.6304952373209749 -0.03339910636630459 0.8496201698862287 0.10290015070889923 0.3972320811081331 0.30077315927510506 -0.26261792627040365 0.7912417339686508 -0.44170485163405054 0.24209851967703086 0.36503281090001205 0.2730818985870098 0.45199600264107853 -0.08264820248585303 0.3776783607166082 0.7551226464604545 0.032701719899595666 -0.5706624738679105 0.9274934739493479 -0.9301703539054029 0.9244073440639416 -0.8283621322657502 0.24167300959675175 0.606886579656646 -0.45845502634878865 0.5716412291503558 0.7107508435110261 0.7256790562980235 0.017979656570405476 0.8914479398224008 -0.685251113646022 0.7941341857544602 0.3021671593121634 -0.7276696366206272 0.7764193873911663 -0.8639747385827481 -0.24559203757636525 -0.19220462817590783 0.5852557044763222 -0.4405207622954217 -0.6826459289227813 0.4517994200600561 -0.5145526478039594 -0.7587952613758031 0.47160226023832635 -0.44116803218898454 0.2507286521011165 -0.6756176500610122 0.3569803980541287 -0.038590522010352506 -0.013900688146078657 -0.32915716690869234 0.9623574442823019 0.8021209732164635 -0.5443794240514183 -0.5004818419049344 -0.5371376068626409 -0.015671062925498053 0.9444748214157772 0.2418850968914364 0.7379306032457855 0.3110823683714125 -0.9543827034843648 0.1478767773178039 0.18497958896436656 -0.33801703904130126 -0.5397848094846758 0.9438764077242965 0.6074997745277635 -0.6248080427169782 -0.9246666966325526 -0.3832219393603825 -0.690688547394837 -0.8535010510070594 -0.382246855835564 0.8020107721644719 0.9152953406545116 -0.38473053348670316 -0.9155993467626965 -0.0054707343210037 -0.49628194370876494 0.20272323783652021 -0.9642556751849403 -0.3712152198126328 -0.6962710593540986 -0.3786431014123675 -0.055018218145046496 0.13295793653659785 -0.6027715850634533 0.761373188348963 0.42710628274539864 0.40067609501839235 -0.971637379439825 -0.2088690017906737 0.836488411326753 0.6091816815960442 0.5068775780557453 0.36965919620311716 0.35933023370921474 -0.2996065114998404 0.6728131342548102 0.6595974377145039 0.34566996378971027 0.6847513439744707 0.28945059480802077 -0.49304228890415525 0.7746087779280283 0.33588896174679617 0.3324840292962056 0.31545998124011304 -0.41131801905449267 -0.08984212179414526 0.26561949948173674 0.7769570314153884 0.35434567225378283 0.17725115973569247 0.5185774918334686 -0.775694309084672 -0.7281982297796333 0.43655321428617916 0.7425939339084179 0.2555928940964609 0.8031940958929378 0.3830468474226385 -0.4499059000114407 -0.39848637182152213 -0.017436486411455003 -0.06121664700010189 -0.4863147880389496 0.12867643496758233 0.72543563277508 0.7573042543497976 -0.46644949290349375 0.20258716999303816 -0.07862096484364976 -0.09341530118725637 0.5359779999134545 0.8991061122886472 -0.7434107556072859 -0.1405325134582333 0.6623652189006122 -0.04326470255942825 0.018275462507833705 -0.7357995417723939 0.9566983620030916 -0.12000537474260292 0.5876145930602698 0.3599371351488458 -0.18500236419841487 0.9172337263761793 0.578730516636567 0.6461667224125394 0.5932998947368553 0.30734314615791636 0.6919823698392943 -0.3527676288649193 0.12078660614149833 0.3131527747306713 0.0005160077059893936 0.7615772606240897 -0.7537675572975117 -0.2776367988694207 0.7626378658410444 -0.3090265778400868 1.0060500843604352 0.0077499531723922285 -0.650504236397971 0.8813531800386196 -0.33706091032415314 -0.8721554317252536 0.6857157243460872 -0.4405632129898863 0.23644332998145967 0.7003870680222135 0.29705310276025526 -0.5774432819661259 0.6985480233858643 -0.05105168125271087 -0.5013825163008552 0.9133148484085936 -0.8512993959462789 0.14432153484197197 -0.6900225836919887 0.42287940229357235 -0.6862446168073081 0.9528792168954954 0.6164884105143756 0.2695417069761257 0.6592045996694992 -0.6408637959630774 -0.04089197841158173 0.953590430854172 -0.34901009519226067 0.9366565850888914 -0.32960737232774945 -0.19523715281699053 -0.4364204190109279 -0.6927071238530488 0.3896755002723846 0.1587395924076584 0.514964679390088 -0.7080784151250239 -0.6566567072267657 -0.5712469953032491 0.6448061867273469 0.03128179402501119 -0.1290769490728665 0.6427458001796569 0.7529030946737658 0.7698025729451421 -0.3692863160204174 -0.46204724279995113 0.43705464501772484 -0.8590237721728267 0.3088108543664725 -0.15418706763445422 -0.6388441960699669 -0.4373421025303979 -0.6541971507707598 0.7199409734779665 -0.9601526928620412 -0.7450094059148828 -0.4990924062802169 -0.8883164491788955 -0.8034068318130029 -0.10802731050380848 -0.4056621201054121 0.5141218371239666 0.8363644559784915 -0.9768459931384161 -0.392541256977355 0.9834768898296666 0.9980223098133751 -0.7526146431407863 0.9165870853541831 -0.05089970139923472 -0.6516481187053964 -0.18155614702320433 0.5165327741300996 0.7194728200151543 0.3398053485497823 0.5467030484716195 0.07992758740665427 -0.09412941804362346 -0.8257520317568637 0.7906494480722988 0.33027038974511724 0.22384663099824315 0.41944778440309755 -0.10809194329862443 0.45151047991855525 0.28547225879465554 0.8247176459522293 -0.8639532730497534 -0.5802212250685679 -0.31119331259265115 0.9660503426381317 -0.6749024514085002 -0.05343071232418106 0.28447540571521923 -0.760532221895835 -0.6729946174576371 -0.349284951263068,0.36853410517009855 0.4769002684785757 0.2538806456938585 -0.05719684151085813 0.17757011980852044 0.5156429159009626 -0.5890390747430037 0.6492699570849108 -0.7685601407891143 0.12736229138107924 -0.21609478209982358 0.21245001734139835 -0.6034806836968645 0.9217593177063665 -0.18345378625100706 -0.8279592009031496 -0.324555187213617 -0.16480381946840938 0.6155225328496021 0.4239283328047243 -0.592331119202089 -0.09685399480302137 0.7265192046995594 -0.5129231684137532 0.5792305114463085 0.28285639951301067 0.03231281669846897 0.18736555501081775 -0.930577420033549 0.008919417160166088 -0.9073084755599246 0.9056804162780858 -0.2914543883497993 -0.8405257272616258 0.19746604195027118 0.5877542295861605 0.6310363198958958 0.5564105912178715 0.7519941516607143 -0.4361044051702476 -0.8195137310111318 -0.40286967496682946 -0.9817809692071157 0.9208047599691486 -0.8614336995154047 -0.28582984330980643 0.4539501913678299 -0.6737595315254185 0.6132278522794443 -0.9937522144071329 -0.09638142247668391 0.17618630507559851 0.7629350383300806 0.8015006982366342 -0.3132338648129964 -0.1852009725717918 0.5503080268627949 0.36702426376408326 -0.9681289299227336 -0.6337820731441404 -0.8201809556732746 0.029321513962893064 -0.9534739327644495 -0.03857972045002285 0.3175848868274903 0.5770167048342416 0.1296888033114749 -0.1942517685054844 -0.12270598440287889 -0.10132392400387093 0.0018724736493085136 -0.26183978945532177 -0.23430633433365647 -0.13437536033713918 0.017200504654373495 -0.4729209146807479 0.20558671563675515 0.8682040636092068 0.7651178996036505 -0.14784887574938188 0.48620902799388666 -0.510043747443899 0.06973720360116098 -0.8584390232422217 0.14038642344808805 -0.9510778583270494 -0.7914842911556883 -0.43690381893634544 -0.22349896970374106 -0.3182189197484375 -0.8965347107760697 -0.30176690359940694 -0.33879630061046606 0.927167591918484 0.5919644399442395 0.029540075893835355 0.8927056134180259 -0.7576438800390699 0.5024992417808127 0.6554145486390407 -0.11558487782574374 0.3148767161946225 0.3946290657050059 0.4419712523236205 -0.17839147928827662 0.969481541692488 0.08159054231690566 0.13746618574012096 0.23555258838360923 0.014415566922607148 -0.499616053751766 -0.322690674052158 0.23900983249378127 0.1380199637809547 0.006784177351861542 -0.11141203744590444 -0.7949396690510256 0.43466485609527694 0.8664739081733305 -0.4345472462509235 -0.6908461594162956 -0.2525940264262703 -0.6365988502504246 -0.006204387787533231 0.5747667467630528 -0.19220200636701623 0.3332410946969067 -0.8323933303086032 -0.2710536176014474 0.4566385907927902 -0.4342029022156994 0.7432984012195248 -0.048425921914688884 0.45825714004191276 -0.48639793808133913 0.9376882103538458 -0.35870305042983114 -0.9375158373128456 -0.610328090810958 0.87032551219338 0.041581549558406206 0.3501928520480644 0.6392961099506773 0.5905577038383958 -0.7592976206802837 -0.7594351915352906 -0.979435182185066 -0.2548556663986446 0.9271281786623946 0.5153593102103231 -0.9461882602537572 0.3627169472050174 0.18553554086496996 0.5084643741399371 -0.7837001512328972 -0.31974356010202654 -0.859911013179317 -0.16231054157766345 -0.43482009147353984 -0.48129385129784347 0.9625360723198141 1.0060753988011855 -0.6142413755068458 -0.11716667922696711 -0.6554335982099639 0.6720902658700233 0.4175967010379311 0.3277133444786522 -0.45516157707441396 -0.676484888606419 -0.09829344231015935 -0.43760654323599385 -0.01898049150897161 0.5394624771894871 0.8330764006132415 0.2420528785047275 0.9596034998213867 -0.5790900114137683 -0.4054759379865941 0.7408000338382366 -0.23380017512309578 -0.5579194260326484 0.3514684208298328 -0.13933905870606164 0.9801988723368291 0.8605766852661135 -0.2681195356570969 -0.556641625575798 0.36202865303872533 0.08512705735391207 -0.6414292886310972 -0.1833475470060742 0.37137131744558083 -0.24045247094736685 0.6062528650747228 -0.35286867057892857 0.6867468033697612 0.09402634993141867 0.7441910192883814 0.1540880961041067 -0.5191746210825153 0.8255713432989474 -0.05934253824461043 0.028908988532332782 -0.6630986140395791 0.4098760576769335 -0.5948664365223165 -0.12282886960983135 -0.8341425360206055 -0.699244088230051 0.027854504656144256 0.7809091321333345 -0.766066612448284 0.1735514087635625 -0.38961332462380294 -0.8447690003042605 -0.5821283814163586 0.5929447043370122 -0.7791427026109276 0.3996799687688484 0.5349533045785444 -0.9424437365898891 -0.8001345379683301 0.03662325318441084 0.12902572522474642 0.7375608328088761 -0.4486294473963476 -0.7956524551890618 0.15861040374668764 -0.022460110066600706 -0.14560161626580798 0.6645043369242339 0.1935296125639211 0.7673072164674511 0.7744564759784747 0.7610170577708573 -0.15985680035264507 -0.8272455321087239 -0.6028807313052637 0.6813497169605858 -0.2814044203691166 0.2059361028230647 0.137799581857762 0.7485793801615162 0.023218286103657577 1.026882819405145 -0.4572709347901396 -0.0864938529542456 -0.9235171627562119 -0.5928835492598045 -0.7678716558208798 0.6775963707755415 -0.5961867134445522 -0.27697143869949736 -0.45807176075850514 -0.5913701496199923 -0.1016926352644461 0.7605785128330141 -0.3714582891561773 -0.3466136647197053 0.6687702966517656 0.961557166717193 -0.379637028148931 -0.3274716590471232 0.6283888649743263 -0.31692280222820063 0.08371663264463708 0.1350710640001695 -0.1132756871501457 -0.011050724230985489 -0.04044658014617617 -0.834265829386668 -0.6493300414444836 0.993416206924317 -0.1510473109673389 -0.23271698661274268 -0.42466849653143546 -0.07769708749275812 0.6259153054779641 -0.6911779643156326 -0.15854025890004753 -0.527153330456533 0.6304128599769347 0.6408726913656401 -0.373530776368994 -0.3740185812858951 0.475847621143375 -0.22568531500455968 -0.05064684825421131 -0.2004004895305177 0.2988237920614948 0.7072679044444982 -0.7720367642424705 -0.9382187180573056 -0.9387844328887543 0.7215060326575806 0.7788110258351927 0.5277926840097846 0.01990584640172972 0.0055457620024437675 0.20008718193980046 -0.7090293175101223 0.775466139418364 -0.6124753585883905 0.9945376920198326 -0.017085238734547686 -0.3174601994713412 -0.9556577283229926 -0.655353760443536 0.21954067843772807 -0.283592543589293 -0.8652399087612234 0.006422201944154731 0.8167650773701773 0.8218440190222269 0.22760811194061611 0.20217334708005302 0.4709751640488044 -0.05085030584547559 -0.4548493127487875 0.4634762951632 -0.39353740251001457 0.43167119441654533 0.07781526686875574 -0.24493323211575974 -0.487386413213117 0.37788969640984693 -0.9292272560026749 -0.5781688040036452 0.20742028069647223 0.20227715972152693 -0.3848108775793116 -0.6261057813638103 -0.9220622869333148 -0.7322894423729267 -0.5596382450620576 -0.6488391362148433 -0.7032559645434269 0.8896987137279979 -0.7544994795208586 0.05142268096020793 -0.9129914941336873 0.8479910401949494 0.7038468437454695 -0.6328826387775096 0.48411793357304495 0.27653064482930745 0.48226175389814097 0.30289816688275517 -0.23197778945251335 0.07946652077412406 -0.6275637429314059 0.7437777483960005 0.26185343340585354 -0.42072077938268326 -0.9222541883422677 -0.7017537370231204 -0.6232450745373911 0.1854432202864888 -0.39153859854418516 0.6141406709892602 0.5907914379728973 0.8043854098103036 -0.9223243278577142 0.9629656407131977 0.7748221805020248 0.7819319382580048 0.26830916048208014 0.6252248564731793 0.20439775292642562 -0.7924372065227994 0.8373087315898318 -0.760538679518387 -0.7438605546460592 0.0425766645655036 -0.12058714938652587 -0.9007354396324189 -0.3266768411864271 -0.7082690817352145 0.31570243012705274 1.0094135325670726 -0.5261317149350998 0.7116635487552174 0.8200599291074467 -0.7133028914268109 0.07782563917200769 0.05347491590770121 0.4815791414974093 0.6811764184699727 0.7101169043430572 -0.43594755895497017 0.9884465044820447 0.9954920642336074 -0.09593721098723851 -0.9912974849580658 0.49880140283942465 0.8149150428325321 0.2105119742924804 -0.06157623372948547 0.4390792992061831 0.1320133947793084 0.27541979732016714 0.676569146048463 0.8603532868030089 -0.40291610516126863 0.5018803378061779 -0.7589610295489254 -0.163639566178951 0.5094449259717996 -0.4659589236458011 -0.3988958242901949 0.35848915280511756 -0.691408089674658 -0.8200493161420905 0.46856463662020476 0.9242541863360025 0.720243879926685 -0.24841867707403847 -0.01810747701048454 -0.026753341032679012 0.7295153002192254 0.6635196235049476 0.9070956066969451 -0.7387210151533339 -0.18603716315211707 0.0377827560116221 0.9675579646307451 -0.5086713778192894 0.952994292982974 0.2899874969528013 0.900280621990742 -0.3625050685143139 0.04654248223214581 -0.14109441336442946 0.8895229466019141 0.9115789548213087 0.9686380520739662 -0.574912180284729 -0.6521184572633532 0.3434239698298315 -0.03835983617917223 -0.7622390396409728 0.6898523247881961 0.35349679896747493 0.011641243214349992 0.15953663478438285 0.9644208330778261 0.553892600407708 -0.08412906372560047 -0.9325660472234325 -0.4044017877049064 -0.2632767163532109 0.4999500309300219 -0.5064177441249089 -0.6943319474954623 -0.966788340850912 0.4747827468664052 0.7554768671821573 0.35922136092129164 0.7080403719309546 0.0844880946093354 1.0317789882598785 0.17421265684775647 -0.7084024064026359 -0.16204127938129356 0.6786256848818849 -0.004489355187889606 0.746673274609414 -0.3646554733187937 -0.9609032610848643 -1.0158227996701514 -0.06604937144940075 0.5595132241502292 0.7949491541612097 0.1346257231611633 -0.2823956490420163 0.6433757631435637 -0.06980855838865763 0.2608744052183738 -0.6630979363031965 0.10579230930252986 0.07673001348289965 -0.32579418403188665 -0.04901234742164644 -0.5490894823530427 0.9387963246167566 -0.26946704970501373 -0.023062319842559256 0.5132074190558304 0.7638035330399017 -0.8364441987467987 -0.7816535797808931 -0.9109017242119529 0.2497351674432517 -0.19457081315004449 -0.8588091492722117 -0.41626322192505216 -0.6503629693789239 -0.8836396497547327 0.4224935184766493 -0.6005612234723448 -0.2632866067507714 0.12598310529044876 0.564539494277309 -0.6095323799534325 0.6364243920758779 0.10642020469373836 -0.9839840472373922 0.4955456232123018 -0.23002323719325005 0.3355202555221087 0.5594274927532386 -0.3966389974651446 0.8702679543319527 -0.7602098767762697 0.9080193639287947 -0.6921298301067537 0.9004212881633122 0.022590512882627267 0.4828183802742609 1.0339639544592933 0.6829993371547922 0.3288483902102271 -0.5279829331112679 0.39673010131152425 0.684099229347263 0.7762000457578674 0.7033785590590058 -0.5007780677232713 -0.34627686716014316 -0.6409556118478235 0.6093506799229922 -0.5631212533715173 0.2424790541814139 0.23770292856727893 0.4044238700330975 0.4733769428770317 0.24099346277284406 -0.18211553220989565 -0.9232534624193185 0.7392476196281643 0.4968436038979865 -0.40443889007224165 -0.890454016731352 0.6812882279437198 -0.2620332151585292 -0.6230435405984693 -0.5718573984267397 0.3592171866694663 0.6763073470644299 -0.5905049738270437 -0.283534708170212 -0.6789125945071743 -0.1328382195736405 -0.6908535148748647 0.5036628970316783 0.027667109718225863 -0.7545305048036477 -0.7379131806475508 -0.2014898512353922 -0.6192603338377651 -0.73305114130999 -0.6144880987854258 -0.3978641875770043 -0.08542245014158334 0.1700381708084723 -0.5593104486465579 0.0887181063867979 0.46120606385782986 -0.526921421530116 -0.19749832215439397 0.6603609248025727 0.1299196011445212 -0.2763989364970694 -0.518788755993894 -0.5542602487115786 -0.44553044610327774 -0.4100484493837807 0.8926932624591446 -0.8635411594916811 0.32975199250393156 -0.9500966126824717 0.4370920614685845 0.3984922708533135 0.5644078000923346 -0.16138307409057334 0.40453603187325254 -0.3226510024779943 -0.889614743787452 -0.440549576073336 0.7746685855202313 -0.7175913346294266 -0.8251643785742809 0.041445688371668093 -0.7924429579711145 0.834237909642998 0.23379347757001642 -0.17173377332886716 -0.8548640246515514 0.7687711480561434 0.47724103042617255 0.033797600733747026 -0.8719235362384243 -0.05911197357002754 0.42285090348524335 -0.10954043025796223 -0.16205632721464805 -0.08670678821425107 -0.08839967810452025 0.8276655162218066 -0.27312430043357117 0.5329548428819039 -0.8516230550616426 -0.4078702221243535 -0.07500306478642343 -0.41634730449910107 -0.8779654822035221 -0.9496105481375596 -0.6505210271629978 -0.17271455366642874 -0.44550734523783 -0.3439168118716068 -0.6194882617673644 0.5739613377751824 -0.8131742330100421 0.6604802812220052 -0.1720265302985601 -0.3686670769840626 -0.14843447997706238 0.04961165234436787 0.3289142971087306 -0.3608106856469794 -0.8764696650823216 -0.03518856939510048 0.9674415565574153 -0.5541252726731345 0.8652903896668613 -0.06633703926433668 -0.9575723517805551 -0.7689375070206014 -0.8822183348715362 -0.23346255074121147 0.15881494467223378 0.5116476592047494 0.9992018916489924 0.9765917606132561 -0.7014787752750778 -0.7574876736046162 -0.33736918165683694 0.5960614468488076 -0.3261561040361042 -0.10799811535310357 -0.08770974503385935 0.8049401722487779 -0.939218741965026 0.44709774900451194 0.053641309898398 -0.48683219602810124 0.6646478316389816 0.8576700889553533 -0.8847175277546792 0.04165267700238831 -0.032419036730001516 0.8293535612811006 0.5186373432144923 0.04618799581699296 0.7794276442172099 -0.4637229884076789 0.3589658587439079 -0.7738206360052426 0.6850256556704495 0.9950775477174059 -0.5519928797391542 0.15944307551146575 0.42206336131489275 0.23702242566062628 0.9666410457211037 0.6206239198851436 0.16694335870594834 0.6957130993596556 0.5864799598529385 -0.5770510402946729 -0.7321066759941686 -0.6985494694427441 -0.392618413292365 -0.0013388440305168255 -0.7961307427973641 0.39414184217791876 0.9345294718544317 0.18034528155315113 0.21181251167132095 -0.392296369563511 -0.36402647512591246 -0.8888723005070545 0.7090159887545675 -0.307084178408527 -0.43676079581722793 0.15159819654700946 -0.12707789336760267 0.6477689894002554 -0.8571798306401117 0.19404653257440074 0.9139440756055519 -0.6594913749654585 -0.8377655379820864 0.5376522197300586 -0.8227707531118937 0.5043638007048282 0.5807891849163775 0.850805116626266 0.7922529497409927 -0.4134462673257088 -0.5538733976309718 0.3093733658713772 0.30422486862486525 0.057678191224431054 0.44425153951243046 -0.6032795664791877 0.9932869318360976 0.35971046430014436 0.13794403406694303 -0.22434138788558716 0.6203210493495319 -0.010361811659097997 0.10839657416239645 0.11624391726450312 -0.6033424114139343 0.48326829369052526 -0.7905932368869868 -0.39595379655986784 -0.19434505491331122 0.7022783696910828 -0.06038747303897862 0.2569156841145075 -0.234808861980121 -0.9649983201094642 0.8732309466268527 -0.38567722435920954 0.8840095361211153 0.27460310922054265 0.21534688170797137 0.8202608178947346 -0.09672881024412942 -0.7541168582120603 -0.6247684912187186 0.1986414346349273 -0.8027390267812933 0.9884746437640445 0.7255142654826044 -0.2635174324626625 -0.7379256175439861 0.19816648515851742 -0.6584650057254124 0.9659592873485072 -0.6455159426210952 0.10901516889184037 0.8035309656205631 0.8695501559729728 0.5832408193007683 0.2689548980222487 0.9602228695019581 -0.694194303093209 -0.6635288466390874 -0.9910620065343948 -0.9007448660838411 -0.8845604042425632 -0.9497125048470876 -0.6804010942746459 0.5372132499448105 -0.014457906158906674 -0.7118496978753277 -0.5402722674831376 -0.3801266558310991 -0.6985934854868967 0.481256449744303 0.388535189091453 0.22988597565391777 -0.8019778592429061 -0.5379791273211552 0.14556868542324652 0.40720007431277394 -0.4814956890957045 -0.5746889935517792 -0.7956916407331349,0.9026757220293871 0.48759741366403087 0.33171228178301404 0.6585889126337587 0.7431255309788427 0.7214033944230152 0.7176388320587084 -0.5258942325994025 -0.11184172466511555 0.8102736390248022 -0.01004923632007726 -0.34240444919336976 -0.03150200704776651 0.8436859181650216 0.35145305412445005 0.06065851046690396 -0.1476469492062087 0.9883103790545593 0.8315648307276227 -0.3319814393454896 -0.8459978777479917 0.6382146772609554 0.010357717451349835 0.5489478552962845 -0.8589487789832524 0.526302218272293 -0.6932081918915987 0.6535060556739678 -0.8168890199855856 0.8378512148012773 0.5510099435896543 -0.5393801870891555 0.25198604038885986 0.3398003329983257 -0.9189544399133378 -0.9760010577079785 0.4159791937184048 0.7958363505495708 0.32651133372042396 0.4914449931936742 0.42724922404074894 -0.7817793640775501 -0.594575387118801 -0.10491711798961866 -0.39873594305563886 0.6185915511849821 0.0442647269306348 -0.012147186286719546 0.7757380299308629 -0.23287823206125813 0.41705540156571375 0.05260227434330256 0.7232795107435268 0.5625901269853264 0.28747195609654064 0.6972738566761796 0.9872661977425603 -0.3733776137317395 -0.5636343780015809 -0.11986149770197096 0.2704353281781715 0.3188693269887435 0.34046120636505756 -0.5503825112893544 -0.8041835584541236 0.844167851991809 -0.3845209590324142 0.7813487511789025 -0.06362988468038852 0.3803666564483229 -0.2370027025851291 0.3574570254068276 -0.7639114585978365 0.7447741879914891 -0.6299127293379928 0.008471748855180681 -0.7645147463045316 -0.279901094362352 0.8016845878705995 -0.1822706125884248 0.4426251624969195 -0.7198802809074354 0.28478165709994907 0.9074886476585327 0.1418819974752379 0.2710614865807468 -0.7777591269879953 -0.8663995177912023 -0.9941100355593437 0.5251029584835781 0.7471550807986327 -0.09409122748750279 -0.9124489430858692 0.13171605730518027 0.9120944025847835 -0.5643380464172386 -0.6598626191760703 0.668361600355729 0.7674388333552135 -0.8899092617209643 0.21880783055980121 0.9517148987660821 -0.830205335538547 0.37650828350103044 -0.09052810943586694 0.6001078035680456 -0.7389789601977762 0.4733303613775818 0.46539423279514064 0.976717797845668 -0.8001275757081598 0.6140449899716731 0.22108628608287573 0.7103369378944713 -0.898179453907286 0.1198337331135475 -0.7285658246980635 0.09669533296631375 -0.8463568180128805 0.8173411445843076 -0.7444092769827757 0.4409162425597827 0.46768741087110427 -0.407188777643705 -0.23781803767500173 -0.11590593248393886 -0.9200769480327996 0.17860968106324018 0.6942678577464559 -0.5556485225216513 0.9372053545239838 -0.08780435514411017 -0.21021197946122297 -0.050909294759825086 0.5152402227452585 0.04535134338664736 0.36754811565710277 0.46865426551539896 -0.5644884431926496 -0.4421750362870078 -0.5386103656144345 -0.11572206128281048 -0.3281505382964591 0.7461138719775435 0.55740012152025 -0.4501084732309332 0.8631768363125835 0.860769381928796 0.44174824729955026 -0.48522063518804137 0.5337921305739441 0.38333017663706687 -0.3064891449852513 0.5708376436341391 0.8210089461112472 0.7346543880821983 -0.039730905749789436 -0.7955043785422349 0.46571951410392676 0.4135325334340039 -0.23965377276100033 0.6995895207863181 -0.6092119508827322 0.9699167076680242 -0.3776598423490608 0.7770726315339498 -0.20749882032575476 0.08637992945514439 0.7544713977706341 0.3839691095179121 0.9901569426157371 0.4223749473113598 -0.6551266036680088 0.6320816404778252 -0.33913663000435335 -0.7474375782960748 0.5749187624416975 0.6546645519556757 0.8644531918471962 -0.2686265556864874 -0.5853511560557944 -0.4277768449833736 0.22373517359670106 0.9262578921390447 -0.43828894109001637 -0.9760880893810578 0.5625720242930116 -0.9676105483288179 -0.5715575599176383 -0.31763947567132095 -0.20487514586805647 -0.13310647812710932 0.34005233620266817 -0.6918453173055582 -0.3209727157671009 0.036956947077050994 0.21357219017692652 0.04338562762040121 -0.6074925141271486 -0.5136832356293328 -0.935269433990549 -0.8425919020307859 0.6118933198122024 -0.8600269688971068 0.35155269912495896 0.924059823758836 -0.12014064436039158 0.5338710059528017 -0.7558167279142336 -0.29553445333505596 0.8819335284588224 0.5747199099868623 0.03902031097304924 0.46150016641838143 0.10848481392709217 0.35774838590597385 0.44513075573237715 0.7301016342909703 -0.5884894967343355 0.9569856176808927 0.8056549448168259 -0.8606731155094156 0.867505398670577 -0.13484942813154177 -0.30659217734673105 0.3215680065049036 0.886759336954311 -0.5221286844448614 -0.5595341185615509 0.9460383830152986 -0.019987162557741495 -0.05148897039193242 -0.19341719038371127 -0.6934025746291433 -0.957946251649239 -0.9209704145935367 0.41033391390497137 0.29991236981185604 -0.7590230788919364 0.6983501397707552 -0.2595166337813271 0.29717563864259255 0.6569134965472874 0.5063079725983721 -0.15245911303210685 0.9996919303782853 0.7619918302640234 0.07354081192202058 -0.40806518524478 -0.9027142893881975 -0.9090644926097 0.13562235121198207 -0.22465744618805195 -0.6750604847137337 0.5160728479178835 0.8210014984548646 0.4747978299322367 0.22695053850238625 0.3901577721810407 -0.9676277095349302 -0.5486403702256206 0.7593607154909325 0.4732544615534107 -0.0038356998360106276 -1.0030429438474437 0.5966118860786148 0.11560525015553767 -0.8560576468175967 0.7034874254908248 -0.539148468511488 -1.0019286134567464 0.09030039160328789 0.3826792435215252 0.7160225883224097 -0.9439380026562535 0.378605042044488 -0.2563955334417323 -0.6733656234335205 0.26718617726826416 -0.5172223286719526 -0.4566902647942037 -0.5117439733845793 0.33800830916254326 -0.9902463278716616 0.8317575966791532 0.07529113368552869 -0.30941527398590885 -0.7943150909696032 -0.751410320096776 0.7329559688788422 -0.5602869540171238 -0.2557849676065601 0.9396062356573169 0.2092167636426627 -0.09653132030722243 0.9606927482765227 0.41659406333429455 -0.06445662011995468 0.48249921891601966 -0.8871390582138581 0.30875383709168785 0.13705699695932086 0.32780516876976057 0.30397869576719405 0.9600950532220097 0.6611262403422543 0.37301680747799115 0.8226392219996808 -0.3044142781185466 0.5908341775609103 -0.43070218049988185 0.3795601191640382 0.4522311007230732 0.16199508977727797 -0.8392499493847251 -0.7456085894422677 -0.9365549006690512 0.6098789081291216 0.6004455695674897 -0.09019214356592864 0.07395036846685726 -0.9049702163867753 0.29720556918277646 -0.15447843708001172 -0.7933177850134423 -0.9559452912851917 0.10321506492068555 0.8017380025012313 -0.5226969351037041 0.19699078722995603 0.47016783018727487 0.33728658168197073 0.11197360323173901 0.8558076463359148 -0.8848897449322245 -0.7499426681972812 -0.7627932989891253 -0.045932583776057356 0.40405360893188974 0.9502678296762245 0.9134488215824387 0.7448386652247271 -0.8238698259835721 -0.2397411834129924 0.5247160888609251 0.5066314471372146 0.2700676733603764 -0.8218583309364232 0.8864518973973939 -0.26166683136013796 0.6501306182825136 -0.754130301297629 -0.6286059402896221 0.9346492122768937 -0.4552711023592923 -0.5005780527059791 0.11907359918977686 -0.3784956479020054 -0.583588654872319 -0.8080822042325821 -0.80806094930031 -0.8174153191108189 -0.2821370992071939 0.5958573542379633 -0.47821244017534736 -0.33353439894551595 -0.8388103306223906 -0.8328327074131768 -0.2214987012505777 0.9519581156478 -0.2253829074750527 0.604386241814301 0.9205654798331636 -0.5219788016230911 0.6657663685054709 0.9121760296301465 -0.6856798752563565 0.41780504428786214 0.012055836010135842 -0.17670701536360484 0.282542758593274 -0.6847707195109177 0.664751829050184 -0.7379874255653059 -0.050053677672976166 0.13750595670876217 0.27452787601094625 0.8405826491147917 0.48156843207569 -0.6973210249867283 -0.4792799335037352 0.6201024456444424 -0.6871085142570772 0.8251947226620391 -0.11222141281244702 -0.23311977744784654 -0.21933048201222344 -0.43102262327725066 -0.0733989290668593 0.9330591450897908 -0.1894636493122571 -0.7456675212301064 -0.7167724884511337 0.45207875216150095 0.050358213496797956 0.0892974294440754 -0.16629991681784123 0.5366560145070318 -0.17096989549283803 -0.5020920971092286 0.1622930851965958 0.4174472898191076 -0.4439739882970744 -0.47702651353222314 0.8310305963202415 0.9086590731568095 -0.8722570806218046 0.24622814825167388 -0.9648576667529831 0.025729754259320448 -0.619027206937282 -0.865672374897299 -0.1768307238276945 -0.997470030912942 -0.3984160051409436 -0.9561488218326313 -0.600790168024245 0.0697958913784667 0.12169021004930314 0.38496279969481195 0.5229758037121798 -0.6272840118052634 0.9825461880716434 -0.9044178064452946 -0.7076208921016013 -0.5309472975037451 -0.1977767426985266 0.27487751089413653 -0.08879718367277331 -0.05016402302981152 0.2501243999755103 -0.08769069528382203 -0.13791292313353398 0.17674985522543113 -0.632622355920667 0.9148580431510469 0.16587587995738123 -0.05896251786826312 -0.05092087900838438 -0.3519200821661985 0.55701873456497 -0.8524143917926461 0.5709288181044136 -0.7690971331304169 0.6897849556210496 -0.25283454914913117 -0.7221181478201103 -0.2848696366522726 0.6721482148975785 0.6869815547602526 1.0282646582254167 0.6417378561208288 -0.9418256057527739 0.21870604960739862 -0.9317270579261461 1.0070238325294139 -0.6421705139213949 0.33041923510607063 0.3162555729717012 -0.544953591801445 0.7691046573005934 0.4064579534150526 -0.7556783174612044 0.27097448192942647 -0.745320942175803 -0.3544920281748756 0.46832622673106994 -0.20718248611804135 0.8146921365198834 -0.7453543860635523 -0.1829932025280039 0.23279088254258062 -0.24812290522469233 0.9710610524910486 0.5858185016583747 0.6216284317423535 0.15252359733321852 0.9492242821899886 -0.578058847227166 -0.08113827707132529 0.6761018751719567 0.8426903797232592 -0.6521034411317326 0.20192492643280766 0.3590005260675145 0.86331030738608 0.1920970268866176 0.8506592470996749 0.13236365047063287 -0.08897834559546872 0.5697749511696519 0.8696989944206673 0.7999171199492436 -0.1788859836294412 -0.9342056765573459 0.1483291830021991 0.16764434937830464 -0.9755234043790906 -0.43407681232937984 0.5277315929070342 -0.06825559785505038 0.9238518914075419 0.5830578788201697 -0.9748347560225782 0.9082769528028818 0.37593221776839597 0.955937697406523 0.9239610933557871 0.24397385067569188 0.42992406170794384 -0.45870948767273617 -0.7497141753291964 -0.801441716428264 0.4873979170179466 0.6813069186292932 0.7984763847053797 -0.7310241477123101 -0.20120298870245512 -0.33346037500492637 0.4474819862002991 -0.14272353304893395 -0.7684231311941778 -0.682024574306044 -0.49368382018847057 -0.13763971038764922 -0.7427235230616184 -0.44318819324727754 0.4831800453704544 -0.13314626586585757 0.8224957813512452 0.9463787647693325 0.819740359639805 0.8943448709716048 0.8672334164093072 0.9528024442728937 0.44221459403143526 0.6371596540476975 -0.048289319306868916 0.9217551972564041 0.9879835213064374 -0.9216737606621366 0.2927959485642043 -0.05751161386362545 -0.2882012969163046 0.5143509628276124 0.24139951670207202 0.4073236330367162 -0.8978133348207318 0.9029122575847836 -0.2383118737464338 0.7059002691483889 0.26567708523986866 -0.5416365015197188 -0.9799035207797261 0.8834159329396061 0.8296318243842947 0.4018758921374088 -0.27353593102984186 -0.011606635354829385 0.524705538016621 0.13119431194132047 0.6956175613953167 -0.12587939019810607 -0.873657131808463 -0.6115356068687022 0.7876809982915254 -0.3443985063250852 0.7003935423903975 0.19880469004004445 0.30113518426533853 0.8597120672176713 -0.8035058784173177 -0.6124933364432352 -0.0026609708909257836 -0.2287063950552163 0.463327210221939 -0.962188604607291 -0.3771977659442305 0.22677970981493423 0.26699461823768433 -0.060168937514545176 0.6974228033304634 -0.016427043354299738 0.17944840501037257 -0.708382100790999 0.9494183280197366 -0.2944665032473769 -0.09159449543875797 -0.9091436495794947 0.5483650293896215 -0.11871374702250272 -0.8067078275734115 -0.6581328556408785 0.5577131480561608 0.6155688294350599 0.4797965169987454 0.06628666574180081 0.8409126985459184 0.6374475289136554 -0.8271809705839797 -0.4288290319401175 -0.01706967885954479 0.5042556639630434 0.1395939490441659 0.8739965939267509 0.7749340458214022 -0.46500183736629697 -0.8110887452765929 -0.6261582741555869 0.3678383878734872 0.34341331939946734 0.3311102933253077 -0.6589058652571436 -0.9915326793734273 -0.8789263635127402 0.9155672426181921 -0.5963053379373959 -0.38510437909450757 0.6795920308920551 -0.9622797129888737 -0.5453702654129053 -0.6081157405859767 -0.3046953281127158 -0.03906943903765607 0.702153037433602 0.5085036577901547 -0.7044414191244532 0.681528508524663 -0.001797122217869157 -0.7235796755491365 -0.6999870392685476 -0.37871096257922215 0.6251276422114254 -0.5096902267353554 0.635300794333038 0.47364715663133716 -0.8483339427627766 0.8036790175133207 -0.7154173351338865 0.2043244764465217 0.6774773686315285 0.9908797701343881 0.08554058682846197 -0.3983261875747105 0.6974434000237566 0.40962018389711935 -0.1610396817645579 -0.5534783233875362 0.6803676876543602 0.7296557971688737 -0.006771180642199467 -0.14796525005658456 -0.445599589124124 0.5840066018948961 -0.11881799464988459 -0.10953811705629982 0.8941325006953863 -0.4279143184610324 0.4731447156626368 -0.7014189341832973 0.7509228973194949 0.019599893093118048 0.5098172022120337 0.21143934028566935 -0.2851712706153968 -0.9272155782551317 0.12024161545294591 0.33406449276163747 0.7801024824329617 -0.4577004305352557 -0.15555677959592804 0.3219586334769003 0.7880730076368365 0.17899576902829384 -0.1742717439614357 0.9682306061727887 -0.6584815529196447 -0.850517825735819 -0.7643078189874288 -0.5685440589735785 0.1873230420068672 0.8801998572532439 -0.911839883320029 -0.5338836804499969 -0.40414511067623166 -0.05082625539488366 0.34361858369823794 0.011233842322617038 0.9328109747799949 -0.6956114066435839 0.14583155555055405 -0.5297647140015407 0.35276652976461387 -0.19374740163743986 0.7699612554962441 0.8267967635785264 0.37600622879201173 0.7134582412001517 0.7281074482576037 -0.9936712625244077 -0.7066290952284118 -0.5966306450583717 0.9286430011794945 -0.3550407593237044 0.8425263843163231 -0.1974525794050757 0.7520741074047091 0.05545768891053205 0.3640639462802708 0.25660843301460506 0.15891230751162733 0.8676452667420763 0.1952261351018003 0.3677651687153831 -0.8049354218679001 -0.08924370176086494 -0.4352376596575134 0.7066772750277293 -0.2639754386606792 -0.9981856513100267 0.4827153790710028 -0.9831786233369479 -0.8838403619868069 0.38276939749865035 -0.15509108020636386 0.9477127513180875 0.7479920744288112 -0.06490330254427969 0.41039752161180154 0.15368493190041105 0.9319226948245076 0.6937976433429406 -0.6745011086232475 0.9474455142715922 -0.9812056799496776 0.9803072627985293 -0.6757516845643352 -0.7119843410993597 -0.16361153650758437 -0.34903390712593346 0.15973694891892753 0.5878226047863868 0.8872179221996455 -0.1281761894985256 -0.07612211267884805 0.2882907919787967 -0.011852721574421743 -0.4520767354738173 -0.6366924734406003 0.9494359609507419 0.49446354164025874 -0.9860459302521669 0.5171734134196369 0.0246733911979312 0.33311329128249617 -0.6518837584492835 -0.9197113587872646 0.17036210542169075 0.8603521321440815 0.0800308288954931 0.8647470502617964 -0.4787537250101144 -0.7413784642202639 -0.7463623391850265 0.09827783427963141 0.2838867109750037 -0.5757248105209962 -0.5936097829245004 0.5316299742343928 -0.9298502256709227 0.4252042766450874 0.38385419048129665 0.2353923433796672 0.45053575764787834,-0.4272110394748705 -0.576996141888916 0.3803624317303842 0.9478512871392135 -0.20320498466316672 0.2243722539487052 -0.7666042474539416 0.4475906872287887 0.4371135315284238 -0.45207202303883176 0.31534549582951565 0.4431452658825148 0.12856999357492982 0.3432947461063385 -0.9795192558497194 -0.7805240443513994 0.5559525349131025 0.5065838817974877 -0.26378355380117324 0.8654070447229023 -0.6683289939359753 -0.9071598364985392 -0.9917230617071917 0.2812552292074637 -0.2860175358688821 -0.8133966665930226 -0.3555191007277081 -0.45577255648983916 -0.6725958314799203 0.8069510996894134 0.4659037307465139 0.1575145833815752 0.8574829149531686 -0.8733508124706106 -0.8721179510734887 -0.5919570284524461 -0.15109762603945423 -0.984497998569225 -0.35067686596172787 0.6416010624993702 0.6587643204009567 -0.2994586860976879 -0.5306862716267405 -0.3173607158351914 -0.826622611343696 0.95380658444728 0.6111279929205605 0.75238620567681 -0.7291168904904953 -0.5730766602985826 0.9309025894842775 -0.47452222270808275 -0.5582914492257698 -0.36988554608814606 -0.2908502434792821 0.48718168079819524 0.8459934837549878 0.30270352048287896 0.15534943723730454 -0.4298593503162198 -0.6433596302058078 -0.0883267222848374 0.6114922563233591 0.3867959831303398 0.810827959532884 0.7300925855371533 -0.859536717666507 -0.039592053001423946 0.9485047857047282 -0.6196641124846877 0.39299686221492075 -0.759729225360419 0.4427768365730931 -0.17540337557168556 -0.589981978512177 -0.8031889510667818 -0.3269124712610387 0.3572133611673812 -0.02270083801577075 -0.6276840683029465 0.9801510912477787 -0.6604818446981207 0.8017180169108697 -0.47022296442888667 -0.4970188004154581 0.6017451369127353 -0.34204066437259506 0.7405102362834617 -0.5918936044638481 -0.19810329684956868 -0.5049734108643872 0.7821562007951726 -0.22788374486325025 0.6704278307096924 0.9401734194295186 -0.7662869904124441 -0.38552171345957753 -0.6119121159603316 0.9301615583497994 -0.7705731555484264 -0.5435072841946738 -0.4296121775423967 0.6206485326652899 0.9329647079616759 0.7376574512695995 -0.3944279209262664 0.7544013016616105 -0.684834261046469 -0.10218261660206311 0.9840168625238546 0.7900190758306749 0.9627293283559013 0.5008949372273368 -0.7452871683261495 -0.6896939754769613 -0.4722679092095723 -0.5707697878821388 -0.18735956563264286 -0.8580525291630836 -0.24889206237683345 0.4988187396126888 -0.9373135574597663 -0.20750820815061305 -0.8141513185523515 -0.8596593541094129 0.2111387247203685 -0.4202691465781251 0.5733978392735178 0.5796267969114154 0.4720647379460074 0.9183364535556094 0.5956138471134268 0.3939707634217125 0.8827167758933837 0.46501650686326185 -0.14304374729715738 0.9309666251086713 0.7548981617774116 -0.3059447248641517 -0.2055265645210531 -0.5327537822924346 0.5832371494543391 -0.15746511921408546 0.9137096628607824 0.4979541887702455 0.6953136262345517 -0.6448770063535103 0.22134739892633662 -0.5682305012566039 -0.7006838772426296 -0.5698313287793006 0.23062085740158303 -0.5480201894132707 0.23812656175139657 -0.950281316841772 0.7303309640502034 0.2735482252213722 0.7108473961260672 -0.7946258138894065 0.5571674878031041 0.7365294290194722 0.3441883984482858 -0.5277703754521751 0.6185770707311113 0.8393657835323514 -0.6373372258573078 -0.5637473302539155 0.8043057745201381 0.21332071952932563 0.2513714668133893 0.06216804732403003 -0.3995051375387114 -0.4080308842916593 0.6454579643853701 0.640278936153512 0.6283100906384843 -0.15756638633053663 0.6595770581077299 0.23988913658794014 -0.8308949511141436 0.4365590767585177 -0.7717380985402661 -0.410461072100583 -0.28796239893723885 -0.8059084489998649 0.21710165783448776 -0.7125879738065829 0.5761923460786046 -0.7723934568467417 -0.4982408844029459 0.17929509914766867 0.6965692609583913 -0.4324707706564917 0.8180196268773522 0.5574261799560537 0.8682435816409793 0.056092050420899264 -0.954460079998926 -0.9448895849087898 -0.05136354718463968 -0.8813644456677524 -0.4408156316758465 0.4050386609249345 0.7365375182538181 -0.8847796297014558 0.22378774013003017 -1.0119599868913942 -0.6294015214492014 0.5029039548581388 -0.7506332387731467 -0.4002344575798536 -0.4106270065622521 -0.45485156756676076 0.6400333232751985 -0.5837407917699047 -0.6961508134853763 -0.2982001661117389 0.08932394481123712 -0.34320281560368227 0.9877175117842905 -0.08096667668104916 -0.4732352364163255 -0.9779413553149188 -0.7515813381307785 -0.20783518414789803 -0.5760649254851828 0.25679994572451703 -0.516210323954945 -0.0031680491679128542 -0.7092274726199707 0.10418650853405613 -0.2513730167483999 0.33478813855083844 -0.18301190626036962 0.6557865455352105 0.5438045494090761 0.7426990238008648 -0.46778419578324776 -0.7328792610768781 0.5186212985082205 0.6582035034883477 0.20478242895372475 -0.24385863908109912 0.3966042673767707 -0.6563265073668738 0.8713175612826327 -0.14474213918660517 0.9257644385385662 0.8687807370357769 0.613939000545582 0.7212788388293772 -0.19557947163135547 0.23237373711836629 0.9425439513795503 0.8019268519253139 0.7214348850921345 -0.7810011920843339 -0.9498263509125625 0.7032042020084681 0.736640442880398 0.32119454013631565 0.38149423078744693 -0.27561496176016903 0.7778786992856394 -0.2629909859294039 0.4997790247897805 0.5772246006105498 -0.2818470724520635 -0.006510529910361218 -0.8200230966940095 0.2875864042670432 -0.600744730801836 -0.7110554630372098 1.001011449216113 0.2741308417517957 0.5040551070689439 -0.8312150696043188 0.02319150277003282 0.0979184671386937 0.7237202779104961 -0.06257006951414845 0.25024382256290995 0.2655688725643867 0.8189581041009381 0.20042221635117743 -0.43819987631169993 -0.021030026564073833 -0.05058837389874656 -0.30010020221245526 -0.6020671595101353 -0.3311659108818203 1.0289055906311024 -0.8740398714473638 -0.861426203408514 0.6005171831864811 -0.7045758847801995 0.14459654743422465 0.6501592775399522 0.7683807226713419 0.3661213299056363 0.07558256564293098 0.788904774502832 0.0228595357250607 -0.7350162692396751 -0.08321291098139641 -0.2826916264616303 -0.8486455825376051 0.937194061417435 0.46318189748165595 -0.03241083176910586 0.03731550135134111 -0.6416152077188295 -0.15233505893752075 -0.937355347225963 0.07319315135891424 0.06992035729313667 -0.27603864888691787 0.46939870199479306 -0.3240769435806996 -0.0510801904665241 -0.2507533880681198 0.1350446779343833 0.7549904352882364 -0.1275757993095813 0.08840081712316508 -0.6916495608887697 0.9146850293260268 -0.12551800226143306 -0.11646624859625457 -0.065024415224995 -0.04275935992010357 -0.43821012987661645 0.6905667840782848 -0.4388576668063441 -0.2020293115736841 0.4566963564402515 -0.4207906875703744 0.8627002921443909 0.019508945319771185 -0.17749101626995986 -0.8166407360873075 -0.35072318825775184 0.7068210677520386 0.29325662755792475 0.6863300261919572 0.3112883783711554 -0.8857694415898325 0.135785557646141 -0.7137866491323382 0.16198193588703175 0.4001484660430767 0.21792338188358013 0.9880927291695599 0.8023094393791655 1.0277180107426007 -0.4636974623154462 0.8143737785797804 0.9368223605801538 -0.5749701246127841 0.13871366295059834 -0.12507553625571427 0.11649053510006183 -0.8711701323480046 0.7128039430688848 -0.7810500871271637 -0.23367782727899367 0.19312018653704666 0.6079834607536699 -0.1433145704333648 -0.9692704906611304 -0.56451962623809 -0.3234892079723114 -0.4763565012008824 -0.09800930682972604 0.4527656945945261 0.7269182956803601 -1.008472771612896 -0.8668988513062206 -0.11817059263403427 0.06362806144428254 -0.49131561089265086 1.0127139641014697 0.4428002534923997 -0.7567608243692024 -0.4276022057773267 0.9662346998614143 -0.02296395819985989 -0.8547949692063569 0.891714990064475 0.7455552567906781 -0.5830745346727595 -0.35565391441507055 0.9154736922370086 0.28795354383339733 0.708342388668185 -0.10741519942557008 -0.2955072227710131 0.046318685877756144 0.9644468713674276 0.7100858404292288 0.8633613882660579 0.8497174066562632 0.8910494154827535 -0.24330276825314245 -0.17413292640084435 0.20106824488264394 0.3614488686922636 -0.38709825772119816 -0.48643982907760164 -0.8662230016079854 -0.8453109558616722 0.5233904339783148 -0.021880519984356 0.6359878168525626 0.33538235894903534 -0.4567372143807321 0.04078586695416844 0.5451333034391661 0.8482563937107566 -0.43949060364341985 -0.4651912540459695 -0.6400434328323368 0.904675919458096 0.8408965177280081 -0.2218966282491206 0.565633053126323 -0.15579307819795787 0.2777355932185455 0.5768216532296391 -0.5740195338412428 0.8303692534179421 0.6914436398525577 -0.8197526031212571 0.24217829177087707 0.3891913641558357 0.924547666922268 0.4007418494501733 0.43766778668964534 0.01090551270011455 0.11346661671076085 -0.39796137660317277 -0.48814554063541216 0.6220896382161478 0.3278562725728657 0.7385874862895714 0.5894875443419259 -0.8550023110541073 0.10463882516387679 0.17596031594529493 0.8230093030569847 -0.8790334295957212 0.5578755482666524 -0.1604615588202005 -0.554741277786492 0.5568177669322839 0.19972416639043714 -0.7827734330137237 -0.785596411546126 0.6673718631675921 0.8021589199145395 0.9167603430298232 -0.8610897143787106 -0.7990475704172021 -0.3232797848408073 0.3032392671716965 0.08694006862506044 0.04743158894069997 -0.7721134194322682 -0.2805393262487602 0.8372246952566992 0.8429485561005019 -0.10746745654303798 -0.6592211729224055 -0.1806805735112795 0.19095521241255026 0.49131206464666777 0.3447083362038392 -0.9577129137731633 0.9716400818966453 -0.68699516758886 0.5895028747693601 -0.05720400584572223 0.5988780785257662 0.48884975036689354 0.5707625916360388 -0.3160231050810777 0.8715118274196603 -0.31169484820448473 -0.9203587685011645 0.8165732698562428 0.21053605620939436 -0.7812142185797427 0.6629740710873339 -0.09983307160430922 -0.007513742923854454 -0.17053727595813262 -0.6212880490767299 -0.616055729794698 -0.9658905468225918 -0.005600589280278535 -0.7623980310318254 0.9176883787044137 -0.4525840294892296 0.5449849535256681 -0.2078044944148827 -0.3886738806871526 0.46606344390962207 0.04122488306440954 0.7450753436677852 -0.5177050964608614 -0.09058797969753954 0.9361431490169257 -0.46674231023006313 0.7756344288369288 -0.26191298706964794 0.33008165851315013 0.8752926160413288 -0.5162286890166615 -0.2024244733572197 0.6320906239731496 1.0242003674344817 -0.7732242314566343 -0.27527921187693233 -0.969443487432415 0.17783218987598826 0.6969128200175644 0.6674610667432455 0.2649561877168215 0.7412666798463746 -0.47073111497409637 0.6937611754131475 -0.9178896578913329 -0.45177525639086547 -0.7816645037209731 -0.7029752528791755 -0.6213689828155098 -0.16707067694911149 0.32439053353693176 0.6403968691040324 0.49417332075002013 -0.5878943889833429 0.47950459330046963 0.848932394595633 0.21615342331813558 -0.061999899201048266 0.1567212347810086 0.618625512725761 0.6967322412150733 -0.08583323888919098 0.32374338266552555 0.8893232876530032 -0.39849831939915664 -0.4327654845286033 -0.45343631886209196 0.7850509361777149 -0.6314275930327141 -0.35979659601321773 0.6575821167626715 -0.8693508517979791 -0.09995952644497641 0.3002963685592428 0.05650748018093377 0.8065212170783594 -0.06246599249827545 0.017225220695437266 0.7835700240279669 -0.15588451527801245 0.6790433126496692 0.024921003915300617 -0.7036341237950646 0.889926152207481 -0.08046762674292168 -0.6750097520821489 0.38457357117965335 -0.4319114557500496 1.0856559449488044 0.5306021254524956 -0.481743233644708 0.24737643757366323 -0.9712762269675652 0.9306091538684916 -0.09378526694005683 0.9205528019170668 -0.2208265554730828 -0.20741006521729025 -0.3372782620699494 -0.12838505408970644 0.03163506301882513 -0.24156529396791848 0.47285018375394383 -0.7717079207842485 -0.6981231083357037 0.029297603532846123 0.6551141621478997 0.4236945861368548 0.3791257367746981 -0.6022273078322185 -0.07652372084866729 0.4764837832969764 0.9273573625004226 0.9664789311267615 0.40285745409985174 -0.45647749665442794 -0.7964283295831296 0.1589029538023937 0.02847311985133187 -0.7205820227902672 -0.35179260807588225 -0.8210719327310622 -0.9442792068216547 -0.8331691330855476 0.5627458683831317 -0.1385890832932275 0.8928937202019644 -0.9310435023104751 0.706827647253792 -0.9330993388828734 -0.749381350257639 0.3144407613506461 -0.41565751335023166 -0.4337143435986834 0.010279931745134203 0.3740478123765269 -0.278370182625315 -0.7927665172907391 -0.5297887873662016 0.9299778324079004 -0.6973436317885012 0.9562987647133511 0.49700314792186256 0.05120310563823029 -0.6999726580243764 0.19308109004638607 0.33744554061476245 -0.9945149356055453 0.7812110662136906 -0.9202762503449331 -0.13399423742112923 -0.05866927910628397 -0.14064468078827327 -0.896898870081376 0.37279040118754325 -0.8949975215807551 0.06555674525694744 0.08085115909260798 0.6684012177109666 0.9732587465285988 -0.9059975534400504 0.7823057443615485 0.7008195472256465 -0.5714808763936695 0.7018202795381043 -0.9779972495599798 -0.17697505554809942 0.8586755611513569 -0.8770869358801472 -0.4471481998347592 -0.5529484959598486 -0.5031461667683501 -0.6963260468159592 0.14884832166320816 0.699195798326707 0.43584716144338725 0.5769056026415591 0.8889003960362175 0.9419230515265952 -0.39502223969862826 -0.5887349912155274 0.381913820401537 0.2786305997188363 -0.8643401168472914 0.20296278473335816 -0.7207524728287542 -0.11144997480347785 0.05167108301225731 0.031856434201095275 -0.9042761755936489 -0.26843273458850947 0.8673048161486869 0.003819977799371576 0.5529921017616768 -0.733448461516062 0.6186287181538168 -0.31372965209048154 -0.129305869186537 1.0402862433174822 -0.5142444913793794 -0.4982825162353237 -0.2171519480649757 -0.2980984701274706 0.4325719764686344 0.8013708893382876 -0.9055331419534538 0.2762668506449242 0.9806601904284059 0.35215851830021655 0.6317149394755364 -0.04015267272158485 0.7712620316777234 -0.9675396926821394 0.4504949925422337 0.1463822670798549 -0.2745757348737765 -0.5635786661273354 -0.4988275815891253 -0.501520203903251 0.7087605532976645 0.02982363054571524 -0.5785732118312598 0.8076396436556281 0.35486380886867 -0.5568117528739194 -0.052283074397347966 -0.2600575977227132 0.8949479526632368 -0.00824038570618206 0.3528110026565971 -0.19870248718561595 0.6901088278767734 0.6353953194000495 0.614648725069794 -0.7655018978065506 -0.6257652068563457 0.050498713244075955 -0.1590824088027678 -0.1966953497413515 -0.7098472233993518 0.48743591619539406 -0.14623316958721677 -0.2206146615936877 -0.46981815046504183 0.002502339220956662 -0.9766013805917513 -0.3397124016494748 -0.3474454596195431 -0.967667557430523 -0.19311877068174507 -0.8849118207752156 0.7084205987002875 -0.9150623370152003 1.0085009956861148 -0.9047857908957639 0.2364827856898479 -0.15182374126738615 -0.8599491158594348 -0.18009902528796742 0.9082303433278189 0.7443353771122624 -0.8903703971693107 0.02526293595857991 0.010332701264813338 0.4110716718215537 0.2147810368637868 -0.2622511938312495 0.2917049375073826 -0.32054260609148133 -0.12708220105748924 0.7252550149494339 0.8725640094640148 -0.433588335706959 -0.008661694173503154 -0.7913341450930058 -0.6580798334491706 0.5797111269950217 0.5635554784598146 -0.6225126160945501 0.426910825750611 -0.7676552762327288 -0.7954092758558415 0.9641353107990841 -0.9004849917138587 0.8545914298561544 0.17692672863940173 0.6395042072084236 0.844965520755956 -0.16476536765474156 -0.41807497816245287 0.05982193954524839 -0.21910485394328094 0.09847746797043722 -0.6320817748346776 0.3676330884654295 -0.13891133102187836 -0.17977783810754544,0.2772191810154281 0.3097857073316628 0.7730621047642532 0.6712682767873455 -0.2419974462891059 -0.07126578664693128 0.9550499977428906 -0.4487991500836874 0.6603391970690584 -0.8043574752719753 -0.41934631832845426 0.864810616058453 0.32186992672665937 0.4159158298873564 -0.5646960689178118 -0.011474495929869377 -0.4287595959027064 -0.4949260748990083 0.35109114163759947 -0.1474158125042755 0.04829061779061994 -0.8488164076073068 0.6262345072467668 -0.9737017655012963 0.621086749610771 -0.7430358493474474 -0.05280777641658818 -0.35796209382551125 -0.21116851696068162 -0.8475219328761046 -0.7522739902889648 -0.7051874908949918 0.8809921162920726 0.9174390899092655 0.2509633556471902 0.25976717764164536 -0.8526580711220337 0.6670494439572278 -0.39009872241363897 0.9060706200043311 -0.9693939864079093 -0.3732183030870339 -0.17984322155703197 0.6365397151279475 0.7622859088572373 -0.4620115221807352 0.07013378785729257 0.43359028259087695 -0.42313322537150394 0.39456564652455395 0.5849156483969438 -0.5990397450969058 -0.4005136867953074 0.9337296436271678 0.14374704287721252 0.9778271782456811 -0.06360795407422049 -0.04505979937048776 0.8894711122004908 0.8993782452283929 0.2625940557017772 -0.9375383671191364 0.4594461645048578 0.024165260746233742 -0.7334033430443953 0.8409187042211657 -0.8206739268208566 -0.8224172451489262 -0.6909966824331909 -0.5411932490983788 -0.9694967171359982 -0.3073244462222745 -0.2805481967815577 -0.5014335750237752 0.8225238524518124 0.5569874954895992 -0.06395581005554997 -0.9316693260249949 -0.9148469248408759 0.15272049333651716 -0.975254834138729 0.034551409772808794 -0.4623367238452225 0.5802535415619585 0.9379378721151594 0.5852500918842116 -0.8935928097643557 0.44960769311371696 0.46380670607847563 0.1720625761732137 0.6459004447952613 0.707945602776101 -0.5804542075442757 -0.9452219950633202 0.07522158813472696 0.05732910258566107 -0.9282336616911853 -0.4569891160228451 0.6964692269851099 0.694933538131164 -0.9968095325164434 -0.7860839908952868 0.5326178328593523 0.7503545090683684 0.5045891203848868 -0.031242161139009673 0.961999096405132 -0.8093487460596968 0.42709909258694706 0.32793029176200794 -0.5548136075444896 -0.6517521440947522 0.08151685409469955 0.5586369378540426 0.059781112639529566 -0.28121339409038804 -0.39246440899379675 -0.04188077568191944 0.9578434892258426 -0.9821815085985213 -0.4017151383914395 0.28699078227487923 -0.1332849787387529 0.2566988505473873 0.7354177582556803 0.40038521727155274 -0.34595378070943594 -0.8692973782721486 0.9189441815804794 0.40815502834035283 -0.16218829511686164 0.3552237344732703 0.908964552406395 0.7189980706090144 -0.5157410226526853 -0.1684467379820609 0.9004435374331035 0.7783914100619238 -0.5243450473148339 -0.9425897462607353 0.21119497094696982 -0.8412395602545075 0.69836535858444 -0.5567161556852533 0.9437591367402186 -0.16603713021158856 -0.24094740816737628 -0.6173693903094726 -0.2877541340505673 -0.9391928367332559 0.10049514349868092 -0.36566260159800296 0.6882991627057272 0.39630263249273323 -0.5033905032428386 -0.4751804478756272 0.8927510834824318 -0.7343354355188849 -0.4945124639259827 -0.6943956291108835 0.15055313608494425 0.25840433711805766 0.30282046407510016 0.3750759377295607 -0.863157987009914 -0.9365697547842063 0.9792312829738525 -0.2641563976529955 -0.6310484343848257 0.9640108285340232 0.005465259217804608 0.17932466680878642 0.9204881050741615 -0.8718809329247048 0.7142442037139507 -0.564623232547354 -0.49251223715662806 0.2501214165626528 0.69656263216085 0.5281121474134941 -0.06374996253585676 0.04798512283035586 0.9222306553974813 0.058985319245173626 0.9253702696499249 0.1480499153384685 -0.11424758710421527 0.20323134592719047 -0.6680429107719725 0.36379333070036496 0.8960577257092459 -0.2961932833580389 0.6297193603788194 -0.05256883844023584 0.5127492812555553 -0.20924891941413826 0.8857782207540912 -0.5215112258250822 -0.9690376607684437 -0.025067137729997295 0.5571668002603157 -0.619304987923005 -0.9677783001418087 -0.34991492654706097 0.7198007735795936 0.8309218139439408 0.6794944814278584 -0.4723579204289862 0.8278413859152342 0.1211354997254639 0.4940919562454009 0.5723082654258796 -0.24459190271178471 -0.33288011911691945 -0.7008937408250004 -0.8241099362615697 -0.8212513127247394 -0.32240277611798196 -0.6711990333759731 0.17666514958713134 0.026910280532519426 0.46878863198343274 0.4952719607999921 -0.23785398790030943 -0.7853147334585004 0.014560212076185408 -0.25311592631339985 0.4628290027825629 0.4029195662861113 -0.99117912402322 -0.7461563891140525 -0.16689181287684624 -0.6306921791480089 0.9085094158483962 0.033733370303213786 0.3398593551505968 0.7218143589733687 -0.21345208408191213 0.433575030310237 -0.2194239651599003 0.08117651322010741 -0.07781705465567862 -0.04184064268288187 -0.06928594692148843 -0.41288001113065437 0.6122937007464807 0.16918141539046394 -0.4630760640965189 0.6331574678602403 0.09910552708310703 0.10136461995582256 0.1473306807340029 -0.48782586911609593 0.31939244531654837 -0.9998543571041184 -0.9993247698864861 -0.5148471077724813 0.150392968334731 0.5960731685482344 -0.6994717273969614 0.16990589251254526 0.884445333105763 -0.4746416809558793 -0.399668138821533 -0.004200010582183285 0.15843985473807623 -0.43136724096521173 0.30478148990698056 -0.596663490141061 -0.2338816010585292 -0.7106924998053712 -0.12384916900655449 0.8527423404158428 0.6221610405339006 -0.8883995347113158 -0.1374009930240019 -0.6674419232691717 -0.7035156650364708 -0.9680977011021246 -0.5393870561236658 -0.28243984512334697 0.32690943103088593 -0.8497352565199017 -0.9691903748729999 -0.5328757407006671 0.9563430019319256 0.44188973791426917 -0.8090999764368413 -0.31773967097636546 -0.8570996360074884 0.8811493614904816 0.6863641797686585 -0.567625115905512 -0.6615338303108668 0.9133802233405971 0.769443888865246 0.7050106949763661 0.9204194554766197 0.1762294520785434 0.013109616742259642 -0.5070665538704685 -0.5710251644821708 0.6089104705655422 0.17077870055794053 0.6260461211999173 -0.13397420350745146 0.5490843590656705 -0.8611695662608352 0.284967753996195 0.49482560028308065 0.3484881053797119 0.7584120412635629 -0.9942855288803006 -0.11491326991377454 0.5656648783102394 -0.9366463187894761 -0.029179910982756067 -0.20652521949905683 0.19871336133081058 -0.24550901863071112 -0.7774200333227999 -0.2813562248317492 0.8812280685880729 -0.4597630941796703 -0.22072910509409607 -0.006867835889839781 0.3423213339516796 0.6744751463966159 0.9270919733625255 -0.21602222112180755 -0.9113634988408571 0.3303736125585945 0.7877065793884396 -0.30023362463239706 -0.06550897578616964 -0.4473019128777693 0.2625753860237403 0.1731225005369026 0.3472777838418047 -0.010722717228065146 -0.3843712071686355 0.49182311940663714 -0.32748043336490923 -0.7756288674714881 -0.1110010034885852 0.5153861688314831 -0.2738610770699142 -0.8960141732297311 -0.17733675277439268 0.5592358205764948 0.6887062334458129 0.8836986223463453 0.16901923951711173 -0.44866546488195413 0.79106314340273 0.24119010351066994 -0.22491761556329992 0.7980135557014183 0.15040180775353484 -0.8805910080323943 0.01893843492691366 0.8608696383157943 0.1832207721100625 -0.2563553770900633 0.9287256743472543 0.6927408223352007 -0.4338809185235908 -0.8983097824306202 0.7816175189045016 -0.7916361217530377 -0.21143274102590343 -0.09140543114484748 0.46271854270122303 -0.47511342805143025 0.29291705696037346 0.16546392991225903 -0.1565266420868783 0.8497862608809557 -0.22966314227483098 -0.12334742945149832 1.0423918180286416 0.6618793868919216 -0.5112661526877087 -0.09557026754598882 -0.48503225885801166 -0.19624022775635738 0.6283635529233506 -0.46983036348030316 -0.7912615226941412 -0.10726586410293792 -0.24870837330145945 0.36291307404068407 0.9676044666423953 0.6243209809839076 -0.18138729738207515 -0.3000794594876241 -0.6976623587056873 0.06969633714562729 0.48801732432576983 0.4999410442315303 -0.07500906372662254 -0.16303433418449176 0.7569060856532135 0.187476807377351 0.23935986126597344 0.25053327299977635 -0.4709106904430014 0.008580363705560867 -0.2538167531998048 -0.9321018719676241 -0.6097347179589724 0.8441466061246887 0.5163656632963184 -0.16760304477605528 0.49398806393287353 -0.28390151112232753 0.7345651069433166 0.32111283098848037 -0.11256572679056065 0.7602963890293437 0.5376588886524889 0.7033553312300729 -0.8020435242516628 0.8390726210064472 -0.046838053577055345 0.968568753235136 -0.004656070124137745 -0.07339715027768118 -0.5649170555322597 -0.04930589301885781 0.5515248907383992 -0.2014453533331351 0.03835719447000437 0.7123217533862193 -0.6125381549422179 -0.7873162803882005 -0.4191004140586693 -0.6732266833943936 0.30716403679798193 0.5676778120160285 0.27253491453832307 0.4116784230603905 0.6175176938655959 1.00171901086159 -0.8384975016714169 -0.6800428280980372 0.6226792233581884 -0.8477278867061804 0.21866767758768235 -0.44887103532856143 0.42815773983189787 -0.2357603338353249 -0.615103927776893 -0.3335121024852523 0.670602766912027 0.9283602890045137 -0.5223819857765623 -0.17046345882510955 -0.45745033321788 -0.17909030229318204 0.5252903534044044 -0.8833029517403669 -0.4339503775414389 0.18805079594957247 -0.804325021039158 -0.4269791024473651 -0.6581935766650047 -0.16779677725168335 0.6705962052594608 -0.6902369074591437 -0.3627096713358067 0.6774960805979398 1.0015730902153364 -0.9586186392491243 -0.957417323313121 -0.5657179679454873 0.07933497027398229 -0.959217896379682 -0.5276383131473161 -0.652428340979906 0.23968698231058355 0.25449292993153483 0.9356794599863641 0.36672739069401145 -0.20330122143546453 0.9044900676863858 -0.6255911532465259 -0.9269676085330076 0.9663407645866349 0.28493503320954866 -0.800825325795465 0.4198185049307978 -0.7783292542981426 -0.5539337179736669 0.19324101453539957 0.9682764875278945 -0.6944564244508554 -0.9654763168944079 -0.5675223300651367 -0.6697287728066703 -0.3355122487071203 -0.5278860140650865 0.07835876958247479 0.7904310949302138 -0.576687054988124 0.4061726862739121 0.9325515607234796 0.027996577185115102 -0.8723540187536577 -0.3501928321111913 -0.9642852539294268 -0.38028533783728186 0.11317631205873957 0.6534453096778625 0.9707173084199849 -0.11474138721732312 0.6639261089552863 -0.7645961416446511 0.9885569054288876 -0.1743467842771173 -0.40055098421601404 -0.9376469834127186 0.3149454860208833 -0.7927530925142691 -0.40424910504809597 0.6664177226179875 0.26056420373581807 -0.2782464967500337 -0.3158205697924345 -0.04611210134964876 -0.11084227273433242 0.8689478697836555 0.016224082598708334 -0.5396600659161073 0.6918168457244362 0.9835469539618621 0.9599630678642129 -0.311730853900874 -0.5587017277776848 0.8936865260825101 -0.32952840972148045 0.7236149081933245 -0.04821588773220109 0.2909200798164378 0.7567839841155497 0.7578358684643863 0.20759735362025103 -0.36676519193388835 -0.4934267840369917 0.629707116547596 -0.18605965813295777 -0.523084262242483 -0.21773144571179456 -0.4168133914403494 0.9736368770583471 -0.7107839376647547 -0.8636077424994625 0.26395088088878055 -0.12777241472141376 -0.22732217989238945 0.07099163422152688 0.5154448728124734 -0.9424756154441292 -0.776469174300924 0.015973548588203296 -0.8013415268626891 0.4047634757898769 0.7774884850643989 0.9535609856648439 -0.4616970619209928 -0.6607453732270717 0.18358348136848257 -0.4040445608656983 0.6942047733548804 -0.2590705759770738 -0.8576610402256957 0.5685177094817039 -0.6189985796799636 0.709885431500796 -0.18516088185896795 -0.6963202114473516 -0.1945238958216693 -0.36059019441609746 -0.8136747257269966 0.9278306829221671 -0.3428957127661499 -0.7780609615266642 0.25470558620106076 0.9850433843440969 -0.500836674556125 -0.6177571909782712 0.9949323658318087 -0.14110830829375806 0.9215848598236664 0.7808017830870347 0.8636336805242278 0.7687034375801887 0.7783172062987755 0.5296579759903892 0.6039112673936686 0.1274234261751224 -0.3007560149329872 -0.9832853358868432 -0.8010789862534169 -0.011245261850675667 -0.23012925623182384 0.2227063324768567 0.32752120808600343 0.7774636686990016 0.41328271796072263 -0.09009213869051118 0.6819861845346031 0.802402947469369 0.2654554661928244 -0.8231645696368813 0.8951879563063219 0.17295684707060088 -0.23542631023491079 -0.5962707097099063 0.31148060464525634 0.6594096031035555 -0.5539493908324253 -0.23287334068492369 -0.4263612806634575 0.5466384770036918 0.8666996999521033 0.00046212195038685473 -0.4292424745740393 -0.3947385362350538 0.8987442194663982 0.9808490053754717 -0.5890374240146732 0.46400888408359625 -0.230951663461953 -0.5516487748309769 0.8727813114503298 -0.9777947701815123 -0.8768551761154845 -0.15246028729891775 0.07800099645725952 -0.7030898288666962 0.6082399667605731 0.5595372351859818 0.07081444114814306 -0.3007414589265749 -0.20261662738324349 0.32855863814059977 0.7517782708383018 0.1857807963351953 0.9188369294331892 0.6503966118788775 0.6481391545215156 0.6699484252757242 0.8810338940687839 0.8890280272498241 0.6089486557624786 0.054005760205332404 0.5853329344270028 0.8054892296534049 0.8161565679790114 0.018795401248377037 -0.041190091608430124 0.13286112622194327 -0.8984153900807548 -0.8796891066888177 -0.4052476297321165 0.9070883076968298 0.24463353187062528 0.8407563020188855 -0.7482485545436659 0.2663580335411799 0.6418355401031532 0.6174355354631242 0.011537331078291801 0.6761226986252031 0.7234259167097491 0.42178180594705067 0.6394761631497093 -0.7339815704152145 -0.7711749056592678 -0.8359764330266004 -0.6432335453521556 -0.06823722203698986 -0.09943862246523975 -0.3426272554388154 -0.029030843511467296 0.30033744171672216 -0.5393124823848948 -0.3317552011313139 -0.8246531499287593 -0.8475809142023177 0.41106698475142295 -0.5790066629642844 -0.9968365216729221 -0.10213224326065587 0.22928395982388572 -0.8648019519336219 0.808352618827779 -0.06378868313310226 -0.6854512564081394 -0.511292810287592 0.8986609284572233 -0.6164895680575961 -0.5191373530920642 -0.5232536492138787 -0.8008448930978522 0.43570411447111 0.830627394507594 0.723524799261332 -0.5204355777184474 -0.641403478641514 0.7080020647666142 -0.49285997191375563 -0.26278517563162984 -0.08137692212094491 -0.7524909174508638 0.13210762633719864 0.8453692904182779 -0.6345951984659871 0.057022605208069455 -0.28117306127226305 -0.2288620734090236 -0.9141585467784421 -0.9533671509864545 0.6979486905818788 -0.3997051654298611 0.9822133461726186 0.3619126996040001 -0.8279403063084014 -0.1680816333446271 0.4519818266212363 0.23665518160757704 -0.20854527398239742 -0.315174372883674 -0.5488661913054976 0.45734734719105397 0.8325372486141277 -0.6956811431890195 -0.5367708403971228 0.339509479117899 -0.4098963856769642 -0.34302906626902324 -0.870093673205574 -0.622589619202708 0.290883623185385 -0.33407815191647455 -0.25897847528664747 -0.5956075655173119 -0.5030933297192045 0.10862444252266788 0.7212666627961744 -0.29444469880150215 0.731363968996628 0.5264462923758277 -0.9878321841921551 -0.5489453270202189 -0.44140952033573044 -0.35355502220971946 0.01830726935965532 0.9357005897930117 0.7920664929650871 0.6439132004252521 0.08313270603913248 -0.5649924058505333 -0.726897112643615 0.27595882879696537 -0.2435769857677153 -0.05477681344131244 -0.529818211650025 -0.3557801757222367 -0.23646986215548652 0.3407089147683547 0.541355864454232 -0.2029872810443832 0.8434837554227104 -0.7257727630158872 -0.5888958474847585 0.6325288970477343 -0.7164882434155913 0.5145493557372256 0.8485828642606779 -0.9949660218387462 -0.19072969941481266 -0.5243233894808041,0.2846523889933341 0.5359739370588541 -0.5135754857871337 0.45499936525886975 0.8281371671635347 -0.6830414411494448 -0.14563786485923957 0.014706016928536236 -0.03157657997661523 -0.050059020352400285 -0.06592055464215862 -0.4970341708816097 -0.7060696470556287 -0.06609587360795777 -0.7108887569153137 -0.6656796108750702 0.03990414436245748 0.5212406663833813 0.16277547989399888 0.06166556654208555 0.5060503765836977 0.8196890805014436 0.7795166621257219 0.2168532402538761 -0.8605493508171704 -0.28408756736468455 -0.24280432227531223 -0.23684058705033717 0.7100879678137473 -0.02549386822677291 0.6204461664165901 0.05592185764751734 -0.20386105640385743 -0.268945070237816 -0.05651422431681463 -0.4449180128618966 0.2938184014794093 -0.5552704869710829 0.7385385258536095 0.2334739358705875 0.7930563464285276 0.3723135660644241 0.33695258754212937 0.7338301422908631 0.3818088184348363 -0.5172098890700171 -0.9347448960676245 -0.7966389965333698 -0.5781293190526774 -0.12937893440711057 -0.9394241566309629 0.9472879950939384 0.821336869447858 -0.2060426617148854 -0.6295666353945217 -0.7580369007298446 -0.23323026510305844 -0.6312619771705652 0.9127165081255357 0.5332480889375861 -0.7085083565400148 -0.9021482230532711 -0.839618649705218 0.18036034760533765 0.5387778102943501 0.398301069016184 0.4115749374420969 0.9405049687983917 0.798525477874778 0.6743392499189612 -0.9041462583653487 -0.33895522345952467 -0.7503271780443034 0.48167582572158707 -0.6822302296164493 -0.3972053198870745 -0.7987248820779208 0.2730578218514117 0.9562627018256159 -0.050969013041803235 -0.22761696621789707 -0.09221997673155591 -0.07389933125047188 0.2475428006563134 -0.1042084375988932 -0.019339901453026442 0.9977635288356805 0.6195174857664689 -0.4495673827991631 -0.41381235610022776 0.5727247561476535 0.5230603687231419 0.19081274560877715 -0.564160235437302 -0.3648947604649041 -0.4442233078950717 0.28987671482104727 -0.599483154646345 0.8115930327855756 0.5327485632358577 -0.7252166975907167 -0.2539899835750745 -0.6224893105714556 -0.6637462279404932 -0.741325961081264 0.317431462530172 0.5722130563156201 0.28389198474893135 0.6821544554730384 0.2483860866624117 -0.6651228210781828 -0.12884278476450683 -0.6490774940580195 -0.5783470147913568 -0.7964154560901124 0.8317118885998551 0.5740923913961391 0.043896184877561716 0.828680488534069 -0.9505549066691539 0.6228112739526787 0.5771150521237146 -0.6373331086567792 -0.8359368468728205 -0.997481952039164 0.9808101867506094 0.04790631952751009 -0.9027760657044307 -0.17286351037671555 -0.2718619636606354 0.11824358636824212 0.30167288827222905 0.15205961048443584 0.5308188829979521 0.01374252686020952 -0.6957112787934958 -0.008317011363117209 -0.7453196883372062 -0.06288528251708651 -0.9681501849312995 -0.9714198920560142 -0.026071152973907052 -0.9749138619364173 -0.9372504835595499 -0.5114915821053061 -0.2811944393555137 -0.24624355489201688 -0.07527273558008989 0.028613101461745272 -0.8953226813060197 0.8076106351029557 -0.8983390989893508 -0.06912092567131796 -0.15578900423283285 -0.20761440039850673 -0.8785766562183019 0.4637049909829402 -0.7281912475710323 0.8931424829293502 0.30349252356543027 0.8037120083882103 -0.9798675197377935 0.5761021546061258 0.17960227671025733 0.756653604520417 0.4513191119011673 -0.9835766164530709 -0.45441737544194316 0.4659741683828138 -0.8583897504136782 0.1511097085048656 -0.5349413481039774 0.9128770540115427 -0.8805390465557761 0.567751547671746 0.020632308925704466 -0.1824073255348404 -0.4611285471915435 0.42216297454287927 0.5711589691107117 -0.6109235509386302 -0.055430298996311224 -0.7686862897747839 -0.5151538149697094 0.6508470777756121 0.48294536234934105 -0.9660060578824635 -0.8252260579613143 -0.9274322270671699 -0.8649328606283218 0.34924208826477804 -0.12475425377275152 -0.7582646138120601 -0.08651454719092752 -0.6726319480645638 0.8541872880697856 -0.7129173304435958 -0.40454803900603586 0.2381707311869486 0.692090331611239 0.9140795848972795 -0.3365010193265105 0.4464639192734157 0.5178637836065553 -0.1379684259519619 -0.9491010747168517 -0.2305263915258752 -0.8926196770131488 -0.9284271778420989 0.21747034625895148 0.7827730284919249 0.642487190313849 0.6575369134264938 0.5544136490669901 -0.045240628365449904 0.0830061379592291 0.0023579949791222485 0.8692760840460477 0.5807510538498054 0.0918926408890216 -0.09272510423781667 -0.2354779820398464 0.2843721630743186 0.8556634689275664 0.47677425899039827 0.6224057614008045 -0.08049653535980394 -0.647329285079191 -0.6506037213599096 0.6635125155428971 0.8621586792636773 0.8666704153858042 0.17001285386298248 0.7219507610150185 0.5956861764443622 -0.2928909570868027 0.020341144951349116 -0.05718338615707272 0.6891828746266211 -0.2907258578666947 -0.7641206576444617 -0.3085818803067983 -0.11047227614860788 -0.7658346605064076 -0.6520069869454052 0.5521968968060289 -0.3532278063066723 0.8977622982857848 0.6925951863551143 -0.7221404903128048 0.12367640257169733 -0.37688603747300387 0.09333595944781425 0.9331623615722872 0.5606514593512083 -0.6229527284914644 0.4184436750605752 0.7631263850088291 0.6396247638713204 0.7723213721537032 -0.4387468296338533 0.07083107793228723 -0.05846384383382394 -0.14187369439633968 -0.9052635124800836 -0.6569398131338798 0.4782265351926209 0.3376226137574821 0.6547210918796522 0.07138492697358145 -0.8595879913628911 0.40997167798182665 -0.4854604056731845 0.7501477696270442 -0.9528775654467776 0.059353552371415284 -0.7503238956180421 0.5438661455849481 -0.5356735259160481 0.53724451125193 -0.2016050767521118 -0.13963243247138024 -0.4797900062575655 0.6573285609230624 0.9732229192028815 -0.15298097432101487 -0.7760601524762487 -0.20663735446605996 -0.8236477369680668 -0.71061120673904 0.67443574500215 -1.0116163185732499 -0.704846555064615 -0.5401157820916578 0.07748374917312247 0.752902852184123 0.14217224501886544 -0.8373458736089308 -0.4746724396003054 0.4605963483182874 -0.239785187013639 -0.9434529441398817 0.48141001714806203 -0.1450677414976256 -0.49866554115213046 0.09659451583634283 -0.5534891162469233 -0.893345810526671 -0.9104432470363766 0.8289771535091863 0.9549609883791738 -0.2088473164038346 -0.989909443617019 0.4119039758447382 0.9928910751485768 -0.2089898139934178 -0.6578823664166072 -0.44380771495441257 -0.6129573685280088 -0.41692096349572993 0.9349445871973348 -0.8025127834252203 -0.40764011923641413 -0.4530183070621516 -0.859776450113329 0.8773064048989151 -0.6103501213524001 0.6561334507328659 0.31689404278637634 0.012531175514212334 -0.49024047921628716 0.2666220334844877 0.8271092548792484 -0.4888752160818553 -0.42620312454689535 0.9424959357186182 -0.737778164106208 -0.846775222148477 -0.8356305022871667 0.5968134261378173 -0.015826125522787397 -0.6396799922351465 -0.2863622503317054 0.7734489464128832 -0.1288176980130015 -0.7926641807865406 0.324220360962836 0.4248073610584777 -0.7932342952223135 -0.5879276840824662 0.39329743901991604 -1.0054302483359114 0.43534495028709097 0.6137909849174688 0.4425695590771628 