0.07651659895504914 -0.5290851285503244 0.14779800379955077 -0.08515600594036221 0.13368654552935189 -0.8003004854042679 0.8588233827742995 -0.8773472771781223 -0.41287339107225507 0.22187902922848957 0.8499427178239636 -0.17100638464040419 0.7736344018974146 0.07629264213826414 -0.2660481057239623 -0.2790802474749221 0.3832854577833469 -0.2706589412569147 0.568808187527345 0.6862184926260926 0.6347725569624953 -0.9680552902769348 0.19322850069569641 0.5135343310947575 -0.3419203742762058 0.6845948678727463 -0.5673886452877726 0.2959471950590249 0.35282206867031896 -0.8926332168829822 -0.573365334345679 0.8464567887313017 0.7079237549226751 0.12026461652114939 -0.16676661837255136 0.18992269538311302 -0.5533479698162005 -0.00305713790051243 0.3347287390232625 -0.33890847965255766 0.9556100260820881 0.3425326029889397 0.18714523639107017 0.0708183443117616 0.7427394673475762 -0.034952258537473746 0.7801659172523305 -0.44368156846050155 0.7157581237677055 -0.26377153780230644 -0.24615158201889553 0.4597622712478051 -0.43753705548301425 0.1283701250134366 0.5833675411006976 0.18939252822639752 0.22001012529130604 -0.4184720517822522 -0.40406542609751495 -0.27240232898927697 0.7365066217361436 -0.89170331755521 -0.8400572325619129 -0.4362223301267452 0.8660783582717162 -0.7461732072787057 -0.942815661531546 0.3589379509581194 -0.8236168578983685 0.23680285236960383 -0.7265883419423459 -0.24478016674133546 0.5010005544211474 -0.20096300473568882 -0.2398254843606676 0.11037838474435539 0.8529087833085571 -0.5747034577891301 0.36013356495029974 -0.6293905588006337 0.3973233417434456 0.37143454253349684 -0.6849878032553451 -0.14459565438152922 0.03559802027965997 0.5861833402519208 0.8273114484315067 -0.5818659447929866 0.7886375979192971 0.9162973676589701 -0.8161002319929321 -0.923136860902554 0.9823580685125074 -0.3341928551421166 -0.29575907294550857 -0.33211141708757747 -0.9427679131523193 -0.22781047812239544 0.14232810578675795 0.5012849376615944 0.4390457960352098 -0.5408610253461599 -0.25187696852381897 0.21961506402216446 -0.4433454207495848 -0.5050191146703981 -0.9935245460300122 -0.7268352703021279 -0.2824571737264994 0.5324271252328248 -0.9262323150859306 -0.39324806149184965 -0.5260617725859367 -0.15458248999907775 -0.5040712481498641 0.7134513377671975 -0.7296813756039081 -0.9157093386419523 0.9311943170539494 0.762822078926075 -0.27803395013752236 -0.72392392723022 0.3870455302794684 -0.9424967899908375 -0.3246819757123972 0.8364322945359361 -0.4972036748026072 -0.9160430361613613 -0.400204431164804 -0.6035038902293465 0.8551725399352061 -0.10952867047768577 0.45511695144566344 0.5873643176298677 0.024383480815441005 -0.4501682491057905 0.8993839368501507 -0.5388694641962357 -0.6882489604448491 0.4564085149685644 0.899937338615383 0.14577294928542583 -0.11024648531503423 0.36244714935237454 -0.1475436301076994 -0.2645385390022038 -0.4956791592256388 0.8119177287050302 -0.7201826002375522 -0.9286883322566616 0.84938554812898 0.10877834131518217 -0.7255500783727727 -0.5353808944637987 0.4113000892348204 0.7872326301827094 -0.9566860395508868 -0.3222353938668493 0.11590211927343125 0.7302975904554577 0.6800914257676731 0.6956057883283263 0.27831964851326585 -0.1771186464703222 0.9631770666053698 0.6728288437724629 -0.5591279514128382 0.4530764748343384 0.17275315454849216 -0.22900952200645341 -0.3938708770640473 -0.5933139071416987 0.7310988087896244 -0.20195747026153402 0.9375930694089951 -0.7210394594998485 0.48877147514061775 0.8829329599097467 -0.32650144513212864 -0.8822473192393482 -0.19129549771388607 0.3467778365493179 -0.23229134025677609 -0.7624886180751915 0.7915728283187106 -0.13508334189261814 0.49750096134663785 -1.0034819995537279 -0.45318538684762827 -0.9176593562983794 0.11445972714424682 -0.004734217312558575 -0.6863313875700051 -0.5355195044576677 0.5948429118512402 -0.11959478807339405 0.10908224049816662 0.9638507372133034 -0.7624338145905024 0.2783860570782871 0.029376767080070067 0.7223668177534723 0.3115599604756401 -0.8562221059664789 0.6361869419926321 -0.49089445779148877 -0.11918049359876771 -0.19855614757495327 0.9901743392675851 0.758360735977665 -0.3080682755154058 0.1637372705398841 -1.047626595448101 -0.5276902149742937 0.5920447872831036 0.8434677731617322 0.7539487096127844 -0.1456746187179061 -0.25821057936066183 0.9349807928533789 -0.6850423609211743 0.8180797314022914 -0.12893844412725558 0.45809077413103066 -0.3253868010256733 -0.06388450385758615 0.24221757381585093 0.4546593886002975 0.5190695902197027 0.6818491473002605 1.0290466205251205 0.2968565119714177 -0.6467989402245986 -0.7742336214627926 0.006384179690091753 -0.33299600977731797 -0.5556861464325579 -0.9291232434725143 -0.8442785342972491 -1.077362486154837 0.19252910076286234 -0.7416429279149794 0.272393351315758 0.016900011539521174 -0.1892367484383221 0.10178599275832957 -0.4800388637914983 -0.7256805970213093 0.546317969880849 0.6837739437856628 -0.8666460629476014 0.3016648399077939 0.859102657423688 0.7800118070129594 0.5051974327202235 0.612086851829239 -0.6504530116639059 1.0081809025295538 -0.2600603580945992 -0.06912739637515732 -0.026674997666226725 0.5223313031584198 0.056283124405700234 -0.5629658115664965 -0.11353057432473387 0.6210627693289457 0.046971152915756126 0.14129912619346854 0.0770876869846525 0.35036778340167263 -0.01754032777030429 -0.334507097460255 -0.9289790936320657 -0.05656920871376562 -0.7475815500091947 -0.48507964991562336 0.6863121224264626 -0.920479804823802 0.21875539573983424 0.3425601757849733 0.8083587617988206 0.9161686051657023 0.08990999180238665 -0.8346516148531479 -0.10831828134721418 0.560774110361815 -0.07823145437973618 -0.04196538315642355 -0.27358997648710176 0.9336126755769643 -0.15818175398690376 -0.1886326179814866 0.8168680527655495 0.7908916294777542 0.8800716724729913 0.41463920030451396 -1.02067864219804 -0.9562023066228499 0.6793382697057596 -0.943462200732852 0.3543762520066739 0.399468380209401 0.4253618232701973 -0.904407226845373 -0.8261144791004228 0.8467390881823151 0.9425039104676564 -0.675773658613166 0.294730602406158 0.3075892165733119 -0.9960131783652005 0.5559505769514076 0.08905900934760463 -0.3946599900188051 -0.18044311060645207 0.44167349074572587 -0.326989807736311 -0.5461297741046688 0.15268216817940555 0.1418469304583487 0.12521024342197526 0.18739493547114844 -0.5729424506990356 0.4689073917078776 -0.5903746069953515 -0.8434830565142898 -0.6208342756999086 -0.1924258422636482 0.3408592451078015 -0.4441610896667563 0.4163202226663593 -0.17569386029101267 0.07477210906970272 -0.9164597111545627 -0.05692156206480917 0.40134271088078777 0.07202092468427912 -0.9009863017423552 0.03913219791522715 0.8677901425418532 0.9555955095840023 0.3065575822866379 0.013817928193658766 -0.4288808158424081 0.23654855361529267 -0.3295387739550089 -0.3031098489969944 0.06988580000104933 0.7647675791999374 0.8375203702507207 0.13261121144303167 0.2057882913302637 -0.549693783577336 0.29611170456140656 0.6614128717236905 0.07856783841720102 -0.6496905027535711 0.23334154977207305 -0.7937843197343565 0.7084260878798213 -0.42873380972390834 -0.23110435801550192 0.9161132321152924 -0.9017235381023896 -0.8162308413816559 -0.28247251825688924 0.8212736129679576 -0.31126420305639263 -0.5518658518429832 -0.30639266528828113 0.30699707041003454 0.5488904747848329 -0.10383896665664995 0.19718571595683812 0.292647332581366 0.7085068871742433 -0.7502922241511375 -0.8726152021554883 0.25835389734610104 -0.019271168854579825 -0.23230662812430575 0.31371985427560867 0.7709316536662839 -0.9876650863873271 0.10399135629925615 -0.8310735494951521 0.992000386922348 0.7730281180552726 0.8601210183000733 -0.4988779603803792 -0.4060278600555008 -0.19423008811460063 -0.32020472217917906 0.22683382125594465 0.020668580361107847 0.8891665262747648 0.8906926143022758 0.27715011058436856 -0.8017743475267629 -0.4952905662944618 0.326669066793254 -0.04042768964154016 -0.9986714994975052 0.5865455585141519 0.8114094581991601 0.8344592944042842 0.7158043485386817 0.3333786653084781 -1.0484627014641816 0.7735382777824709 -0.7324367209904102 -0.11521673199637104 -0.25821486319741627 -0.9163291346509442 0.33256956121147013 -0.08112764301179018 0.5707647261284224 0.497250795977314 -0.5677289404439734 0.4880956264214571 0.5919973109177514 0.7331455506939366 -0.16625488807946928 -0.7535100224981665 -0.6777846960605284 -0.39217142672656446 -0.5085206837973626 0.2545108990012991 -0.34225929566214963 -0.06956876678399976 0.4327891973609307 0.6299056315865055 -0.5346945166595105 0.37319373008838874 -0.002607887224343854 0.5733766007506829 -0.22737423110245786 -0.8728877433226992 -0.795589197829156 0.12321361587002157 -0.42820744974241554 0.4364118327342764 0.8697958551771483 -0.7557683345076389 0.28282636187672044 -0.4625389303448277 0.019705229487246654 -0.9454346550249173 -0.2627442746033428 0.9891721056782752 -0.7495877608436543 -0.7325124439804719 -0.6845303150247609 0.7993350082455404 -0.6659040049511638 -0.15374717693166792 0.2430712794184001 0.6711295275779791 -0.9374072089405419 -0.49901299369941965 -0.4056999953430057 -0.9518511416011812 0.900000019394061 0.14977110896674697 -0.2897496061595643 -0.9584600161373115 0.5469382531768288 0.4678991275063406 -0.5894753023277869 0.7142305755878888 -0.7045502798314804 0.2737740440540806 0.13712545003267768 -0.2204759584418152 0.9753548435587718 -0.8658953794881219 -0.4154223921724627 0.1429012533894507 -0.4372735519829764 0.5244665445130513 -0.49892805242469146 0.5682229889478393 -0.2900316110485414 -0.5546920874219745 -0.5817594957446683 -0.9390960155173822 -0.07527912629375609 0.387510444912509 -0.8035408260310087 -0.6877848759584642 -0.8298396109093054 0.5601322570621011 0.7847849730789145 0.3003386763299638 -0.46350975459690674 0.41332488713120497 -0.8936144178427994 0.8546669731388957 0.10697134912532626 -0.9482619806750888 -0.35987921780687043 0.3863892198506271 -0.7179913246184715 0.1316329477244378 -0.025570978717999848 -0.8017851380935048 -0.9128414090316754 -0.46759093442756666 0.05142581831894722 0.401731759060542 -0.7164119207359448 0.19155355425862433 0.591755616987816 -0.09433418554513776 -0.8655215465512938 -0.9796705342665988 -0.6443797792212466 -0.4119627790172813 -0.6168122589532299 0.6055079393351318 -1.0039102229326893 0.36559804051078665 -0.09932996304664012 -0.34216276865458306 0.0884140690340487 0.28261240086760697 -0.651650763880781 0.582989218119681 0.09060957312508638 -0.5776662184296881 0.5625050829903151 0.7902122081367072 -0.030215141749656338 -0.8072249201545323 -0.4890644110960105 -0.7014473584478591 -0.16679587556122694 0.7609724756501535 0.09425708237285503 -0.3468435287159251 -0.07360673553167474 0.7089496462005653 -0.8246981215026369 -0.5433893550687144 -0.5215505069413935 -1.044363580991195 -0.0789348543018645 0.6801853334309436 0.5119006980873196 0.8700925835633958 0.10205284620340133 -0.24041951873385006 0.08611368654794932 0.5375248318782606 0.5678778507621669 0.22980891692472022 0.19364035481372602 -0.21034189812341472 0.25535284893362414 -0.2872257203346801 0.9902127398266372 0.6108778851230329 -0.46738464751635667 0.6411658806312246 0.6924639852089939 0.1850175275559378 0.18514918951611933 -0.5186305975323319 -0.49701898632686276 -0.9681916140986653 -0.502354759659546 0.4159276884250854 0.012829714532421653 -0.5092097047565108 -0.20025567610400727 -0.9090960782793017 -0.1199176436348521 -0.3854187275555035 -0.5571035942969287 0.3941023995633661 -0.7956098255841737 -0.6577503554060796 0.5111931426505545 0.4866526500801924 -0.6236594603176898 -0.20273557422179603 0.006898042514593855 0.456852179420619 -0.04399282080998934 0.3753164933641549 -0.8848117122432654 0.6596085113050221 -0.36882882876008666 0.5629943455658045 0.6610033846792203 -0.0671039577758179 -0.059897188590099716 0.6352764537563745 -0.0038450959664636775 0.9162695040044023 0.665209137375357 0.28098966041690365 0.9007710061404571 0.5668914498707284 -0.7250207340128593 0.6652511370075198 0.5085805643530671 -0.2838235383434523 0.35910085043285794 0.03411247876058536 0.33335903367483893 -0.6078314738773882 0.819315675061812 0.5875648478700111 -0.6252355266048781 -0.07171928627802027 -0.6271049587901028 0.48523809841659676 -0.7396550232439176 0.7895842603999256 0.3215657325964771 -0.44182134162305187 -0.2657877627620385 -0.9102231902423559 0.30827401145339606 -0.9255080294522612 0.46561283698679057 -0.9796515556214378 -0.3959959333458827 -0.771918930926767 0.4259066434717189 -0.7630943830645651 -0.6684672125080343 0.8553224580525183 0.33568908954911864 0.7420188082177792 0.18418585337134383 -0.9176611600491283 -0.32378739315179406 -0.5543413528079855 0.7567813953591597 0.2506894707441905 -0.9925051950575925 0.6566974389893951 0.7913015248429012 0.3568084662176565 -0.3115569512575482 0.47733125216215877 -0.6677979307136713 0.8967340905638261 0.5177677224951601 0.9415248930988637 -0.18944445268819385 0.5321031100417338 0.9198773537881928 0.0965388230542538 -0.1786424949445234 -0.4892657617566881 -0.9853520320392595 0.6975440005910984 -0.385712076376461 -0.5826135658577842 -0.489899673056873 -0.36693150062210605 -0.7657533306898588 -0.024199532390975238 -0.8087934573025554 0.3365062162757385 -0.8797633760120667 -0.24547941801797435 0.03606217530120204 0.796771411907335 0.7409089341864634 -0.02240370744221476 0.582826621914667 -0.1393278459286754 -0.9769123294492069 0.9573744377766723 0.8015592226361306 -0.6037512026982339 0.04156574647121847 -0.5987013572316991 0.04011698808982397 -0.3362516816274133 0.6890878617857825 0.8985749686313997 0.11291473291820754 -0.9587549618849277 0.5639639153093214 -0.8401482550675372 0.3472719242177473 0.9401838684805242 0.9814302498486864 0.49302763212248635 0.3827098337362167 -0.9141311903993488 -0.886590283563564 -0.3650019457970999 0.7424432631559506 0.1274295891533861 0.8272482780327612 0.5382588907529142 0.8237189196472033 -0.7411328574202243 -0.04453057547114479 0.3412873877966029 -0.12468186735324113 0.9352928231586471 0.41422148932794545 -0.8173433803235609 -0.9903799926664089 0.9437515706002172 0.5703094316041368 -0.5633972504522011 -0.09917399069896664 -0.2605145392261876 -0.49364694471865234 -0.8535412446605535 -0.4425862364962664 0.36327931405295777 -0.17212062546788368 -0.7517051333095899 -0.49061766684707964 -0.34506257557386016 -0.6024931799395514 0.5675396147107548 0.9103603563554188 0.09462522066660162 0.5366478103038965 -0.6434989371161584 -0.322769553298214 0.6112306255621227 -0.5127956472885984 -0.9763228671052967 0.9250302005676587 -0.06654521021283938 -0.902527038732044 -0.382508301261986 -0.25448025960169135 0.04399681649742533 0.08063889195999702 -0.9252822414544497 -0.06894893096103333 -0.3556056403551771 0.6770354879811671 0.16494627216255064 0.15682204798444044 0.3550659647462652 0.5063894389993628 -0.4884873459483248 0.4167490338347273 0.46358328399722293 0.7145155743169627 -0.2609437664833285 -0.3698646068701421 -0.9171811647887287 -0.5222475871586403 -0.9816024233805212 0.7301325346955048 0.5148311012515308 0.8473979840976931 0.7231386603329926 0.025540501339189392 0.7126782712909858 0.0949701290649052 -0.9734577645395053 0.2687987640311963 0.24095716289678815 0.04404565959937698 0.8521349017967211 -0.1581203053347957 -0.6415312622844223 -0.06725146576063161 0.9746683513874197 -0.3270124059149988 0.5708717954697162 -0.7608930179625438 0.03297673196825298 -0.6291173900429765 -0.4462201796074119 0.591413073824228 -0.17979178601095258 -0.15840769571997737 0.6091382689821354,0.7283648565237302 -0.7238107279950905 -0.3419916598978767 0.7481849081292786 0.6260645091992572 0.2937205241128278 -0.33146884396754905 0.6488897274904706 0.6186616504483513 0.4732469746002359 0.8822288859837948 0.8168911102435374 0.6684483554958602 -0.9495566985619321 0.7981901284816177 0.12239275391054538 0.33795066484606373 -0.4045779467626962 0.2861040141871867 0.047195728537373416 -0.9749970450326602 -0.3490323131225479 -0.3007484075357154 0.27151906219838295 -0.5516882398836673 0.5845819910648469 0.09025388898248465 0.6038536980705596 -0.9374838141997035 0.9337446734933348 -0.4303493185967473 0.0015575449007687592 0.1746045080552859 0.044896495861947334 0.013066265476233121 -0.8024091825015529 -0.7640492920746866 0.4063408899569459 0.07147671921226185 0.10532403675573251 -0.8148500727976593 0.5790542321280439 0.6703577207488886 -0.5373482679799908 -0.19370751685848958 -0.5506369133073842 -0.3217475372797993 0.2113806317758946 -0.8516911000496808 0.237103600967041 0.4890946079513254 -0.5643221788695308 -0.22553425433308605 0.4499365434646765 0.489311660018221 0.6700107696877786 0.5874802328036575 0.6179048202039068 -0.7359478190679436 0.7240166223519695 -0.8797060365588805 0.9384542865140236 -0.9602541597734342 0.77321969691928 0.266566512517409 -0.5232716685697908 -0.28279618208411833 0.2293782272382005 0.70654099219645 0.7525388580158475 -0.5118513863553444 0.8881730112353823 -0.31139350095516977 0.7154001631397237 -0.6502789383337184 0.21221710477807493 0.17128890868081084 -0.7702994203943626 -0.5947920833296514 -0.6899521850975852 -0.3144066305822917 -0.34794111012073903 0.11766848826525012 0.11970280861462612 -0.898894285652216 0.3960294743227253 0.6275330038984002 0.8504852930848734 0.3022472876756068 0.04413447604218191 -0.8127934437938442 -0.059067612470594714 -0.4394200995743542 0.3307651766317185 -0.8269080409639221 0.6989740627471037 -0.7901766641302217 -0.3843612398382281 0.5003408919508894 0.5844436311525234 -0.003325960101362664 -0.410306357057056 0.160422113960868 -0.002914504599215668 0.4525070363366215 0.12572444821855908 -0.34956821203099264 -0.5229914043648838 0.9574967493697694 -0.14596876540821413 -0.420944733599812 -0.11877013648501289 -0.6980882401170612 -0.6819505223295961 -0.6531553898445805 0.8822481719616986 -0.5155681467699363 -0.6492361736775406 -0.045820985405131964 -0.6033137736207187 -0.6594631958996036 -0.46427727448718215 0.782225597067985 -0.07528486774351588 -0.6718465241377533 -0.2849848592687672 0.8035401538326014 0.5172092735564756 0.8513247334368975 0.777394150155207 0.5715635801748291 -0.8022660596705333 0.5887969203721354 0.9530928722036343 -0.10671515049880005 -0.3670025138025181 0.13413449311388442 0.41365986128245086 0.4034336168030545 0.10017577886832241 0.04447939954337499 -0.526533438805191 0.43337559149335325 0.7577844255437352 0.8039623013397412 0.04081479233194975 0.7220564126271586 0.6509907188721223 -0.869626941105129 -0.3027952793104519 0.6685365320548073 -0.957152511660976 0.29892432108539235 0.3844260038393042 -0.14121792033630945 0.0760517236760507 -0.18385791514738678 -0.2752201564463312 0.5380786270634453 0.36038666783453494 -0.17677703704497888 -0.4992330714037586 1.0106935952566136 -0.011180658079590634 0.9640029661113525 -0.4336270471748577 0.47285351583534807 0.53494847616725 -0.6872634277102654 -0.12329145900031402 0.4807560566258003 0.7210673506872352 -0.6021356043851737 -0.3195518469978205 -0.6659122077677566 0.047258624523863306 -0.9591905492863435 0.670079410596952 -0.9236904830385355 -0.5010841537020413 0.6202201847888752 -0.7938594011343183 -0.9146735352721798 -0.19185669096836286 0.5589035007980898 0.8198716483454088 -0.7546988541155966 0.2944656633492751 0.11698641673749018 0.6967570682715423 0.9046893270369679 -0.5596517761825647 0.4481798986712917 -0.4051785572019332 0.10025181759936232 -0.09692259501524658 -0.7361907894660733 -0.9200527191477187 -0.5565819654264331 -0.6465868344719554 -0.836549459175358 0.10502512425242769 0.3951244026594232 0.2312628388361459 -0.5362821577467494 0.9222514340257906 0.5858497155470291 0.04239796031058471 0.14542159916419126 -0.4212147084861743 -0.5427241685515066 -0.026656678493036663 -0.3487228921437909 -1.040291482874195 -0.7961558184672993 -0.9177479822001284 -0.058656438465312384 -0.0639046736231096 -0.8882737517668359 0.16555051161781575 0.16624119635347276 0.4995367372903657 -0.06633767249502631 -0.4596539766472258 -0.20077396190740004 0.5273501207950805 -0.22030592172979155 -0.5824394620047917 -0.5997894398382319 -0.025417090958568662 0.26451813268532176 -0.007403289225466315 -0.3982435624674447 -0.797457679135407 -0.38581121266469937 0.25550847545653593 0.6150584965623058 -0.4113661244944508 0.8640402218999289 0.5780607040814533 -0.21295260273790417 -1.0785813062451493 0.5501427766945871 0.2824894398947013 -0.4048618830292044 -0.5823646701278241 0.2258598228988884 0.9111705798096202 0.12480837374210893 -0.03315828126011699 -0.8143816844877758 -0.7808999430804949 -0.7864765486571228 0.6852479044961939 0.6415911072663002 -0.2340459138548918 -0.40290491322348837 0.18406398424659065 0.6810396922454073 -0.49216735890993984 0.8914426110580439 -0.16236177490725123 -1.0290871437741995 -0.35341763314165 0.6945834388541466 -0.27860928646376487 -0.5631371290648514 0.6511610350756718 -0.7774471583369733 0.6707178514433313 -0.7529123695777497 -0.20294638278354213 0.5752509724994945 0.5340290207563805 -0.07176971087618303 0.30775913590089554 0.9759850018148439 -0.13485286090718743 -0.2949449938140638 0.41997957096554994 -0.7739415561792753 0.9306780900946062 -0.6745279885134045 0.7219683376069999 -0.7770423789060443 0.07905693056871267 0.3922916634123031 -0.10537139901957558 0.8457543137761279 -0.5572765929676762 0.3604201837323305 0.19971392969292373 -0.9087541334258202 -0.8922558461195044 -0.9401607757362086 -0.6344154618133527 -0.34093984153350254 -0.793668159892165 0.7792972282964533 0.50226566179396 -0.7508583104323141 0.10191851415512748 0.8321740299761623 -0.2335614576897071 0.586141735197467 0.9816595684336213 0.6030658608595958 0.6463591373785416 0.7452297516319708 -0.6737007999711404 0.538722940803023 -0.4911208133015701 0.4381240757330897 -0.505307015270143 0.13207266285530544 0.4641575037793925 0.7453873892553888 0.25271810270139006 0.9350556412589893 0.1761495972777333 0.2629971405231968 -0.18973821789088677 0.5851523197130377 0.252698529276287 -0.1830610155668913 -1.0116710621534952 -0.26830389753584233 -0.911556489592218 -0.2193787963014647 0.14778743302296743 -0.10619715324132753 0.23943130259253528 0.16264988993000074 -0.9311526245617944 0.25697462916579017 -0.973064416473072 -0.6094027728487106 -0.8627657056180082 0.7446546230963329 0.9520644301962363 0.9435325138064661 0.6483434275257389 -0.35053565833535905 -0.3915759248324094 -0.4160920793273059 0.18246202090790817 0.45428498688118985 -0.26574124454530684 0.5393309648710094 -0.5892752731322851 -0.8695857173461792 -0.08630712331439516 -0.49085415721776227 0.8359216257107934 -0.3348770990416174 0.5417147790771638 0.26158907805611614 -0.8522047053593499 -0.24640970689582622 -0.44560000512785036 0.8036312845251388 -0.1899015914290723 0.39561720094185676 -0.31277572455942887 0.02871593706188391 0.7253477081640702 -0.10017484618640451 0.26388064786598686 -0.9943154883800022 -0.9460088261160732 -0.06602551013780979 0.571344926768814 -0.9105778340197693 -0.976579774874344 0.9916241320001467 -0.995573167828465 0.11165587466802943 -0.7681961859886107 0.8843991195474016 0.84234790964974 0.26743668806552084 -0.6968869741830783 0.2813318188854817 -0.21898194061155377 0.28138133182412034 -0.061679390534082265 -0.7963270585915743 -0.32862404753096197 -0.8132173411066103 0.477739502397457 0.3465089375304985 -0.9015015886449331 -0.5324668820717888 -0.6432271756581732 -0.3999076709197458 -0.8972462561145104 0.6297455330431948 -0.6426437662715724 0.9281396973152141 0.31226973532293684 0.4183615281313446 0.9536721900475938 0.08720047407288495 -0.6337166351256593 -0.256220969574213 0.8304590060438852 0.36098701237372005 0.3856264276340993 0.2525172065440415 -0.9002399829121898 0.40482783289312885 0.5135767661677526 0.20959026024440497 0.07051822638872923 0.996637894634231 -0.2892876726083494 -0.2972864627418832 0.860966299681932 -0.19713863778591637 -0.5870522258234647 0.9107639396934539 -0.8656641416443753 0.20332167458717587 0.8306964103448505 -0.854629682355743 0.03979526917878115 0.906179519617591 -0.48132700842551096 0.8803769621563045 -0.956018931148529 -0.36604244957715093 0.8145494567085017 -0.046626926475103095 0.17200781703493292 -0.6057534532318342 0.8217752099935263 0.27280917394390547 -1.044631354093729 -0.2800975472517898 0.7831451093812186 0.022299754861974542 0.39190551380983907 0.4814445338813439 0.49383278557301896 0.22790761693011047 0.5380316888705633 -0.644730170753575 0.31019169691249404 0.06608541377397303 -0.5517017711298327 0.3973751751840975 -0.42270014740358813 -0.2912618014322562 0.8527793363268579 -0.15221871879377824 0.12587898048104823 -0.11008828477385893 -0.22403260514966294 -0.8313629127053132 0.359384350180361 0.3034287898957575 0.07361180085947915 0.26629941245260874 0.2173438003911946 -0.3637238850560485 0.16150096232196698 -0.7976631964136306 -0.8971703942433966 -0.04153660926305189 -0.26023310875217787 -0.5111629378757475 -0.8365124376089238 -0.24066101236642426 0.03624393053261848 -0.4044486893712724 0.8106519637115985 -0.48718257054784564 0.009545890102710786 -0.09158883265183299 0.8657413181550793 0.19808138123860625 0.818171087144049 0.44815716721389426 -0.9045603161850193 0.32091766354398965 -0.09790973122215618 -0.6258702681318263 -0.5305347867297705 -0.17963897750896957 -0.12020162108174162 0.7692545610081466 -0.09201621972319932 -0.38857554857663323 -0.23388430226731427 0.4314229853351435 0.7734505306245333 -0.9823572623388922 0.5629123205536469 -0.9483388603878256 -0.7810504586227583 0.8775282784609518 -0.7617848637820914 0.7963343900688642 0.7541289051554168 -0.133030839951513 -0.9299019185731094 -0.9893574996973457 -0.6888954592222796 0.14832812713169954 0.13726071005235485 -0.8243465804705419 -0.7052214303932377 0.5973129880791963 -0.08797735134901431 -0.6959274610425149 0.2380397060742442 0.7114210226489024 -0.40107590270141946 -0.6930177115537732 0.6776952193876193 0.639888921923674 -0.5032886472495312 -0.22155874929773972 0.026284908498947147 0.8732691360744544 0.7806777495648125 0.21083193600117517 0.3682713940754211 -0.09569630631237527 -0.8740909752012977 0.7095824714574754 0.25070045317352796 0.45812965978796777 0.17205925139599304 -0.22019447400923128 -0.6430618899771499 -0.7076821206968755 0.005199778898716895 0.1043515343982531 -0.4728943227720807 0.4985136031709435 0.5745265059633039 -0.548881542635953 -0.7178515192291554 -0.20539009861916838 0.3593753698373508 0.07558385449124777 -0.9815913481732591 -0.6997567597146768 -0.6758022640182352 0.061264830669143885 -0.71820240577578 0.9710935253388329 0.15033115381036818 -0.45984186234248214 0.7588761134383891 -0.6501815708414627 -0.4504672772145334 -0.9548312386850113 0.9709511976167269 -0.3639446172620775 0.44726045663041303 0.4744352220927668 -0.8673004188454757 -0.5237762174981937 0.5685026339169278 0.03953970405664708 0.02734121973988127 -0.4924981805535272 -0.4171955790549203 -0.718842604628451 0.21283431271947434 -0.00946165917317919 0.09825557689764944 -0.431808988741762 0.0761870262528598 0.3636631905031921 -0.7280270533253781 0.5958339782098888 0.39647461411739787 -0.3200304019199858 -0.6192984343960082 0.4774937636301581 0.506322371666943 -0.7685897031476074 0.4687196323002121 0.9437085591190056 0.4651675057040948 -0.7379719096885179 0.5274299384599491 -0.4676784649765875 -0.19552846828796147 -0.9029030754291935 -0.6958285013200439 -0.503939891799565 -0.411078663516067 -0.7140984669571265 0.17512410170216697 0.31011715446855953 0.8919149630760301 -0.40602779979315917 -0.22458536878993882 -0.647038791754034 -0.3194279933221905 -0.5283225862862626 -0.6477089621392665 -0.7534961187173028 0.7503922041089756 0.7099782044226575 0.6604011908144678 -0.49313177792625074 0.5516014460377696 0.045534637773386046 0.6202879301010218 -0.06421118701685637 0.878026720983665 -0.2876474880325908 0.9500434147433575 -0.20488570320492583 -0.3234357160701498 0.07717682259404783 -0.10781173253282955 0.12891868495582418 0.7111157605325906 -0.7933773106577485 -0.07460759243459388 -0.39172272764944044 0.050017719475452374 0.12501403225225236 -0.3184350126104372 -0.06456441379306314 -0.9988191800987822 0.5197269525251069 -0.8630764632171216 0.8025230731128584 -1.001274060484816 0.46688155359491174 0.8894155122205236 0.3638394153145948 -0.9732170691555602 -0.9478421446053373 0.8593703820307645 0.1326437944348525 0.5712384588234358 -0.5323307905182977 -0.6943037516792943 -0.4606735811478566 -0.3821162399255725 0.880438969800606 0.8063733671852695 -0.93860495045325 -0.5221705869918959 -0.09709867028635513 -0.5680539475452282 0.024371424865726233 0.6364684465558218 -0.8047580297913862 0.03528848655960009 0.5002640106990885 -0.030749354376159752 0.9028748986063293 -0.6450869340446677 0.23213468744245833 -0.07676899355160381 0.6065430275504955 0.9388223873626526 -0.06898310065820126 0.6769060022921839 0.4475143111557166 -0.4703406193725317 0.6204336777653061 -0.931375976367478 0.9597301804921841 -0.39731975459868285 -0.9251070823722376 -0.5917514799383128 -0.7062224836989249 0.03531809140996468 -0.9739954578079433 0.23032356056892841 0.07697279531035973 0.8504021755098536 -0.6245055204649272 0.9397784866240567 -0.21755292327315348 -0.7030306544206294 0.260838806293784 0.1917644019800789 0.8182790792575041 0.444720776886803 0.2393267842797469 0.007695223524431113 -0.8974675673505227 0.6153313262915208 0.6658831648368799 0.5512864990175439 -0.0051934318459375415 0.062035112417623745 0.6730252076927796 -0.4050078775021999 0.5608850276332025 -0.5013351167025644 -0.4876842990423902 0.6457930437169626 -0.4722018545675928 0.17871815176219788 0.7353739274359656 0.6726795697900863 0.9548421067834069 -0.8322763615910789 0.4336161040025836 0.731103104816528 -0.2165042988331364 0.7785955712427705 0.6069507201487445 -0.4482162219751354 -0.2348947315599584 0.6069549875051898 0.16900767727228186 0.8063746928880692 -0.4365941687621196 -0.10453847433537004 -0.313455569054731 0.23223416779355346 -0.9110887418332594 -0.21338445079685145 0.7441184384063663 -0.8054625622604095 0.3343574589016316 0.5147912987299137 0.07400623216827884 0.005492968866848136 0.5774046105546153 0.4994236619795978 -0.46091989326354127 -0.7782651670292213 -0.5690688966836905 0.5497425957951465 0.6864445504282095 -0.021083676385148527 0.19222356047771516 -0.9582795871018936 0.7265835620044351 -0.9143887073853288 -0.054757400849817194 0.49719936453439867 0.7077939131170852 0.7238107911539654 0.4515372808131869 -0.7705409734612647 -0.5964438309218136 -0.313172871602704 0.4896401172618407 0.5718062597544356 0.3208402584494361 0.18829718744288426 0.2886703808924338 0.18239321902885197 -0.2466093151662332 0.316428902137865 -0.7123256341391977 -0.16440987395846962 -0.7432266822246248 0.6674096875669561 -0.3591356316209205 0.7003945361428261 0.6947277407186466 -0.014026843897124565 0.867937461787482 0.8808233646175075 -0.41666563411135 0.5075588814541846 -0.31567451745873326 0.7149513496386307 -0.8029310844583426 -0.18081032092589186 0.05717198927908612 -0.19611753890013467 -0.6700205812628075 -0.2126934851167898 0.1272517289360786 -0.6613012890081806 0.10499154693221446 0.371824329119256,0.29281055881264684 -0.9874591847702492 -0.18406736157451475 0.68409655481837 0.6397297797024573 0.5337982111948829 -0.13089844352739566 -0.6126051092155143 0.780472738695503 -0.4866344047700042 -0.40206725704559254 0.39069216286016695 0.39581338470381355 0.7587795954288142 -0.04938534409890116 -0.6232434734838403 0.07571419574084448 -0.8329348552231384 -0.4545433691954195 0.8357361784156228 -0.6573165141503825 -0.06634011239696025 -0.3545739689120406 0.793353744635072 -0.4840429668939916 -0.7758694574438283 0.616004024264122 0.6026565661395191 -0.3490360998639055 0.7310148903862141 0.5915097353579952 0.6688937240626871 0.8067445365115644 0.3554940626728244 0.20746247909827953 0.07954189269949094 -0.5935323208420685 -0.6070855274201569 0.5350327330128478 0.8952892305224723 -0.029303094940005547 -0.6340241992084811 -0.42465557601842924 0.4067058600777994 -0.9475950905296182 -0.5046811482221257 0.7357189968908626 -0.8779228191275745 -0.506433004538474 0.9296585701581159 -0.9870212156957328 0.8726566321180196 0.8570072452228579 -0.9973175602101079 0.030206381635152546 -0.2657011636024449 0.18670282866478272 -0.3277130017398455 -0.22044087051766972 -0.8010100169977448 0.9478521081312086 0.7664124664924314 0.9644166354476181 -0.9388146135595545 0.6654391769059493 0.014547368585597277 -0.5187556217448193 -0.9825684266060801 -0.07737259274940342 0.38806305678525504 -0.33089918411510655 0.9132866422802005 0.5875372903575857 -0.30425984814197604 0.7120965362024086 0.0710326762340764 0.7089246025503168 0.4921965448197259 -0.94369804855645 -0.46446252429699375 -0.05361583257240248 0.6055229445822008 0.3807899475159695 -0.2858169542728559 0.6267609437495365 0.9187398115158163 -0.014351021098976032 -0.2500444533432181 -0.0634183587312938 -0.9602825171316434 -0.3047329851728689 0.6860260502918868 0.8436555864495191 0.6050262578162124 -0.4714048269443607 0.6651699042787806 0.4176972556108432 -0.01732631119449828 -0.33318411652039726 0.2570400306363193 -0.5242072661746178 0.5057034542749248 -0.41640423950723965 0.8274294586561868 -0.6334207421232925 0.012960761940819571 0.9963646633615587 0.06326319763830768 0.8559134431341483 -0.2472107619985585 0.18365680137807222 0.5167064488905968 0.6052399843338439 -0.3141555350431908 0.13578086425448144 0.49766136276116907 -0.231732923885913 -0.7104720545227574 0.28410114470419395 0.31535562933839456 -0.9203311122286201 0.2942319685963804 0.5043369447131705 0.04180466590739406 0.05463895946813615 0.007961689482790368 -0.3428534047750717 0.048784745612154894 0.01675243387031337 0.756602078880957 0.7345034836186035 -0.9362488249771382 -0.49182696939462417 0.5745472264376748 0.8230804019034285 0.15875530723876993 -0.29182651344228483 -0.41223393041731227 0.7899534453605147 -0.7389389516635794 0.07659703062287115 -0.2043981992783388 0.08644021677204708 0.9110455861534332 0.6306940555878031 0.8004236951744275 -0.19469193486590256 -0.6158152147682577 -0.553739478026989 -0.30838896870290866 0.19981662679483508 0.11093816946405166 0.6475568513947454 0.5276661812106666 0.49037042005516845 -0.27901328176508294 -0.6963798747943767 -0.6375087055683254 -0.41958631679423253 -0.5741502931306448 0.21517079056673616 0.20954893196957441 0.28737300137927435 0.31895787303742135 0.6687141601762348 -0.2535183798657249 -0.6902810141695725 0.5674313879227122 -0.2874651590693995 0.743433961759612 -0.9750554290663395 -0.421205414620945 -0.40722414499938253 0.8168859060722369 -0.02749295145296089 0.3577359293515836 0.5078140134750012 -0.2104619330378902 0.6006853293826271 -0.8397129672784357 0.8031632207203436 -0.7790223083965903 0.09965994810131233 0.1099926718011173 0.8684581646057145 0.48045495786071846 0.01681572709520818 -0.29656614634774076 -0.9344876909808896 -0.8619712684285952 0.878117621386164 -0.22241130213291 -0.8852890376133422 -0.5509448060081346 -0.08427600094142546 -0.03893655950556575 0.8985604186412341 -0.10582644636755578 -0.2604206240962526 -0.1294390549023621 -0.3976663628282884 0.7276739319655035 -0.9671761204271416 -0.2662388843070217 -0.5792579714931144 0.8945082321071248 -0.7776642625176593 0.4495576388518728 -0.05757612927949881 0.7524904911956534 0.09767051587633406 0.4521683327990213 0.888285749077935 -0.4182653329970382 -0.5686790337882756 0.7245297416632335 -0.5905484988863741 -0.2894160106353209 -0.9831655578685085 -0.4437976872490194 0.2570333729247322 0.2860621574494655 -0.9272281225846053 -0.8896678792018549 0.13083824683923861 -0.385302067004156 0.48377572462782104 -0.4020971181422019 0.029375610157903184 0.8001157052860498 -0.1340515497381863 0.32349936781208016 -0.3069081982858411 -0.15753121011281998 -0.19435677979834867 0.1539183145458356 0.38150541827446777 0.5779558102157778 0.21833782460585494 0.3327850830574991 -0.26151835331069695 -0.7663620178918579 -0.055972184590263305 0.27467277491398534 0.7294020505295382 -0.3785980679439026 0.6256092908161136 -0.9286050434390972 0.47978754294653725 0.2720762648054157 -0.8929750396970715 0.13778544755240713 -0.19688507958130752 -0.1323818879134576 -0.886449606813969 -0.11476238593837766 -0.31791968358455913 0.5227663125842383 -0.5670953350116958 -0.15660378458038118 1.0087533674388052 0.4250052100599561 -0.26594445852341864 0.5684385477083729 0.8410032514275564 0.5620853432714727 -0.036489619358751696 0.09585027050895974 -0.8854743023038812 0.9629340073448671 -0.2827237279522684 0.7137255546896206 0.925867376204333 -0.6623646865501945 0.05189693687490411 -0.8740084492933063 -0.7274093547619543 -0.7729083168829252 -0.3809324366274707 0.318194871965668 0.00827996278028964 -0.43248405194691564 -0.9109368087636766 0.743220195612068 0.11907791136540091 -0.23383734597271236 -0.8324351569721955 -0.7948083937220237 -0.3293807910221021 -0.1695384942055809 0.4218467221454248 0.36463249176106344 0.23326439836342916 0.5466956942558316 0.4116561652099636 -0.5646840667161285 -0.9014963172092172 -0.7977481649640888 -0.5402979110689217 -0.5302924343570848 -0.4216907414969432 -0.39845250517113645 -0.40246827565777255 -0.8433103065016226 -0.9651135180336211 0.013725705968365896 0.8263640072102361 -0.5265501820654713 0.9462059858918728 0.43209880122769573 -0.04530198338633209 0.6376948983439535 -0.9168575940082583 0.6152138769710999 0.2992676708774629 -0.15270569206667847 0.5840515328244802 0.3994933363527511 -0.6205986753972842 0.17589930003664386 0.6607964717876295 0.7537248817212033 0.037832993040812946 0.13025155890997123 -0.5073669265589037 0.8711153345598572 -0.26721158971422543 0.270751958709553 0.637448432864278 0.8184590319199839 0.6464242657366418 0.5563638021859509 -0.06079740642542124 -0.5505094505773005 0.7656775745442417 -0.8750586473223823 0.6406297581705773 -0.3179965926606206 0.41209011453657607 -0.18010085954300728 0.1463315672873431 0.8358753035461095 -0.2825705765369059 0.9045500985367404 0.058726237002561694 -0.5484584404697526 -0.4739826132490185 0.5191861460485999 0.615323559689816 0.9425825577379863 0.15426407596509156 0.9091984822584576 0.8354009210009241 0.5000758729187296 -0.2388124064022579 -0.5596641209556019 -0.27955097134146495 0.6353363884883213 -0.3636046449492315 -0.312941087358796 0.6519219268608305 -0.36246424576233266 -0.21368906462412293 0.24139117934592857 -0.378446055151882 0.5115530424183201 0.9548831930790689 0.3054171127424026 -0.5630218747482773 0.5402438905187 -0.6929965776193793 0.3347384238055459 -0.9829004201192895 0.3789101162384425 0.8237228243997313 -0.22219656208230523 -0.874157649364831 0.9528370567554624 -0.28265945287358857 0.8864324501495146 -0.837681781570191 -0.22184707195383943 -0.3786559870133062 -0.005260294951700609 -0.951200031671825 0.2642312746449544 0.7160113837293168 0.15340666639016418 -0.8003896376281417 0.09658583767771303 -0.8956331186206992 -0.145418879091873 -0.3816435530010394 -0.620830853612017 -0.4781404389204378 0.7399084116048589 -0.8815323768566614 0.15480633860007836 -0.47642726733287705 -0.483898063739459 -0.5241876041302714 0.8150910870757415 -0.2553501566668221 -0.10135775309778557 0.7595840185799776 -0.8343416142757477 -0.10452156344225183 0.5629747732441763 -0.17764602639030436 -0.516008445172618 -0.1665320680835223 0.40245342418435376 -0.5311769226516295 -0.5222688308174791 0.31385147850493966 -0.8489891910401669 -0.6086643346325902 -0.7983763990477218 0.6402352316578769 -0.333263571419713 -0.4721029301566606 -0.4758939067757789 0.14372281735518 0.5995181369590742 0.46667833641806306 0.7274972028985269 -0.10162286497029749 0.9625705483603323 -0.25882550729035547 -0.4202395600310619 -0.022069672513613758 0.8290206808472502 -0.3554770400269204 0.8292412253761556 0.37607833955365644 -0.37248997697896136 0.47480238160862537 -0.6302283176547249 -0.02675898990212927 -0.45097034307534317 -0.7769600501529854 -0.4762459705166421 0.8954321282753721 -0.46827762013122054 0.14345521469783706 -0.5120876949837527 -0.9701770245133987 0.3019803088468588 -0.18051649753883248 0.9131118194342553 0.45361252279847253 0.3442414986412341 0.19068846627524208 -1.0103997446685036 -0.7854694313748635 0.7723976295821445 0.772109761478211 -0.5269776254021531 -0.3918600406867398 -0.89988192282705 0.4745000923674823 0.26311332695540496 0.2660011894890033 0.33351075652409035 0.8481673650136388 -0.6803904664614845 0.7912178057898296 0.7193418790691054 0.813267325596235 0.9710004163617423 -0.41128955531279016 -0.9281032604130731 0.10254806180442688 -0.6756995945510901 0.7723464541877785 0.03916582158390415 -0.8148617868797559 0.864606788661625 -0.9637824229601712 0.9078005170655703 0.7598031324697406 -0.30344885566634533 0.7121692811516619 0.08357871761396503 -0.10310406138727712 -0.7006511000396038 0.7535023680841249 -0.8010279976116997 -0.6661376917111062 -0.6333032593598457 -0.7151181843410311 0.5538457173854621 -0.7444626266413795 -0.9760644284353155 0.19646560390326404 0.6600650579576878 0.8731053260469306 0.4772096284863648 -0.8620126497749453 -0.08558242205689294 -0.3879334827649695 -0.11630993290978285 0.5435670266234781 0.026644788525427454 0.28839561838375444 0.7854442345330455 -0.11511310499796153 0.16642261392434063 0.15937735000083525 0.4438116124772885 -0.4043343430284852 -0.16960090124896382 0.209572512276998 0.8203282053545121 -0.13575400467206522 -0.7767597346783479 -0.03994344471546637 -0.941234897394443 -0.6945790619276987 -0.5641505106340164 0.34788901009216505 -0.22182246689845544 -0.8431471940216544 -0.8943135513723479 0.6985143502921727 0.9158950547188708 0.33062462469377174 -0.8601488868111439 0.6287169222403161 0.16613667716977126 -0.6920242444058141 -0.586953580931221 -0.47761392609078035 0.0589853391382069 -0.03532271081250681 -0.47161185551155654 -0.7235842144091854 -0.6666052193963646 -0.4629578079187609 -0.5468154812121926 0.20146113667522364 -0.6737008087676558 -0.024144513345971026 0.08167003643592524 0.8638913156760867 -0.3985981339933349 -0.8150755108234969 0.6425560829648691 -0.2570885975970069 0.5941664614117412 0.32216007307613814 0.08907705299476949 0.5815257668539985 0.7658354208740297 -0.12602217880216013 -0.050916192755735536 0.31139611969296893 -0.9765895353868898 -0.6832840486231437 -0.26533786389167374 0.5657127377681699 -0.8881533824406039 -0.5840190961540033 -0.3131313844723794 -0.7372081688925104 -0.570791141867658 -0.7418754036358581 0.40138285963736714 -0.8693499017358308 0.5086641146654343 -0.5257823447767225 0.3602651622497825 -1.002588450198127 -0.9433542304851191 -0.3066494151343997 0.008967475440124646 -0.9870568799021073 0.7143211438732011 0.4751006420927688 0.6290527222159226 0.3018251831544102 -0.8976070502486813 -0.9550873651134001 -0.8895935565152382 0.7228344107642543 0.990181513896692 -0.3068848246783459 -0.8819230731442129 -0.45016177317964856 0.7508041900057348 -0.5995786793360128 0.3883146831178621 0.44784417492258155 -0.8006645505882803 0.627608564415234 -0.12905902297360458 0.28186517315774595 -0.3159723497676598 -0.3098965872145882 0.16301377966136904 -0.6003733078191512 -0.24997237264992134 0.8019486006550246 -0.7868512473533488 0.47575558830832293 -0.9318282246210179 -0.7931172371195152 0.7953339349186886 0.910684857706709 -0.6898242449961846 -0.28147908408043804 0.27925811462333483 0.5398773043457907 0.7041306549815477 -0.5350861951066306 0.3736294561068447 0.7922318942745112 0.5416914708863575 -0.28264717297845243 0.05006391161695483 0.8536386868979436 -0.9295554165544577 0.7625887704687022 0.6840547234414374 -0.8209139735006847 0.1932695938218527 -0.7959611275186086 -0.5827909255876825 0.7288584770206396 0.28865640825721534 -0.8498633565834982 -1.0629924097712602 0.6254926156070822 -0.2844668796634466 0.7944133892719861 -0.8182300817324347 0.7712068905609957 0.1592985268503663 0.9318758320812209 0.5114415544972603 -0.7443757851457949 -0.7250732681887843 -0.3232768363663585 0.26337895938082645 0.25947298697214194 -0.7276126763638988 0.04349307492629044 -0.48536628642085 0.6943649087914169 -0.7705320889268589 -0.30374657418136364 0.7474104398419303 0.7741902732655985 0.6180867009776558 -0.8309173666928764 0.2747689052275563 0.10119517227115639 0.08090039353458436 -0.2490912363048235 -0.37205178646528747 -0.4356118114946089 -0.9268640050771935 0.7034465097150668 -0.7866601299144473 0.40985094227116303 0.6856653821950375 0.7880489569023829 -0.7538129643365217 -0.16737081956754918 -0.25641138595190516 0.1307055854443286 -0.4302518619739837 -0.8448655467146065 0.633620975028484 -0.823883049449231 0.9248024660949087 0.8124839831522471 0.18052587697919145 0.8855740778446531 0.44076399344355705 0.40751591007949445 0.2258934130053164 0.7401513297684938 0.25915767611975277 -0.6108362672005304 1.000995453781123 -0.7661087069939415 -0.4111488523623971 0.27724719336482256 -0.6028663356255176 0.6617164988038281 -0.9640811335578778 0.6604604343976852 0.8471881471468626 -0.6681300608904549 0.15470519948902725 -0.1919441325700547 -0.906783459265193 -0.6833381153509293 0.43092870118705284 0.23517477823915245 0.9749965857638971 0.34170133779444173 0.1869756236832426 0.7598864586274902 0.0493161830945475 0.41516127622162513 -0.08788856981448265 -0.2524951133432063 -0.9838955808331914 0.8860914995559459 -0.9381784312918348 0.9290474555867119 -0.3026675073938965 0.8895738379469564 -0.22614707884877247 0.29197057129894183 -0.13157056044285262 0.02785846563297508 0.30932140360805466 -0.7043549806218184 -0.455137660658489 0.13764011319848957 -0.129979178203954 0.2768531863372056 -0.036979189434396945 -0.6367955503622121 0.2815080329313251 -0.2144347745387427 -0.12831840476136236 0.8238517397915377 -0.6268774175257702 -0.0832521658493996 -0.3939047076908626 -0.07577890361215343 0.9338776527988112 0.8045512752975533 0.042711941872105794 -0.30905941739005865 -0.2815159834133997 -0.6599238677177012 0.7930270279830318 -0.172408717064222 0.7221737732553934 0.3117700935443371 0.7029180212640476 -0.8800207347183796 0.2824197134131349 0.6274747782703423 0.5796335978011412 -0.5826674999637963 0.05289382424706115 0.12345151909240781 0.1224437562450027 0.36935700608385424 -0.6785347283320007 -0.6238301625372069 -0.49945028685821047 -0.8371154869069637 0.7425288674839285 0.7041408139637426 -0.5314546010781183 0.6609540137319445 0.07918803806618452 0.2834769781791248 -0.395215997091148 -0.06696811724507985 -0.9144739621537386 -0.8035677309178726 -0.2785924919629618 -0.48503029818949017 0.23200502642763554 0.11556363502047355 0.9634545661771765 -0.6920577505059159 0.4666155756371738 0.8080556771648938 0.8746874995070997 -0.4568753400970698 -0.14378598026760914 -0.37592841210359285 0.5334251073954601 0.5439935197211716 -0.27051934192426863,0.6609691686314121 0.1042767516356049 0.3241348568878688 0.18227692916766935 -0.313376507573879 0.6244883772712226 -0.3700488222641254 -0.6055572997623431 0.37720205431961973 0.14116181040756604 0.42279527983711085 -0.6954103544304235 -0.561497886206052 -0.27651213927886986 0.552458854936271 0.017368887915678588 0.029571818576113795 -0.39050894245660195 0.030975648626964336 0.29998334179637176 0.1115209581121599 0.9577255366540953 -0.9811668799097981 -0.9696531803306037 0.03963101353410181 -0.14784557167034573 0.08541206211569263 0.7836765461503865 0.8838637593867522 0.7041123857323115 0.30551093214220826 -0.4014905984528079 0.4289168898143978 0.05942346230239579 0.5777180129000111 -0.6411797986955018 0.2517370993003887 -0.289601380689978 -0.04055901675781478 0.8057615980346996 -0.20664526956305998 -0.33965614828131685 -0.926591403615829 -0.1432740232676064 -0.8745523623888979 0.8458607149042973 -0.27811739685985715 -0.32265525256438576 -0.6241593856479171 -0.06039904252512551 -0.9572985656155403 0.1411433111944472 -0.24088971205092236 0.07725592341143095 -0.5564938279518321 0.7344486929028047 -0.8385469623167532 0.0563489176342824 0.14465587815376835 -0.18742472154136441 -0.6437415219593802 0.5135636213292611 0.4920466978609029 -0.1303712292313309 -0.8100160613509589 -0.6045851791051704 0.6784802819810398 0.10417050467226248 -0.46861020919321156 -0.01214776631692878 -0.01226201990498781 0.10666403881899182 -0.3630809169812783 0.46969604703223783 -0.4914611191830364 -0.537635904752343 0.4269975728849808 0.3255509506492692 0.306186053362604 -0.3721742923627271 0.29175658597693643 -0.046675419882112434 -0.41913260036192646 0.12176668134421154 0.8053490872792335 -0.3576910160681108 -0.3156338284258071 -0.9764269828668175 0.6418585365068951 -0.903801713206922 -0.3771103701278263 -0.6168965809798679 0.2703506606213628 -0.024046809954938846 -0.430032075795535 -0.7707406960005895 -0.2095611419531711 -0.2736404554558972 0.7046157181907018 -0.8928619632024309 0.342862140058898 0.23377356912981126 -0.009705721836007432 -0.3307691982839731 0.7310623623852862 -0.9005055349619423 0.470750591316121 0.04132517443683786 0.795743642152532 0.28117343861903454 -0.5302918370359986 -0.04140774084230925 0.7576940230868976 0.17809821203540066 0.24746557908071568 0.4633781074581373 -0.24295390202310602 -0.6990764774505654 -0.3350994591658494 0.06961823163200032 0.3342697088387671 0.9619028391833653 -0.8468419970305106 0.8916091479360841 0.8863805557491535 0.186532957816322 -0.5898848258024411 -0.5222399106931291 0.0952144724812129 0.4893271426831966 0.937472085508584 -0.8419922318387889 0.3931377863971875 -0.8845330944164994 0.3178016832587296 -0.9510608368404961 -0.11435127031235313 -0.29770809810885 -0.6888612985646307 0.914815363080598 -0.07482308389239911 -0.5545919383013294 0.6207840437937389 0.1944982008920796 0.1436186965789255 -0.22286573350501582 0.9615074259952048 -0.3655413872263543 -0.8973048046104524 0.1748400922347481 -0.7754901793127683 0.3929125610984853 0.6743017215598004 -0.9195875145736965 0.4287956134074249 0.1085469267107939 -0.9621290103232331 -0.978116269375929 -0.37892495349676525 -0.21767935280869444 -0.20370497958953193 0.492513966005704 -0.6609612225385626 -0.7698335627358853 -0.8428422100714298 -0.9854904964713027 0.785413795384891 -0.9686763158635392 -0.17513753377272012 0.6409651009485986 -0.8752772052255988 -0.54229680065207 -0.7369790536808494 0.14739195978388492 0.594622864550477 -0.4537229731992219 -0.7629738239067881 0.9740431565182348 0.8290144250550114 -0.2989218400188232 0.3200080537577984 0.9936788723635986 -0.7276058364760544 0.7319072493127662 -0.44620150720597385 0.28952442665783085 -0.207807269332634 -0.675302205149742 -0.4394100417860426 0.21045504062086373 0.7545232926356225 0.4523025803007157 0.5095230751058372 0.6196829173578956 -0.9665236055989117 -0.8139154670345589 0.15971902841683105 0.6297720477973344 0.730167065601344 0.46158475684081385 0.5594144306795821 -0.7234924676346911 0.4893921746571416 -0.7705896891540428 0.8672579872904738 -0.1151557994829948 0.6176055324571755 0.5334365771584678 0.6325199702550673 -0.7217796079386298 0.5111502840547723 0.3494313354906737 -0.5039362587930623 -0.6759426862515314 -0.5473318865562897 0.3310989106731338 -0.5665516673034778 0.515773694928919 -0.4139766444106768 0.8517161893184884 -0.108579675086272 0.4680575271072499 -0.357575959091587 0.7652170761887425 -0.27715072827327236 -0.3006436485607975 -0.15621780717849257 0.5974690286075889 -0.8729432143804615 -0.49016141985585643 -0.5075271146637531 -0.9103096334818161 0.9204186626292434 0.3257942993892365 -0.921473268072253 -0.016248335379352923 -0.7958274608665895 -0.5091069616103384 0.20261461793101457 -0.3962133774101864 -0.8936726661773512 0.9565416564028902 0.6890715286763606 -0.3277753592918723 -0.6141753107821729 -0.5514771775205306 -0.19055234543673547 -0.5500211343701809 0.8453348337418077 -0.019526748850429255 -0.5103118671706036 -0.3227921348599271 0.16589690042034988 0.18671914457485408 -0.9049777593872109 0.8707105126258453 0.8916773786293773 0.11226790687181959 0.4381163080608389 0.9712329497180142 -0.06528035510793012 0.3812263994536692 -0.9983466665453725 -0.47617544366583475 0.3024087191091986 -0.24141111537254564 0.30380046256566545 -0.6441266133472358 0.572551693092053 -0.7743915484614985 -0.04651432328257339 0.0867800822568699 -0.22386878210957373 -0.7131668399828518 -0.10777957094887886 0.5905226341686345 0.6627418888157595 0.10384495388938528 0.3437545327402794 -0.35790861932877416 -0.8846407451129235 0.6965939737904608 -0.4339024537013155 -0.9714414821034125 0.5965170882908849 0.7114043591388262 -0.5347174538675133 0.03689316532391028 0.3527372295675889 0.5036551007195769 -0.05256940264177614 -0.6931887428704757 -0.4014343198639503 -0.5060245182889302 -0.7970271198494845 0.9218434541210162 -0.33935463367808 -0.46627351782498033 0.630683891563146 0.6165503385697658 -0.2723542325322769 0.4795497339977237 -0.8377726600040771 0.9176361157048343 -0.24391594134038314 -0.3167261620476664 -0.31874761112418487 0.2826940985086479 0.3959582508197609 0.2280214221595645 -0.16278641144382008 -0.5441253540379903 -0.9734133716393745 -0.0899711628938106 0.8182488988096902 0.12338507446493119 0.9729692664446256 0.12841013304165322 -0.5965492927536393 0.13671574862403693 -0.026206900134963775 -0.5954021595239378 0.5179253998276525 -0.881053773883943 0.5786050261407786 -0.4506770074054622 0.06685071827696329 -0.48927970548868244 0.6644194940346553 0.8744820897373763 0.7568225780113753 -0.6173788547472764 0.28239024440592697 0.40964979155211045 -0.43998166284818435 0.16059443097291226 0.4386911253400795 0.1232841163342728 0.7282829524255412 0.06369131520338342 0.8936104965530295 0.8915810648786033 0.784014610214127 0.7084612987228274 -0.6727584859247536 0.6758704395670612 0.5517145516317263 0.5844423760352048 0.6231236117061902 -0.48785254997410765 0.8516608442908323 -0.8649769264236742 0.6978866386290992 -0.36209211009736936 -0.33094116499353815 0.9223503603585307 0.6400347049181663 0.7416273110017768 -0.5068977911499812 -0.22535425147201174 -0.048107454889985225 0.1318052902550556 0.7289901531923576 -0.779323972680423 -0.06866942280360755 -0.92711725319212 0.976215058692508 0.885425004494529 0.16887602125415163 -0.38119561974838484 0.47152949839401137 0.30300522404751096 -0.23245666756297714 -0.5117616634300416 -0.21138875041277733 -0.8254036715527319 0.2994390020408372 -0.500265673680318 -0.7704063426755123 -0.7911974664133419 0.1144995241247059 -0.9078869980064052 -0.24877905770599926 0.19736076631003802 -0.06241506745086721 0.5911174808076027 0.3644130612947305 0.9014929651999992 -0.5820862170733617 -0.9681385510376197 0.39790665440548595 -0.0073874496449008835 -0.17721626155904469 -0.598921787073758 0.9726255108497047 -0.7296780986028308 -0.11395128232977043 -0.47219992349078205 -0.9172008090894108 -0.26551707869691243 0.5546970983863492 -0.5913009190708682 0.28881241879438324 0.3763227124585123 0.3566159453907713 -0.3016552857306087 0.3174279035036669 0.5623597286038055 -0.9007134721616362 -0.9912281923551273 -0.24078918853514272 -0.9391367438587067 0.38669569446300317 -0.23902237095226006 -0.9616505926110368 0.08563256014842033 -0.4668832908085403 0.9283340508165301 0.07770123236640566 -0.1244077568798467 0.33361169942378543 -0.268333396247584 -0.5954962998960852 0.47947966866571257 0.2557349161673312 0.33643766412086124 -0.12412387687033229 -0.8370918859240175 -0.908843133340127 -0.7943277542272188 0.04171455468915325 -0.4829308292545377 -0.6177899199418769 -0.11205659605393146 0.3642088042656397 -0.13233668338179333 0.7970978704838763 0.08465611752343646 0.7660742020903735 -0.3834588292142307 0.4133865820273732 0.3846691110271496 -0.706029126830421 0.718760847056889 0.7927668023616536 0.5280917799265125 -0.5343645983163766 -0.48318123987967576 -0.9577598223487613 -0.8423960400495978 -0.04040029874727942 0.23685011250826174 0.2542268934928591 0.9223436012550404 -0.14786392391628012 -0.3133972522515017 0.8527795515248957 -0.35398320424862606 -0.664468803472136 -0.2893000715446945 0.32373500128489247 -0.8612461107186178 -0.733474193134103 0.7000454406391484 0.6927375378168876 0.027072374058066333 0.15836640873898136 0.09099629580811297 0.3170637237154517 0.20845308418447556 -0.7541105240967164 -0.6451834002728623 0.6473892066333609 0.20681285482721995 -0.982701407291844 -0.4188165154210634 0.7327431215882452 0.842583499837823 0.9513236951726244 0.4656242773877569 0.7086081471333024 0.18992536962852594 0.177605209114576 0.3439498102013976 0.9737244474038231 -0.4613784998244267 -0.010571653737126816 0.7545991154313088 0.8695100165452702 -0.38178368538037194 -0.6699584601553805 0.4612425905819333 -0.16508605859957037 -0.9990948244872833 -0.09199211209068905 0.12184878334374216 0.653732324392767 -0.19980984794941692 0.49503814204752994 -0.0011524031227394785 0.8141315962353167 -0.7794945433172764 0.583855800457571 -0.7064092081265492 0.1275552905059727 0.14396489930613252 0.7219716855122287 0.48301356359569053 0.4360482779609518 0.7843690884326673 -0.5614693065958377 -0.5335482054960001 0.5499023767230155 -0.8761276073896805 -0.919616099358881 0.05589049263066666 -0.5481191617026044 -0.3635658162669632 0.7635190219692886 0.21096332402441326 0.17286577386466248 0.9412576989148097 0.11038490073609623 0.22765760768264098 -0.12493784235227877 -0.8944001847391164 -0.43347729933080165 -0.9626840984314895 -0.8782294784550835 -0.6363741588850187 0.8156408721229551 0.45591431818230393 0.4583676642234713 -0.4599397694025401 0.8242121189732324 -0.5929282595276042 0.6521285404568976 0.9013012290764595 0.7761274282393674 0.8415997905007933 0.5551147025232064 0.08781987285504214 -0.383206649871134 0.6790269527792681 0.9481811416027446 0.6708702515436773 -0.7861673130524073 -1.0844673512694665 0.7587699748671365 -0.6604845927460042 0.3063627754788975 0.25291790774849426 -0.5569283693818367 -0.6553224988142226 -0.6314925407942663 0.3761170520723793 0.9261964803557496 0.21524007208459103 -0.16455299532243461 0.25528277898313706 0.8781016584925603 -0.9742732035402223 -0.02796708675894462 -0.6371729986284791 0.7529271848012801 0.1332270027016715 -1.0152935223490835 -1.005574599851431 0.15819261639552007 -0.6116993470860908 0.43349921620437226 -0.9480098512815922 0.7603100564443341 0.8027208957050855 0.7077193948832722 -0.8092563795079042 -0.08454283336921718 0.8999416682862489 0.5623678090789009 0.3581628467571807 -0.150149005535459 0.3228941376928463 -0.13332967630054404 -0.48307207652219053 0.5168494306168911 -0.75752197363349 0.44783221154380276 0.8530073028953373 0.6184092749072947 0.0015780353202722002 0.06924680032418538 0.6210036823114815 -0.6278021042819855 -0.6220611593786397 0.8532600461261021 -0.8840944456106051 -0.8872352717063958 -0.6933489801602518 0.8724581187818897 0.6727260273105915 -1.0160239873894583 0.36359374629590935 0.16965950803459404 -0.2823672941579844 -0.5363965952624933 -0.6434302007787787 0.8447991628942201 -0.6988705396219542 0.3078083124147887 -0.2708134156015667 -0.7839692406311869 -0.3225431575425253 -0.5779132917533244 0.3357557596742389 -0.2866158766725623 0.3415416776447495 -0.5777308949997744 0.4692114149514173 -0.33045797991416587 -0.8292412751042357 0.991191963480371 -0.7028313673494139 0.08215539073929205 -0.059470975430769644 0.22850366900092758 -0.6529261910391692 0.6987569039168762 -0.47424724234547 0.2748671585403879 -0.37626783585070234 -0.3208635977497038 0.3102034016620289 -0.36517741890863537 0.560016738464531 0.2855553684210773 0.6769254935993658 0.9102283334396561 -0.24856078842598958 0.6502674373319766 0.7742552360425521 0.7313342550730679 0.7271415023372939 0.13722651469625402 -0.3433651300208338 0.9424208430847045 0.6369724762774851 -0.7798246227738038 -0.5186082685842197 -0.03856563423625626 -0.4075065907904996 0.4756978148615829 -0.8286162436685609 0.8230972422078155 -0.4313900094759127 0.040807461801990484 0.5251506204577835 0.27841774606695147 -0.9207638444136812 0.3940762084522994 1.0253624138537738 0.09790260897079972 0.5664990416411672 0.8671856439889204 0.7111889038807286 0.796434995459561 0.2150270154107979 -0.22056206781107038 0.1373594273143846 0.47058078935322845 0.6496591461833746 0.6802768516586015 0.25130357032257833 0.7714235953485236 0.9377807704799268 0.6891242323720245 0.7826228216426182 0.941645492802623 -0.8614878838662634 -0.6197855623292899 0.45932108312824943 -0.17695306977500128 -0.6755959855499235 -0.24924177741957843 -0.6396309508576341 0.3788008457484779 0.02897605453904493 0.8418144717537535 -0.30946467376286385 -0.8081224251535368 0.858120793688679 0.06783351756774314 -0.16238971702412983 -0.8023244463393558 0.5215087546766245 0.37928216073797505 -0.19469486582651274 0.02980445249663055 0.9832917599339001 -0.14064960368369595 -0.6373161943414174 -0.17953750731134654 0.8232740009079913 -0.8519217162158268 -0.8935771803452196 0.6794511915436674 -0.8376492434210027 -0.962478688782385 0.16261970077194 -0.7666728103180529 0.9873731061400053 -0.8525107680853431 0.9370960450290323 -0.9990954740006546 -0.43179248710003676 0.14908939325996973 -0.3639803253014059 0.8770422842645842 0.3930946266914087 0.2667212966431535 0.22487001936270778 -0.6059605246316516 0.6085595279809798 -0.2625207417477795 -0.8980476414767602 0.49555691912614175 0.4131626663293816 -0.7406368019891962 0.17603058952980066 0.8224221249666057 -0.925936987358227 -0.1696833292316524 0.6458066696783562 0.11653357262560655 0.26691630228388513 0.0863697600114644 0.5913820656709595 -0.09953023957925139 0.09325891826929454 0.16586881951968943 0.5418209491140474 -0.3274249435082203 -0.8929875580463384 0.4441629825954469 0.28609240544654135 -0.7226251688220418 -0.5243322311728733 -0.5145781058989843 -0.4166249802893029 0.02747727336552959 0.4857182529656913 1.0034696814974187 0.7647941943414267 -0.19515318123468783 0.4604537911387112 0.15167369190567803 -0.3619830373534201 0.24358841991273317 0.49494198728788774 -0.6024877306148579 -0.7273751698172681 -0.4485841568304907 -0.9135171837800962 0.5179612904802042 -0.46302602188618025 -0.9673912645782775 0.6585297852809611 -0.03393693399965863 -0.010973933745135092 -0.6012861009106413 0.9851262663627877 -0.5204844901429917 0.5215480993919841 0.20108631258601084 0.9001878039702936 -0.5425550735655533 0.07549469008211467 0.5017631049677527 -0.445659284787372 0.5711982335492727 0.9096610730735207 0.4734630490995311 0.38366580894060087 -0.9001507720624744 0.03457314823206459,-0.2758461684951381 0.34887282755438775 0.2843974792911923 0.980962389971292 -0.8479688701171177 0.5519198045937854 0.7514202185238286 0.9073361462954612 -0.0069308839974464576 0.05679007118336332 0.16178290572058796 0.3430709535388401 0.8876883205985071 -0.5960614271167178 -0.5397278866917129 0.5001852870177532 -0.16035944286056147 0.6347587515781572 -0.8449566941575841 -0.48204250512094315 0.0891514675698235 -0.2837736854747277 0.4452095296013945 0.5888690429476109 -0.2105136684394271 -0.20889022081534536 0.8214490745459988 -0.8779756507602698 0.1571709803396486 0.026840022480412395 -0.18999151599507513 0.907749237738166 0.4157004659386481 -0.9841949347553521 0.9646673532547979 0.29419994299983626 0.3189278220093202 -0.27172279125303767 -0.620706513972317 0.06234974472161621 -0.43191830727741215 0.41317896661572184 0.7149443988122292 0.9307173913300278 -0.6125270005447208 0.7391733658620101 0.618384011631762 0.3478245981902338 0.4914175346358171 -0.26645210400153096 0.35102405282192345 0.299360576617003 0.86249611452897 0.6751240631070412 -0.4944866335627258 0.8873856567311493 -0.14623452944166515 -0.3630465993939467 -0.6785836153185982 -0.4800702702568361 0.33008919480157234 0.9077741276922727 0.011123329437202864 0.5574406311196857 0.8197630247734375 0.12458372436352762 -0.8741215387911586 -0.14142567476549694 0.4095932642492657 -0.7681961954125336 0.5140712878222772 0.9434694191989609 0.296286861672856 -0.244810942721605 0.01018664412814603 -0.9198689113128821 -0.032666095405593135 -0.23299054962415314 0.9407180128453925 -0.42923113867123924 -0.49363615882191514 0.7362001546233816 -0.9399993617824205 -0.8058326865181185 0.7626827888742498 0.24022387735001116 -0.11246159023481188 -0.7259057360908151 -0.9721366790745982 0.45620297711335456 0.13057215735251312 0.1766042901647225 -0.17396875346190033 -0.8546452595669158 -0.6083629619156807 -0.11907464276726223 0.8209330585183576 0.9363289302230293 0.0035141713838723857 -0.4060742795298588 -0.34541867697701933 0.36120546492333216 -0.8636099466616242 0.31960468046327933 -0.7055005623404924 -0.2827539236136245 0.46495974160918685 -0.919106143241973 -0.6489840655710902 -0.1910360686985947 0.7607615816959012 -0.4539055794072555 -0.045133681494065936 0.3385536037654262 -0.40082692224027916 -0.5399869877927972 -0.08851962354777529 -0.17665210986838578 -0.8489196104857082 0.7672247940395251 -0.09777551125737867 -0.09050350383664624 -0.6268309056855843 -0.764080343711786 -0.38262108412681095 -0.5625593349549349 0.3108915721907359 -0.09109126096110583 0.2219551009877808 0.45669076757146804 -0.4599163190140938 0.7016710701456165 -0.7519622077233141 0.5643664134716265 0.4018132473372679 -0.9877896060788127 0.4084447198217662 -0.314838614831299 -0.9946071331228588 0.40977853440120815 -0.2761878649644658 -0.3475622084702368 0.04121272556924546 0.25937558074993816 -0.11865797672107653 0.17225251174881664 -0.3273269782680055 -0.7672583216307141 -0.7703113423606822 -0.8534008608074248 -0.9382212077534182 -0.9854885410127547 0.04206435688022761 -0.09901187529482587 0.40935669921875323 -0.44406589591570345 0.46746863441472614 -0.040327871676347875 -0.15556807036555786 -0.13846682624532242 -0.5490015298490941 -0.23458667826251345 -0.7046069758922912 0.9202986228082298 -0.7283947580892481 0.176982089490556 -0.8065174449271179 -0.5379776447170201 -0.9363358443952703 -0.017978658151197147 -0.3292142985691486 -0.2981897856639966 0.7324231935238591 0.05664428794669671 -0.7448703709768121 -0.9142247321844039 -0.7475488232514558 -0.3734300730910138 -0.11153361753748606 0.8052016776893487 0.08092881767249305 -0.9259694512283635 0.592012023406841 0.48389846359167865 0.15301593358877622 -0.9028993740581969 0.9218706561578532 0.041496633777609725 -0.5908306712973836 -0.6233661876732325 -0.021861443987568036 0.5598062185099048 0.8222657879640876 -0.6789734684311267 -0.6203731038021312 0.48197827068483795 0.4987357397972319 0.7690830506888513 0.17392707906522695 0.49904728807105225 -0.9398470080337973 -0.29126522947748384 -0.5530669307959726 -0.4556368867985412 0.9509470264753962 -0.8596365283069424 0.9102128434318617 -1.006152060492372 -0.04960238402010118 -0.3480984499800886 -0.30942431797248543 -0.09063322258087053 -0.3547682569750127 0.19456827778762614 0.1713182013297897 0.8244000460606515 -0.5309759013318812 0.7049680055549858 -0.8849155171525086 0.4498635147019784 -0.06666681712395293 0.024357262973487163 0.29477787407205086 0.45613127560325856 0.2777052289777854 -0.8171129688111668 -0.3114244186939797 0.6894480936382077 0.3161739232034352 0.8736599039970979 -0.5193338797891595 0.637636601091492 0.711392643024832 0.6004077342249446 -0.9321723164065919 0.8389216661625364 -0.7472127865254572 -0.26697867259937047 -0.018373860542715986 0.3345693741434194 0.6879587823306818 -0.3763237370074991 0.17106805266105438 0.022922734666244546 -0.686618486414646 0.9387190384095367 -1.0261980738908483 -0.46658011438009644 -0.33459563370073875 0.40110607966587786 -0.88591490879237 0.6607346059038092 0.0022882747503502835 -0.1469697109412764 1.0009585804636403 0.4572146697332181 0.5101686863937255 -0.19863646944555408 -0.9972121237928909 -0.8474393824445917 -0.10737234271990567 0.7891684791696563 -0.4714155314383406 0.7900296043294599 -0.7204089727800915 -0.4283102019072344 -0.833742521383633 0.7215447502763799 0.21410129518090257 -0.5882834643127314 0.1744349742560943 0.7032219161186228 -0.5902947296021932 0.20641376331219352 0.7805164627012828 0.12935764323740762 -0.6827294802269188 -0.8953742840563571 -0.0538154725623483 -0.37935808731274695 -0.7641777371962606 0.06018569560811913 0.06630813152114368 -0.11442086207551967 -0.7017603000123598 -0.12482345409351144 0.3609093890709607 0.676253920505721 -0.457545070197253 0.5060276891359972 -0.7633189533419624 0.4511995688340946 0.2814541757918595 0.2032669852303999 -0.2588428940014625 -0.7189016651742663 -0.6345585148931411 0.33655710863104044 0.07721046899193873 -0.8508186770245139 -0.5042858438019727 0.6388113526965136 0.03297551218150262 0.37875609525151316 -0.9666224907220404 0.684851542532326 -0.17847966043658284 -0.06958400077515113 -0.9527487638311806 0.9425307841756291 0.3167892530672074 -0.3404521066049562 -0.7985165729722007 -0.32491237282060287 0.6487003807142824 -0.48421963155432796 0.01908344827114029 0.6121585350869518 0.06341068113714553 -0.9629285161849964 0.8386986454848714 -0.39045032207300034 -0.5104445861240654 -1.0918751365534103 0.47562632875996086 0.8085008263783955 0.51673148260853 -0.09677466831000675 0.5682461304846609 -0.8140684232901906 0.1636994021518454 -0.596047211735488 0.17715891210213755 0.7947078874568643 -0.40944820027842355 0.034053909387828374 -0.7733432352145476 0.5873644452627611 -0.6361244011390398 0.8122330916091345 0.1698774185127647 0.32890016842956227 -0.3659833303123425 0.20683478169800046 0.5947492642195749 0.8624670431022197 0.5607488692215441 0.5326452987139743 0.3422802791520762 -0.7602865038206754 0.3432963061779512 -0.8263227969391002 -0.736173669129596 0.9641257353467366 0.8487909697998087 0.39905567848958823 0.19859267014404752 0.8083623161325685 -0.11249623698245304 0.8378873661063029 0.14469153630712026 -0.7493895458219577 -0.3610476035384378 0.8857369086772802 -0.2942101704518456 -0.9169567260048244 -0.8159506291072736 0.1368296656685528 0.16898649032570218 -0.8194414285495378 0.5572751121397813 -0.3752037527541854 0.7368597477610996 0.0890069814699664 0.06883409392631225 0.3568922316587238 -0.7058308259348048 0.404795432402408 0.2690058112974577 -0.35904712290521135 0.20598195056536853 -0.9604998816044081 -0.06899439994449713 0.4796807018488926 0.7107711041836493 0.7826126072102166 0.7934748294728321 -0.18088806593313014 -0.2942780474774764 -0.42884777076235076 -0.6774867217148468 -0.23001565788176004 -0.6680933212656196 -0.8067239688334376 -0.8096262240333852 0.49057047791945074 0.5868129376123983 0.13998869595652885 -0.48613476526241234 -0.5053600376253585 0.13912126669291472 -0.46719198286711244 0.0948317654222263 -0.676725301345851 0.537019151204362 -0.2591654673069394 0.46971148316457273 0.7010342706961269 0.4324316208381904 0.6392995734891528 0.6639980499414772 0.7502139264446729 -0.41332130333587014 -0.6230260272935383 -0.29336305397935425 0.3858781043850731 -0.6257033188007878 0.01018478347706163 -0.5185257737946392 0.7224681936958763 -0.6367297430813236 -0.9664642767997191 0.6102534027899481 -0.17746813023689342 0.8722572344923162 -0.07735979649213295 -0.8865344428283317 -1.016076444462285 0.8851571009578436 -0.589893649724899 -0.07686544867016921 0.33823402486663673 0.10844727482375363 -0.22773129801875014 0.34791495253605376 0.7510354668514135 0.7460118040788779 -0.565960702877302 -0.6668467029118613 -0.6740244377226933 -0.8039293240204539 0.44039180546312673 -0.12063527260251178 -0.13461219995521323 0.8346344804101189 0.6946595844380028 0.9100307916533283 -0.8359779991789723 -0.4001829145389893 0.7708118826810899 0.13620508878534357 0.16968390324577767 0.1685329110057363 0.8797516311815496 0.49184688685714567 -0.8848480196610389 -0.9847114350078734 -0.8809627291533558 0.26829875997698116 -0.7200790100828531 -0.5564871573966793 -0.2164859178922128 -0.6250818186382638 0.20605283116208686 -0.7600867994203017 0.6399228421209981 -0.1095625384115221 0.3216544230354702 0.9792475707816546 0.7293341561305752 -0.6511391399927312 -0.7068857350824043 0.5656703914368414 -0.5901956535690275 -0.8438467964918772 0.685806903066826 0.41794443956130034 0.5764568284914798 0.8961534908019307 -0.8068235251330892 -0.8314528313418159 -0.9867775572810167 -0.5347691697124682 0.3704745780620518 -0.33750544437662755 -0.7147362695409972 0.5948694192254232 -0.005656727558642445 -0.7594643771030741 0.5059695472218587 0.3048742650420889 -0.0895652405483104 -0.7457933440262271 0.683795552120765 0.480673269264041 -0.36748669597725303 -0.43605728311305386 0.28001672166481967 -0.4750824685134686 -0.661670187959006 -0.22204446753178633 -0.0788239634017484 -0.22755099720512334 0.48332988788784653 0.3800491913658337 -0.5798665862514921 0.32312172560975494 0.07162964460262826 -0.16939106915614055 0.8269462101436594 -0.007528700222845823 -0.37442432589248914 0.1199240192395052 0.6118105667301665 -0.20947029648983284 0.6812091110722969 0.27220970434580516 0.5404727416657035 -0.8761014785568795 -0.6189271838205999 -0.24276503315979006 0.8691161092936969 -0.48742764905800745 -0.5275444030202858 -0.16897812380918847 -0.19990175675783733 -0.08525446696922594 0.9515636290167339 -0.7868691198231216 -0.8121426027920263 0.6129111833050316 0.4102524248236804 -0.7067213423896395 0.6752623756816857 0.793688828132133 -0.0799782813033955 -0.8214075921232734 0.8833815756333223 0.8659075175924907 0.12149515225882328 -0.002282441963995465 0.20958925442051943 0.4909068044814165 -0.3599709123295285 -0.5793015379148566 -0.712838693171106 -0.2607140607418331 0.4284908342493087 0.22389481240569753 -0.4825958101971932 -0.22107653173740127 -0.06451860411567113 -0.6436464618776337 0.09100898566311465 0.5331533213519888 0.606058686642067 0.16763921053303577 -0.46150329410969215 0.14503905736152134 -0.5268404887880507 0.911859082036407 -0.27931341336773147 0.12037740541064533 -0.16198050941504033 0.6451578260302894 -0.8122691477832128 -0.9290211984850234 -0.4548522014889752 -0.49390458931951936 0.29555141183884526 -1.014064272674389 0.026311077297843946 -0.003372105514261587 0.502172012385013 -0.7938238074700127 -0.2913654688037005 0.12612946955634238 0.9214934977126085 -0.011244325150003873 -0.051479064599964264 0.47789618233492076 -0.4827220686136674 -0.736833195772151 -0.9367293932537528 -0.2422551537864048 0.8267626021483887 -0.8994755116885982 0.03583615033487808 -0.715113802534326 0.10450693429529669 0.2731037600777226 0.7154394885478489 0.615411061919924 -0.0820391076656259 -0.34096787270396317 0.938543714056285 -0.7580178125152744 -0.6227014854680316 0.7713364097951365 0.7040871095592846 -0.04501795552304042 -0.11269771442353942 -0.36184711153762095 -0.06954954176446432 -0.7814564223067249 -0.09147396942525314 -0.08058927062412824 -0.05040331369967756 -0.06460150732920061 0.42171353635961495 -0.6666555591393241 -0.6873187286671736 0.2996135075742076 -0.03003701561679737 0.5215987708623125 0.21534354302653136 0.2805393614367888 0.7511074395942838 -0.6794181115592707 -0.7557638232364535 0.9529937883450245 0.9200170617759132 0.493394749344555 0.1272956443183378 -0.03447576535692219 -0.18699271994823283 -0.5538354522085964 -0.42081996596879195 0.5765689662459658 -0.43177671944824136 -0.5614086647415819 -0.7816958009628805 0.4880582285241374 -0.7625847876871182 0.33808664080848105 0.8090026378013473 0.39881775440319545 0.09735162401492861 -0.3544904107663648 0.05120936082884935 -0.34355117239091437 -0.5861912572445196 0.19370383925583057 0.4720420349476775 -0.34281173850314417 -0.5582485913569617 0.649333336190164 -0.7769134790530164 0.23346940786125303 -0.11559014296727262 0.09336121277661782 0.7797453962518965 0.30826384840734244 0.7687808341513994 -0.46853671466358726 -0.4486750885899318 0.5852554777933128 -0.909075541040107 -0.2111017381225841 -0.14923170476817757 0.09320486842519066 -0.2819185992447406 -0.9015653190690558 0.8385829724117061 0.29673534648742533 0.01746585886251539 -0.9331483478685797 0.5800614187522183 -0.5029106907918801 -0.3182330282412726 -0.42566814389726515 -0.9887637000284981 -0.3096094898019641 -0.4519904031681954 0.414707998398788 -0.5353506796983528 0.9130711395762718 0.20960679573695318 0.39294895803252383 0.9871407973741112 1.0659341234578137 0.9315249048332863 0.2575782031992108 0.7874035045705465 -0.9586617783835922 -0.8412461980168885 -0.40046505332727456 0.145673732641275 0.2740521678932458 0.006165361740513925 0.3554222144368977 -0.502183126724943 0.6162668093428094 -0.042859770961490205 0.2696728069396061 -0.2834204694276174 -0.2280383015065415 0.5294195713001391 0.94478869049359 -0.35688868052934075 -0.3936659280330863 0.014098949704201669 0.4134770627910471 0.3448467789275386 0.5625747847261856 0.5444177666847914 0.2958590461133221 -0.42280204480686256 0.8000779843228666 0.6240212374438737 0.5149374778097053 -0.3056778971343029 -0.904788342670369 0.8229898278008068 -0.44243386082698777 -0.5220211214991978 0.9376790077101637 -0.5952649649347824 0.05556887868577307 -0.10307971093818945 -0.2875282271814578 0.6444707261421501 0.3241412198832579 -0.5018854651388085 -0.07505419973435731 0.4176729850362859 -0.6895052995347257 -0.8014986117606338 -0.2590158002015701 0.7859919209641117 -0.599426546398256 0.27596633884350885 -0.15359310938008292 0.9995302569669929 0.7149971207396536 0.13884232344350103 -0.028367452441345836 0.5408761763254053 -0.21746079371078003 0.7066917405897074 -0.08799338773865983 0.3134369460152218 -0.20596854351177682 -0.9343652823790143 0.7960372990912391 0.5958489525009478 -0.5465995481970315 -0.8990604776060293 -0.90257292019962 -0.7110809917299568 0.9821422296882208 -0.09606214417679793 -0.4836244562310239 -0.8672630046488712 -0.4443184518382106 -0.46521646420379104 0.33999414514002013 0.720992114367194 -0.06910176781257005 0.19955430385517592 -0.974348007721068 -0.346716599895858 0.9850405758223847 0.622594179092992 -0.1118992757542163 0.7537724098572388 -0.21633195813841058 -0.7815241742102199 0.586053206686255 0.8134191375848626 0.5975059953816231 -0.09917505392652569 0.8595712779345402 0.5182949106620806 0.28112737671773963 0.2624994642681288 0.0211669966324284 0.29647767373696593 0.4059183082002988 0.40291336573044123 -0.4740402214621986 -0.7763151427821275 -0.851487916235391 -0.07298354900374471,0.2446085229034234 0.2882292920300067 0.5086894829137427 -0.14853714290891862 -0.9846140569652013 -0.0525700565470788 -0.9610153781024444 0.3868365975167771 -0.2359807723672125 -0.4293229723557528 -0.9060449896069842 0.03444900386586913 -0.5134151298939955 -0.8004245827603049 0.8264631206994018 -0.5451915766967677 -0.9333776863333272 -0.8194788745243833 0.7510752008396981 -0.06912069335116078 -0.6267343620659112 -0.5197036334962244 0.10571303090932815 -0.8372185712936315 -0.2932273020765255 0.5818422293891008 0.7872112317052311 -0.3202050561422496 -0.4965829352259419 -0.4449066323711732 0.7817428219906 -0.7010291973066425 0.7711511000792489 0.6284573296787127 -0.790433890393788 0.22762201366662094 0.03743710457543248 -0.6491706986686969 -0.8414485590162992 -0.03329757676459885 -0.3569405506249695 0.9074681222114601 0.47170428410768395 0.4845365113044939 -0.9356026262699196 0.8072808617170625 -0.9324453236573279 0.6465827508009309 0.6751722849421048 0.5150803757551136 0.927727875450877 0.03806206070094232 0.04953857230879888 0.3107928672499798 -0.20504424070066452 0.9708623414928015 0.7752766836430238 -0.12856576515166407 -0.04112829489064862 0.9671915163854152 -0.892483817647623 0.40464454348268464 0.8140678103748248 -0.3636251589237684 0.37962684124310225 0.32651785455178006 0.26711167699917776 -0.1469696721138754 0.34297118190385484 -0.6255832301035334 -0.6889289643370649 0.482158774556927 -0.4854294131640865 -0.7127002366274335 -0.08722752992745723 0.03588977737500584 0.4803683306899644 -0.5665687823136347 -0.711008079335904 -0.1775920066557328 -0.956940118675277 -0.5263551211530263 -0.5763732541766324 0.2687967202169361 -0.258166176810233 0.654133433566986 -0.580169436291144 -0.4237342465668502 0.434463111698805 0.6672397265591152 0.08509545309328707 0.36715542184662514 -0.3408997473212013 0.18678711825082833 -0.5599937379394159 0.9928888065536922 -0.7147093149057205 -0.28469402373708286 -0.7715477491279894 -0.5483320708675865 -0.3400528206727939 -0.41917625508883355 0.9986572426920433 0.6448288899681363 0.2550483264568122 0.24154963198968396 0.8141511079952899 -0.32133646881021766 0.10142799580844467 -0.02696456855821104 0.9911138587360477 -0.21187748135079798 -0.6330738471701169 0.5356119400589889 -0.9141451477931328 -0.15221795150207434 0.14513189136613952 0.5057354865817942 -0.1969311755240067 0.7591006714272356 0.2311936084381237 -0.3629716433382197 0.6039623804955687 -0.06370926509740295 0.01078096830142486 0.4270936866051265 0.19234850572070705 0.3943648049537224 0.201322518371081 -0.6317206254677666 -0.29038084505827644 -0.6624254454135977 0.9380430887329444 0.9161367220818928 -0.15629548099388066 -0.6086533851358573 -0.6335487668522336 0.7015526109570881 -0.46502148113203556 -0.9189054397196093 0.35149172646784255 0.15122454311470634 -0.3833733693579474 0.17700369040125447 -0.006674323174518628 0.5835865924418079 -0.10170451426303903 -0.7076637601627171 -0.6504240927577276 -0.5381221277664371 -0.7934419013484415 -0.8147214251004274 -0.8206216859765778 0.9398455527252553 -0.46515892034824 -0.140701149231021 -0.08585346569075773 -0.12808425501631782 0.37953221830400263 -0.517993589759613 -0.8531689850113613 0.4022865823039645 -0.8157679422979562 -0.3698928356817343 -0.3109880193301109 0.8272683726115603 -0.2609025783814702 0.29668020921969696 -0.869460983904039 -0.5192493653557705 0.8465834178152287 -0.7401763947137204 0.5860567145686237 -0.6339342087962628 -0.7057932194614238 0.910309344050314 -0.35347831313473604 0.010119615338123859 0.4536976114833894 0.6956567690358988 0.45436675896320866 -0.4939439755071303 0.706706292375344 0.18319421764066343 0.03088233677513214 0.901445870623452 -0.3969229371999073 0.1610684409125405 0.9153756452866844 0.3814209846495998 -0.7360195573840519 0.42870371833464294 0.009455768675313324 -0.9317267671513646 -0.0886997588974202 -0.2611502624154218 0.9151466253707097 0.029162109616751527 -0.7543139380211094 -0.6062778452836612 -0.6466777427965655 0.3448489189763473 -0.19002041654626797 0.6278947567075204 -0.993374590358306 -0.8819787681113623 -0.7400506333318713 -1.0080986092426978 0.6590395463729591 0.4991949533636762 0.21941396880610645 0.9647688984940835 -0.6813597403285546 -0.1252552659372238 -0.18183906329057992 -0.49482671085289087 0.4021777710399758 -0.05555388803953026 -0.7353682612891101 0.5385457360533312 0.8905096231409791 0.8110098846393409 -0.013305518239624852 0.5388294397306296 0.8171114407400581 -0.5351346083220866 -0.28289197939695215 0.965066076862219 0.3857095828289317 0.20801766883138179 -0.6009942893281841 0.6439371562018293 -0.7278310923624804 -0.9518624686622208 0.7549990556978933 -0.8030654881945544 -0.7077693159747956 -0.9307269569859722 -0.19382783872535087 0.1339184513185295 -0.2810984961889091 -0.31055382556027733 -0.41449004560921426 -0.973417536907478 0.542793777518612 0.08715704786553297 0.7430140818847849 0.22787425783648518 0.029028893817027453 0.9108127462770826 0.19571954692575508 -0.7320239964184189 -0.19435060243506164 0.6930995324342699 0.30949383736259245 -0.43201503064511987 0.468781606445824 -0.6311412780969302 0.24332386990407665 -0.9117746399087471 -0.9223434506207886 -0.8409286779549763 -0.5000480244774281 -0.35722312153086905 0.4725682189620177 -0.022620100694851118 -0.8670876651555435 -0.22373914610855325 -0.7016251934535499 -0.5661050184762999 -0.3050444083404459 0.5773435857946416 -1.1420236197515963 0.8493493356328371 -0.9933761593901407 0.38880840925588367 -0.2253983440062808 0.7978136154707729 -0.587941725184274 -0.21019198106895143 0.8911729242334891 -0.12236188956748792 -0.6918286123995052 0.8354652402428606 -0.5633353454683634 0.49061956017677455 -0.8825540432315194 -0.2213403360188873 -0.42391394592485543 -0.0717965629552235 -0.8093318386493968 0.676471407635522 -0.6133680924217545 -0.8858351611470369 0.6968425860723749 -0.9102955370766855 -0.7915369219004017 -0.1124317700384523 0.17318348466836622 -0.8404362752935494 -0.028632002794757253 0.18015128162061742 -0.8395279487887636 0.16495034502590078 0.6384517684000843 -0.5116705962874357 -0.10986383211575611 -0.7437345963597122 0.34523343773377047 -0.45220618293469855 -0.7155829385931893 0.7854089362032731 -0.5039196591513915 0.7985605670144011 0.7434673619260819 0.6802308341851571 -0.5323556410132697 0.4309047393918888 0.7879950418162852 -0.9467426122436531 0.895482654848936 0.4298610649379407 -0.28189387675201727 -0.559200713492872 0.9533841314918517 0.3506484802191088 0.44220137692067096 0.2862787190900797 -0.0735524682968957 -1.0109368835035826 0.9240535519234107 -0.1085540373820773 0.35221225728370614 -0.518932504789686 -0.8188608572656197 -0.7636147170927281 -0.28899885285047344 -0.1704472412135682 -0.7539434055837252 -0.09879523828623576 0.5397719164043372 0.9510171078143782 -0.5676151861187002 -0.08535779199363595 -0.6751145672586464 0.5299823504966074 0.23972221566790294 0.4138634414400139 -0.6875461932976433 0.6542951278356969 0.8791398699039349 -0.4270376223445928 0.7939314294820798 -0.9504073685496855 -0.3388546493526259 0.4282252844108861 -0.9210937741828359 -0.1931397996438836 0.3190911958550151 -0.32377421294568165 -0.29958266294568375 0.6697837082331314 0.859110812452416 -0.7827079435517705 0.23873541350469418 0.14882318301357292 0.9651505415802576 -0.7358375976653798 -0.9669140807946107 0.31489831784432926 -0.05604125536265626 -0.13178005332959047 0.5488763551385252 -0.5218862515072724 0.9380869421199706 0.8790786814867816 -0.8167925330954964 0.7791077086592076 -0.8972285521511295 0.5473620856822613 -0.267343183163089 -0.6936575205592144 -0.44434705281727105 0.6674843640082246 0.09470909572145626 0.6497462821925186 0.18619053041894093 -0.4705146481502655 -0.2300835646798847 -0.832930001050876 0.47053182921184616 -0.25395769375118893 -0.9039890142649991 -0.98375438391978 -0.38909893644795274 -0.6553657748456877 -0.9276376210562808 -0.8826141716569578 -0.37801155107116824 -1.0082080660949944 -0.21211235489397465 -0.7362852424099623 0.16012731547038017 -0.6979511806059403 -0.09735368754963081 0.28924377740241286 0.0332960922670262 0.00248776065324601 -0.17229804809555943 -0.3131570985094358 0.7207004498299037 -0.8476809308763659 -0.018233885970585423 -0.2581546327237922 0.7734015684745621 -0.7986142014747581 -0.1236525750382414 0.9777805318382836 -0.970633720885555 -0.6185928369989631 -0.7820114702947015 0.48624161449042747 -0.7006319475662529 0.7344037002528059 0.5828381283223917 -0.06506993848115107 0.9555988198967917 0.09263854677412081 -0.49024821259310936 0.014780182633989012 -0.46141692588359784 -0.5201263717926599 -0.9124238618024766 0.7383076938037649 -0.19408297623584672 0.5170507120025605 0.4773299137238605 0.4594235908616106 0.8195824939604817 -0.5449216079863126 0.5607041063710408 0.7229721843855655 0.6938796015407591 -0.8765558464445433 0.019699903951660144 -0.9140225320972739 -0.017392237878652333 -0.7690602779771172 0.949812197837087 -0.300620278374095 -0.16424237809236336 0.6613702276483909 -0.22110005554118997 0.33940764557290465 0.11997841765016867 0.055180563138719864 -0.6935937269477375 0.820603557480888 0.11600707334205086 -0.9747781310391105 0.6979710849000965 0.6102048420938333 -0.6468892554573629 0.7122360914726532 -0.3365988434084829 -0.2328748931440882 -0.7975718782038931 0.7852452494944177 -0.008573032975010175 1.0502388572899712 -0.5852203414264778 0.8626796125155176 -0.6741110234956543 0.6279919593152371 -0.247396492185602 -0.4339501706271676 0.012412460440908157 0.06768660413481266 -0.7644916205411997 0.13130002654968298 0.022711055282238785 -0.743445600822432 -0.1132539787139684 0.5620683679193879 -0.47689233511970275 -0.8825257114069923 -1.0396730363763727 -0.5618776250780315 0.3641738769180354 -0.5922271979160667 -0.9527170024230887 -0.1966724025116701 -0.563774180937073 0.22581320158740362 -0.30844728355666057 0.3726447108271823 -0.6689169003179615 0.9151683927209763 0.5166605610531096 0.5834544904591904 0.17628918908388821 -0.47465813734873885 0.6146529408389437 -0.8379779820260648 -0.9346060759086536 0.24421951061228458 0.8946879591822817 0.30094949534967613 0.7671113466000995 -0.18830995640832957 -0.4502463376423633 -0.6334873261311206 0.2144731647359163 0.551747054083017 0.4516643216150657 -0.8351260360952752 -0.07753532287331953 0.110809844427587 -0.46964672004821256 0.6902341818089802 0.43559324324508847 -0.34242241726190464 0.5550258425822333 0.2297720117304651 -0.24393563472316607 -0.8188622039246412 -0.12643045925403432 0.744955331403089 0.9338270673171115 0.2567777092557391 -0.8768236368165508 0.5764011709002109 0.289701399046306 0.6518903102366097 0.12496703507612059 0.2280404014853866 -0.6888681559279461 0.22139453813373153 0.8559883900677269 0.645493162303798 0.8768744904922855 0.7767460528950657 0.6224264377649679 0.253720221134914 0.20715473522664757 -0.04025936022209687 0.26062868605364475 -0.9324234721875865 -0.752630857050315 0.16137061100367303 0.6800955110339324 -0.410201560341068 0.39064428824977704 -0.9438340069237224 -0.41854273377303797 -0.43213812041306915 0.9352482354115368 -0.8359701854034958 -0.6067006467424452 -0.26871975458581854 -0.7103616964467909 0.07167326602730778 0.011627409961371096 -0.5842716524713661 -0.8520389282637281 -0.9095437998797473 0.6524900601595215 0.5558663630008694 0.10102433005708834 0.2434218930472847 0.6576921885094019 -0.29414914292252003 -0.39318607535710326 0.4946183303917378 -0.5792126791325074 0.10163731542812321 0.7443554438211399 0.5534359342888855 -0.841574056735595 -0.3901367188112962 0.3178457875676034 0.09164595719381492 -0.9434132100767578 -0.17136586935665513 -0.4203137480656006 0.6100345088662241 0.9007607144136797 -0.06832171233761422 0.660030131487483 0.9048407417640435 0.5216391112377906 0.6350534483313028 -0.5542364657943555 0.19793268732848865 -0.3080220482678329 0.533421303105401 -0.9812538545133471 0.3233316884920862 0.8853263883482679 0.9383832849366448 1.0055202800990213 -0.029777584480300514 0.6261018847837826 0.69401309964226 -0.1484136189346172 -0.5548589432539927 0.9278335895876577 0.6398401992958384 -0.7127446091936043 -0.44220104414944267 0.8004748139545164 -0.33569440939948747 0.39875847138555026 0.5291088181010835 0.5160921298192119 0.6644765892533679 -0.6785616608721372 -0.6848048550254444 -0.3348646595026275 0.87292380060373 -0.77338609282498 0.4853605742872114 -0.19778940215117116 0.5763422907155117 0.7964622141869211 0.6284746522903037 0.8241394021200543 -0.36409797088827156 -0.01648225471722789 0.5440897610066294 -0.45537335935295475 -1.000884732060218 -0.32194866566454367 0.20238776623727023 0.8945376522516256 -0.6085045092894981 -0.9282065842754258 -0.267389096328665 0.4453153150478723 -0.28884813416092425 -0.0100602165965726 0.6724741588940295 0.9995139631488448 0.8331314886007839 -0.8376482360345836 -0.33784679384413074 -0.22406314600833727 -0.16242269880050414 -0.24626818264581063 0.8148175561188994 0.2966845567835126 0.7179224162095401 0.6749087219423654 -1.0011954971039707 0.00922107309366571 -0.3341196050146248 0.6076598116939046 -0.1977525061256386 0.20320112544317487 -0.5193011841035442 -0.5694442023278685 -0.25734746951805276 0.9234515968095649 0.386361791864528 -0.529439916246517 0.47245957871545397 0.8719714490362166 -0.8698237164215212 -0.7893982574652154 -0.8134237859288878 -0.03338847566005085 -0.9268314911500628 -0.821930295986935 0.8750381225359132 -0.2530916890220794 0.3523032453253442 0.055659151396379024 -0.008266792748691637 -0.9415941337383309 0.5557189061058163 0.46622667596246303 -0.883822787875362 0.7875214696594982 -0.973344470531325 -0.38131956141165874 -0.4990390631082871 0.9348313079458409 0.6029822448416271 -0.006216618201772901 -0.4099079847000812 0.6752917487252035 -0.998505736404425 -0.5908978102989426 -0.6139975944501721 -0.9821393395423342 0.9854954157669313 0.05598714741882458 0.4701120435374702 -0.9027725944932821 -0.8543602751641171 -0.15781871925050073 0.41417034210994275 0.5652269746139214 0.5264835697814719 -0.9632268673877277 0.5324162702998709 0.4063359969365854 -0.544821740884637 0.7697155522709836 -0.769108914507505 0.6012603296927255 -0.7985984769060049 0.3532636715053963 0.43266351600517444 0.012455287078103977 -0.8174591559257091 -0.3559201610760923 0.0482930527142169 0.4692649517325058 0.3550067273358992 0.8658071265449375 -0.25924289860476907 0.9458564019393302 -0.8284640277573665 -0.3382616097259339 0.33462491387963844 -0.06000954945855397 0.3376543507523935 -0.4498062776624616 -0.3113235971974466 0.8462879643066508 -0.14168705420514738 0.05159143509698078 -0.028669719967425695 0.2746798555985135 0.1715308464326965 0.8833158239755042 -0.3848502079625735 -0.07182818807043999 -0.8926152158377513 0.4946843793089336 0.3494654954660678 0.15863132650238332 -0.9542458829508238 0.25409379257061454 -0.16478707740833615 0.9374411618480436 0.5137172001233105 0.48595119621725075 0.8385589314101876 0.481348573846379 0.5213185423666699 -0.8409313866130366 0.4015003120215226 -0.4763609305304113 0.47101186023161445 -0.1541689994804718 0.5943687713734604 -0.14586535231252884 0.8813357051448587 -0.10842498158378788 -0.949097429350277 -0.20710681910416096 -0.1336198747383035 -0.9440967740606898 0.9644935393000855 -0.41422304952004274 0.4349160656269735 -0.8346203605323317 -0.2773052454134745 0.5653899288025702 -0.736716185677058 -0.9902406569541852 0.12897783543373958 0.09518804486829423 0.3474174766282071 -0.7169209707695272 0.9749152796591365 -0.8007767367932703 0.44392321415719205 -0.35115517389135387 0.12505374012844994 -0.6665319971471244 -0.7304149403010103,-0.6034320484804057 -0.6994286153538072 -0.8291005768197581 0.2386880967033358 -0.25206141332574594 -0.42998272926597125 -0.38455371940228344 0.4623916399053294 0.15298580563422615 -0.1181510737041791 -0.7040195238211293 -0.9247486104485336 0.8092851544310653 0.240117001273606 0.8130172836508414 -0.34567222325706104 -0.3987708735566622 0.8672307731470064 -0.4796074234021368 0.9067303303469298 0.9611244679384501 0.7478228077799758 -0.3549090346596542 -0.9876991995933997 -0.27144270299905937 -0.0007760314651177325 -0.005864936521652986 0.2107318156870872 0.6571025098266434 -0.39124519613939723 0.9068154702426894 -0.5738682491948244 -0.2844567685315882 0.12807844615766562 0.6201843412637339 -0.09885256724779252 0.9907112973179417 -0.28778330221675946 0.4149202780911947 0.8803723791299564 0.635207704184272 -0.6030778686539341 0.08699607956528572 -0.3337822113699623 0.4425862571049747 -0.7933114485862819 -0.46880783649348473 0.11043606378630413 0.6134831179218403 0.031022575814404235 -0.9233925367673367 -0.7260045217882954 -0.2623989316277382 0.46711817476181294 -0.39021170093712754 -0.19700157609158464 -0.4393003441944574 0.2332274716993592 -0.8116854506809426 0.917812350400034 -0.8935206939140266 -0.3839751605616444 0.34126543271579307 -0.39261206043117935 -0.5676844961405767 -0.8857453742819926 -0.5138367025501411 -0.018160715340212113 0.2999549761174895 0.4565208443693496 -0.8663287293726015 0.3928425141684466 -0.8051957062327243 0.8916029802456741 0.16329839817864006 -0.49336538961531096 -0.21786720259983522 -0.84629020553508 -0.21883347857943858 -0.8910143472491203 -0.569130111899448 -0.6000397217033508 0.7016366211129197 0.934721249230559 0.04826655048065409 0.643124870747285 0.2286249770752864 -0.2774584895461663 -0.7824317580774107 -0.355615952423476 -0.5284068301480505 0.535547493919881 -0.45920866173325686 -0.37816525258129446 0.9493037854661387 0.9659773171851292 -0.2526158472059542 -0.2455995485751561 0.9602329529429434 -0.48207503745813235 0.17637209997927347 -0.5224785405343475 0.5954525763995725 -0.3186620374471871 -0.3556420212193488 -0.01160628580326861 -0.557339232830859 -0.1997433865985407 -0.9025151286651365 -0.7380532663648229 0.10312316306879388 -0.7595127821818624 0.05529546502170457 0.671907866432379 0.26040538962247894 -0.16749704744986443 -0.5322233920231498 -0.3012589865358555 0.7375786611048002 -0.11157757508919017 0.5257350332235403 -0.4061603965795665 0.05759387940448298 0.6657598282776253 -0.7212254514325304 0.836483195754401 -0.4378133103556441 -0.7951899467173724 -0.1472800539977219 0.8478386499410623 -0.3054455056017886 0.8389862496466275 0.15773299242864494 -0.29344281368969166 0.08413269835298674 -0.23956023467541745 0.21520205527668915 -0.5468089431480055 -0.16649061466787662 0.026779993252640466 -0.8039170264227853 -0.261003115686373 0.201861866337703 0.2519486945984324 -0.6744430568049036 -0.14197435094165176 0.08073287499641543 -0.03605605869620732 -0.47382671740374804 -0.13121623623909168 -0.6512485799955965 -0.3191474198226737 -0.9899059735255262 -0.12804919163887768 -0.5388469517382642 0.5717562710516509 0.5599261345750742 -0.3643954458679813 0.3200518527872455 -0.9309993724057989 0.3365240189057197 -0.7269662428873677 0.30909500466930184 0.6876221881965083 0.17179508900156606 0.5178010421216127 -0.9932289776518424 -0.6746057672860395 -0.30681009843699725 0.5448039787823666 0.7308315318766208 0.5897527519008421 0.8144294725855108 -0.9065541321039313 -0.20760736809402924 0.54846697485628 0.6878631680932462 0.1292608625047604 0.1414099870862087 0.46923803072921494 0.32487917818775874 0.6138554647150384 -0.013931934758766494 -0.722433029843701 -0.4099905096303667 -0.6389562725155363 -0.4375590146143115 -0.5047791781468285 -0.6981759548039534 -0.7720935892345366 -0.902943291434245 -0.4893896488796955 0.3658849042312049 -0.9396432391791338 -0.5258442191731674 -0.9867798284006379 0.35857035220244926 -0.8516544556972043 0.7917851301728535 -0.5159651425870422 -0.060216380543065266 -0.6865371124528552 -0.28635849201886876 -0.10907116231563041 0.12791903040051142 -0.6862648527525119 -0.32095025650759557 0.22694502191409177 -1.0101791824299236 0.40390141666400436 0.18232294511253652 -0.8522360892708734 0.3736323535410031 0.014302217984158778 0.16858860251399507 0.8862076283383236 0.0026341362875334277 -0.8874714815961032 0.6035070094040856 -0.953822431762622 -0.9229805057247867 -0.8208959832951153 0.8775733044691795 0.22848030351560156 -0.8819012048161221 -0.2375460801522602 -0.4800458547395679 -0.9545310565416443 -0.8799486203038229 0.41682591008460973 -0.2990860936631583 0.6496316230748085 -0.3782178559011319 0.5600373609842075 -0.7007293682298106 0.35925168581040595 0.6157764215693302 -0.6824589128473132 -0.7455533641280674 0.6100856164825242 -0.10312001726632561 0.36668688272275113 -1.0424850526205895 0.9238069984012149 -0.6642415769685363 -0.7103033928551828 -0.9475848953642398 0.7501593383510783 -0.32315061708435383 0.09712822975685595 -0.3296710630491422 0.43918468073039724 0.02692198564396442 0.6650060879211439 -0.7687950025641359 -0.870532190357301 0.8643809783226704 -0.991716904880925 -0.8082910997783185 -0.12466790727876897 0.6495673036164005 -0.0027029627392419855 0.1540024654592483 0.7818770714903444 0.3656019979712883 0.7373385426401737 0.6142226965438335 0.48798820116127206 -0.8235560286457246 -0.8063385456853536 -0.024566690506054836 0.04271537519569796 -0.9372271074570936 -0.38979263080960574 0.2981953592095101 0.917147996264692 -0.31767579051959777 0.2906168456413309 -0.4883768980978725 -0.8781384642056708 0.5351047323266902 -0.8529975526376785 0.012446487007233427 0.07321224095217145 0.11004907061737662 -0.35700166445615017 0.11599676761364686 -0.3006021777140748 -1.0157874229072432 0.35036196479905096 0.032054463040891296 -0.9783794182338257 -0.06260437068172738 -0.242303817473244 -0.33038948020452225 -0.9027252840509853 -0.3247899547129833 -0.913720824209416 -0.9978959613898492 -0.9841776125196584 0.5019408733263888 -0.3115431968026162 -0.42763152158742657 0.5856082931363864 0.7817666841464762 0.4295428662338318 0.7202693696363729 0.9649792114420729 0.7101108254659947 -0.9248794201378479 0.5446446572330843 0.042118634429364595 0.9642940892670089 -0.004924980803392828 0.7235800691977863 -0.2430801905555851 -0.36593169973898637 0.13572647850758052 0.23399338759224356 0.5441927260443439 0.6332900807962489 -0.7133605422532925 0.35166743383109667 0.019185931583896174 -0.2695001471870066 -0.057906802282208035 -0.14437131715619234 -0.27257137144219024 -0.06992098519893104 0.4697619076005102 -0.9805618136043487 0.3153360911787532 -0.8658480737604062 0.821118387706107 -0.032127628401173475 0.2942495350621144 -0.6673749930417666 0.39834446353254427 0.09001104305100843 -0.7637794126623195 0.5744849700526454 -0.04555120687005656 0.807627366819453 0.483285588843974 -0.9667790840466296 0.5990888583467873 0.6669771572802493 -0.9123306596065821 0.5503182008578842 -0.2616595086590986 -0.7693762092883824 0.5375286808042742 -0.46938855658914624 0.7046821671076815 -0.8531059034027655 -0.9015458314330569 0.6452118724808552 -0.859887179418184 