-0.01982551830388246 -0.38907722951600165 0.17210648776017146 0.1746178805247076 0.45579861618561557 -0.8490186420362091 -0.7213776653216288 -0.07639024372417702 -0.7625450425601985 0.15802013243497504 0.3261043615552821 0.4226050938211019 -0.5184615841813507 -0.018372438908049737 0.7859234789765932 0.6826785740436141 0.6200562349970447 0.5914328354517209 -0.8978508816470507 -0.72652392388988 0.8191750717077384 0.15098832374789506 -0.5894266979577252 -0.05069349285753333 0.6662368336848321 0.19629517200102553 -0.9009902108192522 0.15687297949422319 -0.7392852987407872 0.5749672434295985 0.9965425393012 0.7583686141266648 -0.7435305076702847 0.04582468069578938 0.8050499615705251 -0.7951952918839188 0.5510789245547714 0.45239525891337706 0.3699120460347572 -0.31259253393150566 -0.34924931838616613 0.9969227450386201 0.012816398207133943 -0.5638048809015891 -0.5428479927902718 0.34977467328724327 -0.6306504941084458 0.9004352414101074 0.5811872257810353 -0.17975187620446387 -0.11518694524859163 0.95659267609953 0.8105176315722282 0.5486444236834875 0.7626738183306132 -0.7279127301132078 -0.26940366662288495 0.9980463399455948 -0.16504235491926433 0.0008846960436531573 0.45616437920743896 0.7442290102234765 0.5315466688996735 0.045335443138584695 0.6445026058398298 0.8119534983181493 0.6624348382306983 -0.24856495880756777 -0.5355095607797957 -0.7260681827343787 -0.6382220702995666 0.11481043608169106 -0.5472382776471371 0.8659728848339676 -0.9790038266013075 0.6560829860965246 0.639972122092471 -0.8756003740436601 0.013939763110996322 -0.5368732030553643 -0.06970644314754293 -0.8726169279321774 0.21037380433077413 0.40156698941418334 -0.3638195892791827 -0.5906955046617388 -0.30844349660821924 0.8415923865066207 0.08387448609598724 -0.1272868353166568 -0.6761972616051145 0.5254636500866718 -0.8320175069226187 -0.5775243879725879 0.43783671767917587 -0.0003469690232384441 -0.14344167367842486 -0.6422150290803903 0.900623337508646 0.5736877126885825 -0.10293227421968279 0.621718038448745 0.692489470253509 0.8707183849702991 0.7783799897846541 0.3599208309915944 0.23266153990613284 -0.7472263895087391 -0.25921224050737196 0.032419400632289416 0.6144963269933974 -0.9559034817236229 -0.31767748605326984 0.4441482917303605 -0.930795537051406 -0.08662102735998345 0.46112583158792386 0.48408994683576806 0.8136865670772806 -0.7952097959047721 0.6950282207071299 0.5207423645108316 -0.10176006801032647 0.4344769968058859 0.6148733721984949 -0.6421673247182349 0.8043467751966161 -0.5545414791058934 -0.2644181862084727 -0.7617698820094907 -0.044897302460199254 -0.9642314729832397 0.40475929685126877 0.22278353182115934 -0.0705680104760164 0.006003767960728974 -0.15158793716074012 0.09858568286049466 0.6485299282552444 0.6606210233897445 -0.1142471001863683 0.9450119689334548 0.8112594227406569 -0.9092486221535705 0.30545159755921975 0.183126604977565 -0.18891887769495502 0.26495068885926426 -0.16481549089797318 -0.557523561051107 -0.9859036228864353 0.06645291739501866 -0.9795945975709374 0.3892986984066924 -0.9308298115572025 0.4463020857260245 0.26179676108103533 -0.6154771889136706 0.4244933031765658 0.2786189972477394 -0.31493771303386103 0.6772812113582797 -0.004548470101218708 0.5893316192737578 -0.9319069320806105 0.7236340073849404 0.436762654048336 0.24084695952730661 -0.7055841045984201 0.6120429007607389 0.15175807072579436 0.6816484628250926 -0.959683346407793 0.18641073836066333 0.0769989490907534 0.4119016333172265 -0.40845127562395395 -0.4922744733960633 -0.9015712794354618 0.5049363284976258 0.6139543528607123 -0.017106560761155 0.11737195096573975 -0.8370706631364377 -0.7902504256987813 -0.48906771603897603 -0.4239467574111606 0.36048781666418594 0.48272578279247025 0.9293497914820043 -0.41383621866914583 0.7070650864586954 0.23574176695215693 -0.9706776087531953 -0.21177045618445428 -0.7725591156094627 0.9939115441756945 0.5843611720446733 0.8192491515721648 0.937774006388709 -0.7812293913199974 0.9007561598933925 0.5273187632193138 -0.7746106381717698 0.06281950037070237 0.8933991052385897 -0.1437509419058882 -0.7984767339466236 -1.0304339774239046 0.2624599344085398 0.3978299419915156 0.6324114659797069 -0.6271161304901006 -0.5982984268152961 0.2638918201576139 -0.8074535712499538 0.560781225656307 0.45018587498091917 0.639092256385086 0.6018743318886131 -0.8226775144222171 -0.9800116255136334 0.09240385332860117 -0.23047460410202084 -0.05133314042555104 -0.4179655845573864 0.998105260365796 -0.7318247035194505 0.6146608738810226 0.43278430787611744 -0.2969642070966642 -0.9995578449296444 0.36136859575972297 0.3489347256669805 -0.42577757989553855 0.5042789902298055 0.8984519643186674 -0.49053667061933903 -0.32554999579230454 0.6175902942839132 0.8117572089527473 -0.22818839221247242 -0.4620719903277147 -0.39568608738650507 -0.367965115616701 0.8966795101273579 0.4717665006549494 0.6098636023024183 -0.7683936697337072 0.9640554595567999 0.7945060492968692 0.1678320506300112 -0.6227999980191625 -0.5914702690023923 0.4964033228742985 0.2616286857005354 -0.3849029280787443 -0.19814565763553418 0.13263852365577525 -0.8369061781351148 0.7910709196196289 -0.21468304695340698 -0.18666062939512149 0.15799720742665263 -0.1476225925618493 -0.3644337088007511 -0.8631099669896435 -0.41116437399102607 -0.4935605959369752 -0.6439282100582905 0.30473360644775455 -0.926347273502745 0.39917421557769783 -0.5677208688807892 0.12405758059607759 -0.018229398518224374 -0.7629194350997047 -0.15943611498869778 0.07057577728227934 0.7583820231107445 0.12988156321745126 0.9816678121311493 0.9860949312429161 -0.178999256086994 0.09654614330478947 -0.5102867345937451 -0.7955354225261662 -0.7537823745450825 0.04291493128771564 -0.8742157640988495 -0.03653694178613179 -0.4763816550035218 0.8297272409115714 -0.9426299556878405 -0.3582171586514847 -0.5480337968908409 0.23396192421862705 0.8590127992845518 0.2879217121167716 -0.8939300199194471 0.17459183777834159 -0.3483347913947319 0.05305108105831664 -0.26844711722184994 -0.18130388817474613 0.9800534774157396 -0.3271343026219922 -0.6129847153260297 0.18100948790846982 0.0903973158476763 0.17009843481825898 0.1670331806576832 0.4808853499816938 -0.16859870615380254 -0.008957792190135608 0.8559345698356938 -0.6314755989139961 0.016734462491156128 -0.3150040499943174 -0.21238633916384791 0.5411182257988274 0.09206584654704336 -0.9163861513574342 0.4852944527148171 -0.3690929754647962 0.9205129513948193 0.5759127721052554 0.7863387628252806 0.5683036083666133 0.8011133400988221 0.6307679335540252 -0.652584143648454 0.9281513095250488 -0.32652198615088235 0.6699990446147356 -0.08111252167858884 0.693176753128782 0.4137046078389415 0.16650130152241477 0.727819995480048 -0.12233103037716968 -0.09720317421209115 -0.6515134994345569 -0.9038243101002639 0.17910215856753836 -0.7495739942541445 0.9345759943919021 0.8457270639003416 -0.4681158347143236 -0.38849180801243066 -0.47579307903386764 -0.5284361349553123 0.3269372988695118 0.4069884198808091 0.30185180579666576 0.6681321031593843 -0.7821064641878729 0.7049395368772493 0.9495239645141629 0.5733776085709341 -0.9739499893787905 0.924645417742708 0.7394832155934999 0.40091992092797657 0.8448190606505916 0.41964648809244376 -0.5946246644947389 -0.881775510665179 0.5503571576139481 -0.46341830556254204 -0.03608624883582614 0.7544364406178576 -0.9012540347647551 0.47655816989067934 -0.3847530000781497 0.8620833458758977 -0.1088832096275199 0.3294502992311153 0.9847653316459818 0.15473336200462573 0.8972534295158484 0.1685325842439376 -0.70190772762368 -0.18565286492912417 0.031103839685946006 0.2639218356970154 -0.5996953855968176 0.07423630226257139 0.9244932360292197 -0.5167240293817853 -0.6135618390638926 0.426164904926184 0.13424556975112711 -0.898820739662032 0.6064614229942925 0.1881534425825227 0.9960413171679673 -0.4232307662921375 0.4941689965815852 0.9133669520009985 0.06844239773705697 -0.7141487141146216 0.8234292290048261 -0.31339936602237334 -0.8875949699617707 0.24440959649085778 0.46981030681780694 -0.007683714574592951 -0.000886257274848841 0.4770969191099843 0.09841925313093161 -0.6255896016466767 -0.9213993543175217 0.3408627272290311 0.7390552207867908 0.6784786163904019 -0.07249958799872408 -0.5533777217264023 0.14544206201205323 -0.5705112717301024 0.5599694403813262 -0.6829207169177567 0.2614131849615975 -0.368796921012685 0.31073903203677605 0.5667164146797071 0.40542566381826317 0.11686025302330887 0.09472503713247758 -0.37201917669819895 -0.7966444868449485 0.6732603085025651 0.7477431577846526 -0.8721299829404777 1.0661075622688594 0.4908629924775154 0.03270365367640673 0.5656813098356478 -0.6662314810134162 -0.803427782487379 -0.6379079875570126 -0.8464389006384815 0.7315480594701964 -0.2218202642069598 -0.6573045195293292 0.7742287570874592 0.22790672295205314 0.85192171832035 0.5094538962730069 -0.24464885575796647 0.2733474593749684 0.22040709752434354 0.8070865373602708 -0.9329049521257619 -0.6540401154270878 0.58737889245278 -0.21354394987492675 0.27749731642865016 0.7602183215782764 -0.4645927084410264 0.9491992821016593 0.1269249341594506 -0.502163940502905 -0.9103462486020407 -0.422844072221758 0.4723767572469006 -1.0447411057572589 0.2564265910564052 -0.8853199790720976 0.3134195320470074 0.5144328026530828 -0.3597534965424718 0.728693873305935 0.8558850442917316 0.09387550969744987 -0.7421748172830029 0.6977436135983583 0.8560017263384048 -0.9493115142955882 -0.6678486211064457 0.05036158775441423 -0.8799077159964891 0.8563254229667325 -0.6386532461351347 0.8666080044642785 -0.21991314484204386 0.4491657770379978 0.7274986918971204 0.28230694347331137 0.5714182351543797 -0.012051971962655611 0.24854829472144982 0.06193362569272306 -0.23624856542863296 0.5360675267041467 -0.03144987243388474 -0.002138998160504972 -0.8278950440769334 0.3069975234808026 -0.9145048321729624 -0.12341453274067188 -0.719732566274724 -0.3941306776446095 0.05388855053949216 -0.80097460470523 -0.39489317001823565 -0.09460571506264304 0.6552737065117791 -0.5557313085424213 0.7521932214174681 0.7788653635728231 0.37988178712423815 -0.4269189125780751 -0.7231871015765297 0.8215847001089255 0.9786956300449601 -0.6689466936569908 0.6188918323470244 -0.7326450722090105 0.5903289554630559 -0.8607316343427609 0.020766263801521825 0.7138471263909195 0.022090297406907777 -0.8283557659552704 -0.1982280516382688 -0.15803532025570147 0.8490965563835615 0.017303681297498083 0.6209405653183477 -0.9460289127247994 0.6041547997318559 -0.32905551336106176 -0.24292202449314138 -0.16598279478769798 0.6098258210737462 -0.05489234102457636 -0.340315922930343 -0.8550187713109464 0.5608309859778817 0.8477180739312976 0.9733076898302644 -0.9152279340102946 0.7758453084903967 0.3196261902660455 -0.3976853115011609 0.12111465530111597 -0.8109369688015848 0.08987794575243521 -0.4829535682159472 0.7561644430697638 -0.6059972348802936 0.08277891506866594 0.6441544027485214 0.44289233754106616 0.6833812896959597 0.3754096887327704 0.7045134092875077 0.6872341686592248 0.3671802706218965 -0.2791789166310461 -0.3109090681822204 -0.20624019703809138 0.267853006766901 -0.15135974294968854 -0.3667085408327126 -0.631730313094018 -0.10686530972542954 0.2285696343531843 -0.9065521067225597 0.5137703125380634 0.15186883295720216 -0.6071863176446731 0.5167612591063907 0.06495098090141091 0.18669555851897293 0.5228255744236486 -0.18216368599733693 -0.6322602706638265 -0.584629473302673 0.49541526893352683 0.06201573957180907 0.10954651367881925 -0.5358741051167331 -0.05370442313232878 -0.4923809163788425 -0.6276295711127667 0.54800094011435 0.7394399477657505 -0.7280669509690025 -0.6379343034761852 0.32100724728800906 -0.84730317441389 -0.1206928415361054 -0.4426216155223064 -0.15428875050214078 -0.7643826075455593 0.9733894743597431 -0.13836978138868553 -0.8211878807638939 -0.27150117930435147 -0.04998623032531658 -0.34390746311146947 -0.5859046178224034 0.5677792456288964 -0.38081209295686574 -0.7459959930736122 0.18212470954693913 -0.28478214526346074 -0.5706368669930021 0.7920559198966104 -0.042456495450640286 -0.6999866165799292 0.47981434602325773 -0.6949146261123256 -0.9863111143437269 0.1619626506314209 0.14265555116527606 0.22623027214351712 0.06897555003581653 -0.2534373002645698 0.8914066627849484 -0.9804075890109193 -0.43043602198859426 0.8733391065359241 0.08106606633587067 0.6532295192329914 0.5533944513470781 0.33225143714124555 0.7684559016589222 0.4828036125778356 0.8370240039161961 -0.07386127801812419 0.3194138191709567 -0.6632196409979265 -0.8983419248928183 0.9376235960150182 -0.44297964918539584 -0.4658348482159795 0.04089813265631922 0.797288225265058 0.7591557587537512 -0.9519533347114459 0.7516838185696744 0.825327232426545 -0.36952964110181474 -0.9010195976416122 -0.5693489376584904 -0.2776321197765718 0.16993065243399078 -0.5397207316668503 0.7676341684190414 -0.1847989128490664 -0.5620942953982759 -0.7008660917467331 -0.5879691290004926 -0.30935667981988324 0.6897468199322413 -0.28631511891078826 -0.34965933866532867 -0.0465353411657444 0.011562951389802527 -0.43228106687243373 0.0114535057782872 0.4555882441934767 0.14543770051395152 0.4487645305994188 -0.9586491843459427 0.27353701788144236 -0.1648634463970129 -0.11161869598063467 -0.2684512495570699 0.5809274997064451 -0.796616891183684 -0.8578586098737987 -0.7964127347670021 -0.8532497453357676 0.5770183011603708 -0.3324491144850372 -0.2870008302705237 0.812025339216095 -0.3927842220625424 0.06970841722968478 0.23346227102984413 -0.3629219587816803 -0.2850368297583425 -0.17214205435424954 0.44863846736128543 -0.024959731823127038 0.3375201214896543 -0.3988449198303698 -0.41340966805510054 0.16385569396088048 -0.9624607374936522 0.5554332785505632 -0.6899481020133517 -0.5026937454267166 0.2580657521397587 -0.42856528928608717 -0.5864025676229232 0.6218037475155211 -0.570838065124484 0.033970768914720076 0.8492127756144088 -0.5732633459630404 0.8356944384848218 0.9102035281243637 -0.5870378051092637 -0.8992879125693521 0.7056335396617539 0.11595598452821698 0.18768282635943845 0.6463641240551318 0.1357273806759273 0.5181129855588595 0.5489050741905261 -0.5457995644469242 0.8200378448739725 0.4167491495501515 -0.4653236981588092 -0.7447397825688113 -0.9372378535544689 -0.8276308921313125 0.8138516375901499 0.7834146434261449 -0.9102091415172362 0.6391145464623864 -0.24373645840180802 0.03584960068834153 0.6114670140983165 0.37856419541379704 0.7500402745875463 -0.9769580021756157 0.664575021142979 0.9575353242500271 -0.300340458823458 -0.2508705886460051 -0.6319010222295783 0.3760610941060998 0.9254027110865535 -0.9835257434243264 -0.8956962624161993 0.7969487829110654 0.8920828244122676 -0.6498323932686767 0.04985333224876612 0.5845085092430867 -0.6792152514636555 0.7066873837201876 -0.6066234215680989 -0.5354962032318216 0.24771660686228159 0.6506044743919079 -0.20066396902591 0.08469278623949261 -0.45685663027788204 0.13874770779503542 -0.7808368504210979 0.15693159730665385 0.5210801083629559 -0.060961577439269464 -0.05789298706690852 0.647196559008276 0.3351757803986003 -0.9128709333221426 0.8105368876184559 -0.9152685652173094 -0.6699003140985792 0.8196280255613109 -0.2009012550420465 0.3159800462782389 -0.9649498901040005 -0.3222455698436402 -0.714103188171463 -0.7074950025184807 -0.3144233431738992 -0.046552466237539836 -0.6791038511459899 0.0411732771651967 0.8783849619984732 0.10966165414422346 -0.01341751693371096 -0.26983458944078786 -0.5746469002812351,0.8877548240544075 -0.8772969802023993 0.5927295881911849 -0.5016924019775633 -0.5581003396545032 0.8805540834547336 -0.9106462721613322 -0.5051321243612654 0.115851567558509 0.8127221283652288 -0.11558045752227208 -0.9290968132254755 -0.0033831154600321156 -0.8377173401180211 0.04134596825995129 0.39046441062445836 0.09311542317949062 -0.5616367374264413 0.4856138734844462 -0.8561066578079815 0.7170978794770797 -0.7422227360179285 0.36892436316965327 0.8194516993002572 0.8516061514470363 -0.5592143333409612 0.9071942328062219 0.11916921749033627 0.04412174767442356 -0.08869422774354918 -0.3160183609309679 0.10747080855072766 -0.3061047156106458 -0.2832905757808102 -0.609555536353003 0.025492571089467293 0.9933476041845819 0.9013481054288621 -0.9219984238643653 0.012106097624574636 -0.21657592686383734 0.2830427793035823 0.29715826947225793 -0.23636348305063004 0.35998702316345366 -0.5750641379379469 0.5958602893934847 -0.9620824534101127 -0.7022285959258486 -0.260025338404666 0.6605942235621378 -0.7696995450350126 0.6761149032891693 0.2887538358664685 0.8298411691233749 0.9377582296660252 -0.09816410736673986 -0.6148023003569187 0.5374888670142144 -0.3082544473295154 0.5261930782058016 -0.26300843217086234 -0.6823979927186508 0.7161797032142965 0.627399367125109 -0.5929936071455074 0.7112514766291304 0.8579488393587036 0.7655013615544936 -0.8892117407110928 -0.7378065188407849 -0.28042786924186286 -0.9128064367359243 -0.028445704909578914 -0.24712353628090214 -0.7810286144275306 0.03233443520173896 -0.5905012669508383 0.3701908975779769 -0.7205909110788077 0.6647817293540683 0.18074839418764177 -0.29447080937557857 0.2773599200142627 -0.3734428719410219 0.1488282878674405 -0.8460755774625335 -0.6721798090969979 -0.627894112354563 0.7753784827345589 -0.1882996281450908 -0.8931238175725503 0.24631078253718952 0.33754037471645587 -0.6695414450290055 -0.2646224809478209 -0.9693099351302579 0.5996567746308661 0.6661302345709532 0.3420625418430156 0.6581861539253837 0.08444850863569119 0.44824827169049997 0.12120739896717063 0.9913163042641892 -0.24308750579303684 0.8441099638634066 -0.027866932594961535 0.7122213732698529 -0.88243052573564 -0.8433705288048032 -0.78846462155047 -0.19717618389674696 -0.7445173505044032 -0.350774401212585 0.876432254618839 0.2656145410445492 0.10030410885826718 -0.5234300857634705 0.33613058248132904 -0.8365618292320356 0.11425359096395019 0.6862325091451283 -0.822111789097484 0.8396933843233325 0.956773220145612 0.8853650077489718 -0.4296976471334798 0.8502254573923642 0.5087265811592222 -0.533492538054208 -0.3672663135907176 -0.03986069767493371 0.8629925063694037 -0.525644951088547 0.84784146688495 0.09465211062159594 0.7543229495091278 -0.46527039547984805 -0.45864409142160834 0.4393472839603323 0.13727667798269771 -0.021884731495172893 0.9519438314645802 -0.715872585545309 0.3691711077823445 0.5400091340178335 0.09220989223016314 -0.1410174733855094 0.5303667651141902 -0.6436105328573921 -0.9289245882804522 0.5992143591982787 0.3129266688804608 0.9432069377042157 0.3302893598068755 -0.6983469773675222 0.621448106336468 -0.09112314454009167 0.34358620233972825 0.12253266312358344 -0.10777824809345311 0.5524148241700539 0.5311965742650335 0.10714675107729364 -0.7881357918929559 -0.9777682958531402 -0.8438994715212496 -0.9264603180668385 -0.568848156289316 -0.4803309480205248 -0.0059200761566115786 -0.5387828539834874 -0.9439660754632265 -0.9118528366833919 0.2775634536945028 -0.389515666257026 0.05429775504590204 0.6047925045755882 0.2793111827554839 0.8500309682157928 -0.6571611590828533 0.8294256508237704 0.8711226234950196 -0.12726166106058026 -0.44680019416174355 -0.3723634204734832 0.26841673316977505 -0.9628557340075179 -0.821611527465397 -0.2858504895283735 -0.21835571197387832 -0.4389258127117003 -0.08913997802373826 -0.369189064487692 -0.8769793659206451 -0.668874205968397 -0.4147043725185835 -0.7012194099526603 0.9045390624844247 0.8406003019262622 0.10588550884310913 0.6655644257237372 -0.18218710079335831 0.48697897924699146 -0.7957174605949403 -0.05773137167440854 -0.4951535368020852 -0.3622394621503515 -0.043465024293298044 0.6208395673442734 -0.8177348157788831 0.2814747583028539 0.6201165336331007 0.6468799245257084 0.6498079577769641 -0.8164410739262139 0.5089994549024978 0.2907533458790254 0.14908540770222928 0.7886232601999656 -0.2461518015169905 0.5903122185886615 0.47567833341579996 0.25920623642802343 0.09574432869108418 0.04886066121890232 -0.325059793932202 -0.19444771118298815 -0.3632675424894053 -0.345413263345248 -0.01619948827001459 0.3978969015453023 -0.666587677865611 0.6337524177498436 0.19540026065086483 0.24542907525147914 -0.3532535504816207 0.2030482589067553 0.19068501563563664 -0.047220225497850564 -1.0458066923612284 -0.2926638261244811 0.796103983122055 0.37652202224675824 -0.10340786773491689 -0.17382410827779185 0.4997184537119731 0.0874425661137703 0.583041672362675 0.9665129968941821 0.00554057185691085 -0.5904857082289305 -0.9517656964070569 0.7379991215391731 0.06638035121374676 0.8642628214829937 -0.2415262538335151 0.11657975657268362 0.7604428038246487 0.06541174120248922 0.9750281267919877 -0.36080060862073765 0.27288105871700724 -0.3080215570316706 -0.3135256829937159 0.078226885209619 -0.8913808270562344 0.41212104018923507 0.4140432831472857 -0.6381614822741843 -0.1746336760062532 0.0033468497801271975 -0.7318034115075156 -0.48096412222206675 -0.35414454312987254 0.7787280305167563 -0.655123758614242 0.5020769380619254 -0.055264510242885284 0.10070190411077107 -0.6444185840453369 -0.7553239088708037 0.8284992556443693 0.6555846318751575 0.5151740621734076 0.35330658171447016 -0.6585797104833039 -0.9641689007402107 -0.4567262229450223 0.7637549793907769 0.30139725303435416 -0.8748571674325637 0.6227859645357763 0.8980917592664768 0.5559363473674346 0.04354851990324847 -0.8833663992378703 0.9391713575174517 0.8210382989536698 -0.6409738392946155 0.9875196572025694 0.23661123194985043 -0.9511757812442818 -0.5087533323165062 -0.6182773228942092 0.07044528472872348 -0.03178974080436218 -0.9119509376896828 0.07466763735972015 0.2519595186711272 0.6803015936074407 0.33005869549754974 -0.9431650946884553 -0.3027605603870054 -0.19886351963698307 -0.13862563518935947 -0.8203079544736576 0.6857174067174836 -0.8028821157734602 -0.06673468074983276 0.8426743142485268 -0.004121893642275485 -0.9228772393917488 0.7519610640851492 -0.35335839782288714 -0.5706089083792307 0.2217916209587341 -0.8585193894494078 -0.8933780754108257 0.645972710432574 0.81432967717991 -0.8571447147655912 0.046204789801778445 -0.5893486920191088 -0.760529644385919 -0.2457211615149104 -0.8371384696352421 0.21575126563603433 -0.22228046719860092 0.4059508467715396 0.42157219135927115 -0.2820022092963539 -0.528578271472351 0.9573685717931998 -0.2707451935410363 0.6610302226992931 0.6161162451307903 -0.7266441473931267 0.5017358460297044 -0.19052370970460858 -0.7137974766440066 -0.07248958850423755 -0.7145704899027245 -0.7318328149475032 -0.5346746234739144 0.23596711296752731 -0.8299754555567606 -0.6814834033150322 0.6456817182355121 0.19840606206286557 -0.6718513922782722 0.6511477374620508 -0.9823976471711331 0.9428834708587279 -0.44123677145290097 -0.9303386016646992 -0.5960223100367713 0.3392654691289135 0.9175932622978004 -0.0283176536310088 0.7874076653075786 0.7834946395430478 0.9894496329118517 0.3450441705435293 0.4764442991613993 -0.37876781347767857 -0.15703835481879003 -0.4589678410784467 0.09275593413094911 -0.7943953493600269 -0.5505535953371617 0.006189912718166306 -0.29787730847865657 -0.3732120141979551 -0.40692930682109985 0.9466143399669178 0.9209135410283653 0.9799754112021095 0.10187688729085873 0.9188949757874166 0.8959216438292128 0.9772596212016769 0.06884822959281801 -0.6492286943619437 -0.33388192081015894 0.8973102976674598 0.31393694337761135 -0.9533551652794073 0.7066332002322033 -0.46698280439510786 -0.5495914811928757 0.34680848467642134 0.5174400746209928 0.4438867505602514 -0.08724692566212519 0.55926546676844 0.6100191099191122 0.21221504334226207 -0.03992875736871747 -0.3165832483332516 -0.027974671418829554 -0.44363598728720427 0.10869961052310505 -0.6816743088784605 -0.07193094121747438 -0.7855520037129332 0.9764861354001177 -0.896733762491416 -0.9811384365038855 0.24349407167658033 -0.2690216953899458 0.7270244183907832 -0.5929141358894431 0.35074928195109245 -0.5241761386687718 -0.45544823270257334 -0.7817941748711275 -0.03611701667912368 -0.817638922270233 -0.4983075507765588 0.05403347580661742 -0.4368929938935202 0.7335800493916201 0.6488354411466852 0.014608882130793581 -0.9569788153724222 -1.030436765329937 0.5973304834731852 -0.3556765112443409 0.7687183411350076 0.647068454993711 -0.29709398961407124 -0.35187635212152263 0.2059035961845799 -0.5618521842373274 -0.12905807290007926 -0.41114022201247424 -0.5148051032371408 -0.8491641309737559 0.3505915033319595 0.7339229352214544 -0.23019909895721977 -0.4252078646044305 0.667424066193615 0.41731422509680377 0.6265328485423493 0.037455561020085355 -0.7402385099120774 0.1985321183925823 -0.1739332620457603 0.6534274303351741 -0.6182139222050483 -0.6116352881676318 -0.5317632709139916 0.763800137229172 0.6291618345250196 0.8148550186367208 -0.5086109375847504 -0.3786859821834444 -0.4326990621970141 0.32966464991918215 -0.6299928150224448 0.7720225225384393 -0.5267417203196301 0.4952653551314954 0.10906846782192425 0.3099648336258287 -0.8037832300775379 0.2086891219464795 -0.18683951242258554 -0.8278917655882234 0.5139523013379693 0.567663705847328 0.11739430765730831 0.3312513104935524 -0.007244974802877661 0.19191553530448183 -0.7763788963318562 0.5236733844917129 0.5238051660142914 0.28528018837071617 0.21654787365853842 -0.9204548994226237 -0.5231902321426344 -0.695701020285327 -0.24280568054985507 0.9326121590719411 0.6620012159223432 0.794261527947266 -0.6415779372725793 -0.27279855403569025 0.10542145564359212 0.31353392773181826 -0.21722953938205536 0.47792498510767434 0.4276824933018624 -0.31043780974691787 0.456875103747955 -0.9361924969842904 0.5268758398418314 -0.4738888862388367 -0.011155617739253464 0.2834417315084938 -0.49592077449764876 -0.3855925354973236 0.7182375720242902 -0.4300037118005532 -0.4185079083426395 0.5261939837844843 0.39529921542422747 -0.5830200882684031 0.22072049747597114 0.2563472961039239 -0.9230619008527252 -0.9929064761502701 0.34134441738628657 0.7837428508396949 0.8525607138330564 0.3114059469931275 0.4438528196778182 0.8681067038048413 -0.06528936039887734 0.16088950665895618 -0.256614554111803 0.7633974501749874 -0.2594230177851902 0.7650916969176756 -0.3174832118563121 -0.8114451532532104 -0.6640462151965421 -0.15575089324343852 -0.44019877902634214 0.8660451444781391 0.04875525436802187 -0.9506929004055282 0.2274280685637986 0.0029349654624799366 0.4517739696849531 -0.31178307690547996 0.6811752083358051 -0.925454187722263 -0.21460081674945886 -0.5585030703126086 0.6646748494510103 0.4645613160684584 -0.8098513233205175 -0.5466765499434599 0.44301858541857664 -0.2849238613911449 0.26134086062989925 0.7345705751399725 -0.21536983776404228 0.08837095217154158 0.3890951210341482 0.68348445056753 0.006545891512513555 -0.4107183771798539 -0.6082877326271867 0.3271139871811816 0.21108108415300517 0.5441816430051735 0.38675339034499057 0.8771829688488034 0.9342574420789768 0.7511344565119366 -0.6959093113622443 0.29559448691146745 0.8944506490619578 -0.5066439067950436 0.11955315919343242 -0.572959922554814 -0.7066866890503171 0.2141880315924841 0.8992633748350687 -0.3241777356084491 -0.11824708467031014 0.6245329098130104 -0.7350331434279378 0.6316341080899213 -0.6775856111124173 -0.6678596912210104 0.8683869704410276 -0.884564139997 0.8140099252123779 -0.8516403325129481 0.20739236552067417 -0.12548601803973536 0.024856479548762567 -0.6218503650021355 -0.4819564605616219 0.3699403477106542 -0.8935785277497772 0.9194085642510545 0.8737526484068424 -0.8280755929854255 0.6136660080628916 -0.029951387355878083 0.6187755340081007 0.6412151417182989 -0.2696431936440976 0.8119351058700496 -0.18848775741160254 -0.042999756810567974 0.36033827182823386 0.29780965618552124 0.7390442792942817 -0.40451259236062853 0.18872509644966026 0.6534894810233437 0.03618115167713624 0.5915290813891393 0.4836773750640749 -0.05173891555188327 0.10655681685547697 -0.8001660627800251 -0.6427812190773302 -0.12574250392426384 -0.8892417143442555 0.5981034681677587 -0.5004291785792062 -0.6943994523625476 0.0819696273884054 0.4833941760040952 0.07962443820440869 0.614097635944635 0.969341248029351 0.4475939773045609 0.8983714758670621 -0.5698307525684401 0.49616833167626023 0.43264989294556566 -0.5071511661556578 0.028532739161934106 -0.7437343507135039 0.8362034811425709 0.2882420062416272 0.33901523120893523 -0.36381118243797594 -0.34862757429334207 -0.4478592951003923 0.2485580486470977 0.4527255616158573 0.5149190307587037 0.22617197053732374 0.23325822747020125 0.7232291367502962 -0.2323300492961602 0.37932984922138446 -0.5454685209219441 -0.1051719529842052 -0.03673433905631837 0.25504503835672576 -0.2760539738206305 0.9871059007693661 -0.010554307512238468 -0.9792369637120073 0.856841293346814 0.34139790181299295 0.9905477952481749 -0.680466086775684 0.49648820571111796 -0.889413247621228 -0.4745170733662607 0.07664016172011842 0.20832915718725872 -0.67968643994382 0.7271886270148544 -0.5501659902399497 -0.5678574334573666 0.2643593186262065 -0.3016158338841621 0.9428963102929618 -0.4542144355508513 -0.9903368534848717 0.23693847671648896 -0.8647687293714614 0.9068573934772247 -0.04572372563029428 0.9324508388174015 0.6958079983914485 -0.5115963159117203 -0.5639517232726734 -0.24901146006464006 0.8857138521286726 0.8185457101277287 0.610182814966943 0.2392584718473949 0.5357384885376644 -0.535673196510493 0.324318765703999 0.18651297473174422 -0.6809395922706751 -0.34046466501204975 -0.2807773886618657 0.7257692252315631 -0.19254443176246153 0.10627744826266763 0.1450647693625653 -0.07317986594661982 -0.33668765582369664 0.2192853069832871 0.14773637117802627 -0.016289011923131366 -0.8789478092733427 -0.4590220334666607 0.892359251270088 0.27276451218101516 0.4958224752460425 0.9210149393328396 -0.9538888692880847 0.026022782595296345 0.07175023405325454 0.6858202336471884 0.12048758654000231 0.09436902028877747 0.6203289683307824 -0.026847500694465065 0.8317046195519862 0.05596570403195411 0.952002745597414 -0.8334034125813545 0.263352481907191 0.07752817970695706 -0.04222825434301152 0.12988326101508507 -0.580351321175224 0.4585175395684026 0.7650753472750167 -0.4305757182655524 -0.7323806798270242 0.5366085552541132 -0.8765640523187179 -0.8384036480426673 0.2313153168035309 0.8952321285509809 0.0013128773278514156 -0.2737592371178915 0.47153402268560746 0.1542364375665724 0.9086429811889469 -0.7710082795987931 -0.45521000544026546 0.5020120401095729 -0.21051520221305875 0.26617447619126944 -0.5938798411224222 -0.03593912014597178 -0.8777891743213364 0.19514184621976427 -0.7755480363186515 0.21637804127422777 -0.04227010044634749 -0.6877018115234512 0.6041338472352342 0.5743675474700562 -0.4533215583472971 0.41052791008104217 0.5968336147259314 0.7902384783736359 -0.04933127901780006 -0.4354812276773694 -0.9339696039203178 0.8289965302077155 0.304976501851019 -0.8887887980133256 -0.841331075117131 -0.038788960538159056 0.7793552050925059 -0.22638817881507478 0.5093549342378147 0.39148355869925466 -0.9301426117003164 -0.7559408037640163,0.8943865727262248 0.18288826141582604 -0.8184751168828002 -0.2602624328190304 -0.6686465263664727 -0.8340957423729356 -0.9711261223900527 0.39830413615519533 -0.11334452778805848 0.18305494675494072 -0.5706278397074096 -0.2099118123105581 0.5037559392201612 -0.7032897727387994 0.5613353057880259 0.12536151933276618 -0.5717644775023474 -0.19253331099374793 -0.7272885851387665 -0.9288214716764169 0.3333520679991917 -0.21626633409699636 0.041310538158659815 0.8270703946931304 0.7891414803448555 0.18285418657978458 0.8823720233678889 0.26291519965174515 0.5611580668329332 -0.5381137599591588 0.6717251134939233 0.47942606733788495 -0.2107288734396111 0.310702648525061 -0.2562982985509321 -0.7352424351652862 -0.9659362778291052 0.1336613008348424 -0.870992608870913 -0.8951694854623988 0.28591673530910033 0.5910726972011392 -0.5788565073849584 -0.47268091523604294 0.9897889769935693 0.997476522375947 -0.0380121084133449 -0.9481461534049944 0.5808855583347998 0.3301791129391616 -0.9258554970185946 0.5160171937980376 -0.7534766807870938 0.5246341095947915 0.8083542389968832 0.8014021221894987 0.14195994717955385 -0.43861800974018084 0.5742717516044102 -0.6377622544286757 -0.8407564946309258 0.2942695605519723 -0.5239439567663944 0.9575465763005432 -0.8266475235189383 0.5436324777099237 -0.2141859423556318 -0.30487947254915143 0.6773477427407234 -0.4723447194761311 0.5285518923061353 -0.09156936475715316 -0.3230903057021195 0.25320663029952734 0.038718741691300504 -0.5825364784945771 -0.7850771460771082 -0.051402666334323444 0.44660567902118786 -0.24681428061030997 -0.8813577353609949 0.891686030154984 -0.5962665204652142 0.6612367699911752 -0.4817928025851732 -0.4893398304628769 -0.7859782859484161 -0.796382569076093 -0.8666787079766618 -0.3801118599399618 0.8763654517971169 0.8009081491580817 0.8296319652842672 0.7603961522622272 0.5487581316018431 -0.9329984791803551 0.5316517632733844 -0.17541442517652434 -0.5641584599593764 0.07045111583166867 0.17251687788227119 0.58480719360281 0.2121522328928782 0.11697799294073083 -0.029856305712087323 -0.5353429259423975 -0.36489178942789413 -0.05608802439433358 0.015096362901434679 0.34626437270365895 -0.0027233183916870463 0.07034964510498742 0.6886736026865639 -0.1988765658246867 0.21625835992368492 -0.9712250623694212 0.9119384894958722 -0.7096857458698965 0.022385491792099386 -0.7875730975088001 0.17434781336694177 0.7750619132921083 -0.7422616406435505 0.8753268399478251 0.315869857429742 0.4368730833697593 -0.6603122856748913 -0.9497278935449387 0.10255855016851773 -0.4135241847942228 -0.5948050379001641 0.5208817434976754 0.6935251861346271 -0.36235847940043914 0.9774268171871218 -0.506053486651047 -0.23447928634434012 -0.9506422414201552 0.5765887744721381 0.4445348764295458 0.5048926563320231 -0.8682327895649664 0.6733817295321236 -0.5906051079382186 -0.20681008435499104 0.9783188917826963 -0.316986475220599 -0.8623554260606667 0.9764853876273681 0.4890872705205135 -0.39251777735446025 -0.6062128554221343 0.6190997265153372 0.8116355238399676 0.7123342218820896 -0.023365554460856072 0.853800983553145 0.5588391541301818 -0.5347708142686121 -0.1924062910384347 -0.04554951841157469 0.7486603308043914 0.24289829704553312 -0.6421822606619194 0.6778375786883108 0.6232960571713593 0.7283352784390318 0.06747313013056488 0.9439684937923776 -0.8283559894476982 -0.2791260522944091 0.19019165838381413 -0.5389271117624272 -0.8479857672441856 0.39408303501527553 -0.45097909215354115 0.7488453608037887 0.5154172929277301 0.7105704937616196 -0.12433360455660446 -0.7777028808220661 -0.7555910414810763 0.16908469725492942 0.3437190162938654 -0.6977537041962731 0.9184238581144077 -0.29237410240123984 -0.865060312883216 -0.624787535761663 -0.8947391759648765 -0.6875762704370025 -0.16528268358179626 -0.3845767657352418 0.7950954996403388 0.7935475754820459 -0.6986406281130328 -0.5442151492464513 -0.05464283290832772 -0.6773626494467432 0.005067526613569142 0.31168584031159147 0.11733694550119718 -0.08173926314871287 -0.9090302877605484 0.6360673292410955 -0.1870991730006632 -0.5850077323569174 0.7467668529539815 -0.8107798131126193 -0.45973323876921146 -0.8132115711409452 0.7590437064965091 -0.512682121488384 -0.5034307847542399 -0.20009450233170567 -0.5590785610794856 -0.4210710715827853 0.3733469331179002 -0.7543867233455078 -0.0017650463182876078 -0.07404986499638863 0.5212510302230655 -0.07130003709517022 -0.6202548765772085 -0.7810250527339233 0.9215578514442081 0.33786463302096575 0.6393692707891897 0.015506269061442562 0.160277926829802 0.47048350068083117 -0.6224275542049826 0.8702837356796892 0.1459461599603397 -0.6242364425471798 0.7881913032349628 0.12221533844733057 0.22611944858849206 0.6776007082617479 -0.38096612885473435 -0.8253101263333635 -0.09402652086485747 0.09930570121360797 0.5246966049011152 0.5574308203849165 0.01907574593683214 -0.6849531959448393 -0.4623605427201997 -0.007648775512073043 -0.6571927686008563 -0.32140815381936055 -0.29620095052623596 -0.4479977535665609 0.7418247120498747 0.3437145957589025 -0.41775917723736605 0.5893720916669037 0.03611497794798949 -0.6673641895589503 -0.1409287144499782 -0.2443019090669591 0.3392596025828442 0.46291600413007833 -0.4424901557563155 0.6227108345170888 -0.9046401666427922 -0.2742252209309023 -0.33003584810753056 0.5988224390093685 -0.31510258291809534 0.5192652455304518 0.0025582852924289352 -0.6886790738517217 -0.11101633983918545 0.4796791238294737 -0.45771416081426114 0.4540120103830994 0.32827763917761776 -0.8426995537125944 -0.19580317750793075 0.7786834229302808 0.658731431234107 -0.030767151796326803 -0.2456176337729424 0.030323277166263016 -0.514970683586665 -0.5978235311702044 0.6500789870512547 -0.7478007890844387 0.8488423963270132 -0.36270850564768026 -0.10770609308823313 -0.7996230506268616 0.6319996069025494 0.31601037893771217 0.20826933497245495 0.25924813239069655 0.3839102643846563 0.41759025175456954 0.3048752627534495 0.42397025395718224 -0.5761730101633799 -0.1680122900884075 0.18258911373488704 0.9527032165053221 0.8407729132445171 0.4904923018829824 0.27989923155039176 -0.6030863733537761 0.9888920533113401 -0.12431296355132801 0.3624479860407503 -0.9747057822057421 -0.9222287080420556 -0.29932658562105546 -0.3184726241694219 0.5982393772268009 0.6748284486811673 0.6464962675286592 -0.5076727129385088 0.6508990549987729 -0.36453568779129014 0.6915207648858709 -0.6672989878842521 0.6047069131152513 -0.7298760595949276 0.06833954272000656 0.23873095159273056 -0.1825169720550448 0.6178533252659117 -0.38321526904993203 0.8469601821676055 -0.7752377818623024 0.330941608199687 0.4867044601208274 0.35181588360535443 0.42149288523868833 -0.7850181189511222 -0.41572828046922355 0.24723993466088454 -0.2578898633388074 -0.44327062644838156 -0.3617881358270248 -0.5285562599064947 0.18566527499738403 0.584632126466187 0.7780749897496263 0.14758383408353046 0.2782492419391198 -0.33332047244544255 -0.940430344103576 0.5701802661453683 0.06725834437258701 0.6700551274174628 -0.32124455706388927 -0.5429746661662703 0.41277067702785986 0.859906310185683 -0.9869615327918085 -0.01087400265175775 -0.36101467803493514 0.4900135082518686 -0.8319302958698026 0.36954708714550333 0.919768778318478 0.3396018703264834 0.26281751075054144 0.04183857040111003 -0.993138048647708 -0.7162093396587628 0.953625531638028 -0.1405566037972833 -0.457466116942468 -0.9312904684189648 -0.4185321324036576 -0.29476190229357196 -0.35243900608896883 -0.5040424673780469 -0.8831242482072863 -0.7105562626032422 -0.1300520976413382 0.48035215109881607 0.4305848002172727 -0.32840029550353245 0.011791930350149004 -0.2969799214748884 0.15683214554605943 -0.08351742973111355 0.0738251652203853 0.31983251534490476 0.5673190043739975 -0.5161494806418048 -0.35626604015345187 -0.20866769063859836 0.6158286454549672 0.1446634477800414 -0.32527860666153646 -0.5683628215754484 -0.3252296781454081 0.8686872811378505 -0.1531740217980073 0.4240417362996297 0.3972362787961025 0.006025521889262521 -0.4138154806373299 0.4715055497571528 -0.7013392563981302 -0.010581266190036949 -0.294530858824209 0.20546481870496852 -0.5553811652696178 -0.7901245759501234 -0.7620615452976961 0.4238196310304978 -0.3552717109103917 0.8302323372842899 -0.5672974121038732 -0.17775715992447808 -0.8267579407570571 0.5531074078740961 -0.12925950941118525 0.17739440907333548 0.5331851410989051 0.7083097828632491 -0.7817251719193538 -0.9585491709689135 0.45865467801669724 0.15274558917454645 -0.9258652231472491 -0.9165853541340124 0.8759908749739239 -0.6657023207907001 0.8221404556810501 -0.5766600307952351 -0.6340545497851292 0.5147964587325078 0.03590725295856405 0.7178721442216291 -0.9516512678560813 0.5939562920530314 0.21693054157836958 -0.07565013978658157 -0.626457625179643 0.20623497853627779 0.4691571636587127 0.4701712509598972 0.7066346297934099 -0.718022375478766 -0.06316955761910714 0.7292096639400307 0.12398029160657056 0.633012594510118 0.28630223764732704 -0.06639788291340946 -0.8494245352158303 0.0987592567636536 0.25705012125861004 -0.9203011164005952 -0.9686062735668834 -0.29335131581335594 -0.1937644847126172 0.3386644104777164 -0.7287545035265871 0.13589539820929172 0.8909021733440402 0.34387578286293863 0.3394134736198405 0.03242150427694395 0.2571444769540573 -0.9485471324852004 0.9686737994518447 -0.9997343427291154 -0.6220194072476217 -0.1265264690093261 -0.12965932995138874 -0.3868824358688143 -0.3165155139424445 -0.2001633883844216 0.054840690648771645 -0.37184815210426864 -0.41995273721336124 -0.41002356197008943 0.5331937987655547 -0.2205349518837636 0.443268809380151 -0.5729973724879232 -0.9749260034352477 -0.7056277147498178 -0.5142321733253274 -0.608828642114521 0.731607714062778 -0.24819496504214963 0.6643659653186813 -0.211284810755141 0.21078813671634858 0.13122818082230273 0.1462962389902191 0.23553647905179134 -0.5388044475999123 0.43777142303553473 0.23022391549763238 0.9485498941634406 0.7349248520979935 -0.3404098044607714 -0.9469967755734499 0.6768795606713773 -0.12556797228976926 -0.08185313915143339 0.2975197627660585 -0.516662892138899 0.7093594680610699 -0.03623195512080077 0.09459579145767485 0.43249532607557556 0.3175508900105657 0.4925238645726285 0.3816549234289753 -0.44877628399530517 0.5811825742740214 0.5351745378147673 0.9186134795329006 0.4317304725498757 -1.0099954480251794 -0.7317271639446803 0.9441071334446752 -0.45770555921363226 -0.26480807676909535 0.8844692383166869 0.8887867639674596 0.2804270466578607 0.7739281211110511 -0.8535871918356256 0.8592674392614268 -0.8632506140072203 -0.3521411151576974 0.40455564308379444 -0.4142597853704696 0.7013580497555757 -0.2990006232676565 0.3549342314713554 0.5151350798087523 -0.3655015825537664 -0.9310358789943926 0.850240583410012 0.9724751457958943 0.24255153343333233 -0.30405981925918574 -0.8062629081114283 -0.08379303170026074 -0.2958801330551817 -0.4317321762440252 0.9475887813701953 0.3697894431789513 -0.5890613437329385 -0.49214851134794235 0.4431870234908127 0.6212433734048083 0.24986721647767027 0.039054864592415466 0.8163741127487452 0.7402442381993459 -0.0034304245489809038 0.1405154541983315 -0.935498238433327 0.3130590517774903 -0.6573409797952329 0.41472961213757564 0.7615695194193559 -0.6199467900139805 -0.3289322142933968 0.40081122517062767 -0.8588456881173313 -0.937026445213786 0.19518805320353658 -0.4179693834427997 0.1084335172685028 0.7423631896138368 -0.8873445823657918 0.8269067087803554 0.5625777287424353 -0.126814243662624 0.6186370942850522 0.01829734302189324 0.31383163515587686 -0.4652726026288489 0.44313743111290993 -0.17402493065985042 -0.5431223442794151 -0.6941397559559899 0.6069133170269558 0.05839924747187786 -0.6597577106987758 0.054726143456426846 -0.980671578522917 -0.6000239542585296 0.8016592971071782 0.17466081273264292 -0.8428334255101819 0.4013397367611588 -0.06014347842102064 -0.8168702317816671 -0.58465500913437 -0.2859803585642873 0.6969813452423171 -0.588375963411522 -0.9300144249634158 0.6146985951507814 -0.44116665868199256 0.5369980823127298 -0.38242811878493493 -0.9222748850845157 -0.3008448840280604 0.13011768470302837 -0.10012319867462259 -0.7252686750953573 -0.7959945596978797 -0.5280842108024593 -0.03984391500858808 0.9772570337036629 -0.23164583470725084 -0.2767679489643837 0.17274174112249788 0.20406701770907126 0.3209057942873211 -0.4744348379806658 -0.07078891045009705 -0.714958837890632 -0.8566390282948314 -0.6429119105386082 0.8520539878949828 -0.7984821073971402 -0.7312303771217374 -0.17916004030921165 0.03276586198659376 0.6942888996409616 -0.42539908392197473 -0.3405233202500854 -0.988179477802678 -0.021079042148317483 -0.5755051870662291 -0.7837693428294111 0.4918146936588155 -0.23164729370717563 -0.3013152759350204 0.875749572240663 -0.4488984852584208 -0.32335452536658277 -0.25844170509905473 0.5736182138376467 -0.3014414974074001 -0.3870487748893447 -0.28494253647124584 0.8724807960082936 -0.0895417723509165 0.5165284147104872 0.07901658942251658 -0.9269890998075665 0.09388788099708263 0.03240282704365588 -0.08425487240546112 0.24776934089521238 0.32524729107651235 -0.2888991028874818 0.5701029991144952 -0.24392412916491735 0.636357390978781 0.5327966848727496 -0.7843966983068899 0.3807935793081633 0.1772734513244585 -0.8614071619706878 -0.4870522863095277 -0.19542753833069137 0.6498456319074029 -0.6703296517986834 0.35736749756196096 -0.3094493853899518 0.6777155746977434 -0.7856409434210193 0.4731061711756086 0.4842056894275947 -0.3422766245471313 0.03741022213301685 0.03231880994680165 -0.6275652482749273 0.490118354309965 -0.8293102355418124 0.8806305313583697 0.946431804383457 -0.7536081550328018 0.19534444673489712 -0.25544368743100504 0.07156390233756438 -0.20989566589237088 -0.11527611647592334 0.34755630310808683 0.36061173969794735 0.6310375286987331 -0.45564052872883565 0.3057637126740287 0.028310273166421096 0.948495924453119 -0.9501974352880566 0.650327544685875 0.9206059885141324 -0.7896149696604357 0.2777884862251096 -0.8071772706209903 0.14656428781189695 -0.9694640025271142 -0.14754462808095475 -0.6875882383245755 -0.31955266834621043 0.9098233369139349 0.10095786333570494 -0.6693208729086133 -0.5155855434293679 0.3726268942785897 0.9079464032518612 -0.02731740591019243 -0.26918769588615227 0.19275332261909528 -0.5207370280558191 0.6728867542987845 -0.6070636803687133 0.16084111425884529 -0.7983557678079312 -0.01703709349833571 0.6312447801074799 0.2637990400750745 -0.5969727617531424 0.4630049230567366 -0.9719175839330526 -0.2813653674275498 0.12883889169046758 0.5074243642748629 0.4237293360408678 -0.4339957165310798 0.5840557273434186 0.5381910303536822 -0.29672779964529217 0.3436896682029077 0.3620720592650422 -0.2491515496831725 -0.1755054229336698 0.44361153247406654 -0.3493378217425452 0.7863969215261318 -0.128370770147791 0.22594191175270403 0.3572695938550893 0.8697108834407553 -0.14626994029132567 -0.20615343838001898 -0.4655731886552277 0.3884340321041617 0.07130244903205041 -0.926465705707674 0.8849098362430887 0.6609758336024982 -0.414522401599472 0.8107734774674115 -0.232473056501349 0.7502022580829828 -0.48035767987735106 0.059742425678688815 -0.1350313160677736 -0.4039579648657789 -0.4476543399569916 0.11803157994634898 -0.7107499321265002 0.3315603897619716 -0.8451758859119266 -0.4437070959594752 -0.2056101172618873 0.2448906069907242 -0.8018102457234764 -0.6383366573332288 0.5275013322339408 0.2061868678792404 -0.9774335688374167 -0.7891760843181315 0.594125153414494 -0.4255805037129534,0.5893161077571185 -0.6962609564521713 -0.23951865766821467 -0.9002794791783371 0.9283264655727099 -0.48563100597983255 0.562928417344349 0.864245488482617 -0.5335697711408918 -0.9815714159667706 0.21784506405230553 -0.04988034740972558 0.9076366900262802 0.3120930438457139 0.520381110514138 0.42146011956836427 -0.13211155744626213 0.7574319256867346 0.20408460648785698 0.46142325311610577 -0.1814341000452253 0.6428130671951509 0.17439249812170643 -0.217828235045048 -0.5019450928565685 0.9611161079148076 -0.5167795695424868 0.3032513008537281 -0.031035455118462174 -0.03294902497538721 0.2847731514332572 0.2803250710646301 -0.6606354446019469 0.8355009646346212 -0.2550558715722582 0.6375163610503243 0.1594445942226912 -0.13732645355378237 -0.28777617234226316 0.837555772296471 0.9924742676250973 -0.5157298575944466 -0.8622912507618906 -0.06349656470180698 0.4044468181661945 0.955258334431499 -0.798075106846777 0.15540631359613308 -0.4648989212571376 -0.4985291953671449 0.9312819100606462 -0.714089744031609 -0.38600223698516367 0.35884743206540337 0.5070741191548969 0.8520477230924601 0.361423860543878 -0.35215704954253657 -0.8063994084369244 -0.09374943728321286 0.062253036116546784 -0.6066899201434504 0.41381091159291294 0.51726052593846 -0.3019633084802394 0.30025105350298875 -0.8400829729509643 -0.5877323038550005 -0.42792738330071195 -0.8464484862017816 0.8838484958600333 0.45476407229655474 -0.5257562352160803 0.21694006082681563 0.954294455355679 -0.04413778057777241 0.3701930962173116 -0.8654478443649114 0.9721409307419564 -0.35655074798979736 -0.28225597162950944 0.8611794665863577 0.4319578042249339 0.19501683687968185 -0.4307932738870186 0.42977222161971973 -0.9610349840411763 -0.15083347909061093 0.3930057249520132 -0.9052013736739521 -0.9389288321112184 -0.16323805805516864 -0.004846746535934546 0.35099478728107697 -0.8889554404860978 -0.8793889928975037 -0.6334828078805962 0.7709927546166959 -0.15051336138165 -0.22813166116266023 0.5177681782337429 -0.6952020537395287 -0.04397583061352554 -0.8067383604702909 -0.5305347426937616 0.31741835848460764 -0.6085240500172481 -0.15860870845292763 0.24780415250633891 -0.01466359738449996 0.8711787194911702 -0.04970198181798757 0.7020746974830825 0.7832081961741537 -0.1891680037421959 -0.5527984224830726 -0.1482143090847209 0.18606279580504262 -0.8314971322135916 0.16361736198557852 0.7979197901466448 -0.5378143443034766 -0.9726321591632098 -0.1498569689645524 0.9177106084502367 -0.7642586654121047 -0.012087769013243217 -0.1435943699889692 0.9112469718906484 0.6777880197835014 0.8821407627069625 -0.09970727918832654 -0.9550187750273336 -0.3501905457499736 -0.9188734768199942 -0.15067486698007315 0.9664412496430703 -0.17512379068463715 0.23955306626369133 0.981018485133542 -0.1695643485844298 0.7752973939261736 -0.13285886120013846 0.7441001466526203 -0.8357127499103145 -0.18387993610793876 -0.9960460450348073 0.23458574206819907 0.8091180897239275 0.246135277946628 -0.2622439096888367 0.24642730757613213 -0.40935052595762 -0.6794139005467162 0.05729359699868357 -0.8951702142174144 0.7876433198051642 -0.6842482419470944 0.09939257014866543 -0.2734148584770146 0.9492733878182436 0.7812583780288604 0.3388000585497463 0.21924271628353287 -0.4948261379940077 0.3076379085374316 0.02484563253989263 -0.12436193876405088 0.2985187150542261 0.2859107375675751 -0.6321476808349107 0.7684817930356139 0.18343908661187563 0.6330805565866209 0.6767371266533239 -0.3704089951017003 0.35393472067430426 -0.7992110206858322 -0.35752176101138744 0.1636933041645776 0.25914189879117655 -0.6654527274486592 -0.8933234649753579 -0.5317255150927119 -0.18197062421222382 -0.39835074669116705 0.11088428020780666 -0.926852005564297 0.46187075001393657 -0.14702208185113727 0.5824671886514993 0.9883243225085435 -0.4119293092859071 0.19352011060536906 0.136199457284226 -0.15856520108520233 0.7401050347666835 0.40234502729017896 0.9497141038781003 0.5538876354848128 -0.7293386161335069 0.21753615531370443 -0.12936499158803022 0.4146224154858621 0.13589244038570994 0.3472731091595504 -0.9011753938891077 -0.4446712081420605 -0.9851924923260028 0.3650143207806821 -0.16035031987199522 -0.5966392040561559 0.7689352727062273 0.030866351921696192 -0.1863444236861029 -0.31843387575127924 -0.20178028504717083 0.4258620885531502 -0.27787752298584434 0.7947539784272009 -0.7726876983925947 0.9284146869772893 -0.5785332403333752 -0.242784357576728 -0.014819589901101438 -0.8757829035445552 0.9728093379277803 -0.5301020271425014 -0.26217795864436977 -0.27648811226401965 0.736775500544833 0.34828414141786296 -0.4394964900692624 0.5799826331727057 -0.7294180933288604 0.7041222753419644 0.5239766617058255 0.42521335520587256 0.03085626871076847 -0.9134999975443212 -0.5978564373876641 0.09468153186274644 0.7911130345372943 -0.5743243361546841 0.7943281047413452 -0.13910535045044176 0.14020527465519927 -0.2936898770173168 0.749185224671282 0.10999745486288394 -0.4160155799982727 0.28595836674290975 0.05807544483379257 -0.9037193196288886 -0.05016340335534137 -0.6275844698856565 0.37559298386540785 -0.646803549995551 -0.33109475600808835 0.10728112214040705 0.1299064287470984 -0.42279601261228217 0.5324322331911514 0.7149824555256387 0.611264558061429 1.0310124275391102 0.3068024621374517 -0.20587493509623214 -0.703150476412662 0.45286370446164986 -0.7407051539682661 0.8964298441250941 -0.5014817785825679 -0.20770741559032974 0.8821702373799601 -0.5048991755567681 0.68861416583457 0.33223549063740354 -0.6397198282018393 0.32234042605847507 0.8161595063203808 0.48091884220926845 0.2780522272162151 -1.00011594641571 0.17474584509735255 -1.0137511105399353 0.7860633076061332 0.15857746549536325 0.9007627411910494 -0.6892353027944493 0.9344056098898467 0.3054446973238738 -0.14073922843550796 -0.7738458789670003 -0.3946210169075545 -0.4183680694411846 -0.5961977567105168 -0.5385388893475922 0.6393731017621542 -0.2049158732289127 -0.4675221846035926 0.10068585490927337 -0.9384053641582702 0.6096268061266991 -0.19918728929039964 -0.39297407155816544 0.4599652899583398 0.9317137462611619 0.32974681510984927 0.9261036722777286 0.5278158785939373 -0.25850728092649333 -0.6129918098192854 -0.9671730688258353 0.37987756731970157 0.06709907502056241 0.33457067274706936 0.05414464095853259 -0.6834593719497152 0.31865241712506304 0.7149098819434231 -0.9408226278305789 -0.09756662956389602 0.0996610079242267 0.6617109083993126 -0.42514649425407663 -0.3163278479123805 0.45613285296853867 -0.9031909035781766 0.9234367588698839 0.32879781038163336 0.3973146484311033 -0.6510305392301978 -0.4738979229774463 0.0339496252165575 0.18587625382331896 -0.8544035914692931 0.07453725308845789 0.8603395293859328 -0.9615649021473405 -0.6818188992839177 0.9708365841733182 -0.8881797918074585 0.13230891312134474 0.9566929344967828 0.96276332142918 0.7007495092894086 -0.46993723125149023 -0.30480132598543114 -0.4855441691296193 -0.20804958531319945 0.43672519106881197 0.05323024851350828 -0.4462037551327804 0.6777311115305302 -0.1790712138491093 0.3376707046904581 -0.5362740064971844 0.2526772090905548 -0.9751544384097246 -0.46805347543804093 -0.2506691836747533 -0.625759425271709 -0.12169710682604507 -0.9653354585162575 -0.783988021439376 -0.88114687345558 0.47276714954659754 0.5218215351870843 -0.18982570430250023 0.6743122156335374 -0.5015924335498385 -0.7616031799631229 0.09804776564609531 -0.02063830039912633 -0.583721120229384 0.8999538634751553 0.18218018238845882 -0.6180663916513399 -0.915425396137833 0.8066828677288234 -0.22002043100474208 0.814787405120752 -0.6965600890572864 0.25455010148450763 0.3060414834255384 0.08529124292630519 0.2865719916462023 -0.02122172219430011 -0.9759252974487133 -0.0702090837530132 0.9481632247125846 0.6414308555020738 -0.36704494218829975 -0.45080757878812605 -0.6226320416169355 0.6608443073241458 0.506095821594876 0.004787382662651418 0.5078598889384425 -0.5798463384668406 -0.4395105595237685 -0.38912836214154434 0.7885534704047862 -0.5406443315660953 0.9009062533053278 -0.40506598362112434 -0.9021227237317136 -0.3887398758499205 0.6044816561294737 0.5638693405226813 0.5692844168040868 0.8879654660709311 -0.8921048372884739 -0.3851160240251076 -0.2038626308129138 0.539123550532847 -0.48654254137875724 0.6465610722360093 -0.7432651667155084 0.9909098540517349 0.4985425188660393 -0.5185322000573926 0.4271339805937648 -0.7981495088123443 0.6395868813685257 -0.05082183220451636 -0.33746974870831864 -0.5741986926280678 1.0392757004556414 0.03993837011874502 -0.6232748233054118 0.808601930402415 0.22644692874297115 0.0783487987690125 -0.3108289255911947 0.4396613950461139 0.6166537040099807 -0.23371983311147965 0.4346012087825049 0.02608455499434789 0.5841277530663915 0.2215059718694659 0.7558952753310895 0.37118825092971675 -0.7595241674104649 -0.4532192897820462 0.9456255973167076 -0.19835558028518818 0.9348027227275928 -0.7185686396738987 0.6415684282897373 0.9290271740709449 -0.7985315866222281 -0.06910050308627413 -0.3351696763621137 -0.16548703480273352 0.260217229526463 -0.08190044164624599 0.7852414721469786 0.8912416631515414 -0.1714386736472536 0.3592641778328558 -0.596206182091578 0.03466924760330605 -0.5988555199737516 -0.18843079654289707 -0.3136579533353301 0.9180910005076507 0.5743951689914508 -0.38370069063306 -0.8767861348076492 0.9266544311987869 0.08161124137617051 -0.6523252886482224 -0.3884060222512222 -0.8908135403699848 0.2448944526598238 0.32097982046821005 -0.9745968682252181 0.7704558780025859 -0.9549229828916497 -0.5587944829456474 -0.8149379603234068 -0.9858932313669047 -0.7442200536393692 -0.9207488383694412 -0.4256414669789702 -0.5937271480577858 -0.1862274860980668 -0.8171965770917803 -0.848271593219189 -0.039673647613062635 0.5047901550316445 -0.7842590717069899 -0.15481253345815257 0.07581687538786616 0.12517426911813287 0.3773716355030722 -0.6802516496078388 0.7692372805090363 -0.5587482525265525 -0.044442141105974324 -0.22774959836287656 0.5272437207608138 0.6133724815506332 0.73173640885237 0.15988465434130117 0.5918026561264006 0.18370253178969848 0.8010788659463767 -0.2639592606797148 0.020924352861784113 -0.8975609425875759 0.8784626197319937 0.3924686074430105 0.11388055867614347 0.11530254962395463 0.7730728764383473 0.9569756515507417 0.659763628829196 -0.4116100602799543 -0.6244281283774968 -0.2037262506709735 -0.6580737602822255 -0.505801669720311 0.3124410356907945 0.10947699741549838 -0.08161307403418012 0.8119608136086535 0.25422955311712825 -0.07864117966539941 0.6587846615409496 -0.4900583699666292 0.5905551553740253 -0.5060119768479715 -0.34224801808208233 -0.8189070719000252 0.8290847685218916 -0.8024728440532151 0.13285910349443122 0.8253537393759004 0.40138327396553497 -0.21402305966488078 -0.14215228524010062 -0.31946447661064753 -0.42731650421204126 -0.25796723835942015 -0.798089760937945 -0.9611668168203372 0.8582826421918747 0.616539410700292 -0.8894981198622255 0.17768651547883343 0.7438460069186278 -0.14397756989803515 0.5093080688597732 -0.46352676370115115 -0.1372478877316217 -0.8600001868126885 -0.13731704717557358 -0.4329775877807831 -0.7718114888678824 -0.7417470697067248 -0.7703167890949114 0.35233057508145865 0.9094988315635627 -0.7660828557120161 -0.7742083107582924 0.912469756196518 0.6999669808218043 0.4506007869353689 -0.009675579670261532 -0.7659544811379098 0.9163351458032983 0.9621534855124507 -0.16508242102898685 0.31332352580513884 0.9831545492484676 0.2205013194917602 0.06517834094400644 -0.31021068671578267 -0.02379760551746424 0.41686892784941976 -0.6231359987675996 0.6355868993774472 0.5769417783026528 0.02562503479605427 0.0018472143957617426 0.2803675566270498 0.7731834250147739 0.1314496165244274 0.6679897602735644 -0.9568670009842853 0.7884652564825276 0.7191551274015189 -0.7494995232983622 -0.6752303650831872 -0.6190059476315596 0.48901508443643676 -0.8489658461903088 0.1533721790044918 -0.1285154421296342 0.6343905099642384 0.10439954983029347 0.9203025455013282 0.9648577424800755 0.5033927345294357 -0.5457337467311845 -0.6584743192121377 0.47471813860738626 0.43813830522396136 -0.8578112636721527 -0.058983662879418815 -0.07398359798267883 0.3551843169886524 0.3437162036067791 0.13141156989545233 -0.11525105920812113 0.5859056794367387 -0.6457223766831558 -0.6928637869483179 0.9360192651306776 -0.6709549501344044 0.2684612202084476 -0.842287828578043 -0.9662026517756153 -0.09251878441885301 0.15404741490989066 0.08222129720567507 0.1752243776639858 -0.1022634637422262 0.5141309001329663 -0.6048000933213155 -0.5147765800634463 0.4877941442292736 0.4101971401386774 -0.8072529551278121 -0.5770845850178904 -0.058514869006181816 0.19817334956511892 0.9641156505047338 -0.899747428544176 -0.9270484728289579 0.9255759406416959 -0.9935380908582008 0.8440797745234971 -0.24864296092570642 0.5550595947935559 0.160066742445781 0.39098935362231385 0.5932024056986439 0.017188161378142972 0.32062080867040305 0.4217310100714861 0.956433709513528 0.7910949374319795 -0.7531086400942791 0.6879564898245556 0.6860729569279554 0.06989741961900799 -0.16348229424986954 -0.3025672035119327 -0.949528715856657 0.7614806456362855 -0.5580205341439968 0.6419032685808439 0.6426220762371904 -0.9015415058597595 -0.14565922721388855 -0.9628751547457319 -0.005696279739532795 -0.8255020140541987 0.08175706689795104 0.1041756591882593 -0.4005013220990049 -0.014067095725106976 0.5151533422099882 -0.8736635782558086 -0.20020912226837556 0.5372683568372867 -0.0015926751049259546 0.03348440521412244 -0.8086065112934895 0.7885568139351857 0.04770759647343419 0.5877256874394218 0.9350161535788108 0.5737090468539532 0.23354493447274452 0.7181816942780578 0.25645314425256627 0.33175667818784577 0.3881769486227444 -0.3817070417437965 -0.3396055692080361 -0.3004373874592041 -0.4193614614623349 0.0478213181545748 0.7001606644328859 0.9708723622714459 -0.4537009275570727 -0.13153661614046716 -0.7006977752469905 0.17893401448519297 0.9802798022225531 0.18602427780495845 -0.7058234119824595 -0.8505172150622773 0.7660616964264545 0.6776396014667229 0.3450629449380268 -0.7206453600403768 -0.5720679624573224 0.39291955249088145 0.8967251848506964 0.627519635113666 0.6621173437102719 0.5646020912960847 0.6753375252780985 0.3551662625836755 0.8675170262065163 -0.8120789678410278 0.8167064944212336 0.9583953051501994 0.799304936881112 0.6327284913102129 0.905399390634315 -0.5096365678338912 0.6278199923660641 0.9270535202894741 0.8111322731583714 0.5710543474943602 0.3508841745332398 -0.47848343969188434 -0.25428955580366713 -0.13475999860455454 0.9226044493209288 0.42621669168431237 -0.5938184046969734 0.5926082556414451 0.319560273844576 -0.34474079616547887 -0.7653834376015151 0.8043148014272864 0.9695324564835254 0.20657465666607525 0.76174851336209 -0.7240989737522503 -0.15187643082201374 0.23708758405561678 0.060959519032997435 -0.9504672602768227 0.594188216376951 -0.6403610392943457 -0.26697025999782253 -0.44746786480460354 0.46777984031354625 -0.7837026324633614 -0.46469266902400874 -0.1982643998765441 -0.8122579243400119 -0.7831036690979464 -0.8710172442232426 -0.7874145595603793 0.9897300899343396 -0.4772765477005905 -0.5635244055364659 -0.6158746574373473 -0.9644349058573143 0.8568314822116951 -0.1073106348195576 0.8396374973527498 0.43755272944260487 -0.5541166259566904 -0.06712908059248199 -0.7493498532872525 0.3072248781037401 0.31192428292027974 -0.4757626863529827 -0.9343834855547608 0.975821622860251 0.7320124419812877 0.3394461465521368,-0.08280513338693285 0.607501505008974 0.03543469273468758 -0.43294085439756813 0.41197721468740545 0.4859684130811399 -0.9241740690437923 0.4775527166232292 0.960073266141193 0.2826787310661041 -0.5492953767918476 -0.8566725912894082 -0.8545997434718082 0.732299412056099 -0.9445595562434317 0.2750047129116031 -0.9986628613527222 -0.8106990637071441 -0.3149700139381133 0.028050132112993564 -0.9937004782645982 0.31918106415966263 -0.6483074512763216 -0.2743645701757358 -0.27484896635999334 0.9023862908843889 -0.8826783965893752 -0.4059270765705172 0.9216663765686355 -0.7589975510571585 0.8723181741140962 0.8373129197256466 0.8801479459827812 -0.23641194361989903 0.8031559687568863 -0.15865425684436107 0.4064998952793961 0.7930554790750186 0.3416753954456011 0.8192242543272195 -0.5426618164519256 -0.7088788762931582 0.7051581274800259 -0.9138327085182728 0.42816741974284456 0.7633571313916573 -0.07454850107281505 0.9854256631954228 0.19815792646096497 0.6409247447866364 0.879400758993327 0.04878255887723437 0.7985579457191989 -0.8046371120273139 0.2665317748929794 0.6055554919319888 0.3861876046199082 0.3792576806501615 0.029906199358069374 -0.7017363324384673 -0.6527611653173402 0.856872888375741 0.5011567327052935 -0.08920971067516936 0.9337302691190666 0.6617473257248828 -0.9762992426661898 -0.40552032719322356 -0.2631584481832465 -0.22199951727895162 0.9121708204471607 0.35296306194316823 0.925039075159667 -0.8695926389379636 0.2654044015252108 0.6322753754265975 -0.6013611214844345 -0.9162005965962228 0.08134876295478974 0.6301703677064566 -0.9711985870943918 0.9580561348258094 -0.8887314023308825 -0.12519927325332292 -0.10432063099450417 -0.053812813146023375 0.43816022753995876 0.49695224770672936 0.5397872511683229 -0.19725822010624583 0.3377778244445995 0.06574144566594892 -0.13486981033257991 0.31541890454032523 -0.1369212043230432 0.4909870785630633 -0.9406450470478901 -0.5524603782713902 -0.8883446297535675 -0.059986576106807465 0.3600616922885266 -0.15457043137838272 0.9803519551078987 -0.894075069042658 0.44631870949283753 -0.8325669318267437 0.7435437298600298 -0.5322674566383578 -0.5057297999202219 0.44114105459935127 0.253087669356304 0.13876010361344582 -0.22567498266800778 -0.7249581392708697 0.2980925061733339 -0.035949345685578254 -0.9855645908013969 0.3592571472890659 -0.5143923285170855 -0.7519550675606246 -0.15252423297431045 -0.14265959436634423 -0.8299801501493131 -0.8910456648747684 0.13441655452494988 0.2175390629121422 -0.6807114545532434 -0.2553489758921273 -0.9379050210889429 0.7274885837984506 -0.8098975827996183 0.3865931018187118 0.7991036683485759 0.21308945152332168 -0.739994991460786 -0.27457069526127087 -0.3869505472545686 -0.15502227030098728 -0.04348149282510575 -0.7298868592745502 -0.008142451984093801 -0.8577020908723172 -0.1809073270783641 0.8232900374849766 -0.11598340543736883 0.8185398613859324 -0.2974636136907131 -0.9633532145735337 -0.47029930830576994 -0.824673091653341 0.5248563771320082 -0.8759795119223212 0.8825847048586732 0.623506992324458 -0.5614825978632 0.8499019020639969 0.5707382900846445 0.1418230825259677 0.40227865657216405 0.7270037160114233 0.7616554074829356 0.8005659391731315 0.8914665839901144 0.7535173439816792 0.8702488739210869 0.13209354998987907 -0.006281693360617833 -0.1561737146882589 0.539787332825147 0.8385284723620081 -0.05503074744035103 0.20843884097807008 -0.4863249114855422 0.07586717070972246 0.5416515948581321 0.6582869034848856 -0.040947321100735186 0.34795794230141597 -0.5932954978458256 0.7246509044142477 0.9108020993322049 0.8774155290057573 0.48305750664565655 0.8978990848939185 -0.5783653911205212 -0.25129388472990905 -0.265577852524827 -0.7933652133010812 0.13831432819628947 0.5552230198921834 0.15783656568626578 -0.19539837196977752 0.009708821026697564 -0.030817633052082034 0.3230765041433561 -0.20405136100818733 -0.9695491921207164 0.5414389554557473 -0.9975027641761564 0.6154509593406189 0.4685087095218146 0.012625171375440633 -0.4923862110626325 0.24993561047616733 0.2687250965321921 0.7213442948958982 0.5575799489914467 0.8633528736985324 0.6161069170319946 -0.040577302117089944 0.12904744118719583 0.8533769290122186 -0.29983546622444307 -0.2930866504117114 -0.6483710002376338 0.5032508555879138 0.19871815575390628 -0.058088128841928446 0.880466088108922 0.5314518202241099 0.5369597161155449 -0.4253898068615867 0.4990406125833512 -0.4133376928953672 0.7107022890171952 -0.5059672085463343 -0.6084390548438603 -0.7489130617782488 0.34460343178510894 -0.7027847854765626 0.25274071518096275 0.34361937356318867 0.9170731582760084 -0.5760682927862772 0.22826564043734304 0.8733561862172452 -0.8027028764259353 0.3192765470236902 0.7007489098972042 -0.053989842511117374 -0.5925949895341829 -0.5117426088160791 0.4236957755645272 0.056602102497510826 -0.9589774704358991 0.2958767885053781 0.742918365676014 -0.8342462285741011 0.33660235323579724 0.39396020110242796 -0.1528944278649036 0.42861156872160994 -0.8280055482605506 -0.903282965224417 0.5334693943150814 0.23588857183772055 0.7385326027188196 0.66640302694491 0.1167680751291778 0.9280441436085335 -0.12027156167851988 0.3299858492882345 -0.06726008737579808 -0.5178279786336382 0.7308846352115206 0.28228262691787276 -0.7894939363697663 -0.19636739832613828 -0.6243963449448375 0.1387425609754671 0.3440051140203243 0.6983299647539147 -0.7522895380367848 -0.06267489027943977 -0.520413445312448 -0.8049455312843805 -0.0389810826676905 -0.8171977761664163 0.2419784439337536 -0.8486871355293557 -0.14050273679866732 0.9982754640819176 -0.4143047311800447 0.9519191001551022 0.7413645743943461 0.5156316811140614 -0.7679638639243161 -0.3172017258573949 -0.1306010410795875 -0.8845295337066725 -0.6873787800953388 -0.4280932585618359 0.040953633634200806 -0.14240968964414935 0.08429447133994661 -0.0670060082710404 0.5725628433285318 -0.1709053302026666 -0.43012648774492507 0.5392046856316035 -0.7733464437803521 0.7403438258556803 0.2871347189901211 -0.41464541000728855 -0.1488873153715526 -0.2790557640196355 0.5862090956835542 -0.6430670563586409 0.24421005750888436 0.7212531550086705 0.752979271552951 0.890121122281723 -0.6529053857510304 0.6257131964645806 -0.6269357946386274 0.9201880528944102 0.7193145804334854 -0.17411421476259356 -0.9225339277224364 -0.17878826017006919 -0.904961145187344 -0.42238082239637703 0.4053225227854204 0.2185634854170475 -0.4270275447109483 -0.8296706951392989 -0.5938960522317215 0.14969514423373684 0.8767275017681723 0.8270270940593725 -0.1894738997801751 -0.25341904384499125 0.9137054452236526 0.2140058358204684 -0.756098954092216 -0.004072445394818658 -0.7032228021208717 0.7684821687830419 -0.02102875868330245 0.3160051915649229 -0.6438389483792696 -0.012369310711870167 0.39866766882614985 0.5508314590293153 0.85478517934861 -1.0153813400301732 -0.8191357235084149 0.38775565150983177 -1.0211406876939482 0.3572331049961461 0.2826573822189484 0.20471492933986543 -0.60771620268047 -0.30557531631908175 0.682116907364116 -0.06285548932000436 -0.8405425879944438 0.43817278829221257 -0.966744556958345 0.5893833272123936 -0.8081341106107206 0.5239078449645627 0.33936231870943345 0.3400161991181294 -0.8645055802274919 0.927150778615699 -0.5910881582853688 0.2956581379530198 0.019925929621874845 -0.7386587384678747 -0.5521398015325447 -1.0230432534872633 -0.32662434888926517 -0.9568576751438833 0.2829883368604934 0.2174403933013009 -0.29734107065168763 -0.03174891127846642 -0.7242931902897147 0.6031157414009476 -0.2829502229908033 -0.19645470893341432 -0.9140942278199269 0.42103549009430563 -0.9396323937937116 -0.7645878360045815 -0.5129095539590347 0.8709509641309529 0.766216553560968 -0.6283972770401064 -0.13155616749721186 -0.25247235874187146 0.6914577354690223 0.45722193573684744 -0.3830800323779801 0.44737599148613594 0.595875678624026 0.27545710305060217 -0.44230923185894216 -0.013180413687217523 -0.03435884326182234 0.7350048508386041 0.4853312194500809 0.8422656619769833 -0.7190203858428048 0.3720509700240417 0.8358490132178702 -0.026115273275382767 0.7022827679153669 -0.3076328634093289 0.7134478299075505 -0.6075746486100831 -0.3737398037852013 0.2838863924224672 -0.7371225598922776 -0.11999630430745505 0.859639252198087 0.39106722173180786 -0.6925752851799515 -0.3996460188624101 0.7167844390072158 0.8669992053726918 -0.6111610058178019 -0.6271207372140231 -0.8504022531484062 -0.41300010940316156 -0.01052343938590104 0.6872016601796819 0.95425451588648 -0.81068517049846 -0.7335183501844127 -0.0622182451353645 -0.3492316384013388 -0.5696967379997058 0.8709925364022081 -0.45923269409684536 -0.6452165336523256 -0.628510535323007 -0.862894743456629 0.43896577948362153 -0.641613766202268 -0.4398336612445093 0.519844374809629 -0.8132490837263976 -0.7667620048263845 0.6912230805816506 -0.7085454237819041 0.88153620250666 -0.3455278360335703 -0.5390553032331042 -0.28346250411456986 -0.7112612902941166 -0.8082240516242984 0.9105275106470279 -0.7201215618088028 -0.008288631609464124 -0.7984433405088087 0.7407612851060911 -0.16140596030707272 0.5285766099856835 0.7963254936050448 0.6973934154429682 0.9453280201281815 -0.7793641082941206 0.12769610867538803 -0.08182162622348282 -0.8199047446617429 0.2212502619181772 -0.8608833170420234 0.14915936133888122 0.0123212793013285 -0.23933918999135803 -0.12001003314088182 -0.19117696156387065 0.21393526367687746 0.2751009486791769 0.9700267632793222 0.21853669507404838 0.5992156993756668 -0.0257765356118421 0.10249732250751209 -0.39375854709292885 0.3656368035594534 0.4270329274048581 0.7937349920201104 -0.6707245799128185 0.9546272330422365 -0.4966292541360056 0.6272810017125645 0.44400639315956203 0.37994985538464765 0.5050176230672327 -0.9149217576488605 0.736372277456108 0.3424377537394017 0.07530247082182621 -0.05812192199958126 0.005625036625951742 0.5277072893969365 0.7165296986538664 0.7825583562670553 0.17440837364281206 -0.5144199098832651 0.21426410926278733 -0.19651056474595685 -0.8038865523119221 -0.14759565907148103 -0.5738433751501517 0.9695261928114881 0.8314602731533182 0.8678286358828752 -0.5193731145864348 0.8153594734125029 0.056110950233021886 -0.6925485491424574 -0.008141332421373982 0.19514331652814734 -0.8090038418528748 0.43279853172920213 0.39982757243462086 -0.7053875426810532 0.3252524562608719 0.1029908754175743 0.8671139902863053 0.6413201212339569 -0.27267012398185203 -0.46892107968811586 -0.5485708262706913 0.6707379957056158 -0.3045525878067423 -0.5044599482959496 0.25083475002674643 0.6186274875460669 0.3969509465469363 -0.4853955252676513 0.12435367648345062 -0.7923117410890135 -0.5380368374674096 0.11456429677860389 0.5775764510509407 0.08901183239500679 -0.3367990153843148 0.06522564497252495 0.5636630552680493 1.0387859384607767 -0.9386799338858764 -0.8542498951937861 0.29812051455942007 0.22111365466364033 -0.8303013437654245 -0.6022513677343181 -0.7070181849293704 0.413089178510739 0.6679406189434479 0.48836157756134935 0.2909700799947162 0.19265356149867133 0.43044939456203324 -0.650400348631173 -0.06290702344973442 0.3332206471901267 0.8182274381737233 0.3339280484904548 0.18528616435007167 -0.04149155803689067 -0.06140325826586309 0.6397297873905394 0.8286270244013093 -0.2692800395602896 0.7626949764686729 0.9907910936355745 0.15150125919344215 0.2005888930769733 -0.42161314970069846 -0.774263808282079 -0.1663094968722735 0.13850917493417536 -0.5467027653979168 0.14806425386360034 0.24829182296918303 -0.29473997848309047 -0.4222995373589366 0.023546044312956125 0.9763783536948216 -0.16877671335342145 0.33021737253408884 -0.4573162463426928 0.503938266634055 0.7302356616300052 0.22252191834641732 0.9792296423055753 0.06919867928982086 0.8710771340431928 -0.8356415955686204 0.1964398030637229 0.804853277114051 0.774960483200674 -0.10562255938794397 -0.11493818754999248 -0.617396378761664 -0.34068116632877765 -0.5188857250131119 -0.3447158656926752 0.12463985445839369 -0.7892756944332976 -0.4748598931477034 0.05472830353890544 -0.04009693426218726 -0.4888201184934225 0.3352764683053084 0.4548391739589511 -0.6815773882326195 -0.04927158617114138 0.6729464823112653 -0.9641644309214101 0.9918108607265241 -0.9596615814881879 0.6319667862625971 -0.5878461836512279 0.47163090072385094 -0.5673969696342013 -0.7291626418116702 0.05495907753646437 0.37313048207517374 0.2858942097493034 0.31626667574571216 -0.15391650416523497 0.3764299387581139 -0.86941313102716 -0.9115133922363492 0.3681868484182756 -0.6161532164969281 0.5380366530223777 -0.7018819510562738 -0.28483632114160257 -0.30352429523203406 -0.9019266103905003 0.5705782173968095 -0.12621704119849864 -0.871859859536253 0.33774302452006005 0.44949996514145574 -0.07697158394457593 -0.3406243045518651 -0.7336158011099736 0.33047730296778544 0.816718146722211 -0.3668672169757018 0.05643191415908593 -0.8108569072321938 -0.42327204960779585 0.8812524560200771 0.8778056172597889 0.13133016598172034 -0.7843356484249456 -0.2898092322253968 -0.7875796743311422 0.9241637112107687 -0.38094934265955366 -0.15784141318703582 0.4967774860918306 -0.12953180338174547 -0.23712399880148635 0.03523956893996932 -1.0085629149380826 0.8459595265455929 -0.04058341713122255 0.03380263910360217 -0.4019686494366738 -0.010471622069478714 0.1646774299156708 -0.6057621416101844 0.5082288592774948 0.1662167033437736 -0.23385558671613063 -0.07274008321473352 -0.21288481836154316 -0.9948299407857556 -0.5052037109537558 -0.5630422661954859 0.735984944472995 -0.8637710814832789 -0.28727938183458973 -0.3222476716596064 -0.08518509774507173 0.018720439683126516 0.6806239882931341 0.17833979670893357 0.4106395739463872 0.8372933240675058 0.8648889385297782 0.7194013980619869 0.4813153097754158 0.02753137380319884 -0.3538707396567394 -0.3569126457243826 -0.16777902254700697 0.46811484165024675 -0.4343723671904147 -0.2962164301336079 -0.5520108952571159 -0.6415493409031932 -0.6136320632358816 -0.5941129949457447 0.6998735730262942 -0.2216731919258 0.2128003124288247 -0.4451700397915808 0.13222929613417383 -0.6101444195396644 -0.9119590218538772 0.771695130740278 -0.9153612515623811 -0.33478374847955683 0.0070954320956577695 0.46787251498315563 -0.7241591645902477 -0.9156712050365224 -0.5105238413921458 0.7621845036116017 -0.17150189442907474 -0.7726284420732169 -0.08607631998195399 0.8399627827482211 -0.1674622852678063 0.77441217844747 0.43125697626444226 0.9853132027084006 -0.32578380512751903 0.4193130119036239 -0.25801741722693206 -0.5216601680015369 -0.009543108668008829 -0.9457747912506559 0.5095752158956813 0.7904667688724003 0.7040581196785112 -0.15026236156810385 -0.06020606498695397 -0.0607064118517167 -0.12447873551710581 -0.33587643241984994 -0.10359477693541588 -0.06615308252053542 -0.7370285738865853 0.2871199377225103 0.44970298418780685 0.41703756841876716 -0.4088376185020483 -0.24960022532508655 -0.1076273913879919 -0.6593192604276992 0.41884648397239044 0.5619390996647784 0.4767694351999301 0.2582110535527229 0.3708987425311505 0.227109345114892 0.303504410407724 0.5302666916546872 0.21616263027679983 -0.6111655857549589 0.38719491346767987 -0.9546308722679515 0.12672982302672164 0.05392920480741593 -0.4734671994333106 -0.925881365990006 0.27995110047964467 -0.957782503301283 0.30701499937932075 0.8978815100533506 0.27901078402008817 0.7285460964278598 0.3453414937635626 -0.0644462229604088 -0.20315674838946007 0.10222979921980824 0.44263197697850276 -0.6664192365905546 0.7647180978914678 -0.24830309592544575 0.3536705173011474 0.32431223577173274,0.8113639382425206 0.6133483173085001 0.11419995028907093 0.8967964659058933 -0.29116647569121445 0.2540096182850997 0.5850638700891835 0.34343891258403825 -0.5180630342742736 -0.7806674017662947 0.8004954390422847 -0.35742299381103826 -0.8914482757668605 0.05301793373468722 0.8129766770727409 0.9017397037732973 0.3826783166829726 -0.7361605515157938 -0.31370397233576375 0.5363195847361124 0.676786530305785 -0.9213059257909648 -0.8194506922532807 -0.3642893579772031 -0.10529079875618175 -0.5310403617307786 -0.052507962448674395 -0.8297860034773958 0.7898254863176832 0.7117339939738345 0.8903978445949488 0.7825559797424495 -0.3083945232467413 0.15768279790998152 0.21750375836489355 -0.10304549318866774 0.5012083430012797 -0.21319223875388538 0.06996496406102395 -0.4254652805842121 -0.5463968139775806 0.8727589122727749 0.344294996348951 0.9271033281253634 -0.7753928873453093 -0.10222008211072284 -0.16306932983516634 -0.7054039697825127 0.4816899283816254 -0.5647699106070756 -0.02863505343052619 -0.5181625368791425 0.4189332505944452 -0.13750779721487416 0.9388822773162666 0.8949186028783618 -0.8960781079438036 0.3492429995357367 0.9833906983774721 -0.9535209281160284 0.9870353647551471 0.1764260232195461 -0.3428750814167618 0.7499966162252477 0.6082259205471365 0.879396483906346 -0.3736661470671694 0.28576465165061166 -0.5725061383734371 0.5924675848318033 0.008349278481842526 0.735481552537571 -0.8095785673013352 0.6807187238919868 -0.2963944211643985 0.3360801590782579 0.36474964027698914 0.6671427205806827 -0.6540921384178191 0.15173137672202455 -0.16926531585008897 -0.01798341885998478 -0.6247250727322149 -0.9507441538214045 -0.9419574816184668 -0.5263472725916418 0.2263042844926404 0.4674225906154915 0.052065688465787976 0.29345257898715393 -0.8690760904190177 -0.11175166691609074 -0.8985782555262495 -0.6362055464333772 -0.6875296280968328 -0.5172585145058486 0.08051651217162642 0.2598812901249952 -0.8633570008289364 -0.30973120277421856 -0.9066435861985649 -0.820048848795924 0.8010818163429606 -0.31999735524085887 0.32153538227593836 -0.5113015522863356 0.4694429841248877 0.878815054172083 0.9767448866065088 -0.7180577626311153 -0.5136094561458733 -0.9978371914575954 -0.33068300112840476 -0.2853859652084396 -0.6433738180936512 -0.5725337999698895 -0.8271232602428125 -0.9309148715279885 -0.07372369211207648 0.7608263667917196 0.7073534555770236 0.037530615233140045 0.21453487818999836 0.8442080285952159 0.6116542996085279 0.1440672472375936 -0.39629722133587897 0.5331721160286108 -0.8965022325186768 -0.35286726171674104 0.32033202254701504 0.5366076966696302 -0.013170623450549004 0.4415623166932438 0.6973323933217609 -0.9977391177687426 0.569667436837617 0.02955049442811386 0.5313533997859448 0.560629584279198 -0.3177987324602025 -0.9059202255333851 0.7924314389884612 -0.8560536122006263 0.5485256520430938 -0.9703145158998585 0.22277136070261902 0.39494041607501773 0.6687238054166823 -0.45878447669410327 0.9266112606217152 -0.5422830076963336 0.23289205170784927 -0.6673734215575033 -0.9080615144894779 0.9325903003265397 -0.7402531772796052 -0.2211214162168473 0.6279345410862932 0.3252939596206625 -0.926631310765746 -0.41861877853175655 -0.9407954682126252 -0.6425173839710637 0.557229627660204 0.5948812169525486 0.8085818461399185 0.4626918066403638 0.7233297271574675 0.46166783384262056 0.6174239943218448 0.18993261926762156 0.6925638467985797 -0.6371593851760285 -0.2647572287372296 -0.8477749507296463 0.17354990811462315 -0.29391638811548076 0.7689571959369884 -0.10971419162236072 0.028830767724476517 0.3290922851519313 -0.2974506606965116 -0.010233027972297373 -0.41102470885620607 0.5043154374028953 0.6472755984028911 -0.861524496084597 0.27726710930548576 0.07180224856162984 0.5068169280965379 -0.9888580579595811 -0.23838544641755052 -0.7029963457891165 -0.028366490193795484 0.03791902475435038 -0.5715241455526101 -0.6851002785041447 -0.013573244491048403 -0.04920547680212949 -0.014309455054032803 -0.7584976496710538 0.6118660458902703 -0.018737441473377126 -0.7697065498996775 0.24998847745256622 -0.3288680887225453 0.6914914329870687 0.7673305444048288 -0.8405611776409365 0.4959383401994683 -0.6210878500851911 -0.12554400504943738 -0.40395101277570905 -0.21293989466710428 -0.4247040858543586 0.027327400919422744 -0.2650198118029484 -0.14548892416251727 0.10030885760227731 -0.6600015537632538 0.6944940254675526 0.4695906761238032 -0.6290600270207112 -0.6842214600379075 0.6247358130067893 -0.8252135422176751 0.12850956642749536 0.2711256389939894 0.8268324678410378 0.18765883214385112 0.8999601166866477 -0.3053355134107434 -0.005469804958681925 -0.13295954950012048 0.35508199788860123 0.061896481047812535 0.012456772044511325 0.8642207185789519 0.8514090380474993 0.7562580345588672 0.18915009551511758 -0.19576158770864485 -0.19318972373415413 -0.9040855613527531 -0.40572241686811095 -0.6054182443627057 -0.9969747178774843 0.9515660316763411 -0.44242511402486834 -0.7871343499437184 -0.7447430760977343 0.37635264880633423 -0.31401126707559746 0.26805540467603006 0.6735217866193219 -0.18443239145656598 0.05712758663307625 0.5641810569734197 0.06952185859275718 0.7968141888348264 0.33836551265998394 -0.7331300264038585 0.7952835862665952 -0.21864264414467974 0.4118218586750614 -0.5595357838546171 -0.9131123125621183 0.5073635391802098 0.0779017284257998 0.41665521819688506 -0.9104823035836854 -0.8087835734798501 0.34692423177248516 -0.8360920049577195 -0.419354478397974 0.8682109501030895 -0.6314883818287905 -0.28764447045194264 0.9351654183400159 -0.1905627046121059 -0.14710211214967545 -0.28484152739489743 0.8515071350121145 -0.7303978081184083 0.2558279050444889 0.27520779248532334 0.36230053378035965 0.0775340200645348 0.8489054518328507 -0.3911000392293336 -0.4205957089044693 -0.6510631641806957 0.43850539385269177 -0.5667447369894801 -0.8527193077222431 -0.780272437536767 0.4730350711708218 0.4029388202473136 -0.536544280437997 0.06793329381152974 0.7528269945207425 -0.08636053863888576 -0.8485303382703401 -0.9331254225494758 0.8908816010308535 0.47684070858470606 -0.35103043157806946 -0.05599519411011822 -0.25071990578344355 -0.8281552660737079 -0.8929610369903396 -0.22370561031863 -0.36596122091149 -0.3183928210957807 -0.9710564338900936 -0.07153084105705958 -0.4091316981122447 0.7140434469923409 0.9234105158259599 0.4266288048509201 0.8569161717335521 -0.48946541681414985 0.4564754784511523 0.7826828313231331 0.4069368300543281 0.5341919830221881 -1.0025428437212798 0.08921601807765346 0.9290007447770339 0.16723044675958196 -0.4837965899316554 0.2471260961424357 0.23190605666826558 0.3586458481928701 0.9137975080924783 -0.4279071441180702 0.6954997232279481 -0.07268657636043117 -0.4682655677687868 0.3320246011214229 0.27007907507855766 0.8614602080542129 -0.032549117424863716 0.7383242855090117 -0.07909044102374874 0.19376005664894497 0.40214787892006243 -0.6866925838296816 -0.9471618945865735 -0.3062236345057692 0.28313416459936924 0.22509672318269902 -0.010218405445152422 0.9516542543436067 -0.3799498361101237 0.1504256710110567 0.19792706635662227 0.5835566508326285 -0.4253973646972449 -0.9020020232055287 -0.6329922647500986 -0.38906701863524945 0.4870906252019851 0.06629878840406489 0.7080658281578367 0.3911610602092273 0.012868763650145785 0.11936608747711078 0.2522834346648035 -0.31005273685693996 0.04098753749276723 0.5661694030488453 -0.4250798471577361 0.16303703890656934 0.3169799628366251 0.6218915832986901 -0.5106497781112243 -0.8139754935888118 0.011991772559242964 0.8386478539072372 0.7956188737092126 -0.7017010249843033 -0.4224638838864887 0.1678233307608456 0.8126851615487897 -0.013549221585396632 -0.7516947783238974 -0.03358975991028705 0.3388077898474785 0.751948894360086 -0.47924774262823616 -0.17736689839837005 0.732856143136785 0.7028895630762174 0.5759419545086739 -0.2633599715218686 -0.7079520920229447 -0.165432991066932 -0.5590594667784513 -0.7349563996136876 0.8433156879406087 -0.2420571621378891 0.08632687268323783 0.9704363368495581 -0.2558425141230675 0.057413412844165596 0.7328163138647928 0.40785647254643687 0.9144744191581742 0.8814171447178624 -0.5960298442873209 0.9117667549172555 0.11532137790905889 0.4905129320763547 0.5147205951692643 0.4874098377211357 0.5605701001907976 0.5137793528862993 0.2217809059186573 -0.43195724773450683 -0.6419242551553395 0.4366902951134742 -0.12580542877640466 0.9314198326886162 -0.7532264434832149 0.6245806834958647 0.9795349495885811 0.8573275067392909 0.3052851839658391 -0.6352008586137644 -0.3287399195004584 -0.5757238865952169 -0.6221049426659343 -0.07537135376402417 -0.2528869583499977 -0.22616296994334037 -0.7033049600397444 0.4226990559582642 -0.5572993806446189 -0.1940833386043971 -0.7546326712824365 0.741688061764667 -0.5227784904436013 -0.23940996288801814 -0.7508554857456247 -0.007070769080342409 0.2072218739812537 -0.4746075177514295 -0.7039746450945878 -0.3931305220192499 -0.6427483555200454 -0.5931668900072405 -0.9737653821642085 -0.1266841899019656 0.14435673281910893 -0.7517049326069146 -0.9435830013832706 -0.7639107753803762 0.8459158645440059 -0.09602956230391789 -0.41539528227201356 0.754581077561659 -0.02152190296582051 0.8096695793293799 -0.8904729401489854 -0.6315156281560832 -0.19260554248114925 0.18540325491851584 0.7486274680391652 -0.9656505728308705 0.5788904017636085 0.37516861200956997 -0.4171342753043047 -0.6108648751955352 0.13738617730813973 -0.16717826978322092 -0.5743719638710607 0.19144844488318033 0.7978305095689922 0.3868916302965419 0.610243792762411 0.4497340911542251 0.6462497483602994 0.3136994263995646 0.4604579017628102 -0.15459661142602416 -0.9824342759616087 0.1890217762627735 -0.4651609080888864 -0.6109000567166063 0.49619726493151173 -0.08948582807665036 0.6979088612400693 0.4662077695704292 0.6177339666998264 -0.8304071676488597 -0.6244017901535867 0.7255680727752957 -0.46688649835244916 -0.01883593080682509 -0.8663232689404962 -0.5503666909184505 0.7645577926170058 -0.682365754947916 0.4268478141412022 0.30628710278893856 0.5121917159701155 -0.42464182382843363 -0.09622403437287727 0.1345227090461394 -0.23122570936947315 0.7000171226530696 0.617141068098109 -0.09522117194273336 -0.953620589573561 0.28002590360192064 -0.4673634607748149 0.2872250274256565 0.7110878408244029 -0.5446353814307915 0.2575183474940856 0.08662296706284527 0.7696867827065096 1.0836018385548547 0.20273595533055727 0.09955308990390149 -0.9434094501091081 0.9838828170231214 -0.43971820101675485 -0.007545958750293147 0.00491381474683219 0.5376024740919401 -0.1345996897121673 0.16388925925418268 0.43504793818529086 0.2883235172856969 -0.8599393936180835 0.48086426077850636 -0.5629991696410862 -0.0763366562465977 -0.9345770261812808 -0.6833621932171985 -0.8747070049584186 -0.773961165400351 -0.41612708876312715 -1.0444504820292888 0.7455052168721628 0.34067688998808254 -0.5047922109922868 0.04712013384013954 0.2079173373173253 0.14242905948259485 0.24021253205039483 -0.38210327635830965 0.051653928547806996 0.22661419987633613 -0.5986169986864163 0.8268088282922287 0.5468242361274072 -0.979589480642006 0.5709844907258801 -0.7168276178521282 0.7775118990085104 1.024774424443819 -0.9318650829060223 -0.07235288057328006 0.283770633942596 0.11134275512891817 -0.6401845577453139 0.91777352930384 -0.9114967216560373 0.16743706144474774 0.8220784587981914 -0.03864175347606861 -0.4977369376771289 0.21043744564849828 0.21499441979001557 -0.5326697685946 -0.41961651337630146 -0.20625944065508242 0.47860701055092947 0.4076090557680972 0.8622402737664009 1.00844307168114 -0.5552899406942898 -0.15731391076890158 0.2522900827148924 -0.5250962405436992 0.25635213072476404 0.7162121875038864 0.5201648807896758 0.4447413312894234 -0.7226188860576483 0.23223454300032756 0.4583986663836561 0.3624061731484859 0.8117475738901392 -0.7420630164653802 -0.7434107709451013 0.10289859059821417 0.6634471077242114 -0.7085726140493055 0.9143404626475369 0.34122903530614185 -0.4263527266696879 -0.6053739688051476 0.9834134044569359 0.386914398866907 -0.567623308923636 0.11929086106525517 -0.5294763996766442 -0.911509446410156 0.44197251536658005 0.9662967581745585 -0.2671691099198241 0.11155941008602555 -0.04211136463313725 -0.5532430735433862 -0.30664371329692036 0.05850460713430244 0.26324591629065414 -0.6160256207068615 0.6817860657465247 -0.572493361964063 -0.10506168733352181 -0.2704321970783373 1.0123768419885542 0.4379797163368887 -0.5791330589538548 0.3893181309104395 -0.14686405954635903 0.22576876096886445 0.8776599056589397 0.6463181677515674 0.05630947616066377 -0.4193242826175604 -0.30486998667991555 0.48108773376022207 0.3289219704793791 -0.4639356067676197 0.5214132667603635 0.9838035835542447 -0.2889475430975583 0.5766479580333221 0.165164268478029 0.9769786425361917 0.3691446498608545 0.380463496744632 0.6572557828189393 0.9681291873339648 0.8567274626992814 -0.8508731478954489 -0.7477318386782738 -0.06105470893205366 0.24105599340778325 0.45120271952531993 -0.42935083539395275 0.939622351672271 -0.9799629897849184 -0.6372838250570799 -0.2919645968909748 -0.7352386121019198 0.006853770334173679 0.8155260261527465 -0.28463342835935435 -0.2697409994659216 0.5902180392231917 -0.9554786612862334 0.958726928002847 -0.3327204574592626 -0.06852719924542194 0.03596763973080597 0.9025325944417741 0.2749318947024394 0.33942636502963835 -0.022941640882376498 0.2013560909922513 0.08545242440841733 -0.09451934256354246 0.1675079166392804 -0.5256620108095447 0.6612116494086417 0.26205428047030566 -0.2990316886445686 0.49752084559691145 -0.687456831062206 0.36303777089933514 0.51806173517697 -0.7160947034618355 -0.8237687565783538 -0.4743376954110823 0.9366798068230966 -0.8122521280445498 -0.056968677624060375 0.1748328363832718 0.017421449638188563 -0.297795704862301 0.5653069085129674 -0.36896914516482515 -0.6477646754703317 0.8317052107761647 0.8693335700353073 0.7160939923655611 0.7397944912666155 0.388802078921507 -0.3972218184729297 -0.6245647517060579 0.2821883781078487 -0.7883419809373556 0.18686131487443883 0.11432168526588758 -0.37568005943682337 -0.7581947542334688 0.019348151318953167 0.04044554686781493 0.6883572228999844 0.4458489355532693 -0.7887446548885791 -0.02176966666850959 0.5648688520347459 -0.09969353979959508 -0.21288367909039924 0.4120074144346072 0.25116946705134774 0.06819600567315631 0.5496170156377012 -0.6465659702085473 0.9620882091144576 -0.5733297722836863 -0.34307289540249464 0.6352288109867819 -0.10097184022010497 0.014916723686812775 -0.5902545347997135 0.7582652462002533 0.8458528595747326 0.45768483654336267 0.08285102303230403 -0.8200338362859501 -0.5309678971611486 -0.5397648617676171 0.0014999352756900463 0.6905888396090766 -0.8546079647484438 0.7860058532976285 -0.7095501265572458 0.5462006833319322 0.3945470669779341 0.6693324072122223 0.6103159283417897 -0.9068389930453967 -0.09791037403726666 0.9239013611400193 -0.09271938714361316 0.3654187878746846 -0.31218226123542614 0.526849675452765 0.2747682865782606 0.21001820049641684 0.1143501198776733 -0.9646052444367641 0.3155091371181724 0.8373538060362299 0.07271561246438471 0.4044090885776423 -0.7822820922254188 -0.2051532719817349 0.6435842429692061 0.8264047668118172 0.8915449175325412 0.8386962918687215 0.34399467617734686 0.5801929046033149 0.5058605920626856 -0.8592240945733723 -0.12364919435596862 0.5807971706871975 0.6552388144377654 -0.7696017873015849 0.5124514116994117 -0.016861589813503386 0.5568686388678357 0.06956400699917187,0.10108385510757079 -0.0831099792078085 -0.9940563359550554 0.7671338766305851 -0.3038477765453753 -0.8871945275328539 -0.4996019368848037 -0.1824369464055693 0.9230096545163167 -0.7735751557582757 0.1187588492983851 0.6510605077476501 -0.6022087444000523 -0.6738660602733091 0.4644135526563471 -0.5972378699097969 0.9110776393670437 -0.19068768121129454 -0.18462975279588822 -0.2578866736726706 0.8069636854873152 0.20436305595280313 0.28850603474179004 -0.9519289706602672 0.6362961412134716 0.7923712606781621 0.5739137221256347 -0.3380797797780537 0.8509145606679103 -0.2839581241850031 0.9287166175753423 -0.6507695239367968 -0.47033322235371555 0.2889223872655349 -0.27406249924102966 0.287661878326269 0.3244135130031529 -0.8785641027302631 0.5546253178375585 -0.918755928831227 0.8617864649205459 0.6297938632319574 0.7343801249923696 -0.7257842745524344 -0.5835447731338518 0.10504759122587272 -0.2776869353746737 0.3274832592037223 -0.8585121147612197 0.7765808619070629 0.9011127754684578 0.660057060929713 0.3167087783922846 -0.315567694040783 0.2053880447244798 -0.997532172926159 0.6619011644788699 0.09629997456837569 0.9341324103564752 0.39299308562232715 0.2595481163878496 0.9046015288700755 0.03775246014708267 -0.5282355069360306 -0.8461416210473679 -0.36077649699074144 -0.05482509593788611 -0.3946189269736881 -0.9361720562079219 -0.03477282444539604 -0.31503242036706613 0.21365047719461458 0.27882664972504206 0.5785575646603427 0.4482136612824547 -0.5425220941073685 -0.2063789028693902 0.2779236245570693 -0.5783982049639226 -0.6847650985306813 0.11876306413535875 0.7479925913886207 0.37923559210873403 0.16899026821449215 -0.7114016025962548 0.8599638817739672 -0.2849036006169312 0.14697072434108382 -0.5682514262190685 -0.1696635528123825 0.5635817930025171 -0.36530204862872856 -0.8516551346291031 0.9270104229703364 -0.7461224452573978 0.6322420496865798 -0.5950303125806208 -0.8686414857247284 -0.27605371799277206 -0.7797681196722874 0.19062448865761317 0.3502137443422841 0.02100846641317103 -0.7938395322639757 0.027033465882677018 0.31354130571937594 -0.4125428361811494 -0.5945216897772877 -0.16144979292664838 -0.8010716963028814 -0.32224719147768033 0.7096828934789672 -0.662676495356751 0.5462118047716669 0.6736772552750635 -0.8907305417226328 -0.970960293957239 -0.6230296607515882 0.5701530614006722 -0.25302282975418794 -0.22443950280582392 -0.9889678873323443 -0.13827569636049422 0.24082608712712833 0.050175371206074224 -0.6662759044532007 0.07680716633975165 0.20380746545437017 0.292587972001585 0.7146727138734895 0.3034764795293965 0.39276659522590013 0.8336949486726465 0.5264781057165475 0.5357562120390651 0.5643927394643211 -0.11423455588240153 0.717901708860978 -0.8494125208236516 -0.6139243254986266 0.08290023189345685 -0.8093351444210688 -0.9102554513799566 -0.7355963495419456 -0.4062591228095132 0.4933910874506572 -0.33349699465541366 0.2815538257720557 -0.8788204079321432 -0.613683121205297 0.7962872571258318 0.559586601503296 -0.05024008443795583 0.09839590786125119 -0.816624530388348 -0.8035577505817952 -0.5812432182438255 -0.6754895713049665 0.7462913776209991 -0.5003719932448574 -0.8074521317925547 0.07017096507318632 -0.002093078480098004 -0.5237792227783373 0.6249112404797456 -0.8255607218750608 -0.3214804347689246 -0.9538782854056465 0.45429001107231515 -0.31965388948586493 0.5902478644736305 0.6113186072799074 -0.7304011731677892 0.6667699550795539 -0.020265324082281173 -0.624786170968002 -0.032840405346495766 0.21415697184482238 -0.11810324276109917 -1.008718557224359 -0.7388482465054472 -0.3097193121263502 -0.695734849494339 0.282454169030424 0.6335624555403806 0.5202055685777902 -0.4755005470135935 -0.1358850173468498 -0.37156492770456034 -0.3727262284068296 0.5956170734103013 -0.9264596289577074 0.14974841728552102 0.9324691445407528 0.2720629135073036 -0.4995001702851527 -0.17111995116996548 -0.47542736922881434 -0.6108672060743019 -0.15415619025361155 0.7094255566422355 0.4225632855126651 0.8682575043164874 0.0697058749983092 -0.060689125263940484 0.5912916207181232 -0.6146978540680297 0.7205090824514778 -0.8758388541445555 -0.5105201759514211 -0.9213231157840418 -0.04540526532589864 0.06000877391093529 0.30309897335703395 0.6981699991938428 0.9003128058584718 -0.5700577063235138 -0.24391085037916932 0.7211547363778364 -0.5531745096445762 0.43991179577046835 0.959064015478395 -0.6256506999435322 0.5852452459897799 -0.1773014801497148 -0.4721774675629327 -0.25627213604941007 -0.74370941997455 0.2284220453476585 -0.3972976871212774 0.25438800838432585 -0.19928718699438366 0.1954792075532014 -0.06619707459105671 0.9181312268031523 -0.596517814515129 0.40252736709938275 -0.310695011620563 -0.8570718374093389 0.5374934942509165 -0.850786384423452 -0.02057863166047623 -0.5044423942420804 0.15616924620144806 0.6869327492422551 0.7951268865560036 0.021965651453339445 0.7123299994884804 -0.2579940128191372 -0.5861914856314226 -0.24380700146140702 -0.5577550761624518 0.6933236833426355 -0.981587706031249 0.7159336555014115 0.44073798316441665 0.6127575649884732 -0.026788384659610958 -0.9459024107960262 0.3823226705341784 0.9295605043150236 0.10881408796902259 0.5836060597109273 -0.5471600878562703 -0.4982970575659916 0.38397125840172935 -0.503677544906006 0.21150037624234463 0.05985016814087919 -0.6097972081396017 0.7018434246140495 -0.471584547888654 0.7377876642752967 -0.24779028532955077 -0.4656498545210096 -0.19018528117688693 -0.49740139254775584 0.4664216990413908 -0.020554997697254253 0.278301631784029 -0.310382097931285 -0.18152143764564604 0.14729109724320183 0.700239061060591 -0.8341100446742555 -0.590934389179766 0.03716674511516614 -0.5861503750295951 -0.44777270305180444 0.8040086161178862 -0.5723860664078187 -0.8760818717099279 -0.764572676267227 0.6919457920904603 0.814779821224477 -0.4746823912712804 -0.36043688958150144 -0.30481861163250196 1.0014738675447843 -0.6389531214638966 0.3303145022736291 0.721571378670351 0.28008568959350594 -0.3112244499157273 0.5519543636993569 -0.8342414630917526 -0.6765093809841035 0.9528330081750109 -0.435653156640327 0.37346072651529433 0.0006880423099958316 -0.11481976827839152 -0.7548537105184113 0.7306804151271409 -0.7754546895139655 -0.6499914905521113 0.45949715972256194 -0.06818897862363477 0.4670440938545559 -0.7676573775560185 0.6443743619018086 0.3775805002420055 0.8235452439432969 0.7831422562597418 -0.6029768361327706 -0.601560027489781 0.22122577340573674 -0.9683032119453618 0.586469006407105 0.24384874849674515 -0.2742954412857175 -0.8854678534321754 0.8307377494240078 -0.7126425059979964 0.1851285653418868 -0.9278967889858117 0.0902204351267224 0.931959219989402 0.8710490307270123 0.9563596783817547 -0.14103129031006065 -0.16261126839549547 -0.3355775710039008 0.04745069512550667 -0.8809562454342297 0.9144251642455887 0.8317428508281004 -0.2718756581149412 -0.4181708273977713 0.05945586599335377 -0.7982099688555093 0.6286847731297504 0.6530873253372677 -0.2849737102977622 0.23910608592715998 -0.4009959113772762 0.3198978156632464 