-0.016792789550365006 -0.0855357199543223 -0.30547140328505495 0.6332279592208694 -0.7580721497053426 0.5322862864583608 0.9225739888094393 -0.9402179468576637 0.23570651293874567 -0.4004712373422936 0.5516229332683735 -0.16525425666413152 0.1604018364335158 0.8742857865042744 -0.562125404548131 -0.42730131404087546 0.3843705712221648 0.06222609506182364 0.8420424973100054 -0.9086775461694137 0.7503397101642506 -0.8119495241900898 0.5023234083629742 0.23230901921451652 -0.4897975227261284 -0.6187024569990665 -0.6306293911971264 -0.289482071117964 0.5350215228189534 0.184546999627752 -0.9528203003192053 0.3200771365136075 0.7855615056457133 -0.467136149042767 0.41729526127146377 -0.4428867598174804 -0.9383942858394696 -0.21547292268440654 0.04846553817651578 -0.798469790035527 -0.11447764895476566 0.692894342021791 -0.5375218646994041 0.41135500044997664 -0.9772417150160129 0.045691168201141386 -0.9746833609092376 -0.43503629290624746 0.8361044064776495 0.8762473723568152 -0.1791776091197561 0.5886036501312097 0.4179167326147486 0.6440132922159594 0.6394404200733914 -0.23156646687886262 0.8926331962272656 -0.6598189572910591 -0.7796489128708 -0.23697048966887646 0.6847747147382848 -0.09411745275817607 0.6428318090158875 -0.3316466073604296 -0.5551185408643964 -0.9879849587769531 -0.3539978776286492 0.6346164207329115 0.5672758860274173 -0.46906677753149384 0.2841137665540788 0.40429083233150587 0.6147350693791331 -0.21643960043949587 0.7657223301029763 -0.452338566124983 -0.0686583788791979 0.7825434014192307 -0.9047686255506207 0.9669477154345356 0.1414889975867446 -0.3393331608863477 -0.2018375760925022 0.435725618240151 0.219213087380546 -0.5228174588622969 0.8005460926539354 0.5304151612917412 0.9367620119703017 -0.31398051369489866 -0.15299157677053082 0.28744374167518133 0.5576163078028769 -0.010668107768616241 0.6123126225801696 -0.9722715266304444 0.09417801083890708 -0.5549464439843521 -0.1626227195184204 -0.14509387564020929 0.2993158272883429 -0.41694107163636657 -0.23725291458377792 0.3668712402086129 0.2583006139334191 -0.22523391477597607 0.6764872938440636 -0.12702460057301512 -0.39904563793481374 0.8574482394266596 -0.518642767077125 0.3460271049297847 0.49250629043813565 0.4736619896165115 -0.8631157275118433 -0.04544246636203786 0.8065200899099196 -0.9231552213527943 0.2911805574321198 -0.7832903738385811 0.7175504160814564 -0.8889774861589658 -0.88938275868489 0.4765939803545363 0.9302615992545729 0.3855328010866777 0.6590504972487344 -0.33477320319907394 0.8425068874021131 -0.6707999020102575 0.5822942584233305 0.1866530902510516 -0.853878178397914 -0.7609123885256245 0.25029480063090476 0.29118836071819265 0.86775576548244 -0.45522447152843 -0.8100647212717791 0.16397172856662268 0.9338052285003144 0.0586533410179404 -0.8191605407976861 -0.9081258805463861 0.19089585175435778 -0.05662426800639238 0.6869630663539283 -0.5992610876194605 0.8169779254974151 -0.25064658394865796 0.24150012713473304 0.23246661328374385 0.1796487419168182 -0.6280006940918031 -0.3777733425954321 -0.03142446665519899 -0.056167226298797925 -0.7311339711125631 -0.9640330629759957 0.4450531078231429 0.5094919117299573 0.7727432693826386 0.05718003503694222 -0.4320468998579234 0.7336269632218633 0.7716760808178895 -0.9732541228542433 -0.030819562272250467 0.5730039355676837 0.7192445646276899 -0.5237952512196812 0.11519524738974507 -0.8109191036161244 0.6421811906718192 0.019964481064340397 0.9990871184549399 0.48775636957868135 0.5548633334815517 -0.6651418629013391 0.8824041056172085 0.71380642981671 -0.386066850246466 -0.2627110622068056 -0.8977634955265932 -0.5167963013985215 -0.47721839052536064 0.1865060838639247 0.2665273046367567 0.06485380469721189 -0.9045946817061802 -0.23809316808026199 0.1643996538060288 -0.752513720947525 -0.8533139909054941 0.5798091759248085 0.8977892286078939 -0.40312465323086877 0.6345160441708236 -0.29945310030532335 0.6107134645020473 -0.3394014044377642 -0.9252754517826055 0.7781027081744475 0.4982508740080833 -0.1550191809956256 0.6989011977060168 -0.6627504356513728 -0.34930976652593343 0.5401171998682467 -0.12304409212749678 0.7258601253273101 -0.008436454993118566 0.585953819414134 -0.44928836578183606 -0.41608538612923857 0.12613574401300545 -0.7982712790212588 -0.4972586493517302 -0.7924895047710614 0.7223134664950785 -0.8128161413964726 -0.2036344893236347 -0.20929925779535585 -0.44845366395412434 0.5885298914127819 -0.236705918249855 0.7085309340936157 -0.3212921013624497 0.652205529439381 -0.8001767896148587 0.3596743021398103 0.3342740738144323 -0.0039101214923013 -0.1484703356530362 -0.18653455958417553 -0.943883552421047 0.027728108664901965 0.18530215377026962 0.2003269764354854 0.11891447193996559 0.6255429367555522 0.3115349947241865 0.3262955691304687 0.008405131307737675 0.0748206218075592 0.3225572365986595 -0.571276611825489 0.04963278333924687 -0.7452324844422809 -0.7311768950764137 -0.20501403049412545 0.8552102785744227 0.1852121454462745 -0.49946331601579397 -0.5026463406026143 0.8262933187635855 0.5328189420307385 -0.7288795964271202 0.4899925306669267 -0.10044819058903273 0.7006425569622297 -0.967309774460755 0.43153311856556714 0.2806966292669724 -0.7855271688766995 -0.039549159974128605 -0.8769568550855187 -0.9266024955130098 -0.6531525205018025 -0.05476113072764103 -0.9592898412927003 0.8476352627634135 0.07965984581895903 -0.005976292001168645 -0.645118686706783 0.9880398448993662 0.5954074843805198 0.6255204029224468 -0.036692482277497385 -0.3489041341574748 0.3322470593791127 0.23753843439242006 -0.32511391539911705 -0.08654343306768046 0.2607871124901106 0.4695021536746956 -0.7089553080424644 -0.7832563821109477 -0.4549520238911426 -0.5540954687509193 0.5141824296262059 0.4301226249891191 -0.18607485759782144 -0.8192300599848489 0.2113439782006804 -1.0066821873882268 -0.918262389231189 0.3875868191359479 0.4599295919433103 0.8518918902685113 0.15563098901393208 0.37195641005632407 0.6543901604888972 0.03874514384299536 0.3107873028976569 -0.6572536931513059 0.9339487861765052 -0.8076422124662825 -0.9975774333726548 0.5863000071035046 -0.5724728758196814 0.4598754124826346 0.3596477662141263 0.03149774534401592 0.48361114408944267 0.7748797874051251 -0.8155123210968989 0.5151864590910737 -0.21871201722881223 0.590146037448977 0.5813131788639039 0.2946059041575001 0.8261001520031028 0.153907144357903 -0.1572417484699511 -0.7302681573003084 -0.8816946146051129 0.3215502288679324 0.8784345581057371 -0.02534565481540951 0.6758857680570275 -0.9872695737560016 0.29197623503010817 -0.048198630575641326 -0.4219018027093471 0.7159253410936126 -0.4602963826547646 -0.08317887219017761 -0.1664196349005955 0.1776921284258242 0.2520778472688496 -0.6057845251691272 -0.633171601848004 -0.9867204184636794 -0.011072567130560155 0.7917421087890721 -0.8476959766938916 0.22356758565815502 0.24908290676691877 0.8554386253283731 0.796306552406097 0.40848271954036847 -1.024452402745185 0.11380883837494384 0.7038642154517583 0.5137610263221314 0.17373352924800378 -0.7198260718157793 -0.9492277277504597 0.8639829348007437 0.15193583585039974 0.03864596710111123 0.10892149428975673 -0.1536504079803933 0.6926462713584838 0.9448134506307592 -0.2022321379378304 -0.3803925627623787 0.9352767854424868 -0.5743935157511444 -0.7706109652818333 -0.4933340773389424 -0.8893344798853478 -0.3682785576638492 -0.6441560900878983 0.19967345476492024 -0.07034411526765462 -0.8419227952433661 0.4142014359402597 -0.3460630496776135 0.8209718549739721 -0.9793054561000148 -0.9448196163897354 0.8566504542275614 0.21989222514667606 -0.5593695908425138 -0.7376973294370015 -0.13126335730451968 0.9363174484965954 -0.15767404002040097 0.8797815880561091 -0.11234383357543809 0.08219395634263105 0.5093843099133822 0.9388916282962613 -0.5512974707250384 -0.016786062962168963 0.9285486571587682 -0.12789215337750207 -0.9988307876765405 0.6057488129460921 0.7373651242828977 0.08278722888681081 0.9056162894916074 -0.3510259902893002 0.38357042441580186 -0.03279610273286116 -0.1815373296426956 0.046416631475520324 0.05450633482758601 -0.8556743541697672 0.7282416848470814 0.48123004227534194 -0.383773908148755 0.5192525333063372 -0.3118520940372778 -0.5470014910829 -0.03756602401372074 -0.8105344950331418 0.6422127738197465 0.8969146373197965 -0.6846599443801511 0.9204486832518096 -0.8459460635459131 0.3766101384770182 -0.2668322627263 -0.14580839135986545 -0.567399364688012 -0.30518053821236135 -0.12831580378176613 0.23930682639814924 -0.23128033016638705 -0.7543402384457575 0.047263229018843306 -0.2618078622881497 -1.0027934584455682 0.39672740955041264 -0.8048669089561874 -0.6393290993806585 0.4576394899298024 -0.03030628174967957 0.763888860727895 -0.6638581545768635 -0.3355387434451686 0.7685122151532925 0.8522236346940858 -0.6939855921195921 0.8816148939763948 0.010118596180050954 -0.4107990619429944 0.17988746122254967 -0.6034285887370293 -0.7622891140751946 -0.38580422112172524 -0.9159423240432413 0.06726610591736719 -0.5945654465451955 0.7100038721843906 -0.9488191061889424 -0.6697885897281421 -0.700803388217999 -0.7510671081086017 0.7265009340513972 0.36868926779781636 -0.7925798468938383 -0.7530205868092702 0.4563928567068566 0.9286666568382035 0.5568139068712841 0.23149779421600364 0.2489342425285211 -0.5624754755390484 0.49102396823620764 0.11802294302290588 0.25340771160722736 -0.7747575769668613 0.5386433865777362 0.36801514993189266 -0.45767472882962895 0.07324642959935734 0.7378383374173367 0.9237169237554625 -0.14283169885567132 -0.847354367521704 -0.21033391253670003 0.07031184254903605 0.0018368311553707292 0.7275298571053329 0.5473480354783162 -0.4801820913807352 -0.2614233319244474 0.21072750418550698 -0.11419780191520962 0.10456520678395186 0.390599082661849 0.050632349047764084 -0.6420331482991839 -0.4542770457379025 -0.024883970506277064 -0.8379629224818554 0.5002873599248217 0.5852062679401101 0.0012336331980050315 0.7437522795988161 -0.8945537944540072 0.8535747451111166 0.8444810028164313 0.4507484077575597 0.5208730371467257 0.015028038712252556 -0.9742528297221319 0.6892466306291312 -0.9258090814980945 -0.01886925883805351 -0.4887760238141228 -0.5687946817553888 -0.6816977602590616 0.7272172869648219 0.7955859144985168 0.3298824639149525 0.15311294333274036 -0.23446257587037475 0.8483767419809164 -0.19588382036512503 -0.6397134950886578 0.0018627515165863847 0.2463505811614633 -0.04539852656329472 0.6132672071041965 0.5473282274408843 0.7051557438588021 0.6381782511967098 -0.9984964261136404 -0.22303739418405216 0.25157728861990547 -0.09547164650120042 0.6224248813552045 0.04180753422781131 0.48987338681952997 -0.7576203120150551 0.005008830821181076 -0.2502109982585584 0.16720350054288274 -0.13942340934049877 -0.44755676611312 -0.744769796047168 -0.7999268716577856 0.02860264723338032 0.009582866079043392 -0.4649800875223666 0.4088000931583119 0.3045990440524238 -0.1618567075356569 -1.0062085078938912 -0.2301180874511034 0.8557740917270658 0.46812425863132445 -0.3364673830850226 0.5136973493039338 -0.4462430890491731 -0.6854686592203678 -0.5113390782753693 -0.2442876303177218 -0.1576465075405858 0.2360743808835068 -0.2841107158694772 0.03350278669810214 -0.16307596826850887 0.46129437424613173 -0.7086338882028718 -0.774783232865197 0.46757543822688175 0.06110159598456227 -1.055774315473004 -0.8853749995280359 0.09391674627346296 -0.36767793333386345 0.3079357961589536 0.15248142803296513 0.14652820223064603 -0.30309343236045805 -0.9422453685304474 -0.19913922846898818 -0.2127635233849751 -0.15072177342117138 0.33384788327594783 -0.7617222227215559 -0.9391746344006062 0.9075880252358839 -0.45310510257118924 -0.7714944183594714 -0.4771189415349537 0.3851433421678881 0.1882950929297018 -1.0088083149914173 0.12206117314451431 -0.6060348183481037 -0.4741394603576999 -0.1873212550799383 -0.5051163693414173 -0.5193666410786595 0.37671221548372863 0.3429306759762571 -1.018339467330912 -0.13369277733534612 -0.6317845453915857 0.9641278867091312 -0.8822511376380203 0.04837218510571951 -0.08726902137153845 -0.3766187214763682 -0.07709268087723413 -0.7681681673848813 -0.9119925762206036 -0.0197946766575281 -0.3584182362813402 -0.5758810598010207 -0.41628458826835213 0.17351176154481623 -0.12515748844074978 -0.834985265913288 -0.2346168719906809 -0.7442108455644817 -0.27511212644106 -0.29899342728849626 -1.0555730869491762 0.5610763603547432 -0.0299916378023406 0.3247825457979386 0.7052888040226124 0.1557142681839263 -0.4692910967139671 -0.8558457470878366 0.6250557441229374 -0.5233226468679999 -0.17249190067699996 0.5704620130917398 -0.7508972106285418 -0.5528403093306817 0.0560710233299171 -0.31779909584270066 0.11044934084811286 0.4385051435201972 0.803962931810597 0.5199499922515372 0.7563744424991665 0.3005962155811456 0.9499948430884881 -0.044416055126280864 0.842022020627153 -0.3979852509021995 -0.8467706651834346 -0.08419117595937443 0.4165928747006546 0.8131311072584163 0.8854770545051267 -1.0116436196161738 0.4485761773772244 -0.045177939198628086 0.8951743930807732 0.5681344232267721 -0.605138068043481 -0.27698762360239587 0.8738638420256775 -0.8185015978409363 0.1908841843054322 -0.5714632218792992 -0.5437891050533747 -0.2709733906064421 -0.7590321243472369 0.5843046146213919 0.13373854860149503 -0.5215666366631855 0.7879005167055735 -0.37254497543682796 -0.8703164526634026 0.8904181170685947 -0.6812656670613564 -0.6260601068897976 -0.819913809846074 -0.920070676698146 -0.1664478588694962 -0.8025158938615866 0.6664910820816635 0.18773282890937926 -0.09827148828404725 0.11894258397565927 -0.9165983899558314 0.4182596447462223 0.40598198777619104 -0.9028377158345016 -0.9977142516005759 -0.1402539155016659 -0.5291248498039709 -0.46560557722199075 0.27274862054329646 0.24714015245131563 -0.8633029295206549 0.4032653082806288 -0.48573856638282664 -0.7373217732151465 -0.3987728012561427 -0.600928739551065 -0.6055151528628859 -0.8098524240023564 -0.3005529478222556 0.7883372692588911 0.9506266064009395 -0.9431716039584613 -0.9018405999859337 -0.5852245617489107 -0.20132346120772962 0.4965187860024706 -0.7063734735351058 0.023552712215722218 0.4518061925830722 0.7626299239059089 -0.14562110461956224 0.40240962185761403 -0.2911749036152742 -0.6165331508514363 -0.543978675203687 0.44098818140432605 -0.11913185143667382 -0.35492312509494783 0.5927115869015975 -0.25923899589159327 -0.20663287333059865 0.39640317610588127 -0.17415548037071993 0.7868702283173172 -0.035267233226804695 0.788284466855798 -0.17754877129873892 0.7256174606440277 -0.6523326757956123 0.187335146037947 0.010719089949919255 -0.42294249970710324 -0.3476212571728727 -0.728989561947903 0.25576882450881144 -0.921400735160147 -0.8754594186378982 -0.9128406044330414 0.39360760766903596 0.5787239835003201 -0.5095481968212315 -0.534153798859831 0.5384890839966223 0.31499327682044054 -0.838838605492209 0.7225599766686008 0.6362936724443304 0.8528091800569566 -0.4631300140716581 0.6799236416989811 -0.634707048673407 0.9853838172951284 0.23218133059279777 -0.05933018047113636 0.06539923597917152 0.09041551174379636 0.11328115831264829 -0.5436415489036432 0.7020704562897471 -0.5657784178029045 0.7748151437113625 0.21172245530487563 0.742792068880833 0.1549300141850051 -0.8522095176611363 0.8616170053345442 -0.4060405292958933 -0.2996419087468465 -0.27389235366395703 -0.9701182778145874 0.3915622302897901 -0.6148745282577162 -0.48947237588097203 -0.0021532665900532155 0.7557842139898416 -0.02047830667467876 0.13970184092200832,0.03101684245683778 -0.43975960453367 -0.6323147622856609 0.8852684517877953 -0.9252469977301774 -0.18314637782988852 0.3584065712783193 -0.16189949026822403 -0.6017066035457095 -0.20081352766625682 0.6019728551805694 -0.793430507320805 -0.7635143957770022 -0.9617216092633243 0.1755360663976895 -0.45142206263208945 -0.4517419197184893 -0.08603253515677389 0.05479549454200772 0.32747589860116655 0.5773796303247309 -0.1624022755459995 -0.6648739235981658 -0.6170278296750566 0.8220635716208888 0.3273380634821821 0.7271539078493527 -0.5515480593245305 -0.7070789610027939 0.12600126657373845 -0.9968945241218665 0.7373734043392555 0.8984887128796164 0.029474098323170717 -0.9414573894283229 0.38367724173578505 -0.39842828025090016 -0.790818546502903 -0.45848584765540723 0.42562696282670875 0.3602818231697194 -0.5299067049034786 -0.8890134481140477 0.8941890394500912 -0.9808321824417616 -0.11258211459028998 -0.5117731638028086 0.17311972032416773 0.5402264677976969 -0.3107653386581074 -0.5491867721956902 -0.6412700075214678 -0.2731845871411567 -0.033910826640970004 0.6272264798017524 0.6108453742784945 -0.5880377085106243 0.8562098984398703 -0.47399349824598946 -0.6060409423017896 0.06369851985245512 -0.7855195899371377 -0.5896265619802823 0.04624584647465446 0.7355525223968462 0.1947954078937989 0.6908426644240119 0.3875743155893521 0.8484732302983607 -0.8456897695265608 -0.48387354298051916 -0.3150330390323954 0.4697365274926559 -1.0076183286557143 -0.8818593642575353 0.7563248695662421 -0.503175287214808 -0.8633104626410384 0.8087946755679123 0.5494023191192882 -0.5550877576524982 0.8328694593009527 -0.2522153726628251 -0.20548498196082843 0.6923550888948586 -0.29618233413977935 -0.5479104385558975 -0.14053897145536198 0.5807527837618207 -0.3871773729126233 0.875228250096366 0.6334781446995327 0.08197348183503421 -0.2286969658424672 -0.7792839855384727 -0.5176703800436908 0.501035728250881 -0.9160530176404097 0.2965807314358117 0.6417818233027761 -0.5267208453499809 -0.56309495790481 -0.06691751141654619 -0.36305743927409667 -0.37678988998297025 -0.8689379706587377 -0.1287419516339969 -0.6179220833231627 -0.36988377131832784 0.1358083350605358 -0.5073682529305538 0.44218602338727253 0.20702668208429187 0.879010874436511 0.214630702144309 0.21660511667707716 -0.25643215453238094 0.7369823755460491 0.4796482137656854 0.5555996374567816 -0.3833007719678069 -0.3347497378734474 -0.9882232161878794 -0.772497025594185 0.7447293247705592 -0.7337075018847478 -0.7254570411561657 0.10477983296627404 0.0171588570260985 0.7562420522271197 0.038564233218591454 0.8149047152112328 -0.6863336869809643 0.030152835765127766 -0.4717527182264704 0.24340029438956226 -0.652992642146226 0.9850405925464168 -0.28148818433996964 0.4128495444421833 0.2392502517428723 0.8489007234040213 0.974106470484689 0.9074149123776899 -0.3808204341047594 -0.33976922382426855 0.6755995763347289 -0.20021433404707412 -0.8477207744038493 -0.9552837665359224 0.337390193097337 0.4110981412154077 -0.039699027047600546 -0.6120513297257263 -0.3891143784862948 0.5509462982506224 0.5303163881092406 -0.32434262839995814 -0.44846355915045266 0.6301575941034876 -0.5802241391343093 0.610483752759874 0.21994609760736142 0.22649234340824398 0.8560088638262697 -0.9771068154318079 0.7641959407533797 -0.9873856924859792 0.3019319098997968 0.3958905969898099 0.40621876882403696 -0.7888905243091352 -0.3293843686348987 0.730138450401151 -0.7701579464521596 -1.0198358037820343 -0.8071143656367742 0.3065142032029928 -0.15245272374980248 0.4642798823775793 -0.9567515078545066 -0.9152190010313458 -1.0661325815841722 0.1707798605232572 0.47899748018110944 0.5721725550661712 0.44078488199195837 0.04275684904694931 0.23389731620841273 -0.6061570506881953 0.5321111055266111 0.3680178865114481 -0.07883618824298334 0.34835065223170064 -0.346995141604101 -0.22688263171240014 0.20271893834832788 -0.07248738360772475 0.32116966138037223 0.6702341374144314 0.39797271551062063 -0.8865327177782146 -0.6553780068999548 0.5409119616648158 -1.029154952208352 -0.6691287868140796 -0.043098600141164865 -0.6924436897521092 -0.5654893773053762 -1.0736626570573395 0.09118489021067504 0.26797317575174384 -0.4318313909900096 0.09296910157061379 -0.7679488265903196 -0.01096989970993533 0.697028045648344 0.5748707292536522 0.06585755955676185 0.4222418702221577 -0.18894109954096697 0.3015445427734148 -0.4494854057169408 -0.5841544394835704 0.4346743338516854 0.018572062779595805 0.6648133398749771 -0.726681444109446 0.11188022844264114 -0.21630574475377126 0.7987606682050118 -0.06578819872408798 0.8404556971162105 -0.9459509703958455 -0.7117960069748823 -0.21176032639173792 -0.9736633678271052 -0.32748112018046743 -1.1777147436688815 -0.3553815817005934 -0.7054095279692592 -0.777755677624454 0.35150830995135585 -0.2506430117898628 0.20025927494366733 0.4865451596945949 -0.4222095278154344 -0.5806426963417315 0.39025604059822677 -0.8309737661633014 -0.22668332410192205 -0.2769491554134269 -0.8128606898981285 -0.38503616040544175 0.8439453023443342 0.7529581707296192 0.5832599756841284 -0.5620277863402482 0.0525451675160438 -0.7183330013247393 -0.9917876286642371 -0.0006288923338554689 -0.6664725540727738 0.47640688832170397 0.26805128898958414 -0.8027631632480321 -0.4483867415145744 -0.1302969852786062 0.5362882740533217 -0.5989472821272966 0.8464935713025719 0.491972569502974 0.3245740675090578 0.47961610511312613 -0.3836639208629407 0.18894888145684835 -0.01700639691262718 -0.44222458915877144 -0.9382531302446858 -0.8921259901932971 0.809689466584842 0.8315298570167188 -0.8445522354134232 0.03231869765891411 0.39863231168695706 -0.23810079100305864 0.4613750234241801 0.37783526632781 -0.27234522947305384 -0.66024714131145 0.4129031355842511 -0.8980228197178275 -0.07733409382712406 0.05982038226110058 -0.42001707239233776 0.48872481943933443 0.345054020181448 0.6452689670259294 0.742028478705006 0.4468801216911855 -0.47956412601430887 0.10608185839248127 -0.9161518556403049 -0.389259832168399 0.46785159186418196 0.39628568099861927 -0.058130627621128875 0.07226176900317623 -0.3299547307802603 0.8833554624318363 -0.27511605977581555 -0.5831436403930991 -0.5987314651493201 0.8281001543398715 0.5908459659857564 0.48971675429961176 -0.4650088405002819 0.1781184956174896 0.9003036181579682 -1.097498160092227 0.5171390675560142 -1.0908321159615872 -0.5090193065889257 0.6988339692745326 0.9786766277068293 0.310074125191874 0.42690822503589065 0.6520953913958262 0.14280566352356408 0.28626931507791137 0.5589141409637305 -0.10697363684770497 0.3731142175779283 -0.3807971845096918 0.6726904290915785 0.3483723508157284 -0.865773926203844 -0.9932554770461823 -0.9410936791638461 0.6555631200569534 1.0017878921203345 -0.724748929669749 -0.01619197201986731 0.36945427044951745 0.5505364176711177 -0.454484531758675 -0.7837372106318286 -0.08792617432541994 -0.451267540776481 -0.28043761147200025 0.4545872508771835 0.866484353783956 0.9268326596567893 -0.4729753437103476 -0.23864334496375916 0.2765404572871562 0.6116747379279367 0.3275406018338785 -0.7006992434392949 -0.5493102093105967 -0.22694606444378318 -0.3938191978002117 -0.007733372319257283 -0.5418364776943994 0.8942481510232985 -0.7055246593036172 -0.6420532949376254 0.03142707620108122 -0.38583893546913733 0.4314284548589402 -0.15378122171253786 0.7186837743929124 0.18435903795862402 0.8456268823205975 -0.36527989731562444 0.8212962563077275 -0.3665541135505856 -0.7684532759503808 0.3359378862621697 0.06844215550238322 -0.2238000252002865 0.8505191983966172 0.13258125317341282 -0.5517182855782834 -0.02946669283992738 -0.7033638937735194 -0.0834312379563044 0.27791807465657276 0.10797356685632344 0.9541378389355968 -0.6350789658349332 0.9475149234335221 0.9964601112164648 -0.731993683986262 0.5427863447858818 -0.352934392465817 -0.03190778844454705 -0.8693763178241397 -0.8779806535588653 -0.27240590008258664 -0.32104869820225634 0.5469416561309396 -0.5481750458959979 0.035439494223802596 0.6582959447145247 -0.22980975638356482 0.1632764872681599 0.6896858164003232 0.07001206141887319 0.37632753655879714 0.42092559520126016 -0.5332151394290006 0.06704702057290565 -0.9257927133171968 0.6222999052852559 -0.18525757592469808 -0.4347660230241526 -0.2964649648917747 -0.6539571229564551 0.5909901833273772 -0.1165857903079126 0.7142349730094086 0.3227479191966652 0.6387076826303203 0.48260742131458506 -0.132730829805448 0.505653678055639 -0.4571775198816828 0.48619893894355914 0.2819696707234331 -0.8465620030810233 -0.4710106144558332 0.31372193428641104 -0.4410225922886945 -0.7318056601475039 0.5962188290448925 -0.2743500842529329 0.3969005464541368 0.49680770094421617 -0.7323977738664917 0.29855541430720334 -0.5532010551508311 0.20250052303232802 0.4281073541296168 -0.6479786165725387 0.3995350843117833 -0.3020524335745128 -0.6716526433583572 -0.5055374639056527 -0.9400960152534014 0.09690456972455143 -0.8651998992469484 -0.3534256119650908 -0.1909133649877345 -0.8111006971824773 0.16136435398528218 -0.23183653852082087 0.45636024918702156 0.35617954615966146 0.8760091999923032 0.8048945145499211 0.6841963551672148 0.18411461140897284 -0.3326635518094159 -0.7142222272962225 -0.12712599818138534 -0.9079591465597155 0.5509400429906416 -0.010485450858674486 0.2623513362543642 -0.6801086040049132 -0.24267907135056777 -0.2823257143792802 -0.9104777373724259 0.8691656141546148 -0.16816823315803583 0.8681456095844562 0.2620125885178452 0.4979503744132141 0.8774964755895908 0.5512884058870727 -0.8884578568146783 0.4001348625033447 -0.9373515318513757 0.021963017310469936 0.1654391421175993 -0.39235556298994834 1.0178207087333166 -0.5561832435697854 0.5504575797940423 -0.6031317720201058 0.013408543598442435 0.3223406055329279 -0.48897774438821806 -0.11014112765597402 -0.6769139997212887 0.8073417215907889 -0.5319584784294561 0.9152655896697308 -0.9730341253745391 0.4700152946641825 -0.6448373924765042 0.8276635245606144 -0.8591095672302563 0.7830029699488533 0.9153185225247803 0.8222518778601887 -0.9215013780772745 -0.3248032670450168 0.6031293702270305 0.39986730990350444 0.46651702156768465 0.7039251042720314 0.809657275691768 -0.14877895318264708 0.8229056468984305 0.3389085861604301 0.4382711276496721 0.3711584644286645 -0.7929738516771786 -0.2669599480514413 0.6582959018465955 -0.663531738485853 0.32267816208069633 -0.5902140437653797 -0.4561186432620452 0.7224271285366127 0.26560805306281327 0.027423091313554134 -0.9544171050682118 -0.22083493582024227 -0.0390223905761253 0.34077631413828086 -0.7932550252865133 -0.345405846638558 0.24515691362292485 -0.08433802836311383 -0.04109652814730893 -0.7979736846236744 0.39124750874197106 -0.4752320659295911 -0.10418848558975942 -0.9200172275532379 -0.4892800694818355 0.4570745407011563 -0.710144314735588 -0.18194939341362332 -0.30325077888753216 -0.03390719609424027 -0.24665897583125598 -0.5811396851962044 -0.7992283074568799 -0.3377714006009063 0.429249058450027 0.24422100285996343 0.38117737383257927 -0.9625582202554172 0.1760283660002994 0.13590131244364154 -0.9311845714859 0.05265460302829039 -0.25361969146125785 0.34829459915655814 -0.5256740592702935 -0.304164590526294 0.3371336087220004 0.06777620669521088 0.13143634188783393 0.04180143969228902 0.7741463123514389 -0.8329048514769979 -0.9930020745291737 -0.20508732579012504 -1.0276508435078555 0.49915379598434306 -0.850347068454286 -1.0854448724992474 -0.18772847193559766 -0.727711279944414 0.03729512795936489 0.7226716042983459 0.9048516122795164 0.8326655774005531 -0.8741988321782224 -0.43542626393540784 0.09374951138380395 -0.650995223154986 -0.3170650116851317 -0.285040200409065 -0.7721468446713581 0.5725259032338468 0.8198813869087294 0.16126131598389198 -0.6601674601516085 -0.8156584685650713 -0.2544595924737567 0.03411097384809688 -0.8645312870981863 -1.052367350127002 0.6704434366293472 0.06391044453663222 0.11444544382509765 0.05111626413772288 -0.1751342802870364 -1.0739377369443455 0.8608586088898688 -1.0135478427158444 -0.3501772737161669 -0.1546452441298646 0.2413313164034167 -0.5384361104507535 0.6448510279484998 0.4651887440990773 -0.6733868843178075 -0.13434973025211064 0.9480509361801559 0.5913230909039408 -0.07195838239528643 -0.8503618916397103 -0.4599052377263767 0.9352204933367384 0.8411804269505149 -0.7222923546374324 -0.3665953414205085 0.4182658707170575 -0.04093566280362271 0.7740149728955539 0.7105267747838607 -0.7490411964798789 0.3064421470548561 -0.8772299850780015 0.08472164111276165 -0.5470094703207741 -0.9148090563666348 0.6235242640590829 -0.8785393067426146 -0.6537780665104393 -0.9560313920662489 -0.0331865708662893 -0.7074401383031883 -0.497567126340307 -0.9612781202752092 0.9462061871258977 0.9915481312521914 0.0611838478627853 0.2708042266937478 -0.42961647752800275 0.0622363679060844 -0.7885755168668903 -0.507479513066543 0.45883500855852755 -0.840025261678781 0.31392294397904585 -0.02464221476414566 0.6152431414884988 -0.6565053777186891 0.9107612324745538 0.03187630884641604 -0.8436253633327259 -0.9523148136301257 -0.05802324242558992 -0.9987223539129718 0.058538456087894694 0.03666149699624975 -0.9312421220467687 -0.7966892668841419 -0.6470846214732718 -0.3166415325428471 -0.9975653863374946 0.4483549480680376 0.5953096515690526 0.15648649159734962 -0.5669850178054023 0.2939249448895027 0.22556908792098995 -0.7869828749118775 -0.20250770729103926 0.8493722392603261 0.24270018050373682 -0.01968783471910819 -0.26788639688070603 0.8054494364175995 0.04787573021987481 0.26191245225808174 -0.2057078176075464 -0.40192007500562577 -1.0148290631054238 0.2191710247784179 -0.1441841276756081 -0.6902497132697268 -0.4497361325132238 -0.3696439232463952 0.8003123604207197 -0.8217796431829713 0.18813873496949374 -0.13011651234899885 0.33492080219300124 0.6544349055485378 -0.6736021501918501 -0.16972117656261787 0.788527861941946 0.8516640898282928 0.45589961592382067 0.766118311490337 -0.6618641675267701 0.9645271476992656 -0.19131492139501102 0.4290947959146252 0.0830540340858084 0.8783042502498573 -0.23178392111611545 0.24422956782191008 -0.2394589813131528 0.07644163546931315 -0.7699629741866215 -0.2034804607733882 -0.10930814628345785 -0.9499710537415306 0.01945605274663759 0.16039225625965287 0.8207780906024281 0.8517710673305591 -0.5089061844400765 -0.767969157454232 -0.32614494960742607 -0.17287369277760645 -0.341803752757426 -0.9792170301143002 0.7812586067789213 0.36172658636251764 -0.9542695782761739 0.9088588633605323 0.8938867856796523 0.9522088004304289 -0.9428815251884217 0.5468552751621216 0.7092368641151483 -0.10240865125318448 0.3150519490377202 -0.08396502388212965 -0.7333033560012997 0.12366896168415173 0.2503828489629348 0.9789966103839535 0.2692536812861466 -0.24236486484525271 0.4559546455013737 0.38950682539882864 0.7131137349146257 -0.9969016960624266 -0.4816453695011843 0.7731775598307564 -0.025728183157661233 -0.2576725698511373 -0.6574062139208845 0.2806195713746644 0.026884891160666058 -0.7248122430135142 -0.7336218898354963 -0.08614545988992783 -0.7004368399479389 -0.07158034632916867 0.9762552358534027 0.3282534831295882 0.049806464960232985 0.7089781738336302 0.46483187086198746 0.2816801184789065 -0.3729042951939171 -0.19926440933744818 0.33611916090019933 0.5414368058748038 0.021394084735808797 0.22231513030930977 -0.556399755561379 -0.645321561664096 0.5229830848627246 -0.5562175518981264 -0.4006341862720424 -0.5369255409814868 -0.8637242598470152 -0.6611458442637035 0.63267668918524 -0.6880471733811311,-0.07867991443596689 0.37935206350015216 0.3449366244378731 0.9684005920852932 0.08037751885484123 -0.1772139629633258 -0.6800728516535837 0.8341974649565138 -0.2850345485607 0.276669401622915 -0.953323457814419 -0.9226865643064794 0.030951452290241876 0.21526239255517665 -0.10791379314315153 0.9028124382333198 0.9861422089005876 -0.16192594098208946 -0.8545944444846789 0.23491609806120528 -0.9832887380651636 -0.08341653913219571 0.09450753111853172 -0.9254698596541822 0.7383100508260492 -0.1882196512773302 0.004312230270916428 0.6093658193057894 -0.4675848084424623 0.7267264084408687 0.4453271300383319 0.8011044195484178 0.29896657218502937 0.7974722785927438 -0.8214292029516987 -0.8756920965653934 0.27368931154291803 -0.8794010621800334 -0.8894344381626472 0.46302062125858834 0.5130127186024196 0.2051452216525293 -0.8021359850741328 -0.32223988617891736 0.7611284280231814 0.6749473468992067 0.49749898020058625 -0.14954063592690203 -0.700030510635403 -0.22937504045939017 0.9779092689107381 0.7344238616369351 -0.6850333794256187 -0.15136470326108942 -0.17351621880193324 0.9523796909359981 -0.8125030368737207 -0.30746622281384806 -0.22761100987300265 -0.4978151297325659 -0.0727127704728105 0.42358915303865474 0.7061857653537882 0.5941953288472441 -0.13578880314911174 0.6315164738178749 -0.7118929756312952 0.894258627574092 -0.5561078581547214 -0.1177365034558879 0.31224030640769473 0.02478638378596782 0.3149212242172638 -0.7630107689778421 0.16036985384439137 0.8428848336747636 0.499841739587671 -0.08686168134660754 0.995699482371005 0.6981188047538341 0.7494380624839587 0.749747190783127 0.8286100404698737 0.884755589679822 -0.9507817807314245 0.9528553549691987 0.40822133282067186 -0.0857672973590129 0.5952670724844052 -0.7578296659181225 -0.3635733106503025 0.32456430881270154 0.9206380781106899 -0.07052113316927586 -0.1265132950081655 0.6430861365613475 -0.9031874329366668 0.3564831777610467 -0.012914399980667058 -0.23720040020667826 -0.9612238522815978 0.31328841806370356 -0.13047138923558607 -0.2827078358800896 0.7977671992277551 0.6271935372493356 -0.430093857185369 0.055791015897463214 0.24575456107502852 -0.24973278035683585 0.6621450261897777 0.3066826959664113 0.08848557999560058 -0.380264356462781 -0.8002026910065732 -0.8446740338478911 0.39588534573941525 -0.581322826793604 -0.7718129330148636 0.03617912066998109 -0.7500152992176387 -0.33284568565272316 -0.1946110771807136 -0.03327068616349213 0.41941885193134626 1.0536972672574085 0.9822010718541397 -0.13716491074823986 0.5609735438680867 -0.12318444105777922 0.5521365335509499 -0.8780451206248102 0.47137170218054897 0.9268732467564454 0.671542692644251 -0.14587181342890995 0.033515579327769246 0.21376276650495812 -0.40108028650870026 -0.82357003230016 -0.5928036479976966 0.20628256074904128 -0.4495644495588027 -0.4257469437081768 0.9627721985059479 0.4599394994860426 0.31443658320920576 0.049513138589635054 0.7367061991844089 -0.37834524703485034 -0.04155570635834445 1.0069824393115383 0.6559860205781537 0.17862061616257074 0.9890731178170606 0.32248542226136534 -0.6766517120240554 -0.4132337976300697 0.20125301967868992 0.53721718207107 0.6414554549081962 -0.7914540848519416 0.5050403712378099 -0.09440656283312364 0.59812327482973 -0.4674212691036651 -0.340815640105089 0.9565223738248201 -0.35282593777408344 -0.5583273129766175 -0.13406818634906156 -0.6542251573169612 0.7364496179460576 -0.5481815798265951 0.4632251231913337 0.6249593193667904 0.3169801930427516 0.6808079787027547 0.5441437113073931 -0.09748004323558535 0.3135249244706007 0.6790897460731583 -0.1910324940591166 -0.11907289726468825 -0.6062961587176379 0.15906299348524514 0.842106634098834 -0.24147638200479485 0.7540929024677746 0.5128673764845397 0.9182119496131004 -0.8821768366020394 0.2671257865061305 -0.6896920441727596 -0.015638837642155057 0.09935437784053049 0.3258545558968499 0.5074264474424551 0.3868916839867027 -0.3369478806712483 0.8037416027410412 -0.8666876846938704 0.5250622477269419 0.5910798481446466 0.7946953259414203 0.05703652974747625 -0.5306946527240142 0.4196145734691826 0.37645683057353924 -0.5271939818553028 -0.8271298409879393 -0.2411538566434063 0.10757183325103843 -0.3822236250033826 -0.2574386168810031 -0.12482483188433528 0.49797678084299946 0.2866613976237603 -0.37454507697183564 0.6311363824743379 -0.7190988508154378 -0.04252734778211888 0.30212025559567196 0.2587615944430389 0.8797438011400014 0.7747594673378593 0.18234619093727045 0.05865826547508386 0.6914118059906786 0.16659695694953575 -0.4951172670834446 0.5207354868349718 0.8467628270623283 0.6407031906350723 0.256727458354203 0.8481429077648759 -0.7472102811985477 -0.2638726541464313 -0.3484906897764561 0.8173807979916466 -0.029928111852054663 0.7979867202321839 -0.7666429841039822 1.0011252385714362 -0.47685380548269307 0.13744137851606517 0.288330607799529 -0.9781236786196533 -0.5657098726434564 -0.5798037717965141 0.10573861565248807 0.8701734535370246 0.5139374382105252 0.8842637661467827 0.18123041074897633 0.7302698105387306 -0.7803830557839507 -0.9260752750789294 -0.8088308356771107 -0.4612161755582812 0.39276203301707996 0.7969403811051267 0.7167424928477278 0.27488038997236486 0.06906738190122486 0.2296004235236507 0.12196179213687292 -0.6065836716976396 -1.057761916635244 -0.2862945063013457 -0.8720958817319622 0.02598412202353536 -0.6248636450629359 -0.6463690897164247 0.7770829052564951 -0.5472774527958792 0.2897700446359156 0.420431957325989 -0.9810739348228328 0.5713099224756553 -0.9292343495154092 -0.20524539582947635 0.2543563182239789 -0.609457250197579 0.7042649500405271 0.5807910515691562 -0.8103190917829188 -0.3029920792025092 0.6008744023768853 0.1314897247873147 -0.7596152211303135 0.08543422404111131 -1.077099319953805 -0.9937387975488764 0.3747021005459281 0.07000552762676254 0.7214678796419357 0.08234072807972571 -0.9070151265545964 0.8968607851216767 -0.523766152869748 -0.21872762025036457 0.6890135995187555 0.26266657906543384 -0.6147360704319142 -0.05023373178531124 0.7031510130067236 0.8129582089607623 0.1334981324588176 -0.7921583175607623 0.8570244560582081 -0.47982412717321093 -0.7296728222619636 0.8343410640778152 -0.21313890300903077 0.3675863849168032 0.9502889871799143 0.9344372526044573 0.41178076797305596 -0.7284309500624347 0.7932741324297525 0.05137575645792299 -1.0483031816860313 -0.07078710628072979 -1.0731659976977106 0.3910023265343269 0.32879699616530267 0.9840172011408064 -0.27818885327467197 -0.765682775062603 0.5380703865624558 -0.8462056824352049 -0.9969042715602957 -0.48097753550574973 0.11792800481217842 -0.955001880921906 -0.15799993298898718 -0.6825318908510368 0.8202723751197104 -0.554462241156569 -0.11968002371222701 0.9415744252629515 0.7029050861299695 0.270424317041546 -0.5110064834131044 0.8287067349181926 0.860121173908306 -0.6634091497372905 -0.1403104097921168 0.8237538680497455 -0.6266929639005677 -0.6154707420316191 -0.27341223968467915 -0.4511680809249003 0.32800599339021375 -0.9250365468339649 -0.6930527112059505 -0.50670703701217 0.6301274864581543 0.20356885273096942 -0.16613311301658518 -0.17034379137315347 0.8839166542596374 -0.4586917845901404 -0.8176401349311258 0.09529387571789186 0.39301335708677776 -0.7134404450703177 -0.5228160409208954 0.7585120428071472 0.9003630449149417 -0.8274504174333944 0.2844851781184622 0.45846391589986496 -0.3439751916475911 0.975478527690301 -0.17686348145926656 0.4427477046514148 0.6048552792965105 -0.14079989000212229 -0.8939045625471582 -0.30908363222692714 -0.13938845172727563 0.2805456467437651 -0.2961277627695582 -0.67250904521072 0.1700370937716042 -0.25105027762920973 -0.3360235590062725 0.14101525168817625 -0.34256135664673837 -0.7766946688561066 0.1732937487862809 -0.4902863926939439 0.057869233340841666 -0.7241335008357367 -0.808915030510955 0.47725315803738416 -0.7094489806077418 -0.11795205911388877 -0.15769864480659257 0.6135397423041363 -0.9056114342707596 -0.5035202599458621 0.14730989289035062 0.7132093386207843 -0.8274628642628944 -0.163681327490387 -0.18162839256114477 0.12701633987752453 -0.737207980282431 -0.4911926360968894 0.23635452015353264 0.57975499952479 0.06460955845071535 -0.8945142199803185 0.5279134596870052 0.4065245521440132 -0.2551048119126841 -0.8189532625417953 -0.4092063383526887 0.7112565718134134 0.8610847965901844 -0.7232874267347356 -0.991004137648648 0.9623270961802969 -0.8900659680458413 -0.7143157672295825 -0.4589583171951591 0.5734296622008324 0.26900970430376864 -0.8093056175250236 -0.36248508452457645 -0.7093666297368902 0.5739523312836227 0.5473807338230902 -0.9123402544132363 0.030892011143241083 -0.8083181238619632 -0.8886579828587338 -0.5581051371766746 0.23227833908125553 0.931571066961881 0.0768309303278354 -0.9140302157730935 -0.6939184927413174 0.2833673077446139 0.48443550033216015 0.4822400970552061 0.7242157222654985 -0.2529786472622418 0.210474891235824 0.44718958195723946 -0.6431304674743401 0.5264435596539239 -0.04832652255971952 -0.5535191939353864 -0.11942228828847272 0.33696874106066455 0.16446794269300452 0.10641860341607276 0.5331425728174458 -0.25609454984978447 -0.6164302807304478 0.7369112718326993 0.5564504041743097 0.8173100861439422 -0.36382710677790037 0.05557861587590252 0.6554630879999592 0.6246452376029772 0.012120715226460818 -0.4840355328130537 -0.5007713560885788 -0.2784342126324056 -0.7802825354364238 0.6063768740694939 -0.08008477572667352 0.9837428442043461 0.11082802482365417 -0.6459407222924511 0.6593482958880799 -0.3780064109448038 0.2825953835623138 -0.23995639457267354 0.9682213121511519 -0.6018182810483319 -0.21380781610062383 0.4859621946192931 0.8225856678629262 0.6613192355831662 -0.33825851413441627 -0.45038117450334636 -0.7524140191876246 -0.43847361059808343 -0.5801860509831996 0.2645932195942639 0.36325732273161476 0.8184687577624541 0.22299124639260554 -0.046032684665676456 0.7028660997631585 0.7874076788041605 -0.9605328883820945 0.8121743290224313 0.7827614303365411 -0.32056091875717263 0.6196901927528073 -0.6775286976105704 0.21806797915784193 0.6766853987770017 0.43556975289150235 0.25160193952434007 -0.9765558694367273 -0.7209139807505848 0.7206392196032207 -0.03108246213808535 -0.3933873596392351 0.1185234350836564 -0.5428767848725184 -0.8112890985017398 0.8469483716161901 -0.09416384558305974 0.9616742269842911 -0.37944238372572336 -0.919839911239984 -0.4773865186366014 0.7441881932484161 0.906857181558192 -0.7319617843003164 -0.6307110387559876 -0.9431616172483654 -0.985858888136701 0.7191519002200479 -0.0286537639899824 0.7904545155010873 -0.32830775392769784 -0.29680538796551775 -0.09218628616233747 0.7860167451594479 -0.39376138355836576 0.45749374815855 0.2659265460313312 -0.3295270690229699 -0.25587408059946304 0.6996231759402051 -0.8239765673160628 -0.6584572158788057 -0.09905531377483572 0.43174276427350566 -1.0027390697713654 -0.13564653425740622 1.0923365472693216 -0.33007743135641676 -0.34271964623649837 0.45570238567638055 -0.93269252187052 0.15751702195353587 -0.9333991584916624 -0.48590876371169656 0.8358300241328251 0.621870424170641 -0.7855269468956178 -0.6811050605664194 0.42643992320164115 -0.0013422219228278072 -0.7260701125249831 -0.2556769496329605 -0.026658353300375224 -0.8274638140140428 -0.798235755834802 0.943105815513952 -0.7308311443393769 -0.12963741185825595 0.1252570376096289 0.2888492396331277 -0.12030988031735107 -0.6031884888696996 0.9515215335755559 -0.6776763691100529 0.936692172669649 -0.8771622391023214 0.03416247299569472 -0.9005268304977578 -0.22106884351234726 0.33482678147996914 -0.2763412584634698 -0.399809570602804 -0.5204169746934859 -0.55119410550064 -0.5358417721956402 -0.005963906809786964 -0.6716858884790451 -0.7492709232292523 -0.008882895437059828 0.44184709783362996 -0.07992720004102728 -0.5115703676230565 -0.7453568907819202 -0.22311652983269167 0.497671706664873 -0.41755193376502736 -0.6876804778030093 0.0002515424469019271 0.24509281677994763 0.7613775914123385 -0.6395144292133903 -0.13766524445554426 0.21050170486219877 0.04364428965991779 0.8201479170371465 0.5727458768653675 -0.6668162061647507 0.7560380727570191 0.015156017975451706 0.43968842866053937 -0.38981462606664774 0.18243685102508023 -0.09616799112216824 -0.966488825574636 -0.5815347782871464 -0.32766298514146475 -0.8254915028045996 -0.435419241999941 0.8006271079194602 -0.4521198590446977 0.273407392097697 0.7345586206516282 0.030703822521929616 0.8063105562819205 -0.6607258987926036 -0.16936452154799822 0.49057365926941493 0.0646321019592555 -0.10659522964540352 -0.1538124221273037 0.6165899368934347 -0.5064196191096869 -0.6658419537754195 0.08557387372714101 0.34667592475480047 -0.9477626328028712 -0.9373287065473991 0.7838604571984009 0.6378231397884575 -0.8126350354966854 -0.25513599362327977 -0.27268162334158047 0.8999832050922939 -0.1955942305885124 -0.47331785719250585 -0.32715130705220635 0.5252028857406431 -0.23375186900916065 -0.7647586465768096 -0.6412154042190098 -0.38348169939500404 -0.2008735532276235 -0.440956022632979 0.9389318819954928 0.28806935315543536 -0.8096771717214317 0.9898994264634722 -0.6356685250803727 -0.8832964610201784 0.6590112931879404 0.770268135990933 0.7193498930556147 0.2671294311110451 0.7480692282382767 -0.09733606677688562 0.11193222989062068 0.8608561930094156 0.14895997304484743 0.918069515941809 0.07825521232112514 0.3391352296461377 -0.23404516535672892 0.8823804098366179 0.7882174868198271 -0.053638382264440135 -0.00708035147500544 0.5966346476310469 -0.4595415717496846 -0.14044824774898157 -0.05693748114501246 -1.0096081299668902 0.7151855546931319 0.2559039998348315 -0.7221094161935079 0.379123233446052 0.8348716712360388 0.14312935766414087 0.7210100224177625 -0.7702334146290433 0.17842807725953144 0.21105205200508428 -0.8233976634606772 0.758237261185446 -0.21940883906176278 0.7490859648087422 0.3224212751346094 0.35250188452800724 -0.09050284665884381 0.5387714997765864 0.6161220238259051 -0.19606530611910594 -0.9278685112933696 0.6715389788910817 0.5191354941066604 -0.05586442046582414 0.017096440273404314 -0.3105253703438231 0.5935008214448223 0.3171535043736428 0.45673946953549227 0.5758935982360912 0.9375608295759549 0.07166890317111718 0.21780041581270077 0.6464238224418914 0.92184962953947 0.3762128017604891 -0.8264883334973744 0.4157854049261293 0.3619357557173557 0.7317186908563624 0.6767515771796238 0.5257380706055439 0.02206006976801378 -0.04243812567822358 0.19516519533759125 -0.20493457646227076 0.7454781408857658 -0.25978030240854083 0.9989994612451979 0.0675105432157269 -0.900752930654857 -0.508238866736136 0.5298298092719884 0.9079460620505717 0.2421971335158892 0.3876515701134729 -0.28612771280796473 0.9501159399243586 0.1437900668233469 0.455953409825022 -0.2748650334441014 -0.7438541797109868 0.5632120788748811 0.2635870245061568 -0.4628319083655765 0.7482087682761833 0.7946521694464561 0.273073588674035 -0.44238205434028477 0.65789569285353 -0.4989301587526429 0.7102940497389085 -0.11672797682468561 0.1165491894162638 -0.22280490367770378 -0.6199271957652572 -0.9944917102345947 -0.5486994345976866 0.7075188579108875 -0.3193916258311835 0.09011641474364378 0.24020090252697684 0.06103297868190446 0.623731309863621 0.43799384944468706 -0.8348037987716377 -0.3435062643899929 -0.9501266693372431 0.42331649974984425 0.3917727121752773 -0.4604721140720575 0.06778817450475758 0.8640213680711413 -0.7939159930665534 0.5803653008600163 0.6794489698047483 0.7245927987787497,-0.9584047378865947 0.2833737552316158 -0.8817625603963692 -0.40736666913524333 0.15752699809989568 -0.7675973136134584 0.237032907396046 -0.9433308001793164 0.533787642226454 0.36222244887050215 -0.1579857736751238 -0.3254135246209191 0.9952307082863454 -0.6195888409634795 -0.907107379875682 0.49989809341682484 0.7437418760720464 -0.49688053480352923 -0.8342592710229653 0.8252281688204448 -0.5517540541287345 0.6190803575197472 -0.3915370422141251 0.3169769213741831 0.5060217522077699 -0.3376142414070318 0.15518398027890434 0.6718817813204585 0.12231482655510129 0.9614199067244129 -0.671152225974748 0.49993428864832223 0.8489736349508331 -0.4656544842798684 0.28139429082788503 0.3306627911490459 0.5005508413869075 -0.5486900208173167 0.1990710510470205 0.5801041763378618 0.15200926115428273 -0.5476696569483201 0.9351215912466359 0.9754309623611015 0.5446665637061744 -0.7627075207410349 0.46021278116721587 0.5876327018159745 -0.7851663108220016 -0.7188646258387492 -0.08934325494844574 0.0198870100048343 0.7164798686918725 0.5898151877503373 -0.4604250405506016 0.9014969249152056 0.7455455394776014 0.3024970417229216 -0.03273318173916861 0.21505847761160762 -0.6684273178733179 0.9066605840403451 -0.363269843498182 0.2038579367500667 0.856686659460531 0.7638466927184383 0.45667197247745395 -0.29292040342074227 -0.5886186869904885 0.20585298390928072 -0.6878103078327222 0.463668291114995 -0.9114254544946992 -0.06699527685913939 -0.8967771428699077 -0.29943755002031514 -0.45757844990618973 0.3099222784529208 0.5164984315881154 -0.40418130158645216 0.8202851101768649 0.47062107785028184 0.8940108919926304 0.41879430785596283 -0.2521038039781811 0.38100378141832114 0.4554354669910719 0.45158016375986537 -0.5110753894039868 -0.2698048819119827 -0.10082802713197221 0.7891603113735487 -0.3833237077375348 0.8253687997440035 -0.8186520433987039 0.5838614935306514 -0.5435085090754241 -0.25251975040912394 0.520890813503514 -0.3679472418116326 0.6244577419018362 0.4996217870542923 0.5524970874037188 -0.6824883456309394 -0.27568687471607956 0.36650644765753715 -0.9508170379705574 0.9299008149980338 0.9301561108007891 0.7944834810663073 -0.29607480037668993 0.8431677441157266 0.9344466360491814 -0.16201841247076287 -0.4064667141459191 -0.7106612333165767 0.8504079817582768 -0.05076577341958704 -0.3988080647055217 0.6420867183538435 0.09914095010334915 0.535812048626128 0.46660487128538747 0.7333606835332579 0.17157389452711905 -0.9721870123695889 0.7233203429922384 0.3179164394458463 0.03355203520826467 1.1190965317481798 -0.28897354097184713 0.3814284027919535 -0.322849463025075 -0.24998052456754108 0.6283229874231826 -0.3459396601809086 0.21650592173323446 -0.39893401201267426 0.17341010908280824 0.31646627600182525 0.21303580166887115 -0.5081532873209094 0.05656703713194885 0.6025840536489588 -0.17652173840533525 -0.9434537086446286 0.24425612995019533 0.4252047224952223 0.07977138750294223 0.23186347019372378 0.550835106575371 -0.4320353662910127 0.051291578273353004 -0.3001623121666974 0.8589711802475566 0.08204681511919396 0.6065839076608972 -0.6192729067963507 0.49179955532914654 -0.37827124302326304 0.15673993260998598 -0.26721281651871953 0.8544890416214685 0.40958304159358466 0.9217237500990277 0.9193810969560474 0.19566127000293188 -0.8184210195069391 -0.5955616342513741 -0.9582154361116668 -0.43535770143366576 -0.7850169553084242 -0.9172361471426705 0.6563546320751182 0.8381327610238306 0.8739570582804985 0.4970707116214183 -0.012525544893841476 0.5215216165864125 -0.1090890924294351 -0.7803716326789202 0.7953921128957506 -0.9326043493438279 -0.7053764001975112 1.0025692479509656 -0.6500579190495288 0.5340246550926007 0.2092084592238237 -0.7604351302259695 -0.5646814184838554 -0.7436684723128556 -0.9810671060426642 -0.004812843754837944 -0.6219387131635443 0.12127390403110307 0.14882334113473575 0.36792356713845886 0.2956934906644401 0.39794571815584334 0.936570548589629 0.7360092278552707 -0.3756715750757524 -0.7126070375448946 -0.09946505748627292 0.09254505868190242 0.6994199944974893 -0.4892573866011445 0.5692991494194826 0.1449205895373638 -0.7268715474650579 0.5625514717304642 0.6996130669317238 0.9267819908147292 0.19167717457840747 -0.5734511568096008 -0.1852700904344802 0.6163654381599014 -0.009760535205516795 -0.40806738047726354 0.4821313661936426 -0.10833580266986671 -0.09194338366153322 -0.3818699589956412 -0.5042420522453925 -0.7046727370378291 -0.5272758556129639 0.9197243471257008 0.45467605165236546 0.6484279275488719 0.6410031634759542 -0.21743536362425098 0.47964917616477337 0.15041236079379522 0.4940789730091023 0.5922474561637406 -0.38201063049593836 -0.7725541925810478 0.796328101951071 0.911256434682667 0.1957306365550865 0.6659056088509367 -0.8032484949625133 0.05505584764501476 0.3478058706875335 -0.2701078230617844 0.34569805885783667 -0.725647546819053 0.1624979675512826 -0.11511071239977148 -0.6716828166591959 -0.19053426714757324 0.6620738865474198 -0.11113460107220408 -0.006210151056267885 -0.319611230731415 -0.6650612487775506 -0.3856647430391983 -0.9761796322726767 -0.46614372463990655 0.5075510878359546 -0.1643240825498332 -0.2273875486215465 -0.5200834588484048 -0.3019675049548791 0.17850864063015753 0.7762699711314922 0.028663041209260384 -0.4707745956611987 -0.7566814013636209 -0.2571404944107199 -0.3197967731700835 -0.9272307725095739 -0.33270930162098583 0.5376940323600261 -0.7448036748318334 -0.6028402593923265 -0.537930901024559 -0.4831255871703842 -0.27699031657932555 0.05851685132965138 -0.1999147760135159 0.3639716064140065 -0.9524007306623183 0.6868139363125031 0.30069032097880655 0.5068842067871369 -0.19250466975879185 -0.25977503607811314 0.4483367607073107 0.01728576294850945 0.5784649164079454 -0.9725555182929071 0.7803890700970707 -0.32584115093099225 -0.7173678507417216 -0.6257882333198314 -0.9076884533747482 -0.1668369368912816 0.7567520643014026 -0.8701328990886121 -0.0521675032789026 -0.012248899705519055 -1.0235805807926526 -0.019082314568055668 -0.9499073037714222 0.41132272555458704 0.6097255871375491 0.4714368949818819 -0.850240164299359 0.2656289642762812 -0.17009466753823738 -0.25047602568867366 0.3140744183076139 0.23553591235823948 0.6349013242096431 -0.27027912606352716 0.7792549626086525 -0.3134983032344054 0.018957896189800868 0.7244423094556329 -0.3464846531218387 -0.7506159211218328 0.6005165545373382 -0.8947306380705287 -0.9961970391976898 -0.41822353629598774 -0.36056771247437913 0.6019082746923405 -0.49832973285290133 -0.5952229854649871 -0.9504754863434419 0.2775329571291823 0.6397247365383962 0.25705319418734274 0.782249784628276 0.2352151995969551 0.5515881043453102 0.8816848731336661 -0.5338820544178007 0.9183568344083182 0.6456176647996115 0.7153255140402203 -0.6539726480775178 0.07845710517588307 0.7133254936604901 -0.9614754561374815 0.600902182727318 0.36505753686772086 0.2817525246926261 -0.5486705016426484 -0.05554549545497519 -0.6631971787676978 -0.028843032104307508 0.26744772739014483 -0.3073637632258581 -0.8855816936116515 -1.0046995554227018 -0.3629068433206802 0.8584786306928074 0.2890794647533325 -0.6704217890697206 0.08762060623626196 -0.7530290186750637 0.6176287768270774 -0.6613716591726417 -0.027688841454368927 -0.6972891293706948 -0.6679522177214684 -0.2704275014075892 -0.08384378294352252 -0.7063744300387158 0.07106349055994127 0.39463707552214256 -1.0524535508518351 -0.5136975375686532 0.1422284851551523 -0.567407132416808 -0.45466991165192916 -0.8083286090135933 0.3131354637436296 -0.21708540557365702 -0.8235588321325333 0.5167935241219629 0.5981094456900619 0.7981167579452042 0.09489927294314157 -0.2060648894116483 0.7168035160626548 -0.5586423840729943 -0.13593993003131946 0.19041186410278965 -0.8397099394818847 0.2073454939040276 0.6869973632715453 0.10833604206989532 -0.4770340300433773 0.74457128748568 0.41138815460354217 0.29174429989095 0.056440975511377355 -0.8439858295240987 0.5399775357781105 0.3630139452073123 0.17453328193922232 0.19613603911390268 0.3872089230058837 -0.6503321402042541 -0.8670388645812204 0.43943800362887425 -0.3248764342655338 0.4076031522658378 0.5829762991968772 0.706207072586634 -0.43064302689355866 0.34791740300474466 -0.019478296632768146 0.10844974313546892 0.9733015350750844 -0.8446204836655883 -0.39829665517796536 -0.5615030999645498 -0.49941144220236583 -0.41347199691422865 0.4607781663977303 0.7436207585043787 0.9695085138806492 -0.9400496132677842 -0.5197599742321563 -0.49336552957985286 0.4922632609562454 -0.6013459848449992 0.4446130321706448 -0.17705794446037498 0.27084198661837 0.018311036340275925 -0.8267761510497013 -0.7730802091643321 0.12059588045310325 0.599888744644548 -1.0386101574741116 -0.7356085064321014 -0.16744444891700105 -0.8229084702958066 -0.643362516538089 -0.5044317930599378 -0.41865659461136684 -0.8392854910402983 -0.12212661398022831 0.19896913172958597 -0.4576634373774471 0.0817728288881491 -0.2673731216657961 0.48548908768558485 0.03384509037603717 -0.9003958329307473 0.02401569009367214 0.8148003931678942 -0.8715995526276121 0.17182961139195366 0.538894876678111 0.5153533426474509 0.3512351488284714 0.2601626078275454 1.0098130153891658 0.5086889941020921 -0.8630517899098706 1.0376679390028016 -0.530147464140938 0.7165970962192696 0.03155276430276191 -0.9559958610432806 0.29848384482775736 0.8713577414204365 -0.0023297473416345983 -0.21378135480715996 0.9961646002681405 0.9022768524614375 0.9885083849449776 0.5777743753096265 0.00020792559521356973 0.10262890142487723 0.02057647530869136 -0.24387619111468747 -0.6677259441948645 -0.9664017904082565 0.259176129109646 1.0782287879755434 0.8263870229808142 0.7344031465916278 -0.19963494916767627 -0.6842683582103245 -0.8494554470462208 -0.647501860806291 0.5058677928126902 0.7251009878359163 0.7253294599794224 -0.03811200105280457 0.14433936333005218 -0.8623225729760186 0.7113366679905645 -0.42749134839043457 0.03054807909648759 0.021118565394309195 0.25654941681063004 0.06506430231371041 -0.125930206915543 -0.8623106898953331 0.9485824499258512 0.4968513183348605 -0.8274195097573963 0.8633599657939499 0.5649551128466018 0.5265703537010498 -0.06578625477788082 0.02228587633365092 0.14194068423731987 0.9306330630464498 0.46008760906141327 0.0942707101970391 0.1939843576605624 -0.9149212387551329 -0.6162494682093277 0.7234574772085239 -0.4806317596435988 0.1785887995247132 -0.5796215815500431 0.45865930298320845 0.8311683352664017 0.757595075679255 0.8310172002082227 0.15445506391103112 0.7203407049827979 -0.8480642225388585 0.517080490720185 0.2827079419066315 -0.42487706808959796 0.5847954754551791 -0.25012206459018 0.22820279560048523 -1.0634921589036683 -0.5359273333528981 0.02769845176615169 0.496108874326318 0.15522303460972905 0.5980463898843374 -0.5067455116281662 0.7920934890713831 0.9239875438400769 0.8544676114312035 -0.4403138994731378 0.9403285312758101 -0.31022772272290894 -0.23036830772451464 -0.9594426365826713 0.3150496430816304 -0.606544938892128 -0.010836802660969173 -0.24503365796104518 -0.1649892833162922 -0.6315537053145922 0.9028708098950176 -0.33977125363428134 -0.8362270454751906 0.37011172701355843 -0.36306576485271363 -0.8857259977261726 0.03429538105515836 0.1503686589281012 -0.48731738910817396 0.7875604839488913 0.7728940964363575 -0.3218879002942478 0.5697965246110104 0.8973439710472316 -0.2916444570852734 0.13827867607550803 -0.8055266117003089 0.5165223657680962 -0.788202606786367 0.6270422057388754 0.6640644605226181 -0.10917063664740013 -0.5992335538394976 0.8746488826398137 -0.8235219430609754 -0.5360094063190645 -0.30616850928968103 0.3953355564432104 -0.762217780017137 0.14827983169097295 0.5071704351552937 -0.6971666313796562 -0.5313656834802841 -0.17779054034696776 0.04152270761983152 0.14737830744900082 0.061643769808789016 -0.2515599487672675 -0.6183199037577164 1.0791856708250025 0.8304338413404013 0.7070022793822781 -0.5369826192499338 -0.026162635287965395 0.4792882940747523 -0.5118325559905126 0.5333863865478322 -0.654342321778137 -0.24870822498783535 0.4084649191513361 0.2862475310695427 0.9133429137127225 0.08417487595267467 -0.8001093190421796 0.9153700728871794 0.15940521067129576 -0.3694780808652101 0.5544081817859224 -0.598268659808169 -0.13278347522203338 0.6182201272582892 -0.3840474878247487 -0.2644514989664503 -0.849793065388038 0.013070053647292678 0.7311513826155576 0.3885746653094917 -0.07430494929167135 -0.36830063848792005 0.7123197458891868 0.3899417983139398 -0.09350948566768427 -0.4770724365258889 -0.9737911751034182 -0.7842022958867786 -0.4529807040624247 0.823627241419247 0.24943064565921516 0.7971267687625948 0.7818482163412758 -0.08937347791491783 0.1596485503454012 -0.14139944634041213 -0.9049691679006897 -0.063287368032094 0.8003469197971127 0.36924282563651306 0.583966814635439 0.009928304331472059 0.4709944614621081 -0.18601645426665464 0.2580314400883719 -0.8664335549224738 0.21448915663265058 0.36194466643608314 -0.16634162393922797 -0.8752784502043609 0.42953776616181133 0.2863437860750327 0.2999303803711721 0.6074392684870441 0.11388951245513187 -0.3292006855353141 -0.23400162926077694 -0.5116598169298625 -0.8354685467246011 0.719598147727533 0.5343032327734365 -0.5752287894167268 -0.07989663751752504 -0.29355474497594597 -0.28490292941541573 -0.2211684321605858 -0.5150882913646175 0.710313309782707 -0.11204876595878148 -0.6389674088890231 0.8030587719243524 0.4162856287840449 0.7894343170429052 -0.6334123544967218 -1.0044560068701327 0.6013519646897126 -0.051308989853422 -0.8289230010887171 -0.4330507115973527 -0.516154710291476 0.7905225412522876 -0.11882918385399552 -0.3986770802925688 -0.8500023464251514 -0.3657501193224344 -0.12809579089686413 -0.8166122167557507 0.39217870056850046 0.8531672146860972 -0.5003520492103297 -0.052021664128482074 0.08265819250321615 0.8555747985898725 0.2697544552040847 0.7815115830831987 0.5009230387420515 -0.5382987892082107 0.8973190613901497 0.6266377258186383 0.5353465726271245 0.31043555145958796 0.6338072713814978 0.5899791232416665 0.48439630367914716 -0.8071735850826606 -0.007814260576029087 0.35681827754015627 -0.07788537172026719 0.41781336206244263 0.7708322618748663 0.13729398643062518 0.11075331902417085 0.5890813806929512 0.913781771731963 0.9361545266864397 -0.8734022568281189 -0.6538312150600752 0.6467945856426631 -0.49728324401364243 -0.010028908919481485 -0.8689442389583155 0.669228111738678 -0.8381105899026713 0.3998481326312393 0.44352737262397296 0.8494536160412578 -0.3107406240552472 -0.29956449542598745 0.6280751917797355 -0.7638911317048231 0.34412139408005094 0.2900349880592646 0.7417993311785891 -0.0035615753972064955 -0.13710618990568654 -0.5583794617372835 -0.13185338558608964 -0.8602267817755622 0.31689035989871306 0.4733620092863604 -0.47360965087261153 0.3127277636534342 0.9603297420453017 0.3975883898686239 -0.2728457826874856 0.2771817508323713 -0.7436973376384628 -0.6989362264409198 0.2633102112951575 0.8626432098611521 -0.8538883678714924 0.8494633532444915 -0.8152398375534957 0.4880359773215138 -0.948819887315054 -0.19600600950667174 -0.49531439034119573 -0.2570915177328651 -0.08682436881438958 -0.29777586866729466 0.9401677185271786 -0.40867005302113124 0.16347429567041322 0.7371760979545202 -0.3749932962479553 0.0833682773981916 0.16999291827608143 -0.2921298703186731 -0.5017914392531083 -0.12076127872129946 0.22160754949968006 -0.40400138916485306 -0.851367876602847 0.3235451020475286 -0.036966452466393296 -0.7990508998763695 -0.14119839805574208,0.7756240030437027 0.8323990832946229 0.3180662951509241 -0.10535403619193096 0.791957874617311 -0.23857801442177684 0.11319822064290341 -0.6027684829149582 -0.06278797144143877 0.3772281385068246 0.47685013401342036 0.11209308218106595 -0.7380484805622686 0.43177298656709934 0.4522083058657657 0.19933962126857666 0.3397489944393093 0.31948867102228107 0.11471099548478425 -0.5284290729933683 0.346893260404439 -0.0009086951584553749 0.6303135343942188 0.2426228046167771 -0.4115909489095064 0.9575594757390573 -0.6073209570638975 -0.6212083496607204 0.7126519942741565 0.1648625330097857 -0.17921467628097454 0.7555442502334346 -0.8271214660985142 -0.38406787659280694 -0.4891038939593517 0.9745200088395939 0.7810515461783873 0.5097653257685112 0.8848961083899701 -0.8901507488746874 0.7027346497966674 -0.3193953205250784 0.11060604040296666 0.5943559986272277 -0.4082090064896041 0.6955058205857391 0.22205166031429902 -0.30746454392733313 -0.4803827287143642 0.6561790290270669 0.27145031535602054 0.14731657518531205 -0.6395721603853828 -0.77811787662061 0.8650170626040803 0.2149221118100455 -0.2688680995876509 0.36212732832956984 0.7125858620900056 0.6371069123493673 -0.1846689469942735 0.5072377688070633 -0.5402887079365055 -0.2025919915749592 -0.1127323836608668 -0.06106661387585748 -0.5727909702079615 -0.49536376849412816 0.6087329555661565 -0.09831329195675757 -0.8103115543549682 -0.6994725317744745 0.7022746915022764 0.014403782032545644 -0.3257132681235558 -0.1705012273538702 -0.16286773604850827 -0.6281748315955369 -0.4715391185091789 0.03983550651127309 0.5277965820851568 0.5907435339544278 0.25391583521267735 0.7429367831547142 -0.6800893071449214 0.6355068275502571 -0.11041553505741232 0.19828994612350792 -0.62141988176079 0.678348008551211 -0.9216293472511093 0.4365540144322882 0.011348550291884195 -0.6187322755145084 0.8827307086162924 -0.9196444227708873 -0.5770946231377869 -0.8771741734818128 0.7999344883617878 0.026454573599858786 0.2166995726106336 -0.8342569000116565 0.252792873246093 0.8942208268750348 -0.6859092419882841 0.6104645710206156 -0.9773496374982018 0.7847263819497381 -0.045840040974443705 -0.22691782294121476 0.35072911518937744 0.7585972359364401 0.13395060834494132 -0.8973034352832148 -0.13804228315565956 -0.6462204743595835 -0.8334343561420576 0.8717191353765198 -0.9578477153429981 0.07966197864835195 0.20733907345283153 -0.8347153307164175 0.32772007869720543 0.7361900034303793 0.38005372617793215 -0.15431901704862674 -0.34243370060642786 0.6441452356947155 0.6220800331482105 -0.09422650986321066 -0.28245878360309545 0.7677335598368548 0.848751745065324 -0.1584941513101746 0.5090442955508471 0.7550856188387776 -0.47430596435066086 0.7726951702732011 -0.2874976154296709 0.924579675398385 -0.16480098185637027 0.11199858350006964 -0.7662041098718895 0.11994092863466234 0.9194450140832686 -0.3601452513536304 0.527715042799262 -0.4880529835164689 -0.7904918537856834 0.11071432877323507 -0.06585941493776164 -0.733849375813698 0.34818754203123087 -0.24957338260793363 0.13749022746917872 0.7975306879565466 0.2081280239372303 -0.17565306392780733 -0.17295181262552206 -0.733436097943683 0.05069963300364234 -0.7499566010945781 -0.9530855893109859 -0.6074722373512417 0.009092806727635641 0.16834157335383174 -0.2466483439494978 -0.04969129336651035 0.0908523434000339 0.6921679076293012 -0.29835519710013747 0.5120061356709651 -0.7569561583797689 -0.009264215211640258 0.6156222074862651 0.7995487400215572 -0.25014693361501456 0.654373613674502 -0.3528567754514033 0.13016913426910365 -0.2935919196953425 0.6329282662557547 0.24594371237663576 -0.6701991410470725 0.5468181608329579 0.07442722368041542 0.2593902106114468 0.7943251326820322 0.7439316203705898 -0.3409583664210865 -0.8505521002373257 0.955467585413172 0.7935324444937187 -0.19117713344086473 0.9573826638931305 -0.6927339449993342 -0.607750403901135 -0.685186610531614 0.8119406355309137 -0.7170188080074871 0.9714569373336632 0.10821024989358478 -0.03418467671751843 -0.07800468814087749 0.1619900036713842 0.4450788524658833 -0.9527863784655736 0.5877317896579871 -0.15038672516278373 0.7092470105856196 0.8709581602781223 -0.5021122598632417 -0.5327242838862696 0.08331617637651678 -0.1170683660179681 0.3269547698525418 -0.7548999262762511 0.40765245542531087 -0.2803890670149584 0.5392942352901253 0.2653428466217747 -0.30470832942311354 0.8028346448536006 0.8474493666760785 0.5870573131479686 -0.6561351962939606 -0.8463327112708213 -0.3191258363592333 -0.4697650516570545 0.6739743039332857 -0.5566189448853668 -0.41923510371442374 -0.18062424278223685 0.9828766626605393 -0.47043326044624456 -0.7544968596679413 0.6990747923832903 -0.09395169867045608 -0.7125860369617043 -0.686098559485705 -0.2694087320826623 0.3164810365591176 -0.7026945749903503 -0.7416374868379564 0.2226671863829361 0.022809179405745932 -0.8039314051230823 -0.25421574732198043 0.028682802085861117 0.23039207126381248 -0.44923124115933155 0.7493134511925295 -0.349286635039886 0.8933738907425548 0.8859910496996645 0.9495001514346229 0.92294725780936 -0.7717399066036388 0.16453400386035927 -0.49420807953976237 -0.6709645039098778 -0.9505574432188992 -0.9234130672088326 -0.7238060300270698 0.6031572622002705 0.14152389095884546 -0.6066786424910414 0.39265619167466814 -0.5293863792808695 0.20401079086058668 0.8764634979336047 0.22857477065555365 0.6936183672506161 0.5318062426223615 -0.6105896163284633 -0.26397614910157724 0.27414749757512025 -1.0002374627128896 -0.8624768645502174 0.6417956744267821 0.9696000689470843 -0.3912921803297943 -0.31383724727153456 0.02297975523216275 -0.6622463528101911 -0.4416512290159645 0.23125627861785783 0.6625244970133364 0.43437690343952157 0.15566523825104533 -0.2592759264183601 0.6165554432221761 0.7770632465701911 -0.8871871848844952 -0.49236505591063545 0.08662029302577393 -0.8511069913238271 0.22468042042962194 -0.7751660856080327 -0.7355440277921842 0.38784939486551545 0.09430084423405029 0.30639666719247144 0.039121539103544344 -0.8366946011163567 0.9633904022356422 -0.3969078459949164 0.4919107184502156 -0.5215983275824794 0.11123547719254125 -0.3965446322066747 0.07506601985165332 0.6940844716064889 0.25770387385938565 -0.499726240668441 0.08425112199294496 -0.8851203967021344 -0.14487358584340523 -1.0157360798819268 -0.6313244720086183 -0.22768932302677536 0.7549423216479251 0.3937455955422681 0.698349739363402 0.12298107628064472 -0.39621198745441183 -0.653356355766755 -0.4022387999729583 -0.5852920920883321 -0.2481933315150888 -0.5540454114210357 0.9351614213519437 0.1395421611160541 0.8047166464783875 0.7036507854463585 -0.6733277583436179 0.8724394141047023 -0.025125989779775697 -0.3545086912679441 0.21052250360586636 -0.6896647149560031 -0.9647681035693163 0.48849260936139677 -1.0387608927223788 0.7145965250643591 -0.6861364770139251 -0.6517058559353025 -0.5616152787023138 0.2857203077147119 -0.527048027931582 0.4159347177242986 -1.0882752581617776 -0.31343100921407807 0.5803367692638014 -0.6141016921681415 0.38333639790148544 0.294429721470147 0.8946824432813666 -0.5494568259320709 -0.462187926492665 -0.9423401959366474 -0.12309352624201311 0.8730920751742913 0.9532873443674093 -0.6161587340235599 0.4794483418618466 -0.5548159940814095 -0.5727004562830198 0.5065000093499944 -0.25520647115121664 0.4647295997508036 -0.9340978955156568 -0.46542084405704576 -0.8445829301390178 -0.0289381185220284 -0.2790785147675966 -0.2292331037298412 -0.6108213957961772 0.7366732762686984 0.4052974976256796 0.49101062252947 0.051616033325612244 0.003753838245579129 -0.12915432811583885 0.596644829126385 -0.5554516848223636 -0.5277771917783586 0.7466621246863158 -0.503943151902143 0.25543382145757776 0.47340407883659874 -0.5235725313509325 0.003691125625742364 0.6771760241843954 -0.8388740101530062 -0.12567838486356944 0.8522900361052137 0.18673379703861784 -0.07479632351653422 0.1293169590443703 0.2535101928959515 -0.49623520344665367 -0.697434374636684 0.08397102716509276 0.2580102194605531 0.31639064558681207 0.5408691821735221 0.6401414506219574 0.18242350205120486 -0.6758248476790754 -0.8610764652879305 -0.48444299412711406 0.07501659223544335 -0.5093222098675201 0.36573843486246793 -0.01365387125915127 0.5396220066683508 0.47405948853080376 -0.5530453902291708 0.3943880602323178 0.7722996915039462 -0.16081558531962856 0.9139391887230233 -0.0791149629820086 0.8154526513468267 0.8750702898261907 -0.21828050106654528 -0.33197332282724923 -0.10025454188718708 -0.4101538887920198 -0.027657741913989904 0.2760721468773752 0.6397885002259783 -0.2308974472307353 -0.4222835976827131 -0.49631878080345976 -0.7499472085799598 -0.7245830530412704 -0.5714356788467125 -0.8756439217011717 0.11696992836768687 0.022691501390073858 0.43544932503726225 -0.06614335180393784 -0.010844254973899252 0.6412779069033588 -0.9555026866115106 0.15354659267106308 0.8832768373981932 -0.361745609849794 0.15266422082157854 0.7014046600878217 0.123829860670583 0.9480964897958186 -0.15979832610569034 -0.2790859696254559 0.14906153710856113 0.37292041371171464 0.9071298788877752 0.1683020492757318 0.9731492914215479 -0.8063193911082381 0.05446429307966821 0.9451003865107243 1.0438391669003688 -0.27295704086248784 0.6379803948169782 0.07783906789812395 -0.12058872079172475 -0.276262641635561 0.00835149421938618 0.7234713106708854 -0.12341970289733123 -0.7634224608455881 -0.24288831869674543 -0.3394800705782457 0.8495761682358332 -0.8000779320307972 0.6612523728177849 -0.49831483805461946 0.9785406798232705 0.8198105147252168 0.4869389341485959 -0.5777450955103512 -0.35912369036514835 -0.3789917369451598 -0.6410397720975949 -0.20392536717424906 0.27917797309064485 0.46256516559721367 -0.8016368697366822 -1.0257599201381713 -0.2769995591380203 -0.7457942287735321 0.014393538787109226 0.4402499825013661 -0.056167903576983993 0.21654773696588378 -0.9154052223566173 -0.6383005647018146 -0.2920459599394179 -0.1723646970334391 0.6862438216626219 -0.9541451296611697 -0.896173702975666 -0.5455957329512946 0.9069415552115299 0.6294589973816741 -0.0169613235050002 -0.12424831176544661 0.4333418160233086 -0.7108774801046094 -0.7584153965909242 0.85708308995632 0.35821443024822286 -0.22348733479060018 -0.8739452399119017 -0.009459243477772515 0.6886846719036223 0.2543121228448838 -0.7414418079690192 0.8566044384429874 0.96073367480998 0.8931157909566569 0.42250979311369996 -0.09348129641702345 0.3556171489700805 -0.29234289715850126 0.05054640466298573 0.6355907799120991 -0.8267850383180136 0.9567177078427601 -0.863473595743993 0.11584330124685359 -0.562887597333005 -0.08148544712018387 0.4464521509907167 -0.6723829384041117 0.552747562830867 -0.33826094147909674 0.6787831229328906 0.008757217830024457 -0.5713796969687469 0.6224927888242501 -0.9225126825735375 -0.2259996250913076 -0.5678622349014456 -0.3383429897368627 -0.8303040658886645 -0.10981694424345108 -0.6189997944517236 -0.3049117608459532 0.26561599103590994 -0.5569117219763517 0.8820945941546822 -0.6402136210458378 -0.4698059448311026 0.2342597725850292 0.4850428501740319 -0.2057866265176887 -0.2298080058186296 -0.10120170152549628 0.7714197382615832 -0.2994083810044268 0.5367980460057004 0.9983163283193358 0.36698678184475986 0.8872322538457837 -0.6203334670471898 0.5450264244623318 -0.5719564397354538 0.6375293648812973 -0.4027477192305825 -0.8506880732867205 -0.5044552841489078 -0.5646307147664157 0.5876089602611143 0.33867271556020956 0.5606429348359041 -0.25356063181796373 0.5093969236172641 0.5850782139299052 -0.18292427677703962 -0.42471133900264113 0.044795197159649296 0.833687734069467 -0.3258798484233978 0.18672344757069936 0.8487681749698348 -0.48737619467464754 0.0007549049576429421 -0.5300810250265398 -0.5780842304736982 -0.9207250065644211 -0.9435334806881621 -0.17089407713933305 -0.7689101244273822 -0.14802600382720443 0.8537288553825373 0.07827601687232856 -0.2386822519121186 -0.5525718706177084 0.7586587524657117 0.8052496817837803 -0.24002065640326448 -0.7154470427008155 0.6332089026537543 1.003947134000595 -0.4969412755507557 0.5719040969643153 0.4604961739226393 0.6445778614880625 0.8288475066554475 0.06512950342989954 0.5200905014014897 0.661654049803331 0.8573772411902252 0.3890792036383929 -0.4730252898376154 -0.3086404036165288 0.09743173448358514 0.9748712086408903 -0.4871828269108212 -0.25578851269031516 -0.4383898943649635 -0.9437265446096317 0.6432038745048628 -0.9614539620688886 -0.5975389373144944 -0.046026707947756706 -0.4560899414824715 0.7217258162457392 -0.8215628364961755 -0.2950431999400414 0.09654430154738594 -0.03061471004049923 -0.72789294077787 0.500619584160341 -0.607198386213615 0.5043870663771746 -0.5251407879276484 -0.06883906579934523 0.39877716124727497 -0.5597378266039621 -0.8847072004594521 0.18284377813983244 0.3372479042999092 0.11948679078059699 0.2578417783789388 -0.5900931125495874 -0.0726611350341056 -0.16866842882602612 0.32049542421566624 -0.7663486905667531 -0.7406886390994021 -0.8752299105597386 -0.25589816544745553 0.6819071636197614 0.7916612336355681 -0.9975899486303262 0.3553714962472716 -0.3681289799894722 -0.9246406450532191 -0.6048270335744375 -0.14692648906692943 -0.8171465944970113 -0.8647674876937355 0.4899786626703573 0.9543610478909896 0.5529138977108198 -0.011302773293130333 -0.7843476841692902 -0.9608179654510298 -0.8393221733296956 0.36227581509039947 -0.7146347174387666 0.04398208934543057 -0.5648764739619767 -0.9540511066895423 -0.5256481851231933 -0.2661259498429151 0.7401042403835558 0.3850070523744527 -0.030621107640079966 -0.08964264990886803 -0.03075908899629871 -0.23035320452684868 0.0795182447091966 0.20998492389474752 0.6184284253700668 0.3622363179196148 -0.11678544958175927 0.3087012570805302 -0.9528519336264565 -0.8526763503893203 0.571896415270993 0.10467524361700399 -0.42139547818908957 -0.6733017563679233 0.20547026839063798 0.523823201208953 0.8035790864208343 -0.6574232795802837 -0.30971203000857717 -0.3261319224983928 -0.18445664618710714 0.06838244670185381 0.9372645773676307 -0.39998889017277006 -0.8722460236625684 0.2178548816547826 -0.7798802295866377 -0.5274597224332757 -0.8329829339535851 0.9304080817697351 0.6558044562175996 -0.1560424218955876 0.2263769676140803 0.470500245833795 -0.8286333419544922 -0.5045121023754037 0.9635904099827618 -0.4735957792785584 -0.7580538534966921 -0.09701952394011394 0.10017951049347552 -0.04609823377093185 -0.1500948939396558 -0.20089951938402706 0.16438071286327793 -0.5410548241960387 0.13219010667388642 -0.953721242302966 -0.3548184005261743 0.6777634063520699 -0.6124081920624154 0.3952352924333261 -0.39899548878000984 0.08893703763834447 0.08294218666941063 -0.16200425623798173 0.32518434320119455 -0.8835428955765534 -0.18901406268444537 0.2822719203557796 0.9381372955846484 -0.9512738809793735 0.6185940512823299 -0.43785922509101455 -0.287042967603986 -0.448049505310091 0.05055142135595414 -0.07861960713873128 0.9790323360829398 -0.8967488133968053 -0.005310593368861749 -0.007581112464052575 -0.5683554966550441 -0.8265954840419745 -0.21624882496295483 0.8004677223735694 0.5883067239507027 0.09485685459892146 -0.514074502075673 -0.679890330568069 -0.08680922117771694 0.5930972300428574 -0.6339325774065159 0.09148072428247866 0.5266158980236286 0.9878459249301332 -0.3236241100122531 -0.23731706859200424 -0.3962945738360363 -0.7578491284327773 -0.5132093891869716 0.9702935561962898 -0.7626230140890427 -0.23401472724925076 -0.7656213706297712 -0.9881609590268101 -0.5136227821268657 -0.9128819588601798 -0.6611418284873869,-0.613621547682333 0.43590444037230225 0.2101849226493131 -0.8185193280087548 0.9511544764129929 -0.24770906464554177 0.7756122618809056 -0.6277136772107457 0.9840464110631613 -0.7040129158372355 -0.27328531251246435 0.193105774910461 -0.36813398382331686 -0.8092963968687394 0.002196645708221201 -0.4918724780547188 -0.8459785874248509 -0.37489115934233896 -0.8414620789222418 0.17873501229622302 0.36694414853441737 0.23867348968379876 -0.426446543657208 -0.5786590378734959 -0.9289823235370109 0.06085196339614196 -0.3221267598019688 -0.15401174378266846 -0.38983696997871453 -0.45866828152077566 0.37214129502900817 -0.4063764564205101 -0.5915920603958797 0.7581539994032791 -0.7649221390380669 -0.5633081416769086 0.8919678322391098 0.0935369430401416 -0.020483775700553153 0.06336447218070296 0.4377707486982918 0.8541830987529159 -0.990517106152104 0.29029715080388657 0.5589425674333268 -0.2806060942880944 0.6274321296280003 -0.5852124385121269 -0.02141876209932625 -0.284182113436497 0.01603020556531387 0.8078413262075002 0.654565611658575 0.8094975128192188 0.9492842543618354 0.2507219754737704 0.9924967331173395 0.6791931372930722 0.4613276590943929 -0.6648576009178224 -0.8879405857004059 0.7019105018936536 0.3732091619088094 -0.27694534926495074 0.28774214085291105 0.751547991042311 0.7664916575956969 0.031045809571334387 0.8522383218387525 -0.5390056164249196 0.6706675066258145 -0.6181255786844335 -0.16433940400951286 -0.1870099048930767 0.4175847528973871 -0.3269382724562531 0.2015408446651615 -0.6960599727493775 -0.39494653285311426 0.6703171750529375 -0.5766885592703312 -0.25597296229566147 -0.11465386738136729 0.8667794082511238 -0.881456518680656 0.983372033890195 -0.6742268501683377 0.7577624980046942 0.6279390587478242 0.8301814589606669 -0.7574898255042413 0.9062710976438921 -0.002204041682576152 0.5115237085974896 -0.8655833805945583 -0.9670139924121595 -0.8839775510768939 -0.35343817855956 -0.6631161542447652 -0.32509454031964263 0.3406975416797259 -0.16202620263648004 -0.7837041290895548 0.7370959702829505 -0.15224876483889713 -0.16169478107021346 0.12345292083750631 -0.7977597375410558 -0.655632539755456 -0.5832592353872339 0.4645609938170181 -0.8103843429288908 0.17206421846083075 -0.09272030187391556 -0.872654332061483 -0.9709709743891779 0.795814922047103 -0.27352160961397837 0.3054573888596285 -0.16693525924826622 -0.8176880006385163 0.18997723582339882 -0.8393089544803224 -0.0946659853158911 -0.8615322269939528 0.6267901094963032 0.12578458692166156 -0.43054246843677646 -0.2775328286247434 -0.13777346898450826 0.047577290314014226 0.05229292582294942 0.2857870480621887 -0.5166065753339935 0.15496700827006624 -0.04116329952382703 0.11856840470007997 -0.7105636839678389 -0.24096150278724981 -0.134335044054672 -0.7958395503503732 -0.28210879797790156 -0.41083083621410665 0.8463520735319746 0.042298180213106086 0.14424180472037323 0.796016235785854 0.39304502585512474 0.032367141264872196 0.9701339264590159 -0.5878672596398452 0.5714456589797551 0.05406135470953668 0.5957633902613064 0.7984193953870606 -0.40243514809500847 0.619643051862296 -1.0354589739924287 -0.8638867009927429 -0.54409131539741 0.11477471031897261 -0.4728282065171974 0.7101318175602074 0.3772962321511831 -0.8152624246589318 0.7686885247156952 0.7371381135700551 -0.8861706144810948 -0.3194583267563669 -0.47011602257218876 -0.028413414720106056 0.10998609785337182 0.11364439769988434 -0.28948062556413545 0.5983110668933607 -0.8279727211253084 -0.918609746217294 0.7591829800948091 -0.8617277708052951 0.009888403764570945 0.4458758709054546 0.4318703314507466 -0.2635499608818582 -0.6945775825510034 -0.31256706559399683 0.7398030616874931 -0.27754437143527383 0.11018057029081618 0.28920820437506933 0.5620715954344512 -0.2686199247649444 -0.5647023708827447 0.018007905652873305 -0.67472550873967 -0.49175446070516 0.5861116851303928 0.6561201456267605 -0.6051797623245678 0.26275385017312103 -0.4367923972046411 -0.8434212131182949 -0.9586413986814969 0.14059195608491823 -0.4652898535689329 -0.0775105698741131 0.15098522650280907 -0.8370850863751049 -0.1251804740902361 -0.27795658987804156 -0.2796619477802479 -0.3830140876076672 -0.4692223849362134 0.7198340364632986 0.29799689845188426 0.3267382814656974 -0.9339829674963676 0.38605446308258606 0.8558504645399962 -0.34248938540067253 0.13668953455775548 -0.9328091427672764 -0.7387709227858426 0.1102805324547356 -0.8080346518300892 -0.8862423458025548 0.44749412313507575 -0.9364398246563279 -0.6867891568311458 -0.5030192958063445 -0.9198442465024033 -0.8893917595044752 -0.3801986035848168 0.8239956364169715 0.8335873500665115 -0.9598444436426616 -0.6185581781605307 0.6371378521530615 -0.565446756649947 -0.32256601443283206 0.3879381476441906 -0.4365564733695565 0.8173371837371104 0.25916837970035267 0.7993435729527987 0.3956849540369729 -0.6563490698404196 0.8539268219568815 -0.4344713744025701 -0.014601062088245529 0.4979088227261258 -0.1991822883418524 -0.31003427983612875 -0.803843754618256 -0.5419058327480293 -0.9185354627251432 -0.7538940162340677 0.34324762903422024 0.5783997893361369 -0.48670142178194475 -0.24410920625243093 0.4308043934647097 0.3330948896233877 -0.6181749505839016 0.9173981255119518 -0.671453233137242 0.033575399677262655 -0.9095487791381056 0.6828579226279655 -0.2186081904858038 -0.1584629642655077 -0.6655620588652155 -0.5464295774723642 0.20360927039239643 0.18807614701930186 0.7370969758620275 0.8443927493952926 -0.23742187447236324 0.5691951108152117 0.4806942430922794 1.001551591281283 -0.16165149856151073 -0.7036795297338692 -0.4066592654191712 0.36571468601145 0.2893641160448585 0.8815205336259384 -0.6792872667241082 -0.21829255096642608 0.5023470693654248 0.6422867417153021 0.2976518152587402 0.2545115018811524 -0.5434717913755011 0.36894731399494773 -0.7724526895307895 -0.7011682520021397 -0.21014196791067233 0.11198927108689924 0.4455885771822156 -0.8897161974945905 -0.1076697059580507 0.30949962939847286 0.4351171420456091 0.09169168422591478 0.29360290099396585 0.5168734982172872 0.31686626382763267 0.7945471597823248 0.596585634329426 0.44103253418513577 -0.3716682233629793 0.6619883070849573 0.14061520141107248 0.7020869505221201 -0.15266767252831212 -0.08428812739618283 -0.9364970992065123 -0.12043288005438685 0.6112573475452129 -0.3248115799763148 0.3259672283582185 0.16487023987178331 0.12040981823530351 -0.5037419796775456 -0.028844635022665877 -0.6675620694047091 0.3403851540847256 0.04606360135227221 -0.20095307591626554 -0.7162307190883278 0.3630815896152485 -0.12291958366076505 -0.4477367683715949 -0.5180464875269047 0.352120378135885 0.9858185773582288 0.23268526840105208 -0.5205390916086556 -0.8358355377356999 0.46796376583755 -0.2187544411735586 -0.6446682481658298 -0.8189471699839292 -0.7292717556852737 -0.053483890462006 0.5647000079671269 -0.9409609243400028 0.1983146696228553 -0.25254634009523946 0.21364063962360552 -0.38147414089291265 -0.19938246327681056 -0.331331364239323 -0.45600351798102173 -0.8691740174375354 -0.1928711419136626 0.38612277269465206 0.6087427556443519 0.20772887746358687 0.23856311983055958 -0.1551726065445801 0.27936394403503967 -0.10232426770526439 -0.30392640152139966 0.6292609018893907 0.2605808335824984 0.9157995410223028 0.78814549361741 0.14497437018187703 -0.05272071545609975 -0.951510897737948 -0.07646482996819638 -0.8897826176317867 -0.294985386461204 0.20810949894038827 0.10621174312755063 0.2292555825672556 -0.7650869536305706 0.8219985151662175 -0.7993278642206975 0.08480867584226211 -0.8630539127131903 0.5166845311896019 -0.7307598628698675 0.1646615520942128 -0.7147104406705833 -0.38531285090061773 -0.45378776055944936 -0.038075715928395266 -0.26769054875553366 0.6117123111187747 0.8880868517605264 0.0094710387485466 0.9225078750492055 0.3656256326342091 -0.8646621290199422 0.4228823792416446 -0.2763132897225292 -0.3191997715879086 -0.41536994273119965 -0.11018780970888857 0.5219860274649698 -0.5049755932927127 0.8092752898207367 -0.1362252203908097 -0.4028364076107716 -0.17987241182183872 -0.7304471853120218 0.5478967147590538 -0.7951895049496586 -0.07963667009585887 -0.24606018194725476 -0.9836605087304581 -0.25356669989890135 -0.07658569113670759 0.8004933310950804 0.7183395629022832 -0.9305011396815125 -0.9711188560292844 -0.8956228651869751 -0.6193016738103612 0.9943787251817158 0.6677962039163716 0.9507474476418006 -0.32967797449980407 -0.41435972387569536 -0.3120069846076387 -0.2671667610027644 0.6952863186714631 0.45889993824967934 0.020871281124113687 0.21486381046820394 0.42894642758564683 0.5823017737394987 0.5750136372712434 0.4907337320312927 0.7876771133324935 0.6339741150442054 0.3672281739321609 0.5288874248302451 -0.3658879907150468 0.8222743690853636 -0.016607095062028124 0.86077016324227 -0.9594104616442132 0.3869737266260251 -0.7036610776827166 0.5848100901761235 -0.2833872277974767 -0.6144238953369376 -0.9635622663104106 -0.9024870770100007 -0.02126539009463729 0.6935888667811173 0.37681665116491764 -0.7518717311967297 0.5341953975904679 -0.518794504710335 -0.6940030710413316 0.10339526843631114 0.7131608324067528 -0.42566363703874877 0.08166479931442003 -0.5663856849326446 -0.4690185950068323 0.3631939898277143 -0.3558595481927313 -0.22274367178001003 -0.4990430277919659 -0.3607769040899413 -0.5979441934679803 -0.3634233317916205 -0.34457881927845707 -0.7069933799316187 0.6975213353390686 -0.8326154117628863 -0.5942923460722518 -0.2512954987317322 0.35205529984378586 -0.5046645548166648 -0.7635027885387328 -0.6515178476985949 0.37651042513565064 0.2060572841712731 -0.9962203328681825 -0.9292661132168318 0.5474263115251535 0.5740171212881376 -0.26173097977650756 0.638582316872479 -0.894024583003827 0.8522038188657243 -0.8504374383392629 0.6535080789896992 0.05294602128560833 0.3711346030100437 0.38120302446743687 -0.8031277472222159 0.9118977689612447 -0.005717594100602777 0.3861767485447492 0.36713554222498684 0.3327053837541715 0.030084714148969738 0.5811722722612975 -0.014152671745757184 0.987347351375245 0.19577862619940403 -0.5220692490051246 -0.29356700446517425 0.16850447693727835 0.839416547473696 0.20128830389423844 0.8845199362804614 -0.1523446857866715 -0.9628617853755016 -0.2410530592208336 -0.010947800344621512 0.5671021779957836 -0.3525757032186075 0.2468879423548704 -1.0405046719780844 -0.2801862726309137 -0.9738644741071585 -0.30813715339118886 -0.4540665859158696 0.1659884842248283 0.817138645215408 -0.2895185928316586 0.8720189436055997 -0.2255703087105214 0.3831966146644312 0.037909379895021855 0.8239793247364888 -0.03727863586334122 0.6672149243872586 -0.08223288870738228 0.5375743167328846 -0.24416383502130562 0.06673004029318419 -0.16187315209653727 0.061079017090558484 0.3622363026572587 -0.20123652257035515 -0.798340532999358 0.33971881210055344 -0.9773177014038087 0.8144434944350564 -0.791284879906841 -0.18476606520905864 -1.0794905276475077 -0.1729131006390326 -0.6062338607511407 -0.6018570153073226 -0.5331110913919469 0.5813002234318752 -0.6316061357627908 -0.19455358155181077 0.9421208551668817 0.21048418486996612 0.29240341074844123 -0.18287370694684002 0.09448723782629416 0.9404632506672785 -0.9623653090420046 0.6902283862900079 -0.6319394936227412 0.8806861210149818 -0.19642354319459182 -0.09435701729251922 -0.3394406298025142 -0.930516115350993 -0.11550557146750182 -0.7380230609641456 -0.5921987975344222 0.7413989261140455 -0.6075205819315418 -1.0163250491530744 0.6892882235444743 0.39934458935011213 0.05908800564040674 0.28402465790667036 0.44831831772192626 -0.3495794419772047 -0.7468539694129852 -0.23750824632458536 -0.8044943830335276 -0.9765065287047483 0.12292795596991035 -0.3752000966572213 0.12231535964296379 -0.7985366957335374 0.67075978036501 -0.9463463475230477 -0.9923307492403806 0.5916695002008583 -0.16874459059938102 0.10690924927141975 0.6867048233917177 0.024603811265921274 -0.5172286137487507 -0.727356809502771 -0.10689284497971945 -0.19342451310168152 0.7256525892626801 0.4074157582739317 -0.9677953611896531 0.4994447626194953 0.15605728612924302 0.974651533616653 -0.654243569012339 -0.7720328224969 0.47874377677078195 -0.84898244133775 0.2874405663566555 0.7169877439773755 -0.9201296545527802 -0.12084054446546433 -0.3158647088680863 -0.6687393516807169 0.7520310015063447 0.7221544909113202 0.41423075057263287 -0.6073383026273728 -0.5972572875272167 0.002030443655608552 -0.34818395131327284 -0.45498444747931416 -0.28665979087137233 -0.06088883389799765 -0.6676080762737013 0.17369414056122426 0.2384514891911378 0.5460577146026862 -0.6498128483984805 0.0858250727700762 0.8525408226010472 0.4428844711785365 0.531899659326027 -0.4717713960944565 0.9270651704730984 -0.6294633351449521 -0.45565520122860925 0.28599733049153353 0.17336997618273609 -0.1758105783727102 -0.7221233398957625 0.03495548485477921 0.7368523642900561 -0.46745328895962285 0.5198157524800762 0.596377939859092 0.19718426550030563 0.777261146977142 0.8220540140234034 -0.6959134022716393 0.4998489827799856 -0.5291913069467973 -0.19012753280945338 -0.2902035012032525 -0.03289477536829672 -0.33775462935739725 0.5114917478491728 -0.4582283896774335 -0.5549920105311904 -0.9199752364658995 0.4971897353870996 0.6566922427091094 0.12865610233947553 -0.6784287607794222 0.25622864172509274 -0.4778844148063306 -0.5714327079075692 0.22275477763324214 -0.02258112845799535 0.8661704136008161 0.6924291203289765 -0.04037431264948035 0.5935165138659769 0.5380953966479611 0.894820181537077 0.19860247269963732 0.5253964509817581 0.1381820346335164 -0.5846571516308807 -0.09532091558962938 -0.7152598416534074 -0.016625646143447616 -0.3085382361909743 0.10016821958923036 -0.836184379346781 -0.917407085900863 -0.6992186686175605 0.752548817243088 -0.032640104432598856 -0.27828515110451996 0.3244198860799359 0.06633183721899283 0.9212114543976128 -0.22556541573826405 -0.5280053326885008 -0.8310893902207594 0.8979024807260771 -0.17556120071283596 0.5472674902211344 0.9443519927914051 0.22674100088333002 -0.4285792155453488 -0.3156343940012019 -0.4981506153919843 0.1181122041647608 -0.02741853515465692 0.7512857802546674 -0.6101696359889023 0.9607513219974816 -0.7429831539704442 -0.1425784411850885 0.04538087485950166 0.04146924016085543 -0.6891747715391093 0.3997008095080883 0.05127476960264849 0.34142782106480474 -0.2342030589002561 -0.48913256826601237 0.426906049544616 0.48031948411805125 -0.14836100696853505 -0.2627546985970082 0.9086710598889236 0.972158910092944 0.12273104619110901 -0.16528911786863903 0.8093270676385259 -0.7310958702545476 -0.42576708877706265 0.5625289559150272 -0.8677275882728079 -0.27522030613352216 0.1253461174085947 0.22068352779851408 -0.6841997128957062 -0.7013008090294186 -0.964226740564872 -0.2374425566599757 0.6234377784682269 0.5504972517305828 0.49761884279051133 -0.5098203397825662 -0.5218063515899639 0.3705537425390774 0.48382493796511405 -0.8046549764052604 -0.7506120700741603 -0.18437255659627683 -0.508958379607646 -0.36022602559138583 -0.7735080230477123 0.6162695376443996 -0.34194923932816845 -0.08616313567187953 0.025544227322327515 -0.31470204783772204 0.8229962692898192 -0.11951901192129635 -0.35832130175496124 -0.9075087188936923 0.9616615692248393 -0.3173856663116738 -0.6389133370680002 -0.1254647929672723 -0.7205090663137226 0.26796575948877566 0.7675282088428744 0.6080776742267131 0.9755877363040071 -0.23025975142128163 0.501714110354427 -0.5887955658456814 0.5888067560405057 0.2899781633464209 0.7220611553614764 -0.689610813672364 -0.31402535668604914,-0.11623746356199516 0.30084585516382245 0.8034663133108282 -0.893913247788866 0.18981784207332453 0.6754226090806605 -0.6248070717778709 -0.32801718197439067 -0.6764538320008624 -0.18077636545322617 0.5003386998044188 0.6198054870688574 0.7105865626889134 -0.6581264763626209 0.5927875668340403 -0.3729973702995617 -0.8945227348544262 0.10503066901197844 0.3420885705425847 0.9588941206730051 -0.25005261442600646 -0.3370594074068394 -0.5726004730482384 -0.7802796286056684 -0.3004023492229382 -0.8087005387898734 -0.502377956945196 0.6092596973572117 -0.11030347874244106 -0.6330734362719772 -0.23753032674126562 0.7913950945961956 -0.1425456002716281 -0.33468275983890594 -0.06973814998342664 0.09350301239829371 -0.9347880414423515 -0.2240149128604709 0.27739346107590096 -0.38107960004270997 0.5773415454217687 -0.439301252095217 0.17311746772869552 -0.24241356503808198 0.08324243530032818 -0.4463940573609661 0.9241703279968999 -0.10173430867808969 0.8307978878773161 0.38697227354868025 -0.2335851907552899 0.8803764726305767 0.15529572477800913 0.4806872094484571 0.777915084360173 0.709791179221916 0.45174971054246327 -0.30517597828410525 0.9078636703465828 0.4528390525411192 -0.6580398015682336 -0.13874987449414938 -0.4917279703173006 0.7323298868889352 -0.8504027528324491 -0.12547280651022427 -0.12514195622158447 -0.26643956434892596 -0.20478032750182995 0.14297917096344293 0.3569142186354306 0.5472338241548629 -0.9433900635232895 -0.0611716616243549 -0.9498577159305229 -0.6403354270625953 0.8010467281615349 0.0541911436690838 0.5841348122092427 0.0913507244392689 0.5670265779980428 0.0025103732052166373 0.32262146511025414 0.6380158703616294 -0.8737748797391189 -0.07144255800403809 -0.6145514081927606 0.29082695923286644 -0.4948865557963765 -0.03804626130459093 -0.46495746696978624 0.09775566352595992 -0.554109954197898 0.5357433326262372 -0.10400021065872256 -0.33621361194414423 -0.053275157625756894 -0.07090530633789234 0.11513354656704589 0.7713162851795833 0.2737125243028962 0.00013613817646096374 -0.5881960779586488 -0.5484470937920538 -0.7801892158053596 0.20319934008079235 -0.6340062700697353 -0.5204148720794628 -0.6997185437740757 0.3984786968344757 0.21282930253496476 -0.14671262200118185 -0.6396704253219272 0.2148947361001352 -0.04751540598597046 -0.43003597503483093 -0.6604781544104413 -0.22023297925669083 -0.6067140442270965 -0.35164856082942797 -0.11819847566768134 -0.5147749395961227 -0.7962657174626921 0.7521121545675845 0.10363527389633889 0.8200899082491279 0.3288660213113081 -0.03424884345541303 0.9238774403581139 0.3059931687782847 0.10406092670560467 -0.9174810592954635 -0.06259750765083982 0.7972908727605065 -0.7016000648496183 0.4342276626348102 -0.5589546176972999 0.7911861358463527 0.9695695074608999 0.2282683414389703 0.7393257956292945 -0.05715343273787332 -0.7291072442322281 0.3529101249064514 -0.21480257131099983 0.5331313724917597 0.7806432444574913 -0.8771076333285613 0.933114626522824 -0.42408724419214117 0.5722804470029162 -0.8891844663326858 -0.9688983331302218 0.5585399974525636 0.5116628505484623 0.356995568321135 -0.1333280876357892 -0.812507239576596 -0.3495768927381517 0.2567694968199961 -0.9213097803109765 -0.47519944266204034 0.28222031728031527 0.6197821000158327 1.0441968050052568 -0.8945315894908352 -0.6746231429771129 0.36308243572814597 0.9737611086706968 0.746180992408468 -0.385899960682442 0.10553392753698218 0.1279969654052993 0.17552662981941256 -0.7166202848245987 -1.0039199480857537 0.39368080392964894 -0.451687315753944 -0.437380644404492 0.11264598622918334 -0.9897182185994043 0.25542564651755667 -0.6692620587541768 0.3592248606244922 0.6059120531680643 0.4363701725052701 0.2907895257763523 -0.23857442952894664 1.0087353764525107 -0.004062337229234977 -0.3953287140531991 -0.561709424684515 0.7354062606992913 -0.5922494521118727 -0.6608610096218501 0.7844232923090716 0.4351629422766221 -0.616466182192591 -0.3271631306387575 -0.3953801759755793 0.15985607784218323 -0.36536692668134557 -0.29575329525679706 0.46834574811192964 -0.5332858159856024 -0.4099947454447224 0.7076112051178335 -0.0044374868669863135 -0.3380201491626118 -0.47305245410777164 -0.1319421955247107 0.6231313037627615 0.623281147516634 0.3631079096302327 -0.2110537927348644 -0.6649651954035635 1.02659819850308 0.6024032738499645 0.24695767188420953 0.7416640730508569 0.3235135645932752 -0.7729035179304913 -0.3529120115618455 -0.9694736875857245 -0.6260542248318612 -0.8910165191490873 0.10716203204611936 -0.15594496220473428 0.42697549449459116 -0.12016891504536244 -0.3077513217557087 0.23357903134085642 -0.2467383394566164 -0.11057158370026361 -0.22243575339529628 -0.8879055996417919 0.6223933694267375 0.15721905464857494 -0.416442017492837 0.7434746869152908 -0.2472847545193795 -0.772013966509042 0.8442058464935129 0.10425912308655198 0.09003411943835818 0.11788435474560484 0.8279006762181041 0.8281254430067208 -0.15997269811124742 0.3980782168669089 0.9477717665979235 -0.45872072206286135 -0.6549984514253046 -0.3484812437881639 -0.038804692547632316 0.41960676231791516 0.30471377725482296 0.45772273953438997 -0.2244300582049399 -0.7698057270163203 -0.5287913392215905 0.603853877133273 0.3141254632793409 -0.26406298250892707 0.1751271054558329 0.8545027048717913 0.5058066837131053 -0.47231954648606267 -1.1874264936782961 -0.7741469320581453 -0.5052966427870736 0.7914768232466086 0.6227740760495805 0.5529340214802335 0.9872254830537248 1.090329888636328 0.7150419174595621 1.0400426625215742 0.9624586129762305 -0.3298956815777836 -0.45298282238492676 -0.56346154929816 -0.8728030542328951 0.2903300333922905 -0.1851449670538798 -0.30123483651841326 0.561105134114961 0.390345237514477 -0.521312357132802 0.8672547421933916 1.0144797340681775 -0.4178016642558592 0.4362707000782669 -0.09868607509638895 -0.3873326677795981 -0.9927773779531954 0.10487885588063607 -0.6109424402319884 -0.23236573971585597 0.108047921971824 0.17194856309836984 0.5696647491108149 -0.7150435547675043 0.7371448510405775 0.28092022841676795 -0.5739163839146968 -0.6131885189468159 -0.7855700851497022 -0.9594657072776949 -0.23466704983714828 0.07555922099963483 -0.394636632934057 -0.851239881561886 -0.4800691956706738 0.08851188617296343 -0.14436447353564102 -0.007025182158183769 0.3869652778880244 0.38922294562216586 0.81407285101952 0.43290528116676347 0.7526352349859713 1.0465187741543363 0.5696238749990526 0.7541579873024549 0.05910909799612 -0.5259679321684132 -0.2793155232739546 -0.13523794849196716 -0.8153504283528279 0.6365831720952895 -0.5898218788448149 0.5974513094284924 0.3730361453335548 0.4734464780352695 0.9314017661190668 -0.008556255877790964 -0.6526469403162829 -0.7416941577657566 -0.03212318880631807 -0.30774612296676257 -0.39102547104286856 0.931622796403853 0.23350291810433313 -0.449086946546729 -0.32936336459447896 0.005169017404645155 0.37856836305255886 -0.39105192568839664 0.7884357766418386 -0.18127667984553805 -0.6378114286161347 -0.3206191039597713 