-0.658713193149558 0.30372217606374297 0.7376015689052837 -0.6319812493465844 -0.01981807182423867 -0.34793793280766017 0.9330168156199676 0.9431493813747835 -0.2057917123082773 0.5924410410821677 -0.8262357369000342 -0.328014434126507 0.9549801170649082 0.554653287335 0.5773915380461314 0.07960060345421072 0.8459757397030019 -0.5579483867066035 -0.4854320024970571 -0.0585629628684754 0.2469294360934713 -0.2799628921059891 0.5602842007252262 0.47962505731212546 0.23543673907809293 -0.11601384582464203 -0.3216569669933529 0.12709545041385395 -0.49518599351240766 -0.7441535068765912 0.5878867953238986 -0.3178283561845705 -0.5156180230841161 -0.9516496524844651 -0.919647656793037 -0.7771293679035219 0.31204455524554053 0.7533338325123307 0.930493894235022 0.30645949822019164 -0.4159448849574628 0.33316750885631274 0.7824595549232541 0.8593844068061818 0.18574472443750942 0.5644766307196288 0.09566821826409082 -0.4553052825037761 -0.5415389833255434 -0.8670146009591277 -0.9230389147121166 0.5717097414052603 0.06494763375958645 -0.26068309851730276 0.7076790810308167 -0.49192075984900296 0.5746492852820615 -0.6254414156347043 0.6867835377422695 -0.880509835293092 0.8906262772415806 -0.04317872755224731 0.8610514404485787 0.22299857042052673 -0.5427349807193022 -0.7832338706016657 0.49067742867798136 0.9969846729089267 -0.006906632499435277 -0.5406091593550459 -0.2699212526419576 0.6862071454216326 0.6037538929317576 -0.2993336673505518 0.996690372839337 0.7906877242122389 0.8767952970840438 0.5068047897435896 0.6254918306702539 0.5079856033842586 0.5914478238428846 0.7596939859957079 0.33224238225936054 0.05193242030406231 -0.022936541100611274 -0.5363026307290659 -0.4074467755711526 -0.33062633863096047 0.3652509852058627 -0.774562700860496 0.7563615775531721 -0.587474985209478 0.07602280258561228 0.15937735455499324 -0.005560320161699903 0.16211528679471693 -0.1389815257842496 0.4474030767052955 0.3278303829985324 0.30669746060781333 -0.8276018951534888 0.4221828633286931 -0.12760471215121533 0.11622542377303197 -0.6145706363805111 0.4994301090030899 -0.10424835402242642 -0.3826290623592257 -0.724901244233627 0.8783096303906119 0.25958837528182155 0.001599313197410357 0.22323295583086877 0.6694006299470969 -0.08269584074544872 -0.1174139832354433 -0.10867307319018266 0.299694852254067 0.23983495634423832 -0.421882035169863 -0.8088894488588892 0.17175860420202743 -0.8026461505177966 -0.9164184308243049 -0.6582685715023198 -0.3916666378884989 -0.22819105000608658 -0.8926430885455315 -0.22382452811279444 0.4162772134336647 -0.5861855614961444 0.9469063184152787 -0.2926232447539098 -0.5311627996163903 0.29403936613880954 0.011102702556457773 -0.6458081127837874 -0.30942027828639085 -0.008291979739978986 0.17393724225815244 -0.015583893267039794 0.8432439328181949 -0.307632701928866 -0.21601650855183924 0.32893202146948136 -0.5285153937138873 -0.3799857054519708 0.4354705066036487 0.33641619124352923 0.022939884584335456 0.2455870830026316 0.7257316890733687 -0.36050724103706394 0.6992014263654985 0.9834227955355617 0.8824510760726695 0.5813175777485889 0.036246180890532206 0.6844650868256386 -0.17538607906236112 0.8048074040485399 0.7670182598569009 -0.23960004312307054 -0.49823475329949757 -0.7824394324714647 0.07532803841813268 0.08317415803355958 -0.042434917482771 0.9365576996121743 -0.7157531873926338 0.4126966711566857 0.9501001058880143 -0.16963562544119407 0.5921762900011778 0.036181759218337675 -0.3031349284640362 -0.5297607924051372 -0.4840676049095032 -0.8255551349973256 0.9064213692880972 0.3477193793181607 0.6614878501402672 -0.9851652563162506 -0.4846056214124109 0.03569152490504055 0.43176835190576196 0.23301685754043963 0.12564402463387733 -0.9283298229920866 -0.6979580654795483 0.2353312516318748 0.555804993965063 -0.9446916599516545 -0.1279962402469062 -0.27282480601559533 0.16338701172765666 0.1049193131489814 0.07762362178003185 0.5350542185734728 -0.9087432216628295 -0.2925645251747697 0.6083879578193137 0.07081278342688503 -0.9321305772499932 -0.962775040202548 -0.46174793184418234 -0.6133403095913958 0.7925523835026108 0.05501463584769314 -0.5175595314315026 0.10823961575157565 -0.3733842950206816 0.6290783177502065 -0.19177505892639207 -0.07612323773209166 -0.08164490764085289 0.8471791973833399 0.7601203219482635 -0.6329197218933419 -0.22466542954809116 0.29532784624038083 -0.5256369159887107 0.742740746682861 -0.46628519251004186 0.730803053096544 0.8502536164417157 0.22387604534829472 -0.3450907602303427 0.4598814917033638 -0.8423430482687209 0.7129675553402877 -0.5625964665506267 -0.41979287528197307 0.3694974465598392 -0.9776488120466883 0.4721248593795217 -0.7435439250946007 -0.08142758625217185 -0.3527323133425484 0.5398434784612798 0.31261720290361455 0.49263329422345165 0.6694850667093873 0.8839942003851512 0.17945715885735827 0.4217622941111099 0.4844643536726183 -0.5379707485070057 0.5094642433737101 -0.896601113855454 0.4708287851515799 -0.03816666852780599 0.12110768430019103 0.3775221823459317 0.6988768108781833 -0.07747752578491722 -0.151213424422664 -0.49520202841964095 0.6541568817384961 -0.18554113507328376 -0.5896781086780164 0.1006022773099871 -0.5958924732304636 -0.5458134066831911 -0.4085988990437504 -0.41387944969951007 0.25654637176374046 0.637835176023825 0.07541651125649558 0.9362521924674315 0.05351160872641184 -0.11811185539998006 -0.9300194420541734 0.32208860830076286 0.5707433770773526 -0.7431615131335031 -0.5763695351738635 -0.8334905223853081 -0.10348922811445627 -0.13699314582730704 0.5624494128689129 0.9790439812632369 -0.24466634519114283 0.33766961438989035 0.8132798310708977 0.8843794906897072 0.06434673148461414 0.60770663918397 -0.17012070814718594 0.4350737033062487 -0.5792489657759192 -0.08192088560337225 -0.9250012062879379 0.8220804201220098 -0.5150121391353023 -0.2911035681720584 -0.5276304295436399 0.9059535081447041 0.23144192845248102 0.09673701844332465 0.6556574831728583 -0.7153988181139874 0.7449192149481794 0.6871049578247433 0.7546672895570697 0.5960710128592199 0.9804785124092958 -0.3715602452547063 -0.07851848111176196 0.39801681266206984 -0.7769744412588456 -0.02467465773748405 0.979656674476317 0.10647374623216685 -0.49092322648316283 -0.6471153006724519 -0.946574080095295 0.832767869441115 -0.5410317970843131 0.9934540033765529 -0.7132979517677918 -0.7527329977911063 -0.815748289421353 -0.651458608561863 0.17561942812024806 -0.8265391018708058 -0.40471914754678046 -0.4277404981850952 0.43115286572308004 -0.9451714724647656 0.06925279272493708 0.3597888707100263 -0.48219370172001796 0.607537793798525 -0.1865787921428667 0.31619885943449433 -0.32675172414386866 -0.5325166836537584 -0.6538870389219881 -0.026516614733944698 0.04621610053368884 -0.18179160146724518 -0.6693630028570551 0.3064652529706565 -0.4798741823692964 -0.7447801868441934 -0.7370082493749736 0.7171091651075876 0.5499675174363385 0.321905199515955 -0.6436602475328528 0.4095917640489405 0.6806328523974017 0.7209349854817358 -0.6615372129608255 -0.6675903538752663 0.9357410552839251 0.7271104288870309 0.9048510433287305 0.7759773983155339 0.25444093519060046 -0.9973853460928426 -0.715072937752859 -0.5524420522497736 0.6846086709339199 0.023325653419688328 -0.8519063924316047 0.5296515393070722 0.39750112971944807 0.09563267959329291 -0.8520636492530052 0.7981254533607289 -0.7122187891112436 0.43363826694641994 0.8269164811936239 0.8963381432790992 -0.44880657360900755 -0.3999070798065412 0.15401899401001787 0.0031068125598624832 0.4107790664477009 -0.5406219803518783 -0.6627955377063 -0.20770778924359845 -0.08658014247523005 -0.2937135268020968 -0.530780310081198 0.9130564621461661 -0.12757647781997436 -0.13482728418766976 -0.12822767789016465 0.21077154136377496 -0.9525120327532881 0.22730007144270137 -0.6889492357455904 0.013767636368624452 -0.22107486408748847 0.12952797307694822 -0.39753961969799323 0.6120757578634212 0.9386747821548803 0.20554220791429975 0.24572107175794367 -0.7758145125827296 0.6021483261449153 0.20653199120550203 0.8613654444524328 -0.5805627248282863 0.3940462046434197 -0.3081436518684376 -0.09692579014453091 0.3741043721023695 -0.47528686976534096 -0.810818655225491 -0.7832659375938623 -0.4790996764352191 0.2749778466307017 -0.7185183684257882 0.9696490460170476 0.14577783705990766 -0.2654652348972379 -0.5310859685297926 0.7190315193710667 0.9390221919966144 0.5646770475812094 -0.32956662258693786 0.389993781016772 0.6153894067928357 -0.4073582882405847 -0.21001450430208843 -0.3837244858962189 0.8312609868772523 0.06680255936080108 0.8733949785511707 -0.412140165046424 0.8233589067865573 -0.699359950859775 0.12307423139224907 0.7118335562927622 0.09249463809412446 -0.18312228528268748 0.06895621585767321 0.277679279004188 -0.6590944450430793 -0.8099456199889908 0.22008274153824875 -0.9698943538559228 0.33338913005138315 0.2827756947840585 -0.6304814244493191 -0.9020662775222795 0.7195588525414224 0.5707015409286438 0.257302536408988 0.061030880606487516 0.5623480522813221 -0.55091365331685 -0.9920381523375722 0.9682408195375948 -0.8116080111580036 -0.933185509185778 0.05272686279662092 0.5931582610442483 0.21117828568761363 -0.8070620482381007 0.8413562608847659 -0.06365876964575927 -0.264973332769442 -0.9612404660680696 -0.042509217866079675 0.47848185348163313 0.19397156934910745 0.12689889865918857 0.0052801826288908955 0.7710862724722185 0.07258972932384689 -0.837082909480473 0.4753799367368115 0.001505858011797432 0.1460755696134232 0.7886197764152698 -0.07242991748139532 0.8974268255648562 0.5415429998275375 -0.6394023240835521 -0.8722162768433862 -0.6082233011466096 -0.5201412720748377 -0.9828110386292223 -0.9280009609131327 -0.2085765153195333 0.48499840142528905 -0.9718527988648242 -0.11274765009303529 -0.4219658948171367 -0.8291792899583862 -0.5697704131232075 -0.7180451644405983 0.06366440306785555 -0.7563773780543972 -0.7890614668740359 -0.8322505937828689 0.9914866662929657 0.7019286087883081 0.6696779668999249 -0.6884766053603958 0.9238213136331627 -0.1859684528011647 -0.021760409804497265 -0.33997943830549227 0.9605573613229376 0.7004592935268515 -0.8453297008028324 0.7696151802297759 -0.6568390689258656 0.7495647613216876 -0.4509661089312567 0.2659666152424096 -1.0033458110102387 -0.8223708576058582 0.25406646954196277 0.6651342380464159 -0.6231867721018616 -0.5223620988347153 0.4385119119386914 -0.49471988861086946 -0.23809764294785227 0.9796492004244045 -0.16189725652642853 0.1603076352227903 -0.5885868705172234 0.32454524797393797 0.008669163535080626 -0.974719689474873 -0.05652079274198756 -0.4202879780531958 -0.30933726113830284 0.5202553076398915 -0.8110727231812999 0.09510195951676244 -0.06832208426080387 -0.7494407408589504 0.4771798211944112 -0.3013972117458703 -0.12390680154062554 -0.2843390244399922 -0.10915844644682851 0.35746505449200366 -0.6168731418088154 -0.9221508502497772 0.6205584617948487 0.46274575732507756 -0.28980102090891624 0.5674178336918833 -0.2616227556341587 0.9611006850817453 -0.06791048726282654 -0.629242976198654 -0.14695100930630264 -0.07161689549208264 -0.07086271221320639 -0.11440735703467275 0.3841245902975795 0.9187447661327282 -0.11750231031215713 -0.33941452871045147 0.23638643842528426 0.012262413760576674 0.42339781998149445 0.7383413544522512 0.5835003365648386 0.14489895779478498 -0.24327192393051247 -0.43269569183515544 0.10641624261899627 -0.13143369432956725 0.0011202184336021547 -0.9750981609478089 -0.38766554098417877 -0.5340075928018675 -0.8988548250471132 -0.38233604838683666 -0.1046380824000444 -0.25509001798546793 -0.04737519171544657 0.20985386646446968 -0.10062492807072286 -0.7467471960057459 0.27816633427326454 -0.06147981992407203 -0.23238010332242584 0.36557415452334074 -0.9305761981846361 -0.6661404957992486 0.22067178561364117 0.7461515008886032 0.9101298017948655 -0.3537980256276038 -0.062184953656490426 -0.2915008350821638 -0.9929608669109216 -0.3538616560650002 -0.24232341214326733 0.07653955899720045 -0.21486260723527903 -0.8109445151145244 -0.690347603560383 -0.7597670324853494 0.4024777590018614 -0.06194588052722988 0.8786783769306242 0.3490313562167521 0.17646996357539416 0.9594983530015371 0.6065298145230802 -0.9425663678822065 -0.30192786296024665 0.3527268249369271 0.2693468116400195 0.6442477501673298 -0.030000436075981057 -0.8572319562699744 0.34592536744121954 0.001138815046142621 0.8036497357393453 -0.27224488206557546 0.913691448739342 0.8094337056337435 0.5963140828744838 0.08591974960522716 0.1715786498074471 0.7404091640447247 -0.7479080898568784 0.5180477019126265 -0.7357224450854588 0.9252489782941908 -0.46918607342196134 0.9821089135998862 0.5275421044706692 -0.7877246114200842 0.0032975031768967527 0.2192698374972591 0.8882752058597577 0.11882101714862503 -0.8233275913606211 0.3897294823791586 -0.1835618311726352 -0.8046290283263166 -0.9090337194590334 -0.6911960618679533 0.01737524363628889 0.15563720371140882 -0.45772730955996416 0.29584778141668955 -0.7998595378870937 -0.4154553547921357 0.4577757771531152 -0.5275135615970437 0.3730520331750919 -0.05412539814797083 -0.10977699655062403 -0.6719290841218082 -0.9564922311115086 -0.2056988835809573 -0.6685983927810991 0.05790927562818722 -0.719780835706306 -0.03620059457333419 0.6228237721892365 0.42292498416633667 0.6389218892124483 0.903065963463519 -0.6129533926593971 0.3373648233179132 -0.9662045571012975 0.8458441597878755 0.024994118068214968 -0.7444305267548919 -0.036357533270845434 -0.3188927242354221 -0.39826937544938756 -0.6696952732660477 0.4787287882698823 0.46798352892616324 -0.09505854570097862 -0.10903465960965227 0.610313008843221 -0.34008004765622757 -0.49533886798609744 -0.384065142062157 -0.5780116846587141 0.30612264619031415 -0.45680144349762586 0.8493772062068555 0.39339890004060984 -0.7828131004739723 -0.08501447340771173 0.9273982400833649 0.9716217578704043 -0.538280369374946 0.07711658732213023 -0.24056619204453544 0.5696166571568246 0.6134868242257835 -0.6897276820269148 0.10769401069674153 0.9516978755808714 -0.6439924577358164 -0.3740670603141699 -0.17683754671652746 0.514761136625564 -0.745808562804366 0.7945937313301185 0.6658725568458412 -0.9338589648630108 0.1210408742796895 0.5423410335501853 0.4089683159062063 0.956722571768636 0.9396595573975676 0.6290765012265931 0.017508071246209768 -0.9756182334338316 -0.7826134141744856 0.5859660901256163 0.7184161487552538 -0.6989546313492794 -0.7538314653809837 0.9319528168054538 0.04004992707541555 0.2520053875744006 -0.986152195254594 -0.2547630141915839 0.8218327138027013 -0.33679475819534815 -0.12812282198994007 -0.760757455880973 -0.6031610664843936 -0.31294776346843145 0.8606401454559713 0.3834243122423201 0.8911066887668474 0.39579687552543635 -0.8825398824451058 0.2918497586584748 -0.44018714437890016 -0.22990153714206743 -0.5993483699666596 -0.0023182192133735006 -0.23134509556029545 0.48185594388993047 0.8780711473713232 0.03299833652447126 0.7330552343107504 -0.6825858492309209 0.455479767971422 0.19035539245403488 -0.5493194848425744 -0.23367659292596787 -0.14393420477232044 -0.5377213874399671 -0.5236457104065138 -0.761680651214922 0.599434039676724 -0.7633577168739253 -0.3305449030804729 -0.0224307652260562 -0.6143181460519431 -0.9760138885336438 -0.6268586966282451 -0.6049807758004851 -0.774144452732972 0.7902218187423403 -0.07589726603233285 -0.9605707031335435 -0.6615053420497723 -0.8779653711573641 -0.16564098538634 0.5932315786319172 -0.5458846104175654 0.3268666336589987 0.0657840591460197 0.4950831839576266 -0.2076014160501054,-0.916359789942057 -0.005640053208601614 0.05470708963039228 -0.4018395257679217 0.1551299914575377 0.16613334153416726 0.6994302881696512 0.9770656225011185 0.8842696211185139 -0.14919537748270661 -0.8412019448013657 -0.676102961659885 -0.536345033557762 -0.33252750752610905 -0.32635238816501055 0.8942513873817632 0.9113107739647937 -0.608322344445116 0.04880521440329888 0.40385058101330173 0.6335660125614666 -0.48882217077038326 0.812334705586935 -0.3017692867502426 0.6614835326145041 -0.8547863697059603 -0.7383482558709844 0.36277002357143573 0.24610188200087557 -0.1333799251857426 -0.5421515509960055 0.40714599541776564 -0.7497663846736486 -0.27294537731062074 0.20255873587405462 0.13948248629928586 -0.031443605275309185 0.4136706533372739 0.20887035378747407 -0.22141596750353187 0.17216352960761988 -0.9080094996497304 -0.28693869652882453 -0.13476903200543727 -0.7622626783860976 -0.8225950249340461 0.7749110373231908 -0.6825191849849666 -0.7356814928828118 -0.3523592109632463 -0.42151678400362413 -0.33956668410886026 -0.20818398084043466 0.629933412060292 -0.07414371618961968 -0.0987625702561048 0.8106067006213213 0.989782979819128 -0.8446964727157582 -0.068390643279308 -0.7313044936138261 0.176500453387646 -0.04790218528921233 -0.024953721343408862 0.6699006210033068 0.030412258888150613 -0.7074229091221804 -0.5848454133392116 0.733432215619864 -0.3376864158536577 -0.9923746814206024 0.14641506823585868 -0.7779885180335965 0.5983610000459251 -0.8995000028487504 0.6210894987502835 0.9098486957814658 -0.6205847063318046 0.08070589821643119 -0.5624854874143375 0.09203921600976576 0.8209426052391022 -0.4613456373477627 -0.028753293690533477 -0.1905537373766959 0.984007361659913 0.9323500013774098 -0.19843848927566832 -0.30799655882839466 -0.6883536909819394 0.7520904170829608 0.35587248595821014 -0.5812901075264234 0.5068993146097811 0.2593433927510379 -0.5434488162151971 -0.6755508113004749 -0.5574559573203568 -0.44144023959015943 0.2718525198907648 -0.24230112396962922 0.39765740282332435 -0.29074689504672235 -0.9804757152810898 0.18430664262395408 0.08944031437689157 -0.029286188224695385 -0.33625688351965694 -0.4489389343366493 0.6750760767809687 0.37412291665892927 -0.3887669861393792 0.5112405328881766 0.9358406928416143 -0.47227234108828214 -0.9233879826215041 0.5612661459691791 -0.905135981778261 -0.9209345571672416 -0.24802557197621664 -0.16015761419413638 -0.03197635033860984 0.9464822269023851 -0.8556111406877974 -0.5690936577504567 0.12110620647748202 0.6671118735275964 0.26588514970678745 -0.8155063543983545 0.18344057307683936 0.3341305197997948 -0.5821436598843162 -0.016754780045184936 0.6536961594743784 -0.41734570219006883 0.8531362070282964 -0.8067101119421366 -0.3320658588077157 -0.8323763171726242 0.30350505373049463 -0.8809446611679592 0.9709507520516889 -0.04207979801349891 0.45901358292898126 -0.6117528483136596 -0.6316535112620965 0.38678715762949994 0.8595656119478907 -0.7385765154499263 -0.3575511895815847 -0.06323515040924822 -0.6245500142321189 0.6146161547925822 0.8138001861416034 0.24305572435586195 0.26363957638062274 0.8596983668828345 0.5933184606522998 -0.40883927393012404 0.12498302487763752 -0.23954325639874552 -0.6064070037871209 0.27158063189787185 -0.2609061152852205 0.9944983015431992 -0.467042525859245 -0.9783618231267027 0.527780594771156 -0.0963972437788001 -0.9969821910217708 0.6140538809560712 -0.14471005892639105 -0.14133256673597416 0.31784699962741925 0.7838816644247747 0.9638270080068306 -0.39952535643919 -0.487949495152986 -0.8615995068855712 -0.6148508215403581 -0.4687952883828832 0.9067591322319724 0.22076261221067106 0.5841712297852342 -0.4908642349189278 0.7020281799338954 -0.6174635713395199 0.6070156973962856 -0.5714597356447833 -0.4537393247387232 -0.4330420095321423 0.25969588967951035 -0.9949632367835279 -0.15272015772553063 -0.7200320680473387 0.48115018638040036 0.43659593722821066 0.702649403919911 -0.5643254483433323 0.8653042323585102 -0.9778234351565446 0.5526171851013195 0.057379507980620914 0.25495345644907264 -0.10189753293676626 -0.9109079552551985 0.07387405951532516 0.8926508437317386 0.6607614205083088 0.6313046463863335 -0.875590774468975 -0.7221144786337442 0.4879536052052662 0.008518274645322236 -0.5600595110183972 0.3746702132437894 0.9616363343600275 0.4813458557313513 -0.40857206493505244 -0.5224164421907759 0.4633670765949723 0.1026166430832476 0.6040927463322703 -0.9955239695475169 -0.47083220909983553 -0.26533208030984184 0.05742112626685027 0.7067770619329281 0.04389181315498815 0.8564299969828263 0.08760513862560983 -0.3686290796688046 -0.8820749695080122 0.36597843042768924 0.4716133425964767 0.7307687854733257 0.7617366231958653 -0.21038227190398548 0.09294195036509896 0.653289064095546 0.431093591560852 -0.9924589252207606 -0.563254363353828 0.8547701953767359 -0.9080944380518418 -0.9434082883821551 0.17541714146368131 0.3833450655729753 -0.932285099078727 -0.8561077264117275 0.9196848583187099 -0.5866585169177841 -0.18780254802474539 -0.04971505826625764 -0.9498641938505155 0.7449846300692302 -0.9743980084755082 0.3650414361323559 -0.15815854675827623 0.1297300501167299 0.22934299536758937 0.08408317057677693 -0.48735748078798014 -0.3605311659530368 -0.8371553197113307 -0.6085149589618556 0.1711801912867806 0.013978370056891346 -0.36559702087766105 0.3570937661713226 0.08293821948879139 -0.8135275197503566 0.8094667066593821 0.6059510114908678 0.6381658130220061 -0.05682464180029097 0.2564466553475932 0.8234909213877473 -0.6623210008574036 -0.25030033779836103 -0.5531330356140665 -0.26043194700043826 -0.00804855977727053 0.08104900143994766 0.5565892699330912 -0.4160018493861805 -0.8286167293037746 0.09659848774911553 -0.930583838328572 0.6762710732907486 0.20569350830128627 -0.4915733128428025 -0.3967686134079534 -0.5720069613552557 0.4825164454718509 0.5957149899090144 -0.6468747848460014 0.31474662098639655 0.28082570841694243 -0.2958164622320626 -0.7680917623446737 -0.3947693140775966 0.0581459492875441 0.8054573352939958 -0.4542827664229332 -0.5954404909872058 0.6877733335945371 0.9038466929865779 -0.10480064629995314 -0.8239470363559699 0.6464058821746209 -0.9612199865388045 0.541314198121728 0.613914122578333 0.3738793837059786 -0.09086643659292937 0.5977919464704671 0.23256351663829533 0.6121254431302801 -0.027297250454421954 0.7666481472643235 0.06991060593390362 -0.8383952794331283 0.06466039369093053 0.014690756894608255 0.9765349675904919 0.5609654274753243 -0.7282881187853 0.2581295139143898 0.7693052287847257 -0.40664476789989384 -0.05076930700939465 0.5150474010736633 -0.39759242160172675 -0.7991624909779071 -0.563506143913736 -0.8467776285115647 -0.4156305824027655 -0.7449976654047976 -0.018558955512697265 -0.14132492076865935 0.7488200773729216 -0.11786136686583433 -0.14417836051081043 0.4666351265382182 -0.6824395689473266 -0.8469211860647011 -0.023248131775866744 0.23704078457023137 -0.5034911712272633 0.08432760319806246 -0.19651120970249836 0.7999213813341588 -0.39389560073441693 0.08447340731847065 -0.34307329580833545 -0.396419861426545 -0.15940344977282786 -0.5567543752856845 0.954347483634701 0.41432756933202713 -0.8500511668987332 0.8953071275043585 -0.5318697456385023 -0.7152704731825832 0.68476006739067 -0.20665706573642023 0.2897710979052693 0.5677462813422688 -0.9259474016029333 -0.9637071001843308 0.6516805988266242 0.040704668316920815 0.16385264072569386 0.41212306405164684 0.43654800171284625 -0.2952886476024336 0.06733230199979368 0.5229984525524725 0.22638078772671646 -0.026508857510384426 -0.4766912155874382 -0.06019769295456711 -0.13410667223083406 -0.3223455380415241 -0.4577507201539612 0.9932976321510186 0.6420451699379345 0.21057810276835381 -0.6023943350830802 -0.14636383157802865 -0.7948075041248681 0.8178645470568442 -0.3118262422159968 0.7326250893423355 -0.7827344936676955 0.1230722270135789 0.8301375341032986 -0.5907897813389443 0.2132659434259818 -0.8357678054611555 0.6241361983065836 -0.8617866667966898 -0.9150889760929649 -0.2541131740790775 -0.23423049439390525 -0.8043153249625695 0.9454596325344735 0.3595771942007188 -0.09322158433721123 0.26141159879371545 -0.1546818492794891 0.17731875791765456 -0.2825375816843621 0.4754049127216897 -0.9633077372430376 -0.6565207133326101 -0.3887425004895828 0.6677559765567922 -0.8179653058814693 0.7676208439582172 0.9861776362286423 0.8462052951153926 -0.9158898642631518 -0.3612737675651857 -0.3062132632057841 -0.7909177134963287 0.9846099907963963 0.5017651781677805 0.35761980740229377 -0.35822382993572016 0.19911179370178517 -0.6601606901204934 -0.16034574779024124 -0.07020542451062033 0.9558052243971753 0.9647008085160043 0.6102082868711607 0.8185112413863044 -0.9913652234277897 -0.6680331013441291 -0.6786857255378739 -0.03423957400478033 -0.14408617751532393 0.07201999572618233 0.36614943719800075 -0.39629840829893503 0.4335667752385459 0.08836898274067251 0.9591433178556943 0.32569599781081404 0.9688818536816445 0.6787554941907686 0.4265940116347212 0.7266619467575609 0.49275215804763034 -0.21021364825002925 -0.6508440578868264 -0.8440565567604316 0.275609603416338 0.7616340973956566 -0.5670654839890361 -0.1234480655895269 0.32708076160134675 -0.1478028619374341 0.7424704690228592 -0.7966891323649372 -0.7694842435209618 -0.8979353368057427 0.17276133870528096 -0.6104414614379541 0.7664918068396502 -0.16717322246321473 0.45139694665042435 0.2317667531525983 -0.7580619149859655 0.2423012734671206 0.48356241390853544 -0.8560497406463817 0.3827307168411882 0.5926896066087172 -0.45704776610267256 0.538915524262338 0.6595320883190751 -0.6085296206291536 0.8735063604275518 0.6656940235809798 0.16253336073612165 -0.001688584768460199 -0.4190964201513908 0.3934457865380106 0.23893712295928443 -0.12309898206618451 0.7524916799626507 0.9419509258229222 -0.5749230592133533 0.599548924810956 -0.938540148706253 0.39377602691807384 0.07044233633360025 -0.2248052842810696 0.9724327239654915 0.1530876491689472 -0.8519723979528551 -0.5133796737385656 -0.6305809749388768 -0.2713145701318374 -0.5609361123358464 -0.798193346428771 0.5859903928500649 -0.4803291247105895 -0.11699985374130872 0.3167979742976256 0.7052955627797813 0.11718224772781075 0.2355453402191147 0.8455741092216513 -0.4337532477077332 -0.23356384611600856 -0.34679586352816244 0.20126874658401722 0.5913462943486627 0.45700523777816676 -0.5034220249448395 -0.11705979748698468 0.6687320240878977 0.7134481918360036 0.3415608695922461 -0.4733446093497347 0.849435738615182 -0.41195397454799904 -0.9480728011292048 -0.6524716175272085 0.4665793063562527 -0.29675445652189836 0.6900054297155421 -0.6436794398853819 0.6801268580578173 0.9756566389820819 0.9831153028280173 0.6969594836950391 -0.909058193358833 0.19635519148118502 0.8515607857578654 0.05070360037463179 0.09548878230802123 0.4459646232335948 -0.9947120637467303 0.3511581428603656 -0.7628967449360022 -0.7250271519241693 -0.1688385508610034 -0.6040420191092384 0.28774851758006087 -0.508820206074905 0.30810602320826985 -0.8395155699130593 -0.8414442093517203 0.8542234946649137 0.9219236663189498 -0.6482790695054228 0.9935471233133932 -0.03967460381941718 -0.14938616695558438 -0.515237069161447 0.8130093733112715 0.4697486325459333 -0.10173198249787682 0.7427778649361151 0.5261439411181345 0.793580221042589 -0.19445639355568076 0.4614576433607754 -0.7730826692537109 0.08316040232784294 0.8374420016829336 -0.14746543791763167 -0.2508339791958203 -0.31430463628241484 0.05970982975407537 -0.6956085403041319 0.03628366761081998 0.23960383752126527 -0.6587120180887784 0.8806686490159672 0.3660688179990784 0.45860448270234005 -0.9709725766766109 -0.5516144718092397 -0.34144292428800394 0.5768257956458003 -0.10848128793139977 -0.3802666020047047 0.6735888950474617 0.7827757084533609 0.937557310376861 0.44149301071815866 0.8677827624821924 0.7615130644272813 0.425630784710675 0.4909018944304678 -0.42397366026058325 -0.7900391920785007 0.6134360596303301 0.29732027106937226 0.6820521287146311 0.8368304419623459 0.7893170366597241 -0.9522818749965308 -0.27207219162836077 0.22370650696817604 0.31396945629468886 -0.02625970716599186 0.058863643654587676 0.9359314838503051 -0.988538082427856 -0.1658532198859619 -0.9371437059572556 -0.48713717145165014 0.17576775561190547 -0.11884371022806262 0.45269463563854917 -0.5835643712866211 -0.8378722430150644 0.6976899780394334 0.0254139635053598 -0.4689326515806173 -0.6646066736063355 0.8976898826648045 0.3231968564360753 0.2249737068417774 0.466832026420586 0.8947761339392409 0.7911060769584568 0.9288731962248515 0.08036507835231248 0.17185810580180388 -0.6680907880774428 -0.2977852899597178 -0.5632898156179335 0.477043868555522 -0.7606499144775851 0.9245848311311932 0.7007982698403581 0.9350670492211899 0.832889713676225 -0.22047673492919787 -0.8564747961357297 0.4595169201115127 0.053333902390431884 -0.3596906263568438 0.24434207128127342 0.767307685878979 -0.6227977847896763 0.05136771003110308 0.7918906700276603 -0.41664765249590296 0.3776097500366464 0.2503514474475848 -0.18369476191506506 -0.3907096231161063 0.12187724388108408 0.20764293013305585 -0.025683213692696057 0.20884865466458005 -0.9517523776509053 0.29055445135148056 -0.7313758575656965 -0.18708452132040806 0.3518220298386986 -0.6299278612586128 0.11622971308685548 -0.07940063038862033 0.2270211023935509 -0.8065611789447111 -0.3182508459527674 -0.8863397843277492 -0.8255961989619702 -0.3752831679162374 -0.8000160900253444 0.8977435515115773 -0.9684865087427376 0.631845979662971 -0.9300308205515009 -0.5603034551932026 0.9804322590434641 0.5639209288689402 -0.08053530986528983 -0.23374542643285087 -0.8990508678679936 -0.2229256814952767 0.26172870388595715 0.3609624122031093 -0.804331562945597 -0.7404567645285053 0.13057646258173247 0.8765448714602081 0.13492686924588965 0.7559290801061289 0.46884242475443694 -0.11206162308592837 0.9621301137040801 -0.5888961742209318 0.02619990769822092 0.1730956587092777 -0.9378917173623634 -0.9791186371283324 0.028574734810480378 -0.5343077390519602 0.4709909142217696 -0.3038395955477519 -0.26813508006986936 -0.027989721849682948 -0.7986968941117942 0.6196849276610349 0.3064587408504033 0.6498642940877423 -0.6502801397628936 0.1436350959006333 -0.974489932453207 -0.08820506572608379 0.451599619234566 0.8450545789072459 0.6756275757756377 -0.2610868159382612 0.4895446302350297 0.4407391894711481 -0.39067362044022236 -0.3189693570146894 -0.7881676415363408 0.9610219596270415 0.13865867705192203 -0.4572771907545705 -0.42774753246147373 -0.21660308400861975 0.5283079381967027 0.9094990805627539 -0.2943259307316881 0.8885602242615095 0.8049086940153264 -0.9369727702196552 -0.47922359201374376 0.3352637802535511 0.8087577826430958 0.36202651490199944 -0.5888843821451206 -0.8080468654338292 0.49797134764791645 -0.22988665794460228 -0.06382310296225038 -0.023979699905644213 -0.1773724344409053 -0.9803010609207592 0.15508983563383283 0.6707432079201658 -0.24727912668416474 0.5558846819507481 -0.27324198987548165 -0.7170007059060717 -0.5110859165088597 0.2718276197653924 0.20060780361830988 -0.29661295832786927 -0.4760591596264023 -0.2941441103218107 0.1383199557340723 0.2981294079199318 0.9652805765268946 0.21532426167464602 -0.520605830776858 0.36790507940787226 -0.45036325241526165 0.46120250653028383 0.6413871299966223 -0.7681308743229354 -0.6081123986074921 0.01229980788932641 -0.2367118899387501 -0.16538910752773567 0.5902571162300498 0.7705626385702733 -0.03850764607867707 0.6039971901646504 -0.9320266767306162,0.251891080550936 0.2654834032100901 -0.07183777335213315 0.1817168691107247 -0.7002331540882814 0.03579358147581835 0.21425778584847643 -0.622681643993148 -0.5390265542253381 -0.3313438151237649 0.8879662624524738 -0.8560932510002175 0.9166629380793226 -0.5546885472620908 0.8789184077729004 0.4420655689070567 -0.8811623119195553 -0.9820283581514444 0.9728585299197214 0.3873377704177223 -0.80282589805388 -0.11134500111662327 -0.5387261106722543 -0.10570907559849219 -0.8447709629550144 -0.7300049241715993 0.09923700120603285 -0.19749034431208057 0.9858867360010206 0.021708140201829318 0.38322362055728076 -0.058592503384505834 0.037024309845693715 -0.5612928950095393 -0.46356821172375257 -0.020227161004949677 -0.1954453170727212 0.7424378129865166 -0.8898207383365193 0.29806856583845187 -0.818294776310191 -0.038995066912290204 -0.029237395839357482 0.2875240287810002 -0.14082953021688918 -0.4749638728055086 -0.5205574217511402 0.11618168143693491 0.8202769124691137 0.33558179433905866 0.7568456440044555 -0.32527393211579314 0.24171774132447688 -0.2906441446346151 -0.5774063649488803 -0.5754156042021359 -0.0435559791636011 -0.9578083456002624 -0.37526682451197924 0.06814249825288687 0.35875656093449676 0.6999424616163391 -0.23681864213781026 -0.07022514489174587 0.00019396280730997104 0.7660835481140926 -0.7952514132054899 0.07524149123551446 0.7083166465068839 0.41185151186258084 -0.9453683468879167 -0.6380486161427787 0.9225411745665523 -0.8336799899677332 -0.7611233365614386 -0.3478096220918038 0.4947111657064809 -0.5147551891170496 0.7325890433251028 0.47160993499300724 -0.2515194476429694 -0.789528172935887 0.002215667174222835 -0.002901216533009343 0.04577944433951453 -0.789558685271933 -0.03198093448988737 0.4738620179516304 0.007893333437176995 0.40385235824772975 0.08319778858710002 0.24156186767858637 -0.9889483923491309 0.6837874192710888 -0.2613595402591639 -0.4655723692190566 -0.8962685155309964 0.6566927694482743 0.5002616510464704 0.2603044501201804 -0.830719441900917 0.8678912750489403 0.7615484055144367 -0.7891158996968672 -0.005304078766278261 -0.8900614164750567 0.7306889087437116 -0.6296587655430493 -0.5162500692177651 -0.2704066571552043 -0.20619287335557557 -0.6131106639726533 -0.9682011595819884 -0.6902427093868966 -0.9716136763801604 0.5058585451874649 -0.3747403899425801 -0.5769990889933568 0.1931275173582333 -0.1277254460561742 0.5377341434164996 0.5362643351234104 0.8931244822747713 -0.3869225283546852 0.7836758063988372 -0.3802967309720279 0.14635633493898179 0.41864580914204225 0.5511434931088925 -0.14555770824485725 0.3638011211649975 -0.23328585797173118 -0.9972300427327374 0.4042526026197728 -0.5406310063106993 0.32961350039891885 -0.40810077874769374 -0.40198701404175863 -0.6027523272894293 -0.0338882819732893 -0.12076821785477176 -0.7588592011016264 0.28069388899141107 0.6901609763200364 0.6996996679287095 -0.3739403857854143 -0.30426728801175407 0.9761731054674471 -0.027672290983670588 0.14007135766241055 -0.7145842236497854 0.5905511484474593 -0.9566459992259805 -0.5142419535014253 0.7649117205466521 0.4260246740463284 -0.71547629150338 0.5427568729349654 -0.051104030137848006 -0.3559858599561076 -0.9566676453921136 0.40254090670307635 0.8124473703539458 0.7772634023749403 0.21021915494479226 -0.6527884991458677 -0.9251828334029841 -0.25285233797995976 0.08975099202037007 -0.6696707190825918 0.2876612574603501 -0.5162683233343746 0.5849383609461724 0.9686182771583327 0.6029192416763919 -0.1254770574697678 0.9850573102928288 0.15225808606839838 -0.9647679480780479 -0.7920687472685737 0.8112729600298274 -0.5888137069816382 -0.7345534740478364 -0.24365834921638094 -0.46798859275468124 0.8202050236166321 -0.2248339860575674 -0.17956779143968535 0.1669454449842917 -0.6224992935548613 0.9080528195543481 -0.8587143387011896 -0.8793006252867117 -0.2861102152210362 0.3193432654015137 -0.30413968864547 -0.25532184824534854 -0.8651194093181167 -0.07472230294535497 0.6884494043202107 -0.3365786844810391 -0.7366443482090422 -0.05658031460036875 -0.1778643774065176 0.8104894423989506 -0.22786331594524514 -0.3855062048653679 -0.5859641636578984 -0.2598070043721112 -0.734894598058846 -0.03783549147961857 0.30270088372959075 0.1331308459840832 0.6911579701469591 -0.9526166026930908 0.3587438617386568 0.05127494188382448 -0.17466109155176024 -0.7763505444521134 0.6085847093871835 -0.15273187652962603 -0.3603286741326282 0.753339415808719 -0.17485792399947545 -0.7313104722963019 -0.28941354866348257 0.5459986701574021 -0.4741755127127243 0.27771637416079853 -0.4776105989198481 0.8314067278839873 -0.60401716643317 -0.9102564044553844 0.9587874920679652 0.8397946363594939 -0.7931350932614407 0.748932832483542 -0.8628001944947431 0.37511573595815206 0.971825638600323 0.16140284288625195 0.05095173956139955 -0.9947378631381556 0.7145991596808466 0.24660400009105243 -0.33998094519920985 0.20563117231481678 0.7165818437905425 -0.464606146349106 -0.9191796910264869 -0.8602547974127318 0.8787108880067157 0.04885282346292308 -0.9364795902982191 -0.48047098787751924 0.5193378193861063 0.8053003950500536 0.225975395692475 -0.2668303764219269 -0.1849619758964082 -0.25555309916544633 0.21504926670105481 0.016470057685459456 0.91925494084075 0.5981555277809714 0.247055310284053 0.18510392863751493 0.5437025596366205 0.42387675939465785 -0.2095280952957654 -0.9978860680592612 0.7493571238078303 0.006094496669038691 0.053005713382366496 -0.3333687012286785 -0.8930435742852383 -0.8373880861585549 -0.6310004021461082 0.8264923598513626 0.3271637991913301 0.8668423118880239 -0.027533616633324792 0.21185711913433805 -0.7716088733018928 0.7535037853900436 -0.33336624468630666 0.6221486276527133 0.10046128076744255 0.44619297277210224 -0.780127161882071 -0.6884479004309868 0.2508913045900513 0.973207016202034 -0.49115613729131524 0.6748970168435221 0.21589811470325218 0.8006217828071073 0.9619126809182211 0.9565761064725068 0.5660712192218658 -0.38893700600520037 0.9329462722818506 0.5954783358264885 0.6567678483732514 -0.09246858297074562 0.42655201486537514 0.5382438546304252 -0.7074872998236647 -0.4878564221896416 -0.7555222382307534 -0.9880099619912297 -0.6275604446124902 0.7801975557026126 0.5200775739276414 -0.3319671886508516 -0.6215792302891204 0.9658856617058156 0.5586393114141767 -0.7942030003513051 0.49035638548837146 0.026793580990774297 0.2920834925313166 0.46930209194172995 0.40516055266365997 -0.2639037983192575 0.966134796969384 0.09235928906515316 0.795237278348313 0.1839731894930745 0.044723119368611404 -0.8000551972149897 0.21908237569103825 0.14591821064025276 0.8575127264480593 0.3752426937410102 -0.8901933865788934 0.8787151984440313 -0.42480769809675295 0.39570722959578225 -0.25219375628988344 0.9243978457252263 0.5252743951548665 0.8789482164764878 -0.6260052605325017 0.4786820202135311 -0.8658819137268848 0.8016124931205425 0.6269236887730072 -0.8064594304453677 -0.2784858498090544 -0.5964330591239457 -0.2207328189435394 0.7414976273426594 -0.6722714868631983 0.727261684810724 0.7457707836076671 0.6713122439047607 0.8744906712854039 -0.6023578596807578 -0.7016108180596858 0.3692479317884545 0.7602606355700069 0.16611606608773524 0.712487143247737 -0.4749219580138633 0.476861792176913 0.5817459788947545 0.8221079529173577 -0.49531350802934626 0.727136975384081 0.39149465437428166 -0.317105611861289 0.39845553256485045 -0.12005538811054986 -0.3437409518884477 -0.8641345237677439 -0.9382917345540391 -0.7535966023801381 0.37300633377976194 -0.6801058296990224 0.2676968160421634 0.38673972901187653 -0.77944861520674 0.03281437020270177 -0.9379505698594646 -0.10159864379293083 -0.07256793117734378 -0.1547184280037117 -0.5120807058610976 0.6271420762862314 -0.8424916564885581 0.7531105761704397 0.25546437284981516 0.6967604167207261 -0.7825884699764687 0.6689283466601613 -0.1452459499193543 0.8249003178990622 -0.6537100125812653 -0.04114076952016253 0.40881525968871296 -0.8107538190634072 -0.8731837949201067 0.6046235418727095 -0.2663829869668195 0.3876729722730379 -0.24168692134233657 -0.7696955811027962 0.5210309962773284 -0.3343686101129462 -0.48738385530340916 -0.5491345329827406 -0.2511075428627221 0.9573955282919796 0.4939817851666244 0.4601746891926603 -0.6254810483552792 0.7257452171674321 0.09306493120605609 -0.04853431359083382 0.28109334930704777 0.28286814884631717 0.6434710551008875 0.5989600083379378 -0.7240380472481434 -0.7793556694763843 0.7515054202140363 0.7320402896279181 0.11051985398366963 -0.4086108565107909 -0.03725568819445275 0.6483634218378678 -0.23884355494036794 -0.6003189368975365 -0.3719039950537835 -0.9687176455013605 0.5065393856001238 0.6782491437289897 -0.019761924098579103 0.636538794035302 -0.6419337547361927 0.3688471297249222 -0.6521682895449498 0.22685905174424892 -0.057763330077272905 -0.2473337395506921 0.47394676080425263 -0.4992009985000663 -0.9680468216993633 0.02371758987314343 0.8398595255927228 -0.9594797644971088 0.28027915048260615 0.2043848643299628 0.9914906911221546 -0.8543096974645866 0.44911757635468424 0.7839318352893057 0.7559868084524756 -0.9532937084817684 -0.6258175894012352 0.5244110910056102 0.5861855821354671 -0.23041239901420685 0.44019491485764534 0.7453534940219829 0.6772438014752816 -0.586219339250584 -0.896325660952124 0.35622384761133913 0.7565528693437852 -0.7442700883433687 0.5696419898021049 -0.8518551223941927 0.8825862024040441 0.7358557007977671 -0.21722814381410327 0.7601934960091058 -0.22371709664762632 0.8031084987388724 0.1037526930450363 0.6602975014572734 0.6167144819259492 0.7252388167617034 0.6113539138943501 -0.8758329824008587 -0.8640335781158122 0.6247261544590438 -0.20180584692567002 -0.24551782082030543 -0.7442838821109108 -0.6596310643453984 -0.32124887433123145 -0.4891206144080136 0.2891475124177758 0.10378227966163918 -0.2139856486756659 0.25853384957172626 -0.9069626726635834 0.8705386492068251 -0.4746003872532106 0.9416155236543011 0.4781667983141619 -0.6731853070579981 0.8324372448829283 0.08666810558596401 0.13884742300052866 -0.5731923013170238 0.31328915552147424 0.45568958296231604 0.5729946965122744 0.8060117926338313 0.9242076922440656 0.8837113960327533 0.3802945613603822 -0.38554914521984796 0.3942844207474113 -0.08390142724413839 0.9207337822908442 0.559334869311652 0.6822026835317571 0.1933552814418219 0.6699759071135399 -0.020780232419117115 0.34492371031991875 -0.5400792549362052 -0.07073301967444597 -0.8223016955363646 0.5967761621186392 0.5127256713951552 0.6811544518728566 -0.15651631187512693 -0.7210408456246165 -0.620416157251712 0.6142156822303051 -0.9045072390228084 0.6565113573132477 -0.3298027368373027 -0.7439675944225483 0.14613110129887766 0.38441826271758983 -0.6694938279865089 0.27310172725508336 -0.9955646357671135 -0.20303110338318647 0.9955613569939834 0.6933353071903068 0.7420741064739989 0.2605850536322549 0.7148393305076088 -0.8577922883613632 0.8287398913008602 -0.016727902802582358 0.9512436342819274 0.1764300698067722 -0.6381963790933218 0.33221020461692236 0.5745819751147111 -0.5519748042268615 -0.7767653868389803 -0.45398506182188303 0.46029782187352936 0.44490275845613925 -0.6880934279710922 0.8256316570636298 -0.3791906752850753 -0.534319960438471 -0.6332957926510888 0.4301981796771403 -0.3503886618873693 0.47427579573228823 0.6993023875361978 -0.3925624084002241 -0.8473893407878792 -0.6292696991146375 0.8083585013178541 -0.039719848604067486 0.1605007875225194 -0.04050312353616778 -0.8509007015540394 0.8612765890975232 -0.4069679810007493 -0.3578511390855367 -0.2634145575930757 0.5424837591331859 -0.4679409063578993 -0.16361167654959952 -0.9389182662700422 0.22497087671138716 -0.8637446388668695 0.0035239251965718857 0.14002217755887778 -0.7817102746185296 -0.8178076388099718 -0.5486837627306822 -0.4716060109252633 -0.5081940679381984 -0.8623928103625974 0.3723831569300094 0.031322179090686075 -0.3299431887497114 0.5750893424108843 0.9070072544888718 -0.10536267731037542 0.5627968240569958 0.8844925628464448 0.46271827369260043 0.8822176922203193 -0.4016428710968975 -0.7820904221611542 -0.22699035883279253 -0.15380744458131113 -0.12547792825876705 -0.34506512617307017 0.7584894644974152 -0.47675038159052185 -0.052406459005009065 -0.5696720206270007 -0.7341076349237182 -0.0771069983754307 0.32166776374772615 0.2732304634402659 -0.573143032741903 0.14824622196823495 -0.7777537784247547 0.013697383029366685 -0.3408662921265518 0.4070872446846565 -0.13771609298084944 0.8920470073576718 -0.23839818438993485 -1.003465631122078 -0.8111142723909989 0.10509051663266715 0.20639539209944235 -0.8993144439566212 0.5873363162537791 0.39468924943171935 0.7819027321499264 0.32855228045606305 0.7955932119545214 0.8057797059063967 0.06302524472964705 0.639900873891303 0.6760945849604965 0.6624047998802742 -0.4527720315673289 0.9833638267318808 0.8004428180928664 -0.027384113770032786 -0.7301081219140704 0.04519356778971741 0.4651721122591329 0.19483501300065573 0.8251077367075685 -0.8874122010057264 -0.19382816715843296 0.518404548245495 0.27423539835045374 0.656078387675431 -0.28296670206078056 0.7953596401052357 -0.48457670890024 -0.9382788434999065 0.9855886810225729 -0.11233696035485023 0.41562487766166983 0.8262149960138118 0.014663976435760357 0.853423728695127 0.5492600609455397 0.12073128577641445 0.01478231041734368 0.8572389432253043 -0.48343049531245225 0.23425206672175442 0.9633259383038244 -0.6048720767821938 0.125047307789257 0.6251031156023572 0.9462848632146628 -0.44019017092957985 -1.0057027018165066 0.9714085501931329 0.11259552801605173 -0.06665224647889166 -0.7974536520478266 -0.5854888386749852 0.087856736827045 -0.2235878291989517 -0.19168697673557314 0.10811199465183964 -0.1679702387468123 -0.8435905397558005 -0.8218551403078265 -0.26274458195202827 0.37610420232167646 0.10352375561923988 -0.09381532000413229 0.6470970115950785 -0.9370066213109103 -0.49322376827553094 0.18214191194475915 0.9912206883758443 -0.722124204923617 0.7962617818215796 -0.6012681600883476 0.4574157081596563 0.09017055316191218 0.23573206174750516 0.6698590023286978 -0.4560209878372547 -0.5268335219657355 0.09140878365186056 0.7096456508202859 -0.9286368369705675 -0.44980277537794466 0.7205689555218843 -0.6201266968650139 -0.22271291346639732 -0.3567802486531278 -0.14724168419840936 0.0372949983618412 0.044788817005677564 0.4738624002659376 -0.3883521108549719 -0.7600464320305607 0.5452435763858099 -0.9720145003562739 0.3406623654299197 -0.8785068025913867 -0.5042187513571919 0.7979336362013759 0.5239999650452314 -0.355156453893288 -0.15676628894525277 -0.23499542958481526 0.47702824497438157 0.851372788979687 0.9979515008980885 0.14365494875360182 0.14334640896235865 -0.8327688727526071 -0.14893357037157315 -0.18699181681444213 0.24655556019560368 0.5344567912188889 -0.952107972871892 0.6925025749693257 -0.6162618357184216 -0.26953553386257334 0.1255310996988585 0.9339056343208516 0.13904216435313566 0.6126060327164888 -0.8240330028272265 -0.020921870178390423 -0.9092514299343033 0.013281506702785606 -0.2246415385022147 -0.30226730449299577 0.2580177637521499 0.9939143435269902 -0.24085676703363193 -0.2367784257913694 -0.24170838304787773 -0.5260886502877663 -0.31442849460276623 0.6711125897313481 0.6932391517586516 -0.2954391208770799 -0.9366188685176928 0.26876548167762027 0.8073231691710839 0.8013008021310344 0.10589612243862878 -0.9406998245607885 -0.40534260755592705 0.6774591584464883 -0.2465263840611609 -0.5884222837859958 0.3304816375878794 0.4862505549527847 -0.26544378096551835,0.40445292909635167 -0.27491187828776154 0.3555274218771405 0.4096474916004551 -0.24002483289092735 0.3893462247675845 -0.9794964037173894 -0.781042184238623 0.8189116445065356 0.9039193941031705 -0.24685305775415944 0.26880802580397245 -0.09916358836342225 -0.2626639178755938 -0.00029671969179023705 -0.8720750327270055 0.9336748771849668 -0.8343994004423476 -0.00025733309693731776 0.0787015809320113 0.06205430506775733 0.7551274578716669 0.34753160909354897 -0.9296542539095531 -0.2632947928860987 0.6994260488996769 -0.10144703330416172 0.24183815552305332 -0.3560534818487153 0.12465474877693183 -0.5328268863304586 -0.4363419280988454 -0.4385044809621701 -0.8173319438936222 0.05536078093811946 -0.26736256819411086 -0.014902282310808694 0.04998908543798813 -0.4031736830920185 0.4654621744126076 -0.4636623570445952 -0.9640809507425441 0.2951937609113488 -0.5610048399597353 0.16431208031207478 0.9945963914191248 -0.06959928402919155 0.8236720410933512 0.40753533943691767 -0.5416688695638535 0.6522959503807733 -0.25818639829972145 0.10976564012539636 -0.26256110324384263 0.4063814879869547 0.9924690932325113 -0.03632225161219749 0.9080791985406298 0.37578782466113947 0.9852004912350683 0.103882943625443 -0.16191342507440773 0.3756697109545131 0.8322141823237107 0.9629751027796508 -0.6357895158422358 -0.2860470333843801 -0.7955918492796006 -0.40927493459780256 0.30663071083526794 0.31850611172993015 0.5846590530071815 -0.20004332636026215 -0.8306673676382461 0.7089791462497532 0.4658145302526163 -0.4587321105210364 0.26067047829986145 -0.4180765077589471 0.15140535060749605 -0.2051495832035159 0.4747902489105351 0.7886126823846908 -0.6544159981483797 -0.6903111563940003 0.16056373204123853 0.9920741579026517 0.21553006620703852 0.8967826910805623 0.1446294792041223 0.3190334101648008 -0.845409460260137 0.9297162038481608 -0.3980704451952631 0.6393750034505004 -0.12756469066035014 0.8903624409114559 0.07657301693801002 -0.21405885131481686 0.9008452819123495 -0.37462231995785134 0.7093417386116074 -0.1641986035034644 0.5606221910569327 0.7430774758458939 0.4228863029753424 -0.10266436830377469 -0.6149905240498165 -0.15755448324162247 -0.44768723605621724 0.36403594483826285 -0.5659492963397528 -0.4199748067921154 0.4667088390991272 -0.4076628642579993 -0.1489063435880639 0.772348469402739 0.622787294896359 0.7706065747776311 -0.3933365828883877 0.4527597692646594 -0.3254917851140783 -0.9924067025321572 -0.005398727216067703 -0.5680213653175346 -0.012358526543758493 0.8168507084990092 -0.6238725781911191 0.6228763744645286 -0.9337406119193078 -0.945664285541845 0.3920363341116178 -0.3751212002186233 -0.3056169927534769 0.027408909888630966 0.022036205620287262 -0.03201061072250757 -0.7564737934655325 -0.573060939954937 0.7678431894775379 -0.9873040494509604 0.026994086162370312 0.7296453011096028 0.48153165098842277 0.9606739434758995 -0.8254128821516986 -0.984476783356454 -0.9212070611729695 -0.1535316829350702 -0.9688252425743139 0.11562448156913652 -0.1316593621457506 -0.6954681351556657 0.48872726160334506 0.5415310600080366 -0.6072707111634427 -0.21267694647960328 -0.8135903329224151 0.09063229950774163 -0.8163412736480442 0.44193135505772835 -0.6381708623898907 -0.3644901602703795 -0.16759588303138845 0.12387260879526844 -0.10802912681034417 -0.09154349876568793 0.16071492059608028 0.7441687804466937 -0.053883059165043275 -0.3819012385437767 -0.9526972363139256 -0.45885262836507223 -0.8654951125870457 0.608844774184709 -0.8915653896763417 0.20957358671796172 0.7210767698660455 -0.6477775623787462 0.30401375128120267 0.397340561038855 0.1687264323552872 0.16807683099442308 -0.015955350766841545 -0.8896494244826458 0.336690024545812 0.13384752972236902 0.6879372928743023 0.26476211346312245 0.45950860430198076 0.5815319548981466 -0.43928014187868314 -0.04898458972254221 -0.04913038601252893 -0.5041075659174268 0.07772134505831987 -0.7927761456069791 -0.48997817013321265 0.19759792712283666 -0.010785954883526702 0.04031712131476634 0.9261533486088596 0.5677010358685634 0.3349828553567359 -0.9478577207991541 0.3355006960829334 0.6951052271891226 -0.5459832599814837 0.1574276880050085 0.8035093117489565 0.8271167460379214 -0.8033368201906019 -0.5738752612166999 -0.6283121622110175 -0.4929658230837392 -0.5020737360187559 0.36013025619252764 0.4673724883801662 0.32348450044903587 0.450417039519732 -0.6122850307971605 0.9548339898095851 0.9456299701564437 0.8590995927856747 0.31804541149800614 -0.6416052592057176 0.686798858823569 -0.04291939351746455 -0.6285009695723676 0.2980805471624414 -0.9683129942049622 0.21331982130510377 -0.794176463029774 -0.4096892767471525 0.27610626454238973 -0.6440866749426001 0.11064853459137192 0.9563179635994217 -0.7249003843721925 -0.7096040395411336 -0.481761738350851 0.6771262725655649 -0.9990470271865682 -0.9349885373842329 -0.899402654243333 0.9135161302577628 0.3559261438643389 -0.7494009599695948 -0.6772286306474034 0.21774258263632026 0.12628687936949348 -0.8798470052040762 -0.7862108941126209 -0.9504849090014243 0.06787502091091625 0.3114108028235646 0.7759057970529627 0.8882771389037271 0.39203992455428516 -0.16633866036541636 -0.6543000794477782 0.125296334396957 0.8603843316193401 0.053413478626887896 -0.14084126516423234 -0.6888705726953132 0.8553626884985704 -0.8447414564169086 0.37215352945246877 0.3923628319528979 -0.5325115052113782 0.6416718997058461 -0.6091720862466194 0.13806123301476667 0.4012394196620426 0.017574628858463174 -0.04983494146863992 -0.04905385643386643 0.6092732287384685 -0.5760348773712969 0.1408106778876472 0.4208685772767908 0.788975531885157 -0.9376000485192018 -0.3285090711719806 -0.6269982112113768 0.46217388232526274 0.8438359063784588 -0.29617691809828384 0.2576253004931167 -0.7114804703943759 0.5122987670617296 -0.8416752721663356 0.1753281602070085 -0.6898150024868698 -0.7370208599682145 -0.6405946350719519 0.5561815743848558 0.594457482272282 -0.414743547025467 0.5241749977492579 0.7826070946694295 0.6623574691907251 0.4019314667376554 0.07178072288841073 0.42917660940957797 0.7092089440304188 0.31120141973639087 -0.012864489319971683 -0.9035647936536109 -0.11533158728672531 -0.6713864044664215 -0.9373925620090576 0.6118638040069138 0.3975514460505039 -0.5690995851974929 0.4017450228893364 0.9811952899354359 0.7509930662287055 0.5107852472794657 0.14495010224607832 0.860014360582454 -0.04416467875397963 -0.828573146433331 -0.023899936099701046 -0.25730149175683353 -0.38730150875395297 0.23999834899529804 -0.1831223264868869 -0.7071955477173028 -0.38883463037052246 -0.7144160370960846 0.9231757781186735 -0.6131426553496376 0.6147795455474488 -0.9113579518249347 -0.48430721553783007 0.08295199861648181 -0.7506538666373125 0.8159886140707494 0.3715235337632201 -0.19170612297252504 -0.29330327946448886 -0.9885765166926997 0.19204200634605692 0.01731649670965111 0.2623659221414072 0.025441053923201267 0.896475075505191 -0.9670432055127877 -0.4297681423678523 0.41294820867406434 0.5400583502666838 -0.31675276973802385 -0.552510546067738 0.29940940874790184 0.9329870108040502 0.3090898892644733 0.3372062091297192 -0.29486372903697533 -0.9488383712771616 0.7283245890933358 -0.1066682172336999 -0.5510317979321832 -0.7608437372480625 0.8016711162237469 0.9200674824843286 -0.24018968442575775 0.8424040129531348 -0.847409536342693 -0.3747115193979998 0.8280974006937976 0.3173174502928843 0.483169457862452 0.9512243446683256 0.9843408486403928 -0.3842341002695839 0.9525692305996919 0.826702093629859 0.3557952293530544 -0.45809692933871754 -0.13380324348149342 0.8495908853103151 -0.7842530451364462 0.9203710978252859 0.4151683032566384 0.7416613800059847 -0.5551343228777905 0.41956629097376114 -0.6385606961189774 0.2831337555954136 0.005488221198299836 0.16665856327868545 0.25494831079410435 0.7010722081579379 -0.390277747802221 0.2690036687849406 -0.71593452712615 -0.14154691582174395 -0.19887399779349108 -0.9160058866701042 0.49155890818981385 -0.8370947946988575 -0.7218650572355019 0.48117256169868833 -0.22837265864146927 0.9271899383247935 0.4487702191138181 -0.3744887941028441 0.1793620229085301 0.5413480759408235 0.55429515248812 -0.905497389678339 0.38958329679153236 -0.720108878864654 -0.5408567039465397 -0.0752944238908061 0.31105375873912605 -0.8541010241712458 0.6773515909137602 0.25587997535928636 -0.35449903066940114 -0.12837853457792214 0.025955440242672788 0.5551313578967452 -0.4068256440571386 0.2877406144735547 -0.014042087166266055 -0.95117139918136 -0.21781903368790612 0.8097111122254129 0.9569368307698781 -0.6370910356098263 -0.42770021206477793 -0.6642818293262626 0.7719894435167778 0.3073418790431972 -0.29834745735394874 -0.5199531295841545 -0.8803059518399676 -0.3284188545813177 0.8847653360988235 -0.46398698638312436 0.37893867409640025 -0.7816902698507454 0.6899376265361786 -0.7227275121665638 0.09806544820321461 0.5494589396079221 -0.11703152621998658 0.83409299093371 0.6499903169114158 -0.8565554027087294 0.7359050136878025 0.3865042218865193 0.2983184111209306 0.15939034775616548 0.5371742495591227 -0.8047055361859814 0.18690295372152596 -0.9915909453705434 0.32364885038350627 0.4953610689130784 0.8749520866118824 -0.02293017269353171 0.6875317537748115 -0.5688178311622596 0.46291762679438064 -0.7628729726648296 -0.6115869741601649 -0.5954129643855152 -0.5230604300122654 -0.37162363034607826 -0.3668915189235162 0.23051579592556132 -0.4614334509868978 -0.5697237051514847 0.5107144634698038 -0.06189349872967491 -0.43019990107701683 0.08579551991838434 -0.6368778437487453 0.6879285726285508 0.9630725839737205 0.9796394676161311 -0.7037113473781564 0.3662166451325027 0.10202420033552659 0.024279782760749335 -0.7081114772796869 -0.2752019437476545 -0.1429483435379686 -0.9845677415526202 -0.8482867807488372 -0.6169411682193652 -0.026304980832674987 -0.9275359709403 -0.18179352192637172 -0.46191479558944193 -0.4801871573563495 0.6703571426185008 -0.5674212982229085 -0.4536865507827779 -0.9608404025665784 0.03863104669292339 -0.5715759516788541 0.8488266693096908 0.3243543142048531 0.9496801218938533 0.29113510364962214 -0.5175901392161507 0.5166964509115312 0.283596891344857 0.8786316376032757 0.7517365679126989 0.04332042652805768 0.45195998403994864 0.28229185386979333 -0.6523532153409267 -0.10800608556783292 0.6745940153632498 -0.357544510451679 -0.024867685807883417 -0.5548380152345008 0.0765087385900126 -0.8888653244338014 0.07100073960947871 -0.20998123046735068 -0.039449687002777095 0.8564100012452146 0.4248658639609338 -0.9803300047351768 0.9489629926556737 -0.29970739129545926 -0.8271679326883387 -0.7577089162359062 -0.33521514395301855 0.3536435276120122 0.9963657782552133 -0.9729800068462102 0.15435286313607713 -0.059466712212486464 0.4076509705472401 -0.5882132301096309 -0.11252189767922383 0.39974336117880943 -0.3717914532505185 0.031965367015166044 -0.6953468624468628 -0.6510666239012586 -0.8930307062640248 0.04003741531632579 -0.5034512471526132 -0.8529933602022068 0.3175360709635831 -0.751767219792602 -0.6391566052836614 0.545428817374401 0.5709060408508219 0.26449188077433666 0.5375527569711973 -0.8914848896243638 0.08467977359573943 0.15470687408157113 0.5784860206648653 -0.6851949261693853 0.1672504515180579 0.3163873585545975 -0.3761196459133368 0.3263352703910895 -0.5008654082776642 -0.64983173512186 0.994776204965613 0.11082135286204335 -0.5274524396990872 -0.4036494627899444 0.862587906834488 0.721636854554682 -0.5537614106217557 -0.41628692356197516 -0.9214516490192516 -0.9373360363169568 0.6238157687563386 0.7643075172842559 -0.4444028141252308 0.8232802476649052 0.3904968441061875 -0.4348303497092565 0.24702876669037788 0.4364565739139805 -0.3640988815466701 0.12899101092204232 0.04944157044266948 0.7415579631429956 0.8618293754362959 0.9966383687374567 -0.9772567215228337 0.44963184181098964 0.8426353179962096 -0.6277329561754003 0.23154211982109013 -0.45790576049505827 -0.28915649101946755 -0.3071705185218391 0.9896567372875803 -0.12314582425963416 0.8624916891790582 0.4692014655336717 -0.3950579767860356 0.4814990348345483 -0.21096190203153234 0.21713829235927476 -0.8354718963708856 -0.22406629878835216 -0.485572932510069 -0.9513155482850497 -0.7775036320030346 0.7464900717205418 0.3328813914882881 0.176422386518608 -0.5570169416449177 -0.9436969473028038 -0.8279851850620125 0.13985614156259207 -0.07799518739712183 -0.657121364259183 0.1898320741622468 -0.43269600682752407 0.7420039220137731 0.9043021978848735 -0.38752131962502917 0.9091371250388318 -0.5467410602313231 0.34687202401039413 0.46264333741329033 -0.0705200536281789 0.7201829676697595 0.35783171496918725 0.2333447967116568 0.2734136280752095 -0.6233242430219221 -0.24229568660629744 -0.8841462821866097 0.24043463910867002 0.38942823987252995 -0.4351303808107274 0.4525011620331724 0.5953714997529422 0.3991590723950051 0.9770303774357803 0.44429937731122354 -0.4088749733988936 0.45790608588261567 0.2367047744005932 -0.875187227219705 0.660282514188457 -0.6071044275604167 -0.4787074885862769 0.4842654636716002 -0.15643975222477757 0.43796995818533513 -0.0773841200159695 0.015397894956924906 -0.7187618966769714 -0.7948891495550024 0.976859004599404 0.8988637575974178 0.6984478647989312 -0.06539206218925968 -0.13192067866835272 0.6541317141488314 0.2639109128454602 0.06907560575068805 0.04578998274600243 -0.36234463507077785 0.7382120927333156 -0.8642823551806826 0.5298617564676836 -0.08796832784827016 -0.3955028229802117 -0.7693968441320896 0.047844397863490214 0.632398992950428 0.2513258013727089 0.42759882942374783 -0.11460028079642846 -0.711697265262283 0.6035534905779647 -0.743886225854203 -0.6823936241082903 -0.594512227226372 -0.31947827026285025 -0.9707325176582536 0.6513355966844068 0.977643278885982 0.12526403569106132 0.32599627888086413 -0.12214946746641292 -0.38735524922830566 -0.7053943477782321 0.6627848887268974 0.9155352929967933 0.4638004192138294 0.928055669701904 -0.7798150704765988 -0.23159562602714784 0.30177311978391014 0.48895694173473275 -0.39273943477886675 -0.4733493221297225 0.16885794532426485 -0.21767159010109313 -0.21138344740202936 -0.2821539278970084 0.6907342135876274 0.8159745485421825 -0.4606634778881095 -0.6087457920159663 0.005017076222317431 -0.9205457993096854 0.09970433746984655 0.630193266169924 -0.813003040731622 0.8664803650048799 0.6663189702741847 0.8521234722266442 -0.5002827337648348 0.14000560477211854 -0.6121190956839813 0.11646353985998892 -0.3863120743169213 0.3335494845893212 0.19855816969190898 0.9152110783949169 0.5679767147441567 0.9411272603087798 0.6438877897251594 0.07134936979774069 0.7915907305700353 0.6792215787261824 0.3056459045930856 -0.0022068440208579173 -0.7305671817086634 -0.38491021067470005 -0.6900384558753858 0.9681471965568202 0.22962372019965394 -0.0023867734560485553 0.8417741576466363 -0.5913512796743005 -0.6701130633990586 0.47308122553584386 0.6898977577310326 0.34696776347504055 -0.8801255895864637 0.3192673566812727 0.686383934047545 -0.36037070525986725 0.9501424929866571 0.30562385980012774 -0.5065734283419956 0.4160697525948911 -0.8407856564583192 -0.1370516974686851 -0.3669985625535622 -0.11008036453774893 0.06862284922404112 -0.928253958485468 0.8908453231816722 -0.7800286979210093 -0.9628630027958998 0.8659106412465468 0.32966079867667714 0.744149219171732 -0.19934255378532514 -0.23273301393906204 0.19172607486814472 -0.37743102393844596 -0.8450073287286337 -0.1723601175776459 0.35614230682359627 0.9935079713488282 -0.5676353684558142 0.31894280429905764,0.5731173439301331 -0.6658727538818539 0.6300359564998828 0.825004923866151 -0.07978481317480002 -0.4178985759440226 0.10081151884048745 -0.28815705506827816 -0.2154022776131932 -0.9677434920843886 -0.2035818166715948 -0.3937967667827118 -0.07944590323489831 -0.8311071427742242 0.36623799742888874 0.1694075045949166 0.2205933001781888 -0.9471273056249876 0.3233467798797345 -0.2025856260862331 0.8279157665708046 0.6695367320779364 -0.06557411910250144 0.2693198430074901 -0.31311904482778097 0.7613852347552172 0.9509615285042619 -0.8563454121900633 -0.6328719505005831 -0.6581872492075742 0.1771382295862538 -0.5083052406133626 -0.8169777745754201 0.5784115390436111 -0.4866758433516279 -0.9515922754264221 0.11990615608701267 0.5632659501652418 -0.39902226325841916 -0.11728443763411368 -0.05236201312936306 0.8511049050033014 0.6580405621946012 0.45218347545118415 0.27456681895294927 -0.12216110484261794 -0.5323392630855169 0.14077522582835605 -0.6714336311174098 -0.9890059029609268 -0.7665328760196854 -0.7783361086004079 0.9159475664546493 0.8490303758829179 0.7146621757340996 -0.6644839652885444 -0.7633355904675505 0.0586931986296062 0.3366768396049966 0.9096692646068307 -0.2813742728938894 0.6354529588954579 0.881289425036542 -0.26695771254121997 -0.6662205517888624 0.41437529673396517 -0.633020789458293 0.13696270121522774 -0.7257462282602796 -0.9842830613767277 0.14028138415688654 -0.055341387173150965 0.8094077489577284 0.15152696883757263 0.6943144077035274 -0.9808770876430147 0.9552303396147777 0.46928223445221967 -0.8497693712832199 0.3066159695332343 0.2743815606989464 0.4147102844663362 -0.9862071104664423 0.8793348210160117 -0.9441862609338882 0.5523856264757478 0.19824262447110197 0.037553160788736495 -0.2455827959828416 -0.7703386612828674 0.6059341789359004 0.047361373343562434 0.33598151593243203 0.5142305036836404 0.36154909307934274 -0.9341596106386709 -0.7740420698182948 0.33839502321547077 0.09157995026729138 0.8846365294278783 0.7726363496990933 -0.36362273732895745 0.04375722393217214 0.33930460362836906 -0.759356568723165 0.8736444002511436 -0.7907890875241017 -0.43611609876308827 0.26207637046861204 -0.712182302899697 -0.36562732590396574 -0.6562028034538845 -0.5402647632641497 -0.19406595366036816 0.42590899956292816 -0.6899116036548697 0.5413174818800267 -0.5933090140626938 -0.8408953314410934 -0.7448427563359301 0.2689608889518163 -0.2169098399593052 -0.09626297839163725 0.4317796086672678 0.7522350193343638 0.9477277024249312 -0.6807429710205181 0.19788095479968468 0.16997500891957026 -0.6000493373130951 -0.004609042435784244 -0.09318683482234226 -0.7958370668003288 -0.9621605976326174 0.8688989967641457 0.37907613564694903 -0.9779011629336097 -0.7186945145362782 0.3513378607666307 -0.6602215437749113 0.4154813398035526 -0.5764971286644871 0.1575539137347961 -0.7337811164641018 -0.07708984676801374 -0.38261652994611917 -0.6225878508222052 -0.11722812503360837 -0.5790737295573938 0.3814942653852157 -0.08956121161295369 -0.12366616681148054 0.013328738117052546 0.07363817102052148 0.028651457526161495 0.6382622187914587 -0.270040732970833 0.04814502673145763 -0.17330684775362243 0.4339079815570352 -0.8318933011975493 0.8410942106461384 -0.3736154893503207 -0.019131681928072155 0.20773888208552585 0.14885445707862474 -0.21035022444983106 0.6123063268325885 0.2395206009252404 -0.964417161413029 -0.04972781747579749 -0.566709565257057 -0.22166521911671178 0.4988032484872245 -0.5610228106107488 0.5648860779262554 0.45506128322472517 0.2596106097315106 0.7740644804415748 0.32286060798044464 0.5116053851052116 0.9517007051636273 -0.5157671749371299 0.9223207864853612 -0.18461601029797636 -0.4900775487732779 0.8155372162136775 -0.3656437337939972 -0.6824194872725928 -0.16169085133072394 0.41303624653231064 -0.8066671866911389 -0.5476155216083354 -0.5225139786756895 0.8374020636472087 0.15266822750356368 -0.241005264479901 0.5813387513809354 -0.6466955493408533 -0.4254777229022885 -0.6501203203815369 0.29952153515914376 0.8942841700600334 0.22160005286392165 -0.6190650476245839 0.25589968789525747 -0.8042239585474603 -0.8131550350570058 -0.9047711705306449 -0.17479573830271788 -0.729928898661173 -0.891210692742222 -0.6805687811842615 0.4705196099723818 0.26236528906284834 -0.9064377149295596 0.6191689498754851 0.9267479605544787 -0.8489690614033545 -0.11515502679317641 -0.6645637073647362 -0.919976802195969 0.22821725460149034 -0.6086730297567384 -0.006905057464716429 -0.06767683218199669 -0.6782244056073606 -0.27960577479544363 -0.35204629353367833 -0.4813410102634208 -0.45107793942837976 -0.04030730510768859 -0.5762407060640409 -0.97427304028625 0.1395759185673412 -0.3141527124151844 0.09819103494241486 0.854427643273379 0.05265624213378272 0.5448190343849547 -0.32470576525247236 0.7676681054620881 -0.05339480511678704 -0.6597364932259733 -0.8957006132021115 -0.14386871236210177 0.7033851514545855 -0.2945232784050846 0.7879118579337094 0.2572709521642847 -0.20122204035718821 -0.7085829659813097 -0.6208478305013128 0.7762255050929382 -0.3330027079681004 0.29993236698192977 -0.011896864218605026 0.27896346649011544 0.4250086710926612 0.25426305015239264 -0.5159746156136918 -0.29736777541893433 0.1121273872877491 -0.8108235981452622 -0.3368842428525491 0.3465962890152797 0.23830956335079936 0.4628553818398284 -0.08726227240374783 0.33967952966266496 -0.04660594597193615 -0.454176724761267 0.8912735635202443 -0.2987453764554223 -0.9122267225528994 -0.5446740196861449 -0.6655613130768832 0.5371043025293701 0.420446899230761 -0.1934136509430178 0.9102084969934391 -0.8680806635134914 -0.959958002153002 -0.42614502452710173 -0.6165438815827899 -0.6382109849537114 0.21755630620892327 -0.15076083147206043 -0.6672405920248523 0.14352599602142183 0.33040043052874357 -0.14461006482728486 -0.15770688362097668 0.16666999000707172 0.7374598535538999 -0.33646990106096536 -0.35286030998099355 0.8765150037284937 -0.0028555046293619996 0.48778324262405925 0.7194676842159461 -0.5290235683386052 -0.31062733983174246 -0.759281585580243 0.026907270586734755 0.2462424371416076 0.19337627131971424 0.26402489787527955 0.6064197587925806 0.022971005032163642 -0.8224127755574986 -0.910003697872585 -0.22982764960229682 0.24196407656028143 -0.37220275243699324 0.5678880872260126 -0.28024145328919164 -0.7759398384106039 -0.7814747819287623 0.8573906060977387 -0.8283349921873201 -0.3007543002477777 -0.3830705879416189 -0.3395083873973741 -0.9631567893699894 -0.48511939588063874 0.03168417845954032 -0.7536549300939102 0.41949872093115675 -0.28140237550625646 0.34022954265791766 0.2801505855377321 0.1737863989125381 0.5537124395130099 0.5406647848903432 0.020467762066260376 0.8716430792653493 0.7997823210619087 -0.2782440709374113 0.8483253624659934 0.4525114631306797 0.04366721742777009 -0.14059670689167938 -0.06130089058038881 0.47965667318400357 -0.537619086624652 0.7520633585349151 -0.06364698042101706 0.7162206247267555 -0.28955545627780743 0.10065228849656836 -0.26710720323147935 0.4167944470093195 0.6633065101679698 -0.540937855787934 0.7824952230867724 0.9277401071158092 0.5814262393100272 0.6878557811452438 -0.9400248485960875 -0.5163373088221106 -0.08907545519287424 0.8879454112310651 -0.1474073804669778 -0.8822002462222198 -0.17879959191651185 0.953369305700466 0.5898385022029496 -0.11337949808644035 0.6840916897223404 0.5052347202516386 -0.5090812491301131 0.5789128407232106 -0.5511918492675545 0.13785808651267956 -0.10078860177089799 -0.15643780245316394 -0.9424588672591804 0.644162889581027 1.0200257377447934 -0.7833855351264659 0.6039738268544325 -0.1777115361998949 -0.23327609421298237 -0.21437038026369326 -0.5053331252025167 0.018968652571234545 0.39704066029771573 -0.643882240335012 0.3655910996322053 -0.49077019538808575 -0.17059596059306403 -0.6914354798957412 0.322870567617549 0.6765006281034638 0.6689844345903314 -0.5599347189142577 -0.71232420048146 -0.2909126921241471 0.7123205319597937 -0.258413284070141 0.260199758322528 -0.4107101486292441 -0.8279612866567024 0.2724700339554382 0.6285670645043905 -0.299592431824159 0.2036195139713092 -0.9463959984730966 0.8089571145402839 -0.22097589605947685 0.6719875621201287 -0.28738154779029484 -0.7863515861533836 -0.9593133547418852 -0.40813773792760594 0.19061610248363145 -0.3612733671695737 0.31647264352246696 -0.5191766516958234 0.8756757068718559 0.8141141589140612 0.3003999022940324 -0.3920721380785634 0.9842815373665237 -0.44970275498400514 0.43816926017886576 0.4965089253479756 0.9360318856404851 0.7002443722455648 0.00957538197410457 0.6784921056241195 0.962036297984644 0.8569982181121363 -0.13906334639510057 0.37359395904955583 0.09173100424980939 -0.5298137215800268 0.9228037584145957 0.943661416721091 -0.7141335846637291 0.19266569746465334 0.664806813820268 -0.7843640578605594 -0.5789798469103713 -0.2646269192803322 0.5730551743950046 -0.3807594783706494 0.654976842786697 0.4149530598623654 -0.9663144574668109 -0.5969004249883432 0.32948153047181034 -0.44418667856265626 0.3282458054980997 0.8470703797707575 0.29366637742643475 -0.8780065186089857 0.9616486051682392 -0.000455923958704084 -0.14314684299332348 -0.5025418446950399 1.036519460896684 -0.4882592508020342 0.44266191003135935 0.390106949680057 0.34063614387226887 0.21566359431068083 -0.9109180784133558 0.286480445705407 0.2243550525272411 -0.8862377044473024 -0.7637628524508305 0.8888672838861165 -0.7604750549291305 -0.2544929618365379 0.9841100456758782 0.04669723910073989 0.6717056870976701 0.16424331271242953 -0.45569527035641116 0.673095503481528 -0.8509638371930566 -0.1142490915198993 0.11177399010169033 0.7811059982841813 0.46077539611175233 0.9787567046606422 -0.01402402622108146 0.2502069280017657 -0.31920224357714855 0.6029057116749887 -0.3624187405036231 0.4036271021433708 0.6632035084360834 0.8328638509065454 -0.9851751648924169 0.5785634399196949 -0.789938711950106 -0.7670964478614289 -0.045473439037592475 -0.16657307210756886 0.7469978130705764 0.29692168734478336 0.6590054515654393 0.7680510338854599 0.19140158587314 0.35222691580646576 0.89077559948323 0.6419744035972524 -0.9453995083303024 -0.8541333846535895 -0.20804417274856568 0.17532633882114035 -0.2694307121341062 0.7261735961837831 -0.5819257703696796 -0.2093078986700338 -0.1822717123378275 -0.4992557065097516 0.8659797445284809 -0.3098901857761072 -0.2916421616957296 0.5616027893478435 -0.773420007124967 0.9890551638234472 -0.36804786961210795 -0.09654397823449375 0.90395827886035 -0.004275823764124046 -0.3468843179632718 -0.16439978092955732 -0.3280577593730336 -0.375318339017491 -0.4814324857845911 -0.872198938198855 0.8812569390338876 0.47028764165734444 0.5289678303448784 -0.9235431779289689 0.5569656765444067 -0.11405710722410935 -0.13799511863169941 0.16487046817761555 -0.962536661049277 0.2175505344849838 -0.03668545572797638 0.5466585055294033 0.10284723456007146 0.19050473819375796 -0.02220168678059347 0.4378885667128045 -0.7716304818748606 -0.48121373934473477 -0.24290759483531532 -0.27588401514166155 -0.4853696197662625 0.794887929953878 -0.7119359851600694 -0.36618246152988626 -0.35488296025142496 0.10382582016368404 -0.7265268675960269 -0.4280611859444862 -0.32648962054544434 -0.7556911984452221 -0.7944622069605759 -0.5714429196602776 0.633972997339324 0.04939814715170097 -0.8659408893418046 0.4864209744043281 0.21566109662412936 -0.6497366202973752 0.08558308083695602 -0.7018454688761125 0.383620765381799 -0.6385589641365385 0.44278540928601123 -0.6212852494266679 -0.6230675993777167 0.08996292067185678 -0.018453076262508625 0.7884943627879157 -0.34390803824130584 0.23092600663736046 0.06326538739839381 0.9692496580606931 0.8106305547594073 -0.8175020850480947 -0.33566015814565653 0.23103074058173093 -0.8181045217384362 0.7765602801509623 0.6964890177445561 0.9522761041300968 -0.43034832950676505 -0.7357080844006109 0.41706594806934216 0.5969754508236916 -0.9254389306760631 -0.669688240797097 -0.5884426197514868 0.02728792186968177 0.49119709908170417 0.46559741853577974 -0.5965117857700668 -0.8632484807103485 0.06899367756469617 -0.03288089209260982 0.7239927892418535 0.2848528026059843 -0.3953106651646263 0.43027747152850665 -0.32581282147117796 0.41341512049628815 -0.3682398625093213 -0.2777077134075647 -0.7670910933121989 -0.11099257723228032 -0.47518873413822776 -0.14483026595657283 0.24680707667958546 0.19113567461582748 -0.6197013668618416 0.8950551899286129 0.9026333115329903 -0.7409508139789927 0.5500063402042625 -0.003128985400613114 0.13250223457491656 -0.19013907655792453 -0.2966480590678094 -0.26083093949628805 -0.35160037266462313 0.46906438344818785 0.8589770756946753 0.1692308486991965 0.4840745174999586 -0.02538758792832835 -0.6233129509715244 0.10464178966388725 -0.9108055877464091 -0.11444914126728234 -0.1034202689756818 -0.2641553724363157 -0.20986187081744895 0.5315781545752437 0.7617394498565955 -0.9615140729409555 -0.40848250145023735 -0.30436623066362645 -0.9451886997525281 0.21632806963290027 0.4071670885386845 0.734454927415315 0.9636309374354762 -0.1084389537865051 0.25651131350951967 0.13098927401052893 -0.3677877488255725 -0.25744474408582657 -0.16337239642543497 -0.3945931497096482 -0.5567577990750232 0.9287541292136365 -0.42835413140665385 0.7147601227026655 0.7518341050659446 -0.4323976146677035 -0.24401556750455292 -0.7067174984171651 0.3666177848190375 0.6565544150172733 0.5493519286851344 0.7262168279301149 -0.990864872015094 -0.4460004585398285 0.8767049694449016 0.3603939434208253 -0.08275333067951089 -0.4072332485039751 0.561395266872073 -0.06989087220754239 -0.7729727372553549 -0.4001994177007337 0.521160153498127 -0.5778286903432183 0.3569864962677365 0.8858821601599883 -0.2855064654948196 -0.9406448256996053 -0.7386092734895311 -0.5474714700910277 -0.8138781200935523 0.0143643319030283 -0.8203903084377878 0.5837327409199453 -0.911308575955732 -0.5778320532331207 -0.07308210571517448 0.40612816566203014 -0.18307239592210633 -0.15320119398763246 -0.24406426622476088 0.351666424195108 -0.6437959880118841 -0.12810720812129767 -0.30799899349272924 0.2640147695211989 0.46892885604271173 0.7036777885588242 0.6781940997907655 -0.9044054681555193 0.8327883081665078 0.5228700684459497 0.5421029126272285 -0.1542940368697071 -0.13832804881012198 0.5808641125403714 0.9322667849057916 -0.7247769369292383 0.5253685161759659 -0.11633063177482235 -0.7681614497280037 -0.5709398802724268 -0.7995339930115273 0.44327678343631405 0.14082705124174377 -0.08112409115277885 -0.18666192104882318 0.09465870464908788 -0.6631482554702949 0.06296657608036133 -0.7893679223822591 0.40313952415852133 0.908533717921289 0.8680662834314453 -0.1704891042871792 0.38285884359454875 -0.8874811017839158 0.31779728229894466 0.34018619982786236 -0.09596765342011349 0.5389412071686726 -0.549018013941054 -0.7908600733339672 0.3736348518787909 -0.8938947082989822 -0.7974781629916678 -0.3534304412162272 -0.05032557867406818 -0.20576591992086302 0.5016540833193084 0.4970005823485786 -0.3641930780369773 0.6647979055332573 -0.9297001926745729 0.25775012339670966 -0.8668100011125948 0.7505404819799579 0.7742067457059931 0.07573747748858528 -0.8940882181382999 0.5750820940357448 0.6445088291015689 0.919320968565253 0.089455218550231 0.5891435682674278 0.372078155413492 -0.6165458363959099 -0.16631575534319254 0.013447868072867186 -0.3261841314895084 0.10149089159350402 0.1831452870543685 -0.07515183772320426 0.6078841124674468 -0.04305251308338899 -0.6658150326685608 -0.47904442957170357 0.6421563301623487 -0.2028422874941298 0.8161055391169132,-0.3863960539491096 -0.9558686376172296 0.14743979225659842 0.6532293697929636 0.2829134736862362 0.09117528432662492 -0.904306707098492 0.4242795942561346 -0.2990360559990082 -0.6402464959887701 0.7661453376156822 0.8253322732368302 -0.5246138128360446 -0.09360018174293872 0.2942728058675099 0.803263731370996 -0.04507082031392229 0.6881817482885626 0.03206693363977653 -0.16292343160102152 0.6631108697719976 -0.2772202489806237 -0.24138707575729978 0.11418185278394621 0.37592993178304535 -0.7418352103102734 0.8641365268403318 0.4023506934912777 0.018469338060058238 -0.459414440160989 0.3928443492114053 0.733607081282954 0.3140932478306051 -0.346034468484008 0.9164880201995755 0.9201581501931463 -0.3252768550562803 0.26821250836684035 -0.18699604316755863 -0.811699175108901 -0.490597602327516 0.3585982787246129 -0.38062082737785097 0.6314346356659201 -0.7409420835732812 0.1722528537106007 -0.42996773911048386 -0.01763271584103727 -0.2715447628400946 -0.2177534609925582 0.5784348328376486 0.813939087400356 0.528194745262661 0.8680490085650987 0.23342207179704966 -0.9408152306313049 -0.132928144141073 0.8554300034486075 -0.671763087615783 -0.8851087353839728 -0.8502664220572255 -0.9929629059479225 0.3422623372239448 -0.6474651122973184 -0.2586731374010842 0.6893126332525327 -0.33100674503064104 -0.6869144359689527 -0.30308789711038425 -0.31600873510138655 -0.23478281761267764 0.609574749208578 0.11825459121606766 0.15147521057968782 -0.8675881715170405 0.7492448993070879 0.049335504183847856 -0.6291412836637074 -0.4432465634801483 -0.02789544960057535 0.5532110579838235 -0.5352606509053552 -0.8349239798529529 0.5536663764451812 -0.13868548965939564 -0.3007462509572312 0.4905382930901765 -0.2986612232780794 0.9572731677470324 -0.27509384338753573 -0.7992482921772331 -0.15731523522775726 0.5399812725724056 -0.4713970648586753 0.4887246401483612 0.3228961642301083 -0.06233403244371303 -0.19965529032581655 0.26907529728126256 0.03164326632260661 -0.19117575238838289 0.6641669141879865 -0.15163791276011415 -0.5906465741428927 -0.7736515062041527 0.8059357475729939 0.5569781464530409 0.7696488399179625 -0.3682800693992548 0.8755592301222191 -0.7243308714111778 0.8375964037301471 0.4020539334910167 -0.8259108057258908 -0.42355111305733 0.0855203863662363 -0.9347915683959724 0.8086752083082572 0.5540455423011126 0.9861068492743328 0.4147476694754448 -0.6060464935148683 -0.09151149382099269 0.3419974798055667 -0.05585727034113305 0.9939850233533907 -0.14603146104775958 -0.5588725540547571 -0.5976928883871152 0.369442203610232 -0.37927387903330423 0.6967051254338746 -0.4795613385918979 -0.6051548764910785 0.7843666568331976 0.3117248985159601 -0.3553166394844096 0.7696093183441577 0.6261132076871884 -0.7544540760985843 0.30364693367863205 0.6034194448570398 0.7293169107561558 -0.4889786412788572 0.2634347573168608 0.7024792783673162 -0.026182840308783692 0.6679135015606809 -0.5895501253025109 -0.5999844108421637 -0.7996588059764599 -0.25903893851362786 0.1401829194919439 -0.889869245471377 0.8013659428845765 -0.81135640323333 0.1896955045716993 0.9739091711668983 -0.6311397889686018 -0.3278519556945501 -0.6751985706097188 -0.2868759542102396 0.4144627197584694 -0.8650454580498562 0.11326224993278328 -0.7775290724225616 -0.6786538084199418 0.3188749388587052 -0.6748670702540687 -0.49663026162065016 -0.15411277084575264 0.6133721461783669 0.12055562978981367 0.1533399912789481 -0.5861452534521389 -0.4682894937299474 0.35643214569778375 -0.7836840132894656 0.40114390840998687 -0.7012048553565862 0.6913320484622901 -0.06709853191398474 -0.7575964520706743 -0.9170206353442834 -0.6084241665973036 0.04152710377472171 -0.14072430564715857 -0.9170262676363695 -0.9175611082697447 0.9338621253945679 0.751603594118838 0.5256544695516364 0.4989480137586857 -0.8386210917414286 -0.25612672734651093 0.8576947836121679 -0.821755858346402 0.5598949582069274 -0.9988351568474639 0.853409022170581 -0.1869387360521597 -0.9143518884717752 -0.7297977235516476 0.9649642385076543 0.5137302610111354 0.3204313816364867 -0.07563350743359792 0.23318917723743585 0.829974268300834 0.45148565062222085 -0.23768928720714086 -0.6776781968649787 0.8236953788384289 -0.05283065903832043 0.14036467056116608 0.01357899689371199 0.4719418060449554 -0.8893981333322318 0.8286821655367511 0.02806271842583714 -0.242599878539012 0.16821673273186927 0.004110408962582818 0.7905526700927871 0.2832223518800229 -0.6440296329311196 0.7791601320935359 -0.8549383459963045 0.1761501063957152 0.3897385632065254 0.7161620560357362 -0.14037537983492873 -0.14989233273422423 0.23978685379861425 0.7843444700255662 -0.7574816609801828 -0.8961734100169306 0.7634528927106445 0.2295580931934254 0.9665026763289308 -0.40474382497079353 -0.13373371306999643 0.5549432016568696 0.47787863511278017 -0.48778783128661524 0.5192624088479735 -0.27419659695013876 -0.05448448775348094 -0.01454018100514214 -0.9784115389583542 -0.7894641625218332 -0.12045350157164014 -0.5691718407523163 0.4626187897864097 -0.13788203066988874 0.4632022493208356 0.2254757605556995 0.24613448493899773 0.6727877915402563 0.12988865336114008 0.9433145566309389 -0.4807634069487238 -0.4255634727268127 0.7365085720418565 -0.5912583543570717 0.7718997345466414 -0.5863265491463944 -0.3544718205508446 -0.9157444186895123 0.5579769947923089 0.7709900542514512 -0.3543742734668906 -0.2596197187627223 -0.25507791280571895 -0.6964342339117965 0.34307070729680705 0.2917604062147346 -0.384630077858257 -0.9112462046237142 0.4722712738524097 0.5148330524421729 -0.6884914967977311 0.05065232801943392 -0.44919598659012616 0.13931935706191648 0.2920808459410732 -0.08704403007612165 -0.2817510568179497 -0.38019457354511704 0.7177159423689926 0.5665370252368969 -0.3999897528003002 0.7725141422431375 0.0469226860797244 -0.5442857350163377 0.507146080208419 -0.49559175172497066 0.14890061894585846 0.10750116261536183 0.6054421477383505 0.19555325637939522 0.9678623465876274 -0.29467274865703397 -0.4411788853107831 0.6554612464608783 -0.8038179198007616 0.7524853254074669 0.05613657985026535 -0.8498428834236607 -0.2360671211282906 0.3796765867263391 0.17337643994989882 0.9954180565048345 0.38317793077447565 -0.16634528377014224 -0.7333295529698916 0.41708477640912683 -0.16580691233662057 0.007766983165132133 0.2533341033462273 0.08752115199052024 0.6508875393717015 0.0552089059157897 0.9696944684302283 -0.05185270641319989 0.11777254201909688 0.7215579887988885 0.3704638267295365 -0.22717900851016373 -0.6510280661073047 0.18217196305118133 -0.5520503040817561 -0.8618429014264317 0.7524414772620874 0.9934158657323081 0.7545057943487302 0.6462845332763365 0.5053355782331874 -0.7880660600929582 -0.03733860788841341 0.08195922093757724 0.7765006925217113 0.039210755957852464 0.46125198743639406 0.1613646864263058 -0.9663897518304535 0.3859532051821475 0.16356678467728086 0.4701007771581251 -0.8278763381043184 0.7555527165125288 0.215164463333179 -0.06624062371935138 -0.5278634526681973 0.1971240773254752 -0.13734675360744214 0.4445051061953981 0.6534072130571411 0.07182045175866186 -0.8961040548774265 -0.8388317863666315 0.4853113995119476 -0.9739303417439075 -0.5868013877806786 -0.4721570334740153 0.14477306917064 -0.19511142770335974 -0.6360959726324891 -0.3609488065246547 -0.9855002822682333 -0.4856053825165559 0.1960399796084638 0.16905853662059867 -0.22587507270618842 0.12522644407115177 0.6921739439747324 -0.31347999080669026 0.4423956375742678 0.8667942887014347 0.8715417803478025 0.4842054816377441 0.01577803289987764 -0.7054836201978231 -0.950321959170062 0.6783142665432282 0.4416644876773225 0.15319063481329107 -0.9815581901046606 0.2852357191836075 0.6657690834744463 0.62264362117458 -0.46147290749437797 0.45910240608239605 0.644684622947421 0.0995789404653571 -0.9261691431830745 -0.6272334121968633 -0.4219511967805132 0.30139594446449547 0.06971464410429296 0.6499705900836104 0.5008732417480553 -0.5566349130057845 0.7394358580067841 0.8400267824852369 0.3860979699782576 -0.9117347804651427 -0.11047110082142708 -0.786402067199371 -0.9381560654117557 0.3243236793814975 -0.4134478973392144 -0.36480575525000447 -0.24986769098770872 0.2128867441460202 0.7434301916444727 -0.2501408064945598 -0.0723242982696215 0.5160565947819483 -0.26702923568288206 0.6059826173926618 0.5454170400736087 0.7342165292537739 0.07825196130505131 -0.7991531945413788 0.9318333538697018 -0.410861843096734 -0.9677980443129994 -0.9166079072728333 0.9038647477235625 -0.06183160187361354 0.14331151492441405 -0.023872602811607826 0.6629699729738288 -0.6175767681876972 -0.09211873151122799 0.6029366631986851 0.3518038173630882 0.9523658188431963 0.3270069316012388 0.5293972619954409 0.4748332220800739 0.337111777759837 0.6151803221279389 -0.9207908683818598 -0.17358888072910106 -0.5059467816708095 0.2345385882596951 0.3100137055682813 0.5354405067619055 0.7284374682900745 0.13664097559293498 0.925830208054576 -0.4500212091672499 0.4294040924454441 0.15487996195766743 -0.40692165480272297 0.9208298060576318 0.9262432359522975 0.25505400701574044 -0.8589997364853704 0.5601871295100699 0.5840735734625048 -0.5316560747518819 -0.30548991246843593 -0.5451345279547912 -0.19079908413876265 0.049336567936833366 -0.9791216946205828 0.40669498714117014 0.8500634396071712 -0.9350036570177325 0.4205471657464692 -0.03971411341078432 -0.2851794429991383 -0.1315965781563304 -0.8782291660816912 0.32913594560532317 0.3130688253624574 -0.16889997841614063 0.9231054397522052 0.32091759422906335 0.9374477031714895 -0.6460650005936642 0.9070327974060178 -0.6900791265927726 -0.8506588211292481 -0.7141986470064844 0.3459293314169252 0.19646469112763473 -0.26941358152238754 0.7943559544870666 -0.855353014495962 0.8961616119382422 0.10603752177147212 0.3372415021754637 -0.9107011676073888 -0.022967241063381067 -0.08500764212396782 0.3781713247832096 0.15839527158718902 0.8759400204304565 -0.44132858261739316 -0.557965892602677 -0.18957083990650947 0.4024772204085554 -0.13342351026165336 0.10840420563041446 0.6982284237846321 0.33678999265427295 0.8304524510920204 -0.3485243381184677 0.10339616272210428 -0.6897534327703314 0.5228581144476105 0.1494849268378569 0.5093520992000532 0.9346251308272446 0.38610075187528176 -0.13375154653480278 -0.09956315574372718 -0.44426771515123825 -0.20530804996195692 -0.12351216758419949 -0.35833227048661964 0.5843571320194852 -0.4873019460086144 -0.7369356004130767 0.11838702845063928 0.12236495769364701 -0.5213368952928333 -0.999661726246826 0.3507161851039071 -0.6874069423143843 -0.6025843938713276 -0.03615882779258658 -0.8129084943629326 0.17403836289768404 -0.4801278538250987 -0.05254009774572288 -0.1744735327442502 0.07526826520368887 0.47418256204297476 0.8048701196784791 0.8975735059867131 -0.7103928000234841 0.32556104329440194 0.2256110977738859 0.6028295537138145 -0.23230249785411192 0.8327804819135509 0.615411883444609 0.49702727689359494 -0.014672577455573106 0.41368873875047485 0.03985713193551255 0.38700077534433835 0.37391010261187213 0.8843650682495487 0.7285530565151515 -0.3586457015600504 -0.3205943797599093 -0.15097523692365197 -0.5244486726141638 0.23079123239562518 0.6667985527331658 0.6811082040680626 0.2871834059465684 0.42273410676273815 0.9824291471107509 -0.33312296807519703 0.8599564350483454 -0.8577213758402439 0.35958344479546833 0.4693059332505017 0.5862017961666366 -0.39621740977805 0.5284840653426229 -0.593400009689499 0.5965782368024806 -0.4164557447894458 0.41256857613323444 0.26501330603698847 -0.7793367297001681 -0.4362660913775907 0.06386746041548658 -0.4585169108528311 -0.04498674182034512 -0.47839854131860604 0.583181425776715 0.6666945610497068 0.7955041966442661 0.12912743472501992 0.5579998285898671 0.9797915036742892 -0.9677823915687227 -0.3258262525863249 -0.5815622957463567 -0.20845416978802564 0.2915245718232706 0.8177462732167134 -0.8691065437204389 0.8378158571953125 0.019962946263791977 -0.894243321584106 -0.7044435459266134 0.2867698341390735 0.7465942536048487 -0.519112063286056 0.26955893891972044 -0.7927995573429552 -0.2100814215967642 -0.5734272467854524 -0.8388352115290936 0.6221588415681399 -0.5884393201399336 -0.3836602519581005 0.4128330037071095 -0.02135805629316615 0.29952253862536077 -0.8293413738387161 0.34217031051244773 -0.355258885164289 0.3598489609938548 0.7173259959607433 0.05648904528864504 0.07120786014558503 0.04022039467630148 -0.3304922097879802 -0.5172168361045225 0.31180379231318434 0.8506700111923778 0.8605013709528392 0.38042453632119616 -0.10132241299278773 -0.42291372618495954 -0.1944635083019621 -0.2652731199328218 0.951924293783496 0.6034221941425064 0.5510423975998928 -0.15973812447120708 0.6967502435409347 0.05185140713547742 0.46307447744876495 -0.7187633523368337 0.5993948285159475 -0.33730517112053937 -0.07028755072330618 -0.2878774881477324 -0.5082364167617504 0.2542266459427975 0.2988286563222939 -0.7957024694656335 -0.8856235294306668 -0.09185335396709038 0.08373553006300619 -0.3169679975913987 0.8306207390489555 0.39689811672490477 -0.35527555472129824 0.19933845271064307 0.7378629222666184 0.8043452460013788 0.04562685836851429 -0.057645936788927654 -0.968146712452953 -0.3997541238604662 -0.13149734417285647 0.30878759034528874 -0.009392836810798265 0.5925568998778232 -0.7862865866574142 0.15754240083848736 0.017858251148385174 -0.11113070662101687 0.06839345499183112 0.523834589508213 -0.9505142124672549 -0.6795895202869464 0.761594467341179 -0.8352169836703128 -0.05562326868349737 -0.41811311708446186 -0.9035650424207269 -0.7165884483213515 0.5653712489980514 -0.737603351226378 -0.8406607189620344 0.7066748405500302 0.48993627702149095 0.6365235014082677 -0.3152299669085805 -0.07817591753110578 0.7348115350662932 -0.7759154200247645 -0.21198926433476564 0.5208352699819666 0.9721717671210492 0.798563073601402 0.2793826947103004 0.5242668431480961 0.510875427352165 -0.8117133746682033 0.84927879274114 -0.47911870601180195 -0.8139544809185895 0.7494193235638327 0.15813944511699332 -0.044024979207372854 -0.503423508848976 -0.18822463439794906 0.6509643313186181 -0.9568791080095927 0.8267817467256333 0.0353512059549968 0.034885023460833296 0.9777174505687817 0.8090118076036126 0.7774327262280206 -0.9196003093449909 -0.6985378812864098 -0.23604895393772904 -0.4284208611042352 -0.15027898399617626 0.945812690758616 -0.902431437447041 -0.39810789278515224 0.05538559171634194 0.053019174149604886 -0.18765865316957453 0.41000145161200496 -0.6916938552662594 0.9467083699726928 0.7538782892388122 -0.5880770525203382 -0.8266551265316918 -0.37778452299049015 -0.8462337394699805 0.20653400937414249 -0.3827680046307444 0.8559876775348844 -0.1726619760584563 0.8353830305578027 0.5927074711336638 -0.10888617033321851 0.18836560299857408 0.7803114565714605 -0.5817918321635451 0.211131753163425 0.8368789079241655 0.9740313419861439 0.37985030480434956 -0.803331783501575 0.7784371080648986 -0.3419526860183739 0.46202643262607346 0.7322778438761461 -0.9701314711205018 0.49625830618291467 -0.8366437985293125 -0.4784284441705895 -0.48938423343246823 -0.1442608108082921 0.6516244090645896 -0.7378904473802901 0.2136564024835761 -0.5102299699558808 0.903165606750453 -0.05383194802581989 -0.37277255547869487 -0.6708088115412274 -0.7872896770744999 0.0748398256674539 -0.37005895002005823 -0.3304727855912155 0.7694604970118865 0.5301166161740356 0.6477051565780868 -0.6442970632390139 0.5361378530640641 -0.9405878196824153 0.6395062185626503 0.47463158561750074,-0.6745078140612184 -0.2726572848997406 -0.3724874063288248 0.35778541041207257 -0.6205716340971907 0.7693149541721396 -0.4694250738680066 -0.8049139635949909 -0.6900312329426646 -0.7727915997814523 0.5542045998835048 -0.15176429284778847 0.3099049656588543 0.24327970710502758 0.8150298352546463 -0.056724457459986555 0.48196836675000876 -0.6729776594588643 0.8401509182162732 -0.6743698895862769 -0.5098234656228218 -0.41396222643790215 0.714885803804471 0.8437014801314195 -0.6947216696286662 0.9131816648718905 0.22284822659833425 -0.059548679043120334 0.4500856387443817 0.4053273424009787 0.8688282065978958 0.595171709814422 0.879433422512782 0.7347105169309498 -0.628522301872235 -0.5236869843537092 0.19948264538034477 0.953652944837573 -0.4716791908260942 0.9113589517417228 0.07616000045204262 -0.4963115184429017 0.4170312055604196 -0.056456519568745915 0.7041558654392622 -0.9542358064167138 -0.1177088241236937 0.20528012060824818 0.7787639829631954 0.5725056259914366 -0.17856626695834554 0.4173390638265799 -0.7099482682745277 0.6922751284189221 0.6446052744622177 0.3403059094094294 0.32609031823348356 0.9635558802607607 -0.0010700764697035847 0.06614158606599774 -0.5300881560198945 0.6474323330755953 0.6819027441006715 0.8310892049017742 -0.8667665446946472 -0.8837562780643554 -0.4219818190916823 0.03496291181865407 -0.7591535483853212 -0.1069441207951959 0.5372502740222691 0.27330834465288006 0.9936967119750318 0.2426541433760351 0.30685797190904085 0.3394419051647377 -0.18973867889617005 -0.402739284380308 0.7451274069219491 0.685102303896684 -0.19883172176743077 -0.502992772569979 0.05091067724884035 0.2544607484728769 0.7406733128674816 -0.5772823500776387 -0.3177581388362858 -0.2215562849360151 -0.23875923748499955 -0.03434855284865905 0.48080282422710285 0.8615081484247176 0.8578707607330166 0.254116602527419 0.5014524674496526 0.08969593267708777 -0.7823668969166956 -0.2349603481243663 -0.005009275421435167 0.2310266603663616 -0.03819837579209995 0.28362026801959944 0.47770034319514965 -0.007406219582858444 -0.8351959682314177 0.6888445298551494 0.5929408728624432 0.5970662995415356 -0.47384936150178275 -0.2914280544881134 0.8132064455013173 0.592939697500307 0.37717692631241095 -0.6798559791989269 0.7859495449872159 -0.6853392074231801 0.6040409772250737 0.7097250574691856 -0.9889470643561393 0.03638226956083565 0.46499129692347335 -0.5627216671775882 0.5961937123580557 0.08717405478341389 -0.07617415206692352 0.6788728502731148 -0.6857418251762804 0.35240121819252906 -0.391932784861488 -0.8769642968615519 -0.053698828579929254 -0.41433907660399205 0.732402769947956 0.0008853795101577376 -0.5174723520390971 -0.5024685303089728 0.4046782671562443 -0.3825659297885507 -0.036691297127003614 -0.9553835905077022 -0.9785339616952662 0.32862146034068496 0.3075273924851707 -0.9599071364468398 0.6277241784748085 -0.4841017717380866 0.8914676184374184 0.8292737040963439 0.11672923686444037 -0.36054620083125505 -0.8766479416977045 0.9349397877457865 0.060711898768728456 0.47310636118514426 -0.2770752987464711 -0.5870223672674613 -0.053000351368127134 0.036019282408140806 -0.5894945066947631 0.051151421097702016 -0.45335200779217677 0.35910163101416553 0.8739819125694231 0.43536169463228913 -0.6487113292032011 0.5933580815158174 -0.5336161432805969 -0.4355759014616435 0.5967491508308744 -0.08861223348445657 0.8592574484782503 -0.6936478217947697 -0.030536107394145588 0.2655004389238996 -0.44158126672334275 -0.8576411286920874 -0.6204092757641028 -0.6945237492994253 0.19287462281494056 0.2178663187676878 -0.6975646747642369 0.7522745828560052 0.3640677041275833 -0.7133150433909655 -0.5419966911804274 -0.7586182905327076 0.23737860030345037 0.22343390851441697 0.3006490282978404 0.07785822970377576 -0.1368559604341063 0.5619658787440754 0.4886536093851505 -0.4251706908032733 -0.3397615711260969 0.4929319978616545 0.9314211578342333 0.5043598852016795 0.14700907938217705 0.7395103551767452 -0.21305495979318684 -0.674724881503927 0.965358312105457 0.5240654427124941 0.13090018412705798 -0.17934130370952145 -0.6888660324752167 0.5811547130367929 -0.5725603256601437 -0.04748981811699913 -0.75316140469353 0.5657053378590025 0.4300697984487812 -0.31727558316381765 -0.32238265963495416 0.6994169330191201 0.81694585132844 0.10333672432216072 -0.009746952003473036 0.33062253979859835 0.2138942760401871 0.36834240744936075 0.4344777586135467 -0.49789225950853155 -0.7579794174762672 0.7622437378288914 -0.28996586160945664 0.4300337801340364 -0.007823270423536623 0.4496975850160638 0.769119766000029 -0.7452368355585164 -0.6578836602935899 0.8704608768340685 0.3116814047577163 0.44077986844336514 -0.8330463238988121 0.8622514590689926 0.7993094130713952 -0.5719756797921234 0.9020362521950008 -0.06227148053012337 0.8759443473115571 0.8876863044416075 -0.5437479731377411 0.7141866766255541 -0.3201938338166033 -0.19127115455103583 0.319004655846331 0.27935719176076595 -0.12173950692600846 0.115658666241274 -0.7903024795313451 0.25958572281799247 0.2637175643013894 -0.732758582375781 0.5910037989875071 0.8734259255945969 1.0002380484996036 0.4134834948916538 -0.18789635285709527 -0.038641759434624896 -0.9959740673980306 -0.30743451272084277 0.5149871385521436 -0.31318255784208315 -0.11545527429018898 0.0288098664061153 0.6669504343498353 0.8896224961107083 0.858372765776456 0.9698692841003564 -0.8005226951681569 0.6588643496274696 -0.889235900813184 0.7472044283831916 -0.2905248857042774 0.32199405303744816 0.4331920355180618 -0.940315928860475 -0.8837680280845739 -0.26058640394259514 -0.8195383021085341 0.3506740280310462 -0.015937681765580466 -0.9187627458878828 -0.34460256022272473 0.3790643300598957 -0.32506543226878487 -0.6377830145413563 -0.06367161693604136 0.4428684314854494 -0.28686282618921716 -0.8655691500339497 0.9128603762913459 -0.9495492892209272 -0.7103645308131115 -0.37434309393853266 0.5691221766861895 0.5303643530267179 -0.5065835960730203 0.3122661261893512 0.4942894318175442 0.7392585194849723 -0.9227829938640363 -0.09982563939198658 -0.16509298019031712 0.9240403064398441 0.9436543063170518 0.23060489147453977 0.47416222038549005 0.6657742786542892 -0.5261221505619305 -0.830588470330898 0.6050966363904566 0.1674773490127767 -0.32374850278483097 -0.19042015171152663 0.7053622795490556 -0.9361175581589716 0.9317887618285974 0.8054514780122397 -0.6459586543007284 0.08610201684453941 -0.22993427988279466 0.639855577605017 -0.21763475926687148 0.8022722992787316 0.342386335619735 -0.1821593949860949 0.20362502898169604 0.2994889231919573 0.32026986461306084 -0.9614558604663822 0.17255364927301706 0.37307915230372357 0.3204462030397872 -0.960158739940246 -0.9258352098644655 -0.2528274041761662 -0.9834317066439372 0.2215035526651014 -0.4650968451863662 -0.5989377808097542 -0.3500801635810187 0.19173654550249666 0.7925509318048488 0.9655566221299253 0.040461250339291634 -0.710487736620083 -0.20056012668502218 -0.8398028973154845 