-0.7709895991315401 0.16195051300393248 -0.7524627482403332 0.3730897443537533 -0.6068793314782219 -0.18225071540214866 -0.09525466332081733 -0.20840428511876352 0.9056213680640302 -0.703744198337845 -0.12086657110516419 0.5842200466413847 -0.24949646866334207 -0.05231869176678505 -0.9823876053385738 -0.807218935371594 0.9598219824520919 -0.20005040332148183 -0.287041520451192 -0.30751850329495367 -0.02507527831234735 -0.5010406272228751 0.028037540839131125 -0.34966919282718556 -0.3730528301084153 0.2176008303106587 -0.7245154939186018 -0.13463884969465933 -0.9803158134661485 -0.08355679364957935 -0.9120298067689996 -0.5070495214754114 -0.444130752694881 -0.6349315890570125 -0.8975693138322209 0.8537672959600503 0.5690143761131198 -0.7621431715352878 -0.2929172600495905 -0.7370632575234831 -0.7988235905455794 -0.5426653773961498 0.9518841889928101 -0.2383937450295199 -0.4884194267026768 -0.7948776253363841 -0.19471405679917977 -0.9306115357756872 0.948360989963812 -0.19327323337328695 0.041030985275618104 0.6776675859151304 0.6169713697434211 0.5915846369419908 0.8679012478670511 0.5160361480996345 -0.9301109033758848 0.5111946102975289 0.004868042099366976 0.9771968169604688 0.0008281483208275022 -0.7402529445561411 0.4170138119390043 0.23003729296612055 0.11071367028490962 -0.27844373393389676 -0.5645571090694216 -0.2179441061237366 0.09269441066104206 -0.04514085246271751 -0.4106441363159586 0.011704255221164058 -0.5914033443602151 0.26565518528723503 -0.6594258002460672 -0.8984411879213878 -0.17104517365588567 0.7158582975686284 0.8061267451950879 -0.2860713445395473 -0.8966291003976604 0.2529880727895858 -0.058421828697018396 0.627057018405653 -0.09467861628116658 0.2100455242739867 -0.07544549164005492 0.764290077020999 0.3303053212941191 -0.39229928829297767 -0.5934493090535358 -0.36741696766389215 0.5744371974776985 0.022297782847198622 -0.2112613306889856 0.3680158902080992 0.4974554807011195 0.8638450916632827 -0.08979831532901753 -0.5334196009064669 -0.7587779726850261 0.5349025026912804 -0.740288877488322 -0.7068032324838376 -0.7466679074135081 0.4525020668836279 0.7660671948391614 0.9882526759217477 -0.6109424814697152 -0.10142499176755901 0.3413109289878611 0.600939569388232 -0.07261637488118922 0.6651695783969045 0.3997836993498995 0.8058004849187648 -0.8635411182343733 0.0071182603574903355 -0.8970651029312707 0.48183748602206106 0.9184942129207545 0.641178890584632 0.8386494974368138 -0.24121504906331312 0.5743539116481012 -0.561134487220511 0.5403646392933834 0.697717369272188 0.9946049160500856 -0.842346332522315 0.22195445069696024 0.42019456808319033 -0.19516828633132907 0.4487620317784913 -0.4294101775296174 0.385297533925937 -0.712286786008415 0.394214654354612 -0.5616540274192983 -0.3815520895866089 -0.87482728380778 -0.5128135187511511 0.7986568574594549 -0.11623502912619485 0.43528376590098766 -0.3149037250028297 0.6508390661315386 0.10136610089396857 -0.13584834622980757 -0.25900919135810024 0.394073959493513 -0.6978829384056023 0.39072065620238283 -0.8737009679002518 -0.48750216214763464 0.8836640740307108 0.94607894736011 0.9656150320016541 0.5160482494304732 -0.8048098332086436 -0.30908208641777696 -0.09231451202224704 -0.8666861741420768 -0.012281629294363385 0.03701689429460598 -0.06560142764397259 -0.679903470996124 0.10033936628914963 0.4777916426096558 -0.8994845627154664 0.4759407253531579 -0.7944999126283695 -0.33657778278635847 0.9265606828470216 -0.17194740059322616 -0.10680138706111278 -0.12626654451642266 0.9151656514856817 0.42697989571153 0.04548036099747034 0.8639652025461227 0.06810952758513958 -0.7903991062253976 0.8723165483170838 0.1744424498732855 0.4917581181200017 0.4895662481022747 0.9930632534538696 -0.6647495325860429 0.08836136871515145 0.48151322812202635 0.5670203355034322 0.3882938666501627 -0.98709323319144 -0.607738286143122 0.9438569998365912 0.0063521127633565655 -0.3822890574361637 -0.35821408957932216 -0.7678153939034141 -0.090802027359933 -0.3206606612402065 -0.3418054731708905 -0.7080149543706519 0.41180135821005065 0.18823449529823616 0.6874837245266546 0.60901724998163 -0.9661807746844625 0.6343938353815335 0.12161522431784713 -0.8138103291869359 -0.3562860821228526 -0.0039145394392608645 0.41335854627000107 -0.6982648217462296 0.4907807097056157 0.9864096438481859 0.9178607876708513 -0.5999221830262319 0.43956164813599635 -0.7517809515241691 0.7576731626860892 0.0464553742609168 0.44457140801287065 -0.18638150366377737 0.2700812162768292 0.8807932457974502 0.09012743434571023 0.38064184340468915 0.4426395371473199 -0.7506376226885434 -0.7395980417230411 -0.6884926274581368 0.6732172898593975 -0.6704343525558353 0.21202874023258245 0.05612823595946597 -0.6911903121325151 0.3544236354461448 -0.004554567549596489 0.33335767581880904 0.9596565749728201 -0.9285801144182712 0.5750330927554126 0.6114960618013834 0.7468927856767985 -0.4911108411547346 -0.6249151082055788 -0.7928216877090828 0.6669144109970868 -0.2550786834930509 0.8845452719778268 0.15149081675540957 0.6385429990204262 -0.8887750883692137 0.27816473642145423 0.672015044407427 -0.805582473065126 0.033615175769038094 0.7988011771677463 -0.15027110889093526 -0.6330820977282909 -0.4544591719190088 0.2695651010920248 0.8940423875201113 0.7115950806989786 0.8855847213301551 0.46284439123912774 0.32061900984280894 -0.8315273221461504 0.03625945790041844 0.5300411430646647 -0.35351739031009033 -0.44477993805362437 0.24782567547528808 0.7997743976789659 0.7493703998478445 -0.718297405513623 -0.007179420214659271 0.08804714671027658 -0.517457078038478 0.7672797374979957 0.2544004113928166 -0.9926601406118607 0.7417383395121797 -0.16470327838315565 -0.4627320716572065 0.14703518530552148 -0.3620316062052503 -0.3282332748418286 -0.5290171565367779 0.5842767350759602 -0.09010292218604192 -0.5348238826562446 -0.5674344722861558 0.709262638245424 0.8437030100234301 0.04501416119173756 0.10024949476791908 -0.2845574178652809 -0.06633959095032974 -0.9517284814226447 0.6896422662041872 0.15830577310723692 0.4227552494736884 0.4324271043124736 -0.627689142896121 -0.6692497398225113 0.14045000047719636 -0.8667408098524179 -0.4225793826875467 0.9176302396520131 0.5935429444643043 0.28831521223303214 -0.6713152719171421 0.2903227762684773 -0.6267331242946657 0.021332300200021775 0.23541280962964628 -0.9664879751871475 -0.14794410816642142 -0.2010665443959057 -0.7626301065398357 0.46119316834076435 0.9488795739905603 -0.9373499392322396 0.08844010555060915 0.49887788681177486 0.9508293604512251 0.530475825795241 0.34669997379530887 0.6225960166262297 0.7041582826241832 0.9087433634789492 -0.9237220211735594 0.3596163260305951 0.2678670470640262 -0.2946089571485566 -0.6154192312260316 -0.5495724266184387 -0.48424124041009997 0.9439078331333843 0.8425035285204235 -0.2053686702105807 -0.5953265116073403 -0.5789163515713837 0.4049282947991948 0.13289406728204065 -0.9400843590158147 -0.6673089121615059 -0.8527159607720085 0.7103503367893471 -0.14229494297608666 0.6922349416153183 -0.5436020985009703 0.2350975378428549 -0.18106096309916775 0.17789978550830615 0.0286856891349978 -0.40197036050787543 -0.0216936205548637 0.017787527843188527 0.4397930877706741 0.26718118192167206 0.753135219418661 0.056594804316918816 0.7434422632046049 0.6087118885914805 0.11204877995152489 0.7839996632121634 -0.17364517523912446 -0.8661895788644601 0.36714429590388337 -0.26024740089148607 -0.0509545137545867 0.19463374061535596 0.3479801202325503 0.6128261832801944 -0.6276624650503811 0.4515493387368183 -0.5886408331153243 -0.26747820701663394 -0.04609912480326905 0.8410934917349442 0.8094433684221096 -0.07478932161015849 0.10764815976446593 0.009620974140899439 -0.7854355969050263 -0.14326699542352433 0.76137985332801 0.9321247216441013 -0.09910196838891072 0.2987822718983677 0.36775000450243206 -0.7711813982321266 -0.3988418382528259 -0.33563630998756333 -0.10042736660233365 -0.2607028198705019 0.9810689849930373 0.6863327281285467 0.263875667229659 -0.038430131363995604 0.8702408781615908 -0.5482431093042466 -0.24243505334146262 0.6543874203365393 -0.8351323337650561 0.7252498604102867 0.9969262443171781 -0.007046942664985828 -0.03491944421931102 -0.5574030635555568 -0.6195206268370776 -0.977812481500775 -0.5000687261457192 -0.9050396867652435 0.590771866998336 0.5210776114128075 -0.012104278687677716 -0.20005694501146157 0.8089386535682728 -0.9845901850754113 -0.5491232607417539 0.09814173790477163 0.5091751226472208 -0.3347335282598505 -0.23922751543856205 0.1817338697646886 -0.2813354968702877 -0.18691610291378014 -0.0753011752514673 -0.9620466708880603 0.3005875179147675 0.2173749536902898 0.34420610458782636 0.03595775858573418 -0.000944093414210599 0.8005612240805557 0.6372683732488997 0.10103635924398802 -0.22054114998318392 0.6521455585440535 -0.46329144419300144 0.5189794830328334 -0.3647464261381554 -0.8816351067950279 -0.5371648426433342 0.6778283142627394 -0.6730585772094274 0.25673263768004984 0.3153813978038663 -0.685711943372937 -0.9302113541380946 0.5732731180880051 0.20183652429503843 0.4824814121738194 -0.09849958604173953 -0.9053829404875537 0.75322037051778 -0.7398711158285565 -0.24149060218384635 0.5369890153519667 -0.3642513310670046 0.4304413357310032 -0.4373076730109662 0.49026192377689454 -0.6005515507219756 0.3620636386956747 0.8680228575931859 -0.3427926160891644 0.4721368213267754 0.6447417064356856 -0.3751035238028622 0.8960170186092267 0.3710248701520831 -0.32930902231622033 0.870943659324162 0.8762863738113561 -0.37093172151476844 -0.09667347868481944 0.8489177170828927 0.46087538044867776 0.8760908038284378 -0.8567344505276828 0.4778418344452962 -0.9291782464655447 0.022087418265861743 -0.35445556227024866 0.19766849936364092 -0.7852488754842711 0.30163838919275376 -0.0748165756832924 -0.4276234034512052 -0.6698640435102429 0.4051095031906124 0.9278611946528447 -0.6676712893847095 0.5996964134809282 -0.9097268243803751 0.3425500068951053 0.9825844666004567 0.7946838000247858 -0.5464387407159013 0.8251978283771194 0.4684196373004201 -0.8832542383967239 -0.4657878479494178 0.34419272358066433 0.4704828846494059 0.5540819618140592 0.4791966527905012 0.02365889946791635 -0.9134215735175534 0.6174179687488061 -0.3203300390859598 -0.27635698949153253 -0.27673149454947304 -0.5673610408054145 0.44436687805471925 0.07837902332297035 0.46945255651878126 0.7954154870154482 0.23701111540095113 -0.04619491609761526 0.9830537094818586 0.9060111006931273 0.1730347190301536 0.1633832603675492 0.3999429429829431 -0.9854946869633261 0.7365665727973418 0.3846133988482612 0.43106479044063223 0.006143907804238157 0.1645147808156719 -0.3352573418895927 -0.7640859530069036 -0.2957121492246274 0.34691818909069677 -0.9154521364308699 0.30599165290555125 -0.3232985175711047 0.39265899806277976 -0.688475619014542 -0.6512117901651525 -0.6862627861106994 -0.7832346839566671 -0.7764509307055503 0.6702533700707803 -0.37174951924995586 0.379285400903328 -0.8392726748063482 0.16994862664456162 -0.3948568750540577 -0.8621454709288607 -0.8805604603163659 0.13464358515520614 -0.36704105601726766 0.43077343141806346 0.12641499701331896 -0.4174431637255787 -0.440288597474055 -0.3515502177302401 -0.6197874664346721 -0.36526978719718534 0.16562754144073386 0.49730853425882987 0.45490123029745955 -0.6325521686710756 0.1840423190506991 -0.028250274128651505 0.4415453486289326 0.06284634374482127 0.3689321447786823 -0.7744323365431637 0.3585906304208063 0.6957409204821342 0.2543897576255654 -0.6648941087455268 0.21756517301705633 -0.22365617051734185 -0.7789164833128842 -0.7130639073266706 -0.6325166783135631 -0.14611190639330363 0.2842558052162123 -0.736747907508361 -0.4089114567401795 0.4449848955171684 -0.6127908476116424 0.02374431959187771 -0.34183496469813657 0.8364820162608998 0.4198514755608308 -0.9525152423338891 0.5383409426044763 -0.5973171193526104 0.2997941028073037 -0.386844112181113 -0.9388656440579747 -0.3465364908744266 -0.8604945377969837 0.31867551807611805 0.689124480495431 -0.6845820676288491 -0.1695923961847958 -0.2299822187342538 -0.42072651065829814 0.013996568743284504 -0.31772947166016113 -0.6396354886204059 0.25852852659132647 0.35129855915061725 -0.15340294893071915 0.9251286051055005 0.1436941883738633 -0.46629521711133387 -0.07062318341212961 -0.016863520791170362 0.26277881062017655 0.268762653730356 -0.37976635454928714 0.903052785244062 -0.41094173438315185 -0.14655072287730714 0.41983477627249116 -0.27217842794524394 -0.6852614019052243 -0.7358296004235669 0.30604841856921505 -0.5348362783960594 0.2281974620359877 -0.3600770698493568 0.5398576607668798 0.8727126066712863 0.009559823536513653 0.39545505233674405 0.42907692367747774 -0.8519237888197608 -0.8640487654040956 0.46439077916684646 -0.1301023517772757 -0.20527979633645033 0.5868962376603105 0.4958674450329436 -0.11387094267746448 -0.14453521284795812 0.8224607519929843 0.6060875242978286 -0.4676988733631527 0.19452988548595745 0.8560154407403767 0.09155797467208876 -0.3134297615064579 -0.5389228274227796 0.6423140596782788 -0.8231806474586943 -0.5159718579547563 -0.5243371567674721 -0.10242185641745173 0.14913276770145706 0.34423329824932525 0.5617447588200181 0.3716736703524347 0.788769890521622 0.5260480837466042 -0.8338443116471972 0.3149370619554586 -0.7577432726344606 -0.8858762448601882 -0.9747130921741387 0.5549365276953433 0.27982093344911224 -0.5832720636858968 0.7810615594606166 -0.055260677667327986 0.9422364217610417 0.04973269572710648 -0.7251661738378749 -0.35742440035266365 -0.7216631727887647 -0.4165651950711243 -0.17677219873985425 -0.4480579694066522 0.08527286074891263 -0.6905261945907194 0.15295782906102573 -0.7424731195367971 0.06940154019767882 0.6494019168521562 -0.19519911084434474 0.09454825729629796 0.19115752294539015 -0.6283191825125451 -0.17538797233440742 -0.7504568796975863 -0.020726056566663598 0.42737381411566777 -0.3254141865258724 -0.2224052895403792 0.019236258318533303 0.5805312713843807 -0.6653539820104521 0.6217088796279762 -0.17619842356359344 -0.5889446840092799 -0.9561165542819527 -0.09170825268435127 0.1635400839624482 -0.7476851077574115 0.724278002910637 0.4556760790392674 0.8805250155561769 -0.8404803283499144 0.7563887935565886 -0.43365330315056316 0.9512524257869983 0.9503847964018274 0.7957234602795624 0.7761315860926873 0.11342588489431905 0.17626451815155283 -0.19827267184404965 -0.6994087232064234 -0.8158019460607766 0.9245145136949597 0.8439983622312219 0.5091891165591276 -0.8484347820811557 0.5895374149203524 -0.7360154151213774 0.6206935327429115 -0.8366706443517674 0.6084411958841349 -0.543128400615443 0.9398604410334861 -0.9992689240715653 -0.35942631972081507 -0.5202235080103124 0.3226896931357346 0.6158900711854419 0.6298942990500036 0.4777362276383364 -0.7293297601197064 0.1412864773659099 -0.27155162037894004 -0.21945815412135553 -0.2715669152098821 -0.2785921397078385 0.13422872678058462 0.8822455009168506 -0.001373711987206816 0.20514910523589713 -0.5259052553668624 0.6996481207603444 0.346460256939644 -0.40040374697644543 -0.4221518583382746 0.20908507882451244 -0.576828483964226 -0.8115351758828226 -0.3498588161377175 -0.5944580658636964 -0.7966672427120354 -0.3832261839375838 0.1122113311971526 -0.9955200196961255 0.25784113821682736 0.682589064324422 0.37137785437716625 -0.6326905562162156 -0.7917356308512556 0.5014424625370738 0.6129289281921013 -0.3117921663628077 -0.766840754952132 -0.24836189212947019 -0.3753656214824441 0.7568017159757903 0.7720510458075693 0.46298529664172294,0.8783759654111902 -0.18291921263063315 -0.7716070302364169 0.9420400133228495 0.7387544496426137 0.6177703855062546 -0.5818365507533492 0.07925560855736302 -0.255632243392774 0.37969001734697305 0.831309562156419 -0.9712647829180643 0.9977674389342832 0.22501941548210458 -0.9286330753566683 0.8989476887629093 0.8046641650057542 0.1379393040200365 0.7149264639145203 -0.36287272121704084 0.958760505621808 -0.6504892609096722 -0.4620354221679288 -0.5624098894433005 0.608180417361782 -0.2660760874213306 0.18958570133226837 -0.9366611178211646 0.5445861324827113 -0.5206524321337813 0.4895911869909453 -0.7890335581931276 0.5136434559338465 0.6404901814129434 -0.6620578095292686 0.24917869057514772 0.93613267633353 -0.831275914402534 0.6408381395695547 -0.6335092354947369 -0.7202801808051681 0.35783696111033253 -0.7994115264516654 0.7177103806652593 -0.12392768745468008 -0.6498114339232666 0.3169062048812656 0.44253501957304436 -0.08028663698965356 0.742462185957897 -0.3082845995170711 -0.5486853025993808 -0.45209733892965787 0.8971464392480057 -0.7622956308736135 0.7031255931785452 -0.29640850989246004 -0.5326179387315533 0.17443813673905995 0.36959160287099646 0.9572404034894972 0.6237051195496194 0.4277299277841292 0.2643198263650292 0.73946365157484 -0.48974386499251715 0.7001271162765069 -0.8914184915136546 0.6672355602670377 -0.028057363811806766 -0.09427967073140703 0.855549567645666 -0.934782383670177 0.11382176702992235 -0.4375378613790217 0.10456862396899419 -0.19084056229772886 0.18545089472447246 0.9791414056812817 0.3538004055242698 -0.18983761260596932 0.22100889346523334 -0.3357593500047158 -0.29137024079026164 -0.7674012487819837 -0.09113535675533035 0.10623211495724943 -0.9000817176876559 0.3418912795749482 0.7943383457418043 -0.2534671276838205 -0.3359899335240851 0.750963772828065 -0.9429814321614386 0.28451610036411273 -0.43600191331360055 0.06630467849977492 0.3155443472522152 -0.5366460928251899 0.5344797602110658 0.2213162922177272 -0.6630666955564766 -0.5404013248013803 -0.8269697667344286 -0.8553828554340532 -0.880080182007341 -0.14236130389563806 0.624430458356321 -0.993259940907501 -0.5740933046622201 0.026828921197210587 0.5772656367171907 -0.08460131894331813 0.9798227228112693 0.8782065971551437 0.2414656911802786 -0.5264427451517852 -0.03763945166921316 -0.28754104166292904 -0.7101575387392086 0.8355362538795125 -0.8262760065503549 -0.6327394740811012 -0.6586529324665481 0.9784863581114208 -0.20745373153254806 0.36499065513642653 0.7149791146300742 0.3392674222528286 -0.09344213130722917 -0.815666789475047 0.5524980634226142 0.25274980189171553 -0.6352965052845087 0.4451885935508212 -0.1094002302766206 -0.0936336007290541 0.8408031802025958 -0.5938343433768077 -0.13980819769536001 0.7311594966735857 0.0810063004685222 0.08576815147397182 -0.518490995277532 0.9943001988774702 -0.09179927960533446 0.5664504892643026 0.2022014148683083 0.6257288015500816 0.7957729879386451 -0.3067424283317902 0.21899213319996114 -0.8299463721162624 0.9843585994156601 0.07923796639372009 0.5175207013883916 -0.2862269330183367 -0.5127261784280179 -0.08385988133473592 0.7202672263759903 0.023790886993532497 -0.8020724582981233 -0.6984266331535474 -0.560675340958906 0.21825825825161957 0.787774266380361 -0.673867731364152 0.6969057063415742 -0.9309046432612036 0.8246202605893029 0.3367164828257325 0.04968729754202892 0.8766119350601481 0.15747251373146515 0.15308938973431793 0.11060110764149382 -0.6783027247978525 0.5555540941306009 0.6790498435129584 0.7337128432009419 -0.20039791847039912 0.18120735632418547 0.6286660775080858 0.39995926707820034 0.5784457788111467 0.5997721695472128 -0.7945062689881476 0.9009462938140909 -0.7646889544672069 -0.6319035926816166 -0.8338526171641528 0.5657222524124221 -0.14752219881786732 0.6787461331656689 0.7627095641802782 0.8099546826637807 0.36832674021074174 -0.33836094252859655 -0.4867963339184755 -0.7731157720117481 0.5304349867314808 0.16972785749595162 -0.3634740435845454 -0.20252475932379332 -0.9763273322592383 -0.1507897272397917 -0.03564687388062865 0.31677274217596574 -0.4967799457552133 -0.11619242082783836 -0.5780378781245625 0.6514727218899743 -0.3483130732973149 0.10959104779958671 -0.7729894759794871 0.556391178914192 0.29736909426666175 -0.8497095027401241 -0.8149309107000495 0.7441909625221385 0.2205999868543624 -0.06953882096853162 0.7313384147038318 -0.7382761490801397 0.7553195770023577 -0.9705420898164926 0.5463122487180513 0.5567992939217584 -0.46939009353087524 0.05749856245253768 -0.33420605700982475 -0.8409252529264946 -0.018215060461218846 0.20415323689210407 -0.9121961896327782 -0.4580465250890101 0.019755482869165973 -0.07686187031321455 -0.5503865164573245 -0.31188115514402004 -0.5205028614250621 0.9801371819058768 -0.2914481320145178 -0.2485064822921903 0.365922671681166 -0.39392804055826425 -0.9398455506174422 -0.052828604868980826 0.6352763513854993 0.266901813513009 0.727456878467344 -0.00672092331512424 0.8043039458456667 -0.20393289088652813 -0.7826665250527511 0.19537410601293756 -0.8961036280750396 0.7927453988810343 -0.33682128592816796 0.7871120635062465 -0.5541610753300545 -0.08180678855917065 -0.14521510405969174 -0.3851654367199394 0.4098669329017578 0.44241038184296105 0.17676280544371434 0.0654977889590826 -0.16565417611754624 -0.4164941641336082 -0.33034044930084283 -0.20838406908888632 0.907275547267951 -0.017750891409368363 -0.8115869198039904 0.12143929037019574 0.3562169952522808 0.6027845081086015 0.3019848982342203 0.6195919726828512 0.9680331271338373 0.2547116928728417 0.18058782609601812 0.4707857488577517 -0.44350357840887256 0.9137694177354756 0.5126347668173996 0.2453951278638935 -0.016738381396335062 0.3605350136917751 0.24008298382141885 0.8435959463782317 0.4992000499851186 0.8828272667680834 -0.1295689521433953 -0.13250241604802607 -0.6272680030826684 0.2311942835043733 0.9477115504441375 -0.8127641616324156 0.7811173257219285 -0.5544235683180093 0.14268393550523378 -0.19556942668221852 -0.8247429897659487 -0.35580836725497905 0.5573984932914452 0.45093561955392164 0.764110926423761 -0.48267300926026335 -0.3602134094185655 0.49512170461211535 -0.5871572311449196 0.32527810600209484 -0.5901775262920125 0.6840488684405205 0.548154340730522 -0.7411701772463845 -0.1940755064548733 0.6625272540987582 -0.7733039246059937 0.8296318611094436 0.12966297098267449 0.5848970385257306 -0.4036284874544618 -0.640584624618613 0.5186612728134404 0.6667862695939976 -0.5578216736444684 0.5342273978817257 -0.5027250749476696 -0.7854577744151766 0.49166812125184084 0.0983401059524203 -0.018860474431395196 -0.5986117147964762 0.18241029563349986 -0.8788162605699553 -0.12119885662380082 0.6131565158287712 -0.8241858463304074 0.48398284444505063 -0.34453241516093247 -0.2915835495404043 -0.31369592801092594 -0.45234347883896253 0.7979182120759459 0.5633952656808893 0.5355983503056153 -0.7748390111499838 -0.9009021596696896 0.0361644842988856 0.48804068844537235 -0.6530722149982628 0.8604147232138296 0.5366727450690243 0.7406514507154951 -0.518156099751127 0.4344742477608177 -0.381786810197133 0.4343814958966844 0.7827976292813211 0.5647969177441062 -0.8306321543878904 -0.34702377055180067 0.03801143545835801 -0.5835383906385972 -0.2166652402727929 -0.6681085125851716 0.5514843090129741 0.7449330243498072 -0.927918769984272 0.7686681069254286 0.6486760102544081 0.39569250996200517 -0.13490588660286834 -0.8234361350432821 -0.5062939172817255 0.7349344676786939 -0.33146831848167296 0.13169361015038092 0.4362664360619425 -0.7490774391352046 -0.282100512505933 -0.9359566068423762 -0.05547367796738787 -0.7546010512512245 -0.9250828327091775 -0.4109804019178917 -0.5373884031534767 0.44089350193072363 0.2900647918600234 0.27845474582313967 -0.8569274900607073 0.9891736889143918 -0.22651250711863047 -0.37130879588733395 0.12498701458944589 -0.5590729355075104 -0.15450113934128987 0.67145197553904 0.032428588344559243 -0.0850472307884059 -0.5187296566453933 0.8883142294966908 0.7124572525879405 0.6824519939907457 -0.9526225154781829 0.10788374770093206 -1.0397279136812065 0.6241077985633993 -0.4741813281458735 -0.7411350992077346 -0.9340436377350461 -0.9369001167917188 0.42077138301485123 -0.8527892125830135 -0.8991551053044733 -0.8471537947915044 0.03894852335605692 -0.5366279793755104 -0.0971665493824938 0.3390228915097349 0.9651040205249163 -0.4786786843467567 0.717714816845782 -0.505441968242804 -0.02050463541492735 -0.8204710451227221 -0.4244041144080641 -0.7525974681934372 0.2872288464104382 0.030722802593779287 0.2053691083953102 0.5203555740327297 0.1828084867245953 0.16213394667844336 -0.9528917805267555 -0.8786306375928233 -0.6051164008847435 -0.13769817244352445 -0.551147747592436 -0.9231978157927407 0.6220921728521602 0.977568575012313 0.8688759387638608 0.32683004002926636 0.24979521861729984 0.9708230730246226 -0.5718691711293398 -0.7423371415822703 -0.6151083365820847 -0.12695432996093992 -0.9036689330701474 0.750063787233598 -0.43704872865110383 0.12588615752821616 0.1532558125248942 0.5301161785348094 0.2202191634991801 0.5597797156176865 -0.5131579274059721 -0.41769928723413674 -0.9293092695890248 -0.0969132874574027 0.18245243551130205 0.5050805669821423 0.133678795083092 -0.7537952913982835 -0.662270165563939 -0.1845808834584181 0.8072371695710616 -0.201785588884923 -0.3299279513292553 0.45185518623414406 0.6684449947229135 0.45567221938721136 -0.8221120753269209 -0.5569884908973748 -0.6896794231561248 -0.8207165145046619 -0.1582623730203549 0.5872380575221178 -0.422174857597174 -0.27429584719032424 -0.9417648003128896 -0.46458212633238205 -0.17666352829029164 0.10716052819175637 -0.47058605349409655 0.4189560301417939 -0.680435509044048 0.6793597951826057 0.6510521308637796 0.2845652419816253 0.49938717469209604 0.08804548948996876 -0.656007197940062 0.31307176204974646 -0.8637011240465133 -0.772874293060275 0.9912814290143832 -0.030274315785195682 0.9292185094760324 0.8950592542417035 0.8954563974156722 -0.8531555039113822 0.5173058739144719 -0.7082034126758819 -0.16011081990656698 0.876781741908565 0.8657068422805869 0.8324293744460742 0.6038322543670619 -0.9095128669809028 -0.6547081019296135 -0.16618265491670428 -0.48365725963289485 -0.4957272028213897 -0.019354899398506462 -0.8839297130415508 0.9353621740995265 0.8956046492598878 -0.5843316744926814 0.3785769759624863 -0.9493723744718813 0.5914325081444678 0.7585979696518996 -0.675423394822924 0.6753992229083415 0.7509509167614739 -0.2998264045613814 -0.26128930313690013 0.9243252059436572 -0.7304420042134265 0.364707810311596 -0.9212366814305356 -0.728372265879332 -0.5260698384991664 0.8273837524074313 -0.7168430783082042 0.3982678117357661 -0.315719225132983 0.6555939219172422 0.13171403779851246 0.6742727232940311 -0.4171143797283567 0.7084046741148619 0.6186659791226324 0.009895452953895703 0.1180379919126049 -0.46281372841902796 -0.20968122254846736 -0.1861571478150399 0.4102116834177471 -0.7831657612637549 -0.09263743587285315 0.3092899985726894 0.4011640789873972 0.3758613619157043 0.42827751446741735 -0.8518600513688571 -0.9962452914104316 0.22824734369890726 0.9896400361325133 0.51478280061601 -0.19434578452600054 0.24253544690118184 0.8308589447054174 0.08895756228865828 0.9025403223522412 -0.2555525340060995 -0.12641248607184613 -0.9177064157083107 0.12995074030148207 -0.8839298629921457 0.21394339215733207 0.9387794536927863 -0.15225474283462373 -0.7337561577459097 -0.6101592979375045 0.7527479337508654 -0.7855754258438925 -0.2693774265420214 -0.017199301882358117 -0.4018156043098418 -0.35641472879924263 -0.8551718402935182 0.8385908776839222 0.3576962565597786 -0.8755217006400003 0.07289881284308729 0.9534561654207513 -0.29753309818878215 -0.08116695247312085 0.2257331228753446 -0.16856150906570858 0.4833312043694519 -0.10392770232631099 0.1607870733292504 -0.8874753639886582 -0.6005362034825518 0.5295786444577762 0.18147982958708891 -0.579670313314941 0.3843383150390408 -0.8091539530865087 -0.8237162439829837 -0.21584699788779615 -0.2988647660849684 0.944242698490333 0.4872442230522948 0.43323364582214585 0.9511948003185852 0.511344573003169 -0.8757805222539068 0.775520919398871 0.4541968906580327 -0.16813602022498003 -0.5052822617981045 0.405714485176793 -0.9333570011989 -0.29873924850244543 -0.5269966619048652 -0.24694864011460174 0.9432855295808223 0.018460873692153684 0.6041864956706017 -0.6675514030837861 1.0346714179595546 -0.5590625194470499 -0.43648735106150366 0.3469737459636397 -0.37801537572268 -0.9211409462384395 -0.634714393253913 0.8178982108523689 0.4869680435728673 -0.8529057620682969 -0.5503638808379911 -0.7419175472576269 0.7456218777327951 -0.43954761067909875 -0.19853222691520833 -0.22045644951548216 -0.12797628795396343 0.9812204041335417 -0.7969376254858093 -0.8812862511486085 0.0009183028120782583 0.38062605589593956 -0.031639670361374314 -0.18701232832999387 -0.7222537746588983 0.39473859457871785 -0.6445397022504415 -0.39216434647017584 0.23213389818421182 0.3171988203133577 0.8554125415675203 -0.050467743823567175 -0.6026053454046864 0.2080049134486471 0.9843335281784712 0.8884642536039064 -0.16441674142283222 0.24320028380624403 -0.05016925567089522 0.8066260084392265 0.37928779037791877 -0.7023513715984865 0.8794923172295268 0.796128982139541 0.7832683560250897 0.22304502461975986 -0.9321993133089549 -0.36501224620301226 -0.5118882571152252 -0.9359305834374794 0.9691854926349439 0.5437459831624292 -0.6286525846783054 0.18498098664625295 -0.8835720739155583 0.12415143111660572 -0.22523185616667946 -0.8977874768149527 -0.9131082814041666 -0.4773226817189832 -0.21637369390438096 -0.03435506373298246 0.7220979552215313 0.45058323407388323 -0.33854499750565814 0.6520776174231813 -0.9440452537332843 0.8406173975451104 0.906232889113236 -0.6261297924186198 0.1050992052411599 0.465447552501135 0.41081703835808026 -0.27210069747128857 -0.14017257329920566 -0.6543562339362587 -0.6540924710375358 -0.9949602825343278 0.07961752415896566 -0.42521920020752807 -0.6513075910754246 0.08126930736667076 0.8223427309124743 -0.10965559910467827 -0.4392297930934609 0.4001610061856246 -0.9218642656451972 -0.5632120021681882 -1.0104467358094809 0.31210791439931246 0.4951592285454662 -0.9307675392096914 0.12493984405314602 0.7736366991121569 -0.8982912442194922 -0.8752271668923832 0.5003727026571764 0.4559054686955857 -0.31148181635810435 -0.5358445275868482 0.281493954455847 -0.06786967320958515 0.6306046484160457 -0.9636086714638691 0.8085029497390817 -0.816376404210631 -0.8301650937345587 0.1384168799186495 0.3910787599683683 0.4716487485282444 0.21102461018467966 -0.8033053356606644 -0.42708337179095346 -0.8283790084732564 -0.6944842213971766 0.04448759214948733 0.3841589070062195 -0.8394756713459279 0.9637757340589973 -0.10345172233723127 0.8811442574099557 -0.9190869976041325 -0.5774503234991117 -0.4288886102316294 0.9813169031283244 -0.015094824889777092 -0.16787294671463493 -0.7012243536883536 -0.8240752015908239 0.8324227449397972 0.5767492897179307 -0.4113007308810055 0.5715277361050135 0.6910547297309275 0.5721470856987393 -0.9572065680302204 -0.4155134698796577 0.37685534827362727 -0.5644280561590646 0.4676949677231421 0.3235581070129792 -0.28534230515864506 0.27484237763967173 -0.23769668756222215 -0.7493243535433329 0.9109434921431119 0.34048028815901216 0.6997947370989586 -0.286643352772607 0.15143636133358865 -0.3358231691493085 -0.19086179851023477 -0.7069814067186515 -0.08478586184783854 0.9836298713631151,0.6985417561312384 -0.18700771633360724 -0.8718749993772195 0.2491933831473505 0.7590191866115745 -0.1888627426578513 0.7821707509209106 -0.6901702024876069 -0.6206509591731473 -0.7492920633207361 -0.2825951688465633 0.2714419153518206 0.0012435149075653573 0.10686101911988466 -0.35517917458760717 0.30909706657682956 -0.7848608698593915 -0.6553616262340731 0.5042498846886776 -0.44470311128975326 0.8185965537106792 -0.17694618428511366 0.4355087979973087 0.7145106287920937 0.2075398681504792 -0.8079569731018779 -0.09055107832957332 -0.9902021508239651 -0.7526911845053885 -0.5845716100506102 0.9248438422385032 0.28963034268792187 -0.6048351483471306 0.6548732198502124 -0.785575321693473 -0.31116488634850376 -0.024485594981873478 0.43774807755549777 0.44646057088831237 0.7460371787016453 -0.23074358176186144 0.7276004283787508 0.2312929467515218 0.5622674038531157 -0.08627905251112195 -0.9660794577398512 -0.5129928941271901 -0.3683351354526938 0.5662441049822072 0.5631919328566828 0.2905625204344169 0.7684085818763333 -0.945214822545489 -0.005796104017975701 -0.2624396038734649 -0.3127888751905319 -0.8540104820487087 0.32165943216063764 -0.6560426553144809 -0.9594834916366553 -0.9005687408846691 0.1512068167734081 0.09394767933988561 0.518560746632261 0.7692884331625909 0.2361595183520757 0.4070286476153565 0.4490735287211902 -0.6383329698078086 -0.24867774985727512 -0.27724416253235495 0.69808183475904 0.2717622007840224 -0.4719697649792854 -0.2560594478973898 -0.5321911531620532 -0.6398356593088983 0.026989785596791428 -0.6212286250549583 -0.5262416209524722 -0.6403228068419946 -0.044243727218323835 0.6084003517032204 0.8032555759721458 0.5241521871207304 -0.820619076555352 -0.22940108658983094 -0.6564636386211313 0.23543006521937934 0.47731764438574426 0.07403747157643273 0.04338899670302829 0.4575523604979441 0.48603841606384085 -0.14446284670593193 0.170469071126044 0.6909386961473815 0.34294732527769467 -0.06861937907580554 -0.9407980738527404 0.3296216001468449 -0.44464907066635956 -0.3837200756977669 -0.9815916788526567 0.8029478117276987 0.4459772642478675 -0.584047523138349 -0.22162059532021816 0.8605169964445357 0.1909758796474848 -0.5071143059858294 0.4253947208682274 0.6356350141786735 -0.8046854493517261 -0.7356485660964279 -0.7236468385021473 -0.877201221362902 0.5763856987777485 -0.500622545387949 -0.85163071137693 0.44214829955664314 0.09388571767667914 0.08307806444349812 -0.8404699173484794 -0.3442057870420471 -0.258673045479782 0.6012255276645214 -0.8496301373611412 0.6363596779972344 0.2224870128960019 0.09970955587563789 0.2666937726679975 0.41655917101067413 0.4918218836299053 -0.8437522338555887 0.20493077465050474 -0.6918728804476889 -0.08669029212182729 0.10971719177591838 -0.299943706159 0.14195749646902667 -0.05493537055269648 0.6529425683835937 0.7261549471708009 -0.12789211310697673 0.815292309858083 -0.01923190656003432 -0.0503445990791298 0.9631430281339759 0.7293395414567907 0.0003892345588066006 0.048610682496038206 -0.7822189691837401 0.8198495076923273 0.08857117211443104 -0.6803073076171834 0.29603208485074284 0.458952181421536 -0.8000566160934961 0.679267195725868 -0.934271285388287 -0.816199351086175 0.5620577710917598 0.9444094974685392 -0.7746878325297327 -0.34575314360153175 -0.3009929292855482 0.9305523410456853 -0.11316081979594128 -0.6365222045241985 -0.47777315836077455 -0.606897267697449 0.2776020065546839 -0.40515103742725134 -0.09670378733173642 -0.8949154490493366 -0.08348563975471034 0.9833109237336436 -0.3841612053489006 0.9291862158638909 0.793032234487655 -0.6368269712520455 0.9287165560430736 0.1255714787860904 0.798433511593859 -0.21661387506089222 -0.1858125142522376 0.7071486127687053 0.3816607260987603 -0.28897952290143575 0.39440841246497566 0.2991654560340351 0.45082920638661395 -0.10671456057209162 0.4068046208606031 0.1604911670440134 0.18764680010556112 0.24427402177239477 -0.12682054525473382 -0.513942207315077 -0.4820649050618923 0.3468422195213915 0.8353173045314666 0.7033715386400956 -0.6740492591007881 -0.5284869646052118 -0.6270055976888914 -0.7006025553737006 0.74120665625877 0.9546495352778669 -0.7937188568573574 -0.20912667369876514 0.5768629543762261 -0.9065764998886932 0.5640410259433005 -0.3581059515623086 -0.7195219328296689 0.44624041581951257 0.796489884721448 0.2104623555067462 0.2939878346981747 0.9895415130190646 0.9664413839653435 -0.1694877659538179 0.3314966139652116 0.16800815354882317 0.9874054851297676 -0.37693832722774734 0.6385243390665231 -0.25129059772106654 -0.772566458780088 -0.6043003251776415 -0.10716160067840849 0.006847457208524314 0.37283328795577075 -0.09438100539612368 -0.8154258689597375 -0.260925824024329 0.6584015403964597 -0.36567678135199433 0.7305447354704606 0.8993660024604742 -0.7870894976020214 0.907281779949703 -0.05539479838932425 0.11541074933704767 0.9536682761253208 0.6446568531206349 -0.21351653847275393 -0.03453938350986074 -0.5485056525406193 0.6257043406383506 -0.9613955470350931 0.25510092844383264 0.44329355160501016 0.7470538525665198 0.45836578946338336 0.6660174898647674 0.3882748562330737 -0.30915256239827776 -0.8778660370611007 0.06083233801414148 0.2816341952002988 0.7055175381668165 0.5857042465728702 -0.24574688581970816 0.2684648429178511 0.8586186298825569 -0.8511244199274368 -0.5248090653436797 0.4745310927962616 0.07253061956879324 0.05517499733621396 0.37308428315692893 -0.9780623937993983 -0.4724713316880229 0.6874964111483909 -0.6475785379392008 0.9136968953622672 0.6295352100160304 -0.8037486672177088 0.12967313661036223 0.6315095008549966 -0.20464734672171273 -0.9084251460055394 0.31006236589338093 0.18388163542925162 0.7756056738620672 -0.3934884865602601 0.09334826051380002 0.09931299167138082 -0.8811104647004506 -0.41940856679832594 0.794739288909684 0.25058074212370635 -0.9007981182149565 0.9136001584058892 -0.6276307628546931 0.8062822378008437 -0.431742750840513 -0.24516950023623804 -0.77003965367326 -0.8453483799859147 -0.8863720927580858 0.42821203058476526 0.4044495447730639 -0.1981454928169257 -0.43984888208439893 0.7918074024006048 0.8237890690422667 0.03553459684655485 0.15691706534390287 -0.7479387288756834 -0.35981317178511013 0.30669025216668266 -0.1353556569650309 0.82806642294236 0.3859042719883435 0.5616054281283371 -0.24736714407257432 -0.034630610148204885 0.18257332608858443 -0.3777539532253519 -0.5994118403336827 0.5516737158686514 -0.6834484284160238 0.6526091611232097 0.6858821638106027 0.0833411518209977 -0.04810694613455651 0.22047477337558619 0.49225714069738213 -0.06431967525841666 0.17261332986202535 0.7966630523215517 -0.8682174439095213 -0.1491263322498655 -0.5514118596579315 -0.736004741895858 -0.8956956423438879 0.40691693875630114 -0.33891585036268895 0.6590760476896882 0.288244570723527 0.7961601793908807 -0.17404035384164496 -0.19474584864104091 -0.5863459521014819 -0.9284709162746562 0.9196522672803648 0.02067682481447991 0.791633354311346 0.09439043081223093 1.0172117656212043 0.8256678857833535 -0.3946593579126283 0.5533073362902231 0.283940240015456 -0.1230511840773208 0.6396791045093717 0.3121809926817186 -0.1517555252741644 0.2804676595480073 0.10752254463300723 -0.962347579786506 0.3500786273249105 0.8917711362664515 -0.9011409809526221 0.8064221397672554 -0.9872060968105935 -0.4294476469201837 -0.05002023147361145 -0.4528358332365647 -0.08179926884646481 -0.5384075884483502 0.39128250120135166 0.8960802792942727 0.6979026659610363 -0.08439675687444956 -0.23280334613325399 0.8767318184219447 -0.1593557808979126 -0.3696080029915763 -0.15998961967903863 -0.8661792228477407 0.026207512980801213 0.6625118986062455 0.6030982436327232 -0.8997946898448275 0.4782846291846422 0.8327168464050473 0.9374414196147488 -0.17316112563766395 0.4586819977253256 -0.5492374676094688 -0.7519971260328924 -0.44796802549510356 0.3593207270755206 0.22999998351400197 0.7984137354149012 -0.6616710554845588 -0.6111732051155218 -0.266039860852697 -0.6758363229283806 -0.511557226480459 0.9052609691748766 -0.6022364331359062 -0.0463161467368852 0.09521132503750292 0.4414894281000771 0.44372994406691113 1.0445905297719171 0.7883528559170917 0.10070612023538701 0.7611244965908002 -0.18818595090699267 0.8895096162958634 -0.6398890805600548 -0.010870647561758906 0.45260047453065444 0.4609448507109042 -0.8767649867833056 -0.27171823401374096 -0.46332214765184526 0.36167143837540794 0.8712807060289288 -0.9643571686080874 -0.6087169185707026 -0.848629040415919 1.0109740225015553 0.8547759094396414 0.8222718317078413 -0.898282174169077 -0.44843592190833764 -0.6265742484863827 0.5028478207736742 -0.07381376468244705 -0.29348645486696506 -0.7650516359966929 0.7848432314177582 -0.17028813808056906 -0.7009344022666761 -0.47597711983395874 0.8140420861309062 0.5698442371555098 -0.06214007351897705 0.6042947977118411 0.9960518534838949 0.18746073934799212 -0.13226099348451492 0.13406172596377808 0.6825250773606374 -0.8336019774688084 -0.9284428987637051 -0.0001515108328287874 0.030390009224750273 -0.900846230580764 0.3470693098924033 -0.7677199165175861 0.7189352861022985 0.9675948422436241 -0.09779166231498879 0.3738103767524052 -0.1162220243326767 -0.8256743511050951 0.8233404899367013 -0.028067836242144453 -0.9338580617093281 0.2483384692111789 0.047383193641252944 -0.2697773328195398 -0.11323240487092508 0.7605389341710415 -0.6927757300987915 -0.7077459087989456 -0.5513489988180471 0.988052731201466 -0.46738740443947724 0.5139345463812465 -0.8207266672464669 -0.010700050356758526 0.0069826723404837615 -0.5051511127421362 0.028501659877145678 0.08805392068457842 -0.44928611669209567 -0.24020926477250895 0.9887083830902512 -0.2153473257254902 0.13976927296141192 0.05520220204511517 -0.41157948035064607 0.1119944133647411 -0.8587521370617193 0.8419609678914718 0.766651386104162 0.8322217649592745 -0.29337536425671373 -0.43628469651876906 0.5846987592850207 0.4842572165349822 -0.9304401985130775 0.7890517559421646 0.9341608456694963 -0.8802236751170897 0.7942217570348438 0.720311003253677 0.12096777994526668 0.45220984989187624 -0.319945578361006 -0.3731804665677384 -0.853808319272708 0.16503181520176805 -0.8379167685700395 -0.3726430840157164 0.3733413343651162 0.791093984519287 0.3549241641745046 0.7207698596503452 -0.5982057834987864 0.5654716510359424 -0.6599463224635878 -0.2534270132031824 -0.7149183435516643 -0.6122980172511863 0.5398305214180499 0.1870584749265902 0.8879784023818716 0.579296969375674 -0.5737340026720804 -0.4665459658631237 -0.22035241495876454 0.4062988468036397 0.04253315747654342 -0.1607332425203326 -0.5374119813582414 -0.5983573049891915 -0.3484890067574286 -0.034730172989923445 -0.6796849797510345 0.9745096420937702 -0.45681132426200666 -0.9392631975180024 0.518577293876649 -0.08669095529395242 0.8797941251381453 -0.8453215610247586 -0.9165900200592214 -0.8840720771680605 0.8255862315798699 0.7424929952538281 0.506010426858936 0.883385975906244 -0.8885937790987549 -0.9573269518359627 0.22937886888353212 -0.5343343972101215 0.7894257740050339 -0.1937372383982339 -0.21719798935516788 -0.3300448323394509 -0.2356124753322716 -0.3225264693273738 0.6555743693517116 -0.2886230049827833 -0.951198282085 0.334150518939947 -0.5612806939909392 0.9660200843686282 -0.5068162253632323 -1.001912267435206 0.8288382319613514 0.2869979359279635 0.10309481367425478 0.09787133099220284 0.9505880227722077 0.6043280151353807 0.1901084837176032 0.14256546959906669 -0.36225980410084757 -0.353917273884653 0.31823075412206375 0.726568586897733 -0.1569990460531305 -0.9403139571763255 0.75709750228546 0.42728214554272004 0.640654355139884 -0.9767170226071904 -0.01016382256110805 0.37531219873096155 -0.5719667564610086 -0.9378027227553498 0.21284815459645998 0.3280786560858259 -0.9446717459995889 -0.024581653284056697 -0.21371018209264914 -0.9084863257162035 -0.7212968734054788 -0.12206340453955332 -0.7136076807609166 0.8332689058475652 -0.4805095076014206 -0.34436433441615066 0.8025265697042446 -0.9598707180737379 -0.6247707614791392 0.8026722648314436 0.16016476903466453 0.03165019839446243 -0.6074167481776352 -0.5979992517017721 0.8974115018576296 0.11891006420634072 -0.5540515764774605 -0.9094412090191553 0.31910216492223253 -0.5570892498991978 -0.008456581590095397 0.2776451803330574 -0.43809564500406395 -0.7025319648662229 0.2276320472051058 0.2741335175565183 -0.9573188176731079 0.6285818549056683 0.8378054028971597 0.5955180173463078 0.3280828073066178 0.636693731909928 -0.8626613572046626 0.2636643427972525 -0.27623150806654745 0.223429801006049 -0.7186988780587669 0.8590434588742308 0.6088383325697874 -0.9412664199757963 -0.31701165951170945 -0.8841266224001451 -0.3131892675232616 -0.7551712572003154 -0.7172725618994324 0.11346868824307421 -0.7564221367520196 0.42086019327328583 0.7919369123000439 0.6029310050414406 -0.6560639094019716 0.6323620286927194 -0.29456083556896057 -0.9913644262474651 -0.7158694568064381 -0.9797471944642203 0.43397531654298843 0.7105177663968583 0.5721290261260085 -0.021849245287852155 0.40935311694837384 -0.08371735515830821 0.4867003701633926 -0.7268350789125704 -0.3034200555057498 0.3364595961181844 -0.5686802373243292 -0.8438977850479146 -0.12139998849356438 -0.697625624027162 0.9802043448641883 0.6048273295041313 -0.40464690393462455 0.17305448973892812 -0.23068599991149163 -0.5435017513044363 0.4584051393645286 0.0746637007337108 -0.47818812475451417 -0.5492547426525719 0.6357784062773914 0.10313678420608842 -0.7648213541889437 -0.6534933836815144 -0.911464647192319 -0.32528365363669953 -0.7132872023919582 0.41867379483020695 -0.27772865226176235 -0.8643176850662816 -0.8157972927869828 0.15873037781745386 -0.9855682255443788 -0.2485776042917727 -0.3254643182944249 0.8966027721854937 0.5927009731726091 0.18138132041790034 -0.14656363437991846 0.6260646890535491 0.03493707506875765 -0.8124483749887308 0.9022518693876713 -0.8688184434056753 -0.6793400602209213 -0.12770072262732227 -0.9660915350567614 0.8152231588694655 0.8707044563489942 -0.32023773943989914 -0.42631390147130505 -0.6075902995246079 -0.6224652525147363 0.19481929111045607 -0.6092290892768663 -0.4318357471973857 -0.5849971870834729 -0.17473274830401353 -0.5053190138093279 0.3940599416946225 1.0005485651288253 0.15826402971864942 -0.060768011012454985 -0.21144848860612342 -0.9554715115291013 -0.7719206514997755 -0.3209361118077975 -0.4832657473799036 0.3603857382157405 0.25628241297681065 0.08777466022746383 0.14876173500293355 0.0378879488954007 0.6961195945919804 0.0893075076352884 0.14316089443181024 -0.42775003281061674 -0.8710645393341331 -0.07634342034459615 0.35912439598232515 -0.3365456632131266 0.9667603285047702 0.31177573276367126 -0.10404013849281175 0.9096854101607819 -0.3483931131110094 0.578388833231541 0.16018307337886614 -0.5822067622467387 -0.5689489298267549 0.7205041110315957 0.5033823376838653 -0.9078330888114826 -0.48657041521533584 -0.034638764924479704 0.5866074472933707 -0.8571851270321647 0.051176104781982534 -0.7942209413881005 0.5954577044807234 -0.15320388988049816 -0.7400283016666025 -0.0025420280259567107 0.2806961116069382 -0.932432774762924 -0.32792828849952355 -0.15022901024721205 0.6739977466366006 -0.05947103682569607 0.9672827209924101 -0.20849119207092118 -0.3410173619465929 0.3895326875774281 0.10183775872883077 -0.9596560719010344 0.36014053138010077 0.5267561612938022 0.7639375184469015 0.9233701303091021 0.4012531968870738 -0.13136972909698658 0.7729651407639526 -0.869641890352804 -0.3067578159656814 -0.6171863460372278,-0.6584422556527436 -0.016492788279170778 0.7953944104942967 -0.30222870727768814 0.6815919239635724 -0.7423386267548762 -0.44997488886979875 0.7204568758415906 0.771325404622424 -0.5288650036874798 0.7333435972311138 0.4272214979372142 -0.3953179060701011 0.5264790527081831 -0.9437508638681058 -0.48763742952541467 0.7318428949674034 -0.9022402986931863 0.5913973880742407 -0.08528812538276087 0.7006885549526689 0.30606077815091015 0.4624939550926619 -0.2694169088963536 0.730691887807243 -0.018482849253084632 0.3867189709983472 0.9586539744539471 -0.1407739148131104 0.42851077735236487 0.3646506539081893 0.9328349868629657 0.5600902199355307 0.8101493938562219 -0.1608741975153106 0.38888788786833645 0.8965227374641767 0.9020679156622183 -0.5121203014715224 -0.7122270618871127 -0.22531650587662336 0.5345749781156018 0.4509814355559356 0.7440722735556724 0.4214915249423655 0.25748331189261114 -0.18936475769370315 0.842619386561107 0.398887782357236 -0.17661318835278195 -0.5392517214513985 0.4832943173750921 -0.9497704071757254 -0.5137916108756124 0.40010959922048484 -0.29123989832715136 -0.893526988082437 -0.7307305994600908 -0.0595897419680147 0.049784382514736825 0.9768292154682762 -0.4666855943637421 -0.013820693408210306 -0.22700862210791253 -0.9169599120618642 0.10525955699820634 -0.4290310863692527 0.8555983647067208 0.4040591365552891 0.953615114361707 0.3244965950721468 0.5894539392435068 0.22639016002595952 0.4557290096286875 -0.9596147476333017 -0.8439314502921234 0.5865445035654934 0.5415208017682318 -0.09895217676566306 0.9924722799531045 -0.07155194166863348 0.8011600925973548 0.21725336392906835 0.7801466210926655 -0.015975251322576156 -0.4109513923452506 -0.011680685539432877 -0.813290168207627 -0.9733371834814962 -0.6261767971270931 -0.6686922497672476 -0.3845333472078737 0.5461831002346313 -0.7152938734479151 0.7883887515903236 -0.09790609100075552 0.14839368677226414 0.41272140218338305 0.061181814248678655 -0.551583943551115 0.831282907584531 0.39099959220460095 -0.3636890740289612 0.021248677962095362 -0.19768639654104922 -0.4110779517479688 -0.09204870908291533 -0.08265560130648483 -0.241219737353775 -0.7279044599456311 0.7921509304870256 0.13742424116993823 -0.15616397917961344 -0.02431459903397859 -0.9716488023969718 -0.2379934673660129 0.38196750745048996 -0.0696329343203305 -0.7006996020362918 -0.44742594080567055 0.6865279491314354 0.006223016084099848 0.5336094758153623 -0.990964786987324 -0.6788095601275002 -0.7490893315283195 0.09581860984324073 1.0083091077165562 0.4444182663939273 -0.6330242681976985 0.16963203558899798 -0.9505256073375609 0.9141909571597034 0.24676143171571785 -0.5143090050822883 -0.8576910269472345 -0.4347029611888243 0.5074335783903344 0.15111089523526647 0.4154165644795029 0.25620132113878324 0.05473412230541563 0.2642967363053811 0.618888810777581 0.3404158091418509 -0.3742403718925006 0.08806114545387972 0.699763077147735 -0.39090325728862135 -0.18846547837319383 -0.05778765582938446 0.9457761379427215 -0.8981675963708754 0.2711482253747069 0.7404635188352349 0.2134444623564279 -0.3271421769408299 0.9248352696670165 0.10324624458343964 -0.6380837311306508 0.7509153860231753 0.3893311375189059 0.5371885340254359 0.619265724783044 -0.7125262368444406 0.9721884723382347 0.7496812893953072 -0.42186947845497613 -0.9235011637423549 0.6388121130113404 -0.8678158019460245 -0.8855584463265954 -0.44031597450359283 0.15437584891974032 -0.04621426320381976 0.9061031051858685 -0.6215476275566236 0.8283670944695064 0.8395565582283187 -0.44750395941105825 -0.7195003864534375 0.5804378166948659 -0.6438997009466653 0.4746735830392249 -0.22965663807547157 -0.5817398611196186 0.13951651787371877 -0.4255179307599509 0.669035711616606 -0.46404915954954357 0.13543103845212828 -0.5063032463281897 0.9928443608895872 -0.23739653368821992 0.26172024839215113 -0.22309489096326016 -0.5495171339865044 0.10750797596439093 0.6663934431772397 -0.809535314473636 -0.19610433254040519 -0.9474243846448843 -0.7643699996042289 -0.39460371050828136 -0.6847035659655061 -0.15209065547431863 -0.7675045161201086 -0.33262144007276384 0.2496674967282821 0.7390539376271925 0.05806654154524705 -0.6501901865449874 -0.26811457399745336 -0.032060089540271626 -0.5252297100483991 0.7023310114153636 -0.7376451988920264 0.29893384629087083 -0.5730235476373796 -0.9508766912378104 0.565987096464123 -0.7637381979006258 -0.5041082263021748 0.5338057148405169 0.758203698584373 -0.46481933851232393 -0.7154619649595857 0.8913001809647368 0.8013053044262158 -0.21669058033345504 0.5003262809193644 -0.05069084832272436 0.2935748443814338 -0.24118808101952333 -0.825158179005815 0.9797386004140408 -0.010591647745054259 1.0010029262451197 0.8746456000876304 0.6259446128588997 0.16926027192757337 0.4856566895007778 0.5415637689814851 -0.8250550409517753 -0.6418664489617848 -0.4175637572454564 -0.6852726580889383 0.46800291310976766 -0.5879444320235875 0.18492180392968668 -0.3945927441027074 0.004253460239356127 -0.6432152030565773 -0.13550953095484503 0.19212042501510151 0.32732537344237694 -0.8891688691601195 0.6957125271622585 0.6699798253251219 -0.23921435341753156 1.0318542660778889 -0.1915718368290068 -0.5445346676271331 -0.08343584773946884 -0.1168159947562147 0.3485899617694645 0.8105513312345027 -0.2780081972909052 0.7497271368885545 0.31900009944005536 -0.8866209983353871 -0.5896721218443836 -0.7304652438548707 0.14799888500801786 0.5806251167866205 0.6761367464495767 -0.9547311774424048 -0.2784925399223275 -0.1673008341599488 -0.9406056467373204 -0.15968925495502187 -0.8328236673926227 -0.8529523578617221 0.6606763982638271 -0.671358275682852 0.334992864539335 -0.05772564814289441 0.7592910528933876 0.8251956507952196 -0.48097916527004764 -0.31291925165188345 -0.1150750347776566 -0.022902136090358297 0.24345660405882957 -0.4112847368549553 0.8088747332876008 -0.8196327929980246 0.677184330610999 -0.19210012312052588 -0.033936501254355655 -0.9055411036263856 0.35444724705302255 0.4307325490546665 0.4904288079629057 0.7237020676843748 -0.601459968622415 -0.5725991643935 -0.11562613179843403 0.10056341705829813 -0.9885446658425624 0.10693876491542915 -0.946325468930786 -0.41669399585574923 -0.5907522394201534 0.33807278324229934 0.4409198782452431 1.0018064080067528 -0.8871606135546953 0.30634685275232004 0.7141161844509722 -0.0009277199912572053 0.22962111201994287 -1.0565117758926228 0.9223326659366985 -0.5290527281490799 -0.0994189368732102 -0.4622731501891062 -0.08666563002979503 0.6858713942396091 0.3118366174740646 -0.3265927701313156 -0.35994262022928225 -0.32163083914501095 -0.5372929317246725 0.6901117430682474 -0.8946057628670727 -0.8294232773217374 0.5541788151512641 -0.5947751840824549 -0.5564840401089922 -0.24448925227456572 0.7862356277112087 0.34832654493068976 -0.7716922931208228 0.06266525823491648 0.7872411883898836 -0.7703589583730985 -0.8835631486781952 -0.0699723455032598 -0.7044826553626985 0.28319609358310116 -1.064076601900018 -0.11305112802880235 0.0840657228256151 -0.5376177939286678 -0.774185906512393 0.6362280014836525 -0.8871334431958191 0.9000310271619802 -0.8157031634635267 -0.5940349376161856 -0.4030433918223371 -0.8556780784631414 0.2559015960013254 0.49449001101621737 -0.9117374539144689 0.340697049395822 -0.15529945226414313 0.4482549892647459 -0.17081926601874672 0.2789534556001641 -0.7180014294934007 1.0163301343183615 0.3145289378946416 -0.9063301036472327 -0.7382039688297802 -0.7846430070803186 -0.8042776886200266 -0.07271923115857917 -0.6480577188915895 0.8734767582792848 -0.7473774714604131 -0.21101989637284144 0.3421826878945017 -0.9152871287452924 0.6000508028186965 0.03622481390226305 -0.7642776448382336 -0.3942348534038119 0.012203071784958736 -0.27045510097742215 0.45039482984880047 -0.35817459723323064 0.3426755133770911 0.00982761152978728 -0.6930960011833251 0.5348513581577027 0.9650565341478454 1.0211276963324671 -0.08751833982031429 0.4926539893357387 -0.35611068915912203 0.7382303574569207 0.24084116120237978 0.6786737273727962 0.01858152358314754 -0.15188615362053162 0.7085997795160318 -0.8870164199747411 0.3852049147375517 0.6959183410816209 -0.6673362975177308 0.5409862455726728 -0.30750246106707707 -0.7935981204655794 0.1540323503176985 -0.39960454389468986 -0.9569563121306452 -0.22976742876970427 -0.6488688110495446 -0.9017693276543581 0.6455037401760049 -0.5914366842776638 -0.7546972183550131 0.31126721692952924 -0.9509319572424654 -0.36430619170281087 -0.9213611710351474 0.7866857546876999 -0.6890723537896802 -0.3080856940262739 -0.6885786374599507 -0.23716992226695377 -0.8079076921764972 -0.6106597147440576 0.8701522934426574 0.571013966204437 -0.35219397757697035 0.46590918269153764 -0.5410376178487021 0.3580486768639128 0.16313698702450985 0.01612908319528179 -0.538563291631341 -0.2650260011871188 0.5553698038079585 -0.7520188431858188 -0.3672777998133273 0.4444083906411922 -0.23707922308577833 -0.4567612829840894 -0.5685846453687169 0.9884071951116329 0.610288838663887 -0.9316435440944747 -0.4562577541334832 -0.7358341365996859 0.9288854941304097 -0.1630298983891622 0.5024059507913391 0.8010442526863853 0.5302635591105352 -0.9056951035535948 -0.04997553096366941 0.06561715088283294 0.7179708607337525 -0.22621903592845616 0.13754685042114254 0.8960894276937353 0.23936866283326505 0.2536970661514781 0.3182881442744755 0.6946978018832468 -0.25075793412596514 -0.5917393701499943 0.1820336806803413 0.380496007799759 -0.8649082037895017 -0.7437747626654646 0.3824218370464247 0.2358257739162309 -0.05077703274871148 -0.857235575495853 0.3399206021122899 0.3409701527079615 -0.17596187160975435 -0.5598477388862131 0.1291312480845767 0.00642188083816898 0.5304066141716545 -0.35080056157791006 -0.656810757538825 0.662404842945131 0.14111224048316867 -0.8944511797896847 -0.4153595302831035 0.5722178959086968 0.2554068491278393 -0.5535035741731132 0.4109236416642575 0.277259542529748 -0.38352836060240025 -0.017536431802508655 -0.40274601779278085 -0.24551605176995353 -0.3698486502621898 -0.11690919857395653 -0.009373874465277213 -0.13934032883280256 0.14349383841828628 -0.519105959389591 -0.7046084599689427 -0.01592359707296946 -0.07118489078081411 -0.30678688860039116 -0.8579113799043826 -0.49518274502540865 -0.1111442832502217 0.5124152661857942 -0.16570565120325806 0.6065700219793722 0.1629749449657302 -0.5376082002198903 0.7319071845594302 0.02943555864722335 -0.6199274976466592 0.540612460456358 -0.6323932104575589 0.6371449132911997 0.7280633751142948 0.7270874827391665 0.7815792773696968 -0.4316115984604396 -0.9103484385632825 0.4000497056502162 -0.8858145442417447 0.06797823374713419 0.07349595049304815 -0.6698584867661019 -0.10061369113956681 -0.7925403688684708 0.17012260934750031 0.5155281829743109 -0.7916200096937841 0.3684326267682413 0.1167850365402363 0.10476006297327194 -0.6343280482482428 -0.03532719073075238 -0.07100783234065847 -0.5907598161586517 0.20990653010531315 0.5779540104215217 0.02476867190238511 -0.782057688176156 0.0902361260563515 0.9978357498149313 -0.6928370728670997 0.20111906227296683 0.6477577386324891 -0.7728673479276007 0.5259379297043341 0.8881555147307438 0.7321150628574814 -0.1071214269730933 -0.7498954820950383 0.82503694010052 0.7060759490577551 0.01305239544893301 0.4203024212878291 -0.8157453030416831 -0.6600702780815335 -0.5116552455820242 0.28095857668822594 -0.378147908115061 0.4622714349750003 0.590238171742142 -0.6635193477661312 0.13042896047668093 -0.08123689307830118 -0.29442190330976953 -0.17026157499628622 0.6257400439982649 0.07200465255091669 0.6985515342415226 -0.44887631990790594 0.9471249493642642 -0.9183805849272095 -0.8853040611598924 0.6699207231524521 0.01091910307502806 -0.756299474043209 -0.09359132725671164 0.28700550188582524 -0.48897806162047647 0.5596875025529149 0.02265193487673894 0.2622258949666573 0.9952134015853166 0.24627809256436356 0.2569965122028642 0.41117615132947155 0.24652896632985521 -0.8049028266062698 0.9367596964002141 0.1401559040313752 0.9984461382359537 0.26885928749237514 0.4936921144657097 0.06142918383403992 -0.5690259215840999 0.18978407319991097 -0.9537384085652334 0.5176860507732266 -0.5991541824869216 -0.903786834135534 0.16980629821161308 0.11913439814832705 0.34729636031851024 0.6355041788428641 -0.2389422434554769 -0.18460759918103975 -0.8455184908284521 -0.5696050115552878 -0.9849738236283438 -0.35717200525606496 0.4889398839424118 0.5260896487429426 0.7452297595373834 0.15274944619623518 -0.3622097943780728 -0.038786691433624766 -0.8196091456846377 0.7371810451166492 -0.9845337722200059 0.17387745326459894 0.572452273125747 -0.932283258933636 -0.8332458672643374 -0.7231042449798909 0.15745775184071006 -0.0266235898677695 -0.1200993236478458 0.18317403638182572 0.6933305487948507 -0.47816890917800525 0.013716548375846082 0.7968502573835914 -0.9900061436432949 -0.4190351811996879 0.036721965743395826 -0.2993251389892914 -0.7401707132555478 -0.0776616736226932 0.7334225784943689 -0.33325658315960743 0.12033194160334003 -0.744630241863287 0.2265734086369846 -0.8489592941256318 0.927911637425349 0.6420523068401184 -0.3736581347834543 0.854826823519347 0.24949339583663757 -0.7657711744333978 0.6161176440472971 0.1330364686747358 0.3660360619694848 -0.3898057104153656 -0.7068861186651628 0.4032727219414347 0.6170278613106401 0.2516278638082521 -0.6767748884882864 -0.7780151827654089 -0.9372594385512217 -0.20352789359306692 0.2273570126850713 0.12207219493621198 -0.3335530347789838 0.7497787808333329 -0.6479152693916124 -0.5303897526600183 0.8937976037410473 0.7572370645966406 0.451059647669358 -0.8193002753301137 0.3181655056220295 -0.6920115647704261 0.6625615334177573 0.17360315834941614 -0.4642978766247625 -0.6619822188950869 -0.7336361840506995 0.4155966940839357 0.031135014050925343 -0.7909917279572135 0.6022983349630517 0.4129410811092047 -0.8388611220092579 0.1602875506779724 0.5636705049946903 -0.9755097788225033 -0.18754076475519335 0.8517802212481564 0.3653403624833491 0.49595700304140955 0.6107672649844446 -0.30509574980799625 0.321978868271683 0.6375698980258554 -0.45525513532550443 0.18341231984135087 -0.5222639601104999 0.18598914406069644 0.8551548905959511 -0.8806043374754845 0.9768787206836766 -0.5314237429240608 -0.7379261271583183 0.2334618262712088 0.6821975504031578 0.8987001349473677 -0.2777893366424448 -0.055808735911464784 -0.9144957187188016 -0.9354287785870106 0.02487890824459149 -0.8550585140257605 -0.7995611501814728 0.9995377726262682 0.8637094552622661 0.573646491719293 -0.6082442095336797 -0.16500216440217427 -0.9462201083568506 0.6489210516796471 -0.9200892208744729 0.44697159259840147 1.0149645267475422 0.07085139432546579 0.6024066830660831 0.9047995963565907 0.5053525800227621 0.4043300001479494 0.48182536310339225 -0.7754878579056118 -0.2641142353196927 -0.634917927690423 0.4335186353134067 -0.22528852627380422 0.8407109807365805 -0.070695280382026 0.9076818213776061 0.48129343773875344 -0.6821944480239606 0.07645093279129767 0.7953591091712437 -0.32856888226157466 -0.5332163398068528 0.25954532990403 -0.5375478229787998 0.18820930302620878 -0.4991432000301969 0.7221500882707772 0.031499165094199685 -0.14265230603094095 -0.555206417691249 -0.8376584284317982 0.5090214170489178 -0.49714298926998096 0.507360838188547 0.6472899378994316 0.7624100780879273 -0.07101766986996354 0.01344791317765823 -0.7676543908138271 0.9369439149808451 -0.9798852252398821 0.08576525317084327 -0.4155056464564042 -0.9086784300630746 0.8858679216059708,-0.30137034555788356 0.04884527906207259 -0.46649980934289204 -0.5979990962812716 -0.46827601653113726 0.7076002363962102 0.5534416235929682 0.8525314780903896 -0.7022877139019814 0.9700203190747949 -0.7401970360506045 -0.9887461039399208 0.7005562330519446 -0.910914551001822 0.6060917989888628 -0.07991760475090004 0.7379811939721561 -0.23012310242173295 0.8889223157605854 -0.7621924566769225 -0.9905962169738409 -0.9250662065770126 -0.637135463122239 0.6556967409692578 -0.7104853588986744 -0.286488284594858 -0.7033640186106154 -0.1298125290663661 -0.3456865740435713 -0.5147009569786212 -0.9434487533413782 -0.3298169728144138 0.8119747960700427 0.90817544162949 0.5461662192413983 0.18418464265959186 0.1314099596375595 -0.6868583858914701 0.4412937560650599 -0.9019040737364514 0.4281939410516592 -0.8414123598415244 -0.10311997515287935 -0.7394673603887179 0.5978126095375659 0.0825238493925826 -0.2021864734468566 0.4451924472344243 -0.7342298746514812 0.7478891746107008 -0.25943780927127547 -0.2347005163034246 -0.6947196617472786 0.04618911053007824 -0.9906395420252936 0.45492355523095984 0.7870502745699388 0.48974053591875033 0.2883975132478349 -0.9265807548561042 0.8290648507952816 0.6454538990288087 0.7903908827317256 0.6324661325641133 -0.49391935434105355 0.5941715109376414 -0.6391756863825395 -0.8870906316916474 0.6656404415668548 0.8702530892449952 -0.9816808920883487 0.29830389707856086 0.48060286547709213 0.9716256183988019 0.5694313065584419 0.024996520340705163 -0.4785052475513344 0.6979421305256538 -0.3413939617801967 0.8530453027065873 0.09414727967495136 0.6567002536422131 -0.4106680596981678 0.9394119721262335 0.21233385607139765 0.5888168645788883 -0.262160862426457 0.8633540784575664 0.5248233886093864 -0.9869640096423172 -0.7845819224523212 0.36014799765882005 0.22480458139104426 0.4289555079872625 0.6926498921151147 -0.010290818741830535 0.9565576170162465 0.8471254520483257 -0.10975954408432102 -0.6198530894051473 -0.6032406263181231 -0.46932995215357376 -0.29350908595439756 -0.6095000180432317 -0.8183516479872819 0.45291562953420733 0.4322990116619683 0.2614074762907303 0.28149948357857674 0.09154845108143454 0.7274059590320117 -0.21344684177892193 -0.19916117376289133 0.355288972706046 0.4533647461901551 0.5721943536029181 -0.6019855269284338 0.6420235720193352 0.9607180400968975 0.7837472174521063 -0.23199998101187894 -0.14413557760635723 0.8035847456930145 0.5014972433211065 -0.8948796078533771 -0.6034860085407571 0.9013874685783139 -0.7881825236935545 -0.5261662224725198 -0.10737759732314707 0.7955798991693472 -0.017398707440835538 -0.09125133048213226 -0.35037382594224653 0.16740101377936673 0.12815689068114772 0.23788751829371463 0.4616545952298531 0.4002905596791985 0.4495469021925693 0.4735494103109228 -0.8759090456695433 -0.0820491190236352 -0.4773244387267586 0.9387684753698068 0.3245964309724926 0.3183985148372807 -0.8685402876496238 -0.9251113140871159 0.36476923482668555 0.2722419286807835 -0.11634355916701479 0.041365335522564835 0.14489995680717382 0.5677578667302298 0.12314987419217865 -0.021311055508127383 -0.43008329188564376 0.6857147438209918 0.6057677703187407 -0.8065402128630177 -0.7624488023564462 0.2781852004391557 0.3595634432241514 -0.10649970838005518 -0.5367237799430336 -0.28187179485142644 -0.8101635584694082 0.25974666570282845 0.20306810538624265 0.44654291926049616 -0.8076666606625224 0.5565045237585534 -0.41397699481016254 0.8950840042990973 0.8764200405887514 -0.0663571459765883 -0.07770215568717238 0.980430690894752 -0.9207668404581075 -0.43895761256080396 -0.9234787251321688 0.5231999747409884 0.26470721709444955 0.11406551309457567 -0.5790001152000193 0.8217236681007613 -0.8198335313376348 -0.6311255070295348 0.3253786093702324 -0.8611672949555019 -0.6038415388861984 -0.8189598174460262 0.4967411725756645 0.1407779325436241 -0.9359169370487171 0.5909579645054288 -0.9117205762270029 0.14760080662254474 0.8304027521065714 -0.10530396844517464 -0.23594731545215483 -0.6112439032570528 0.6597264842559477 0.3628962354279263 -0.7362340322114302 0.600097970419981 -0.0479827182676569 0.9693937973814102 -0.14297616649526476 0.1494885276453645 0.5225424185369345 0.060319588322275866 -0.6053010912645703 -0.49166959987885167 -0.8997696326105706 0.5498088737337752 -0.2870692985617962 -0.5931480220257136 -0.3517443187323798 0.634370045302294 -0.4407014966469639 0.18816073613084133 -0.5127781973593187 -0.8553839976352984 -0.46955287922536837 0.46026329377242803 0.4733009268570525 -0.6045480636838273 0.7132594948146223 -0.06229265545136212 0.04543816078260332 -0.23991171519002952 -0.6108411729946381 -0.42423974916873775 0.5531966140803801 0.6986921005044021 0.8885784678983134 -0.45839402715550404 0.07083102329394099 0.6148869209219289 0.4215713514016611 0.5978835987807228 0.7628026677861907 0.13162386205511123 0.8032790907829738 0.5216175182172121 0.49324378744324154 0.11469017673396914 0.6603139995568226 0.5150971643959592 -0.9998579755051047 0.025828983041729012 0.7848453708118883 0.43858073038007067 -0.8273903634482456 -0.8470122786577644 0.10046037917498929 -0.7654247501796246 -0.6961668765610691 0.9538193307960275 -0.04608607531811701 0.9889803821796616 0.1827778061561247 0.5012496079899784 -0.26062348908085115 -0.5694411417068702 -0.432400152707773 0.8106616711136468 0.2628517631569919 -0.3700617586888603 0.3797980331550301 -0.5255915190481604 0.10226222881907948 -0.7660218421678453 -0.9038638818884858 0.02372109019823366 0.3170127103241735 -0.5013239562796441 -0.0031028147108486596 -0.8318322469473692 -0.2884582640700578 0.16600460131786038 0.22564840524285912 0.13600832110910116 -0.12772135245476257 0.2490177147444366 0.5278072382623057 0.15097246904665101 -0.6411763940371242 -0.8771672644873498 -0.28516209785887886 -0.30328819276102703 0.6796227817916355 0.2583652638237716 -0.790920090005423 0.30131219388287295 0.4022799928447349 0.8541135253833453 0.9850128985297635 -0.41351335333330747 -0.1559615130790252 -0.3576778623612331 -0.9637340349319323 -0.6964331616218467 0.5427939067122046 0.7171547841912076 0.847505762341732 -0.5877155005275918 -0.9583609292492372 0.22485479183905446 -0.5163442972285046 0.5002369517184874 -0.20614323564789735 0.012746804732241844 -0.752770678582201 -0.0016360163838733273 -0.832004941172396 -0.7418201313205104 -0.5307480572097928 -0.09832298744640938 -0.8754299459809607 0.6986866700591582 0.5206006767916731 -0.863716740174922 -0.03581604876936635 0.12616187422132502 0.7796190283290879 -0.5416295368241394 0.7277154605481356 -0.10964346602828805 0.0253781960048862 0.5293993125966853 0.7328769423966479 -0.1759493341077737 0.9218759878820884 0.8442503780552884 0.6037909900106376 0.7609300343650316 -0.3646522873303854 0.7234707057906178 0.23683089987335093 -0.583380146133995 0.4330621616747802 0.44062011766616266 0.4728126195870506 0.37222150663593706 0.9972302614239953 -0.05485477588753272 -0.2930253696335563 0.837107868252614 -0.08247438002963835 0.020982011408237005 0.9762013414170911 0.9776267372725838 0.9265844377944616 -0.2573541531919249 0.34302220507289555 0.6027522253004071 -0.6839595397219009 0.4234433978901405 0.08502984059085276 -0.4948231375466661 -0.7774291407884333 0.8352728783811865 -0.21111091463744525 0.07889654412948612 -0.0084148659622083 -0.5832457993816251 -0.7093597207135915 0.8521295475590068 -0.544390330505664 -0.08131357360671304 0.06572251409868637 -0.6269049767115953 -0.06583499628299984 -0.19041209220160818 -0.5402935908011496 0.11918859178557767 0.03768131631987672 -0.0028603787087156207 0.7890385870599448 0.2755844547381031 0.38767424116197263 0.6405992710120377 -0.09851856958878877 0.24035407941473508 -0.737999834031892 0.8641354746869744 -0.43382022226451133 -0.5077286317905879 0.059620589102557915 -0.5604337063358769 -0.44545839957024524 -0.651321133896823 0.6643856816785106 0.8860094820825091 0.14696633325893876 -0.047727692771559284 -0.36641279967047286 0.014945027682480438 0.10739256990246744 0.3831786860696481 -0.9664904082183354 -0.6155175683989855 -0.846254241735136 -0.1879448471799612 0.521680688493659 0.8116195192816682 0.7471312239673615 0.5099131221704737 0.394660660448071 -0.8471133032371188 0.12055815483139252 -0.6047003652042212 -0.5202606774527526 0.5070355027217957 -0.13584390717061118 -0.5405876429204408 0.0869690906188123 0.1599809084795072 -0.6168997828689482 0.9384165178554978 -0.9467973001991612 -0.6825977720518603 -0.17790552728674364 0.9558247839264542 0.44455112589194656 -0.030555670363697777 -0.2044115919437659 -0.6277458071409052 -0.9273070127512785 0.6331795502446493 -0.7418048100900292 -0.45967143540809113 0.5562183045174187 -0.49720438315169113 -0.11643883037435804 -0.4203728789183871 0.19529390409435873 0.7711129758042492 -0.09077878147722036 -0.28229127986974006 0.5875523457109557 0.9419885770846997 -0.4880567968859862 -0.5087809556757186 0.9397378795235005 0.8279406973047463 -0.7635099590017398 0.0032611015877870696 -0.9415156029410698 -0.8954169557644696 0.41671672213629374 -0.40283603695258624 -0.36994793535134257 -0.11235794669208118 0.43784062599228923 -0.7289401816180461 0.6515518764969004 -0.5629781187266868 -1.0964491392933584 -0.3713066604163986 -0.8275068175910982 -0.6551044729931569 -0.7379439736945904 -0.35315916272354075 0.5317275329864363 -0.5724235653785283 0.7920288540701881 0.26999841698754756 -0.009969614739579651 -0.2104732080629601 0.8232402322180258 -0.44691798270462796 -0.026012943115701837 0.5502647741363369 0.03689473630076945 -0.6580776862830572 0.25976069982961186 -0.44388143392493845 0.9874337567392422 0.3848807869340382 0.9632621588920112 -0.5865958065809908 0.20775746812369286 0.05366469785801153 -0.06561705324115415 -0.9569523267438209 -0.44177509688886835 0.3195262065809911 0.9301659664381968 0.7853136772679173 0.9896684361449709 -0.6362779591565924 -0.855445925045185 1.0113941840014133 0.09352568481382689 -0.09712562235814212 -0.48569436038156844 0.49469699658610045 0.44835249221278944 0.12321539223109745 0.2557102856493777 0.2311627355230484 -0.00926512096341603 0.791357308533867 0.3531898386142464 -0.05387381210368206 -0.7297845491444631 -0.23355372599150087 0.9742136624322193 0.2308062141572428 -1.0263287844702478 0.7297390346280047 0.518883804038017 -0.6863147275367886 -0.33747323392427653 0.8999508529151778 -0.6644324903679926 0.7875389775205847 0.35639857009344544 -0.6310267386030052 -0.9556439155784561 0.1408692971904153 -0.11035684507388575 -0.1218603443594156 -0.7577425045800538 0.34213568386706633 0.5344515408831944 0.2511959539874361 0.8523666838801771 -0.9039489024104297 0.9302555219948667 -0.6509564010882326 0.5163744632155622 0.21361313303350965 -0.5980572087530532 0.478161841106045 0.46549987191596637 0.1272689444844882 -0.019275619167775315 0.2591534939040912 -0.3535580540488598 -0.030766034664619826 0.2855304189521983 -0.8142719715604405 0.3685282279717592 -0.33292733333507474 0.6626384101377333 -0.2597905390486337 -0.7686733090000413 -0.7563882738853348 -0.6737032720041443 -0.5491813038346639 0.6420401153219676 0.36443327302140754 -0.57733025311874 0.2029864536196357 0.14355382211175427 -0.20099416354498967 -0.78336660941096 -0.5975962086849915 -0.18820965375344503 -0.057584403939233315 -0.25180719295701637 0.10296444282336077 0.30861644099842167 0.663229203580309 0.4761245815727257 0.606457732726303 -0.1893793296757837 0.7892214202019109 -0.8544011772125785 -0.8450481279820913 -0.1961235156259467 -0.908308309994162 0.7962022652025931 0.6501021442846668 -0.520873335274437 0.40071019427800425 -0.6925073196711955 -0.37233547692987656 0.41827796894481933 -0.9694076435427661 0.6137638780374827 -0.623065858135969 0.29615875141894166 -0.7814914607681489 -0.020043151195224353 0.3544076728654376 0.9388726564792537 -0.1338454529794353 0.5063172266498532 0.9397884396508845 0.8283355516395765 0.4163601028909907 0.5685610046605857 -0.9059438873130309 -0.022661654506069086 0.45942053777500835 -0.3248429570234664 1.0078173223926459 -0.7876210529628579 -0.005127955018628632 -0.376634235945549 0.07297830888798719 -0.6583918772051712 -0.2807725393129879 0.8509686800894584 0.6062970823813125 0.7937177788463388 -0.6827467564117488 -0.4396441874675612 -0.8492488210164737 -0.8240733061477024 0.9916949890152842 -0.054988889522036954 -0.4797776152349807 0.560388980970595 -0.3420055463917545 -0.720006547315214 -0.8734230246759062 -0.20946330925309958 -0.5700491554685675 -0.628184230258986 -0.04670429660744587 0.5894874763550177 0.7244124039283848 -0.31670189912130037 0.3218892729130705 -0.476501733173503 0.8152893290862381 -0.5008822379563734 -0.21326169580516813 0.31329005890223693 -0.9300211967631387 -0.5585780787261664 0.5845548945629263 0.7430992023781484 -0.6136033930549831 0.7810776160714278 -0.31950031766167997 0.6376565478363605 0.967132762825792 -0.30451962838144286 0.6080250795249382 -0.6102144012192927 -0.7944942752576307 -0.17306096389386638 -0.578757777878557 0.018593367159760617 -0.23870936073874177 0.40684016921537736 0.37465559007141946 -0.43673955359793354 -0.4730838542728936 0.82248716024916 -0.7450541855012216 -0.20332856584973827 -0.3930628510917432 0.9867268827197215 -0.344516044677472 0.7448784129769374 -0.655914637452159 0.26166975582038665 -0.6122196961616896 -0.20876665826122276 0.4081495647031707 0.2292154043641156 -0.8631730881773602 -0.5340482863528637 -0.2758759571615039 0.7946488432623653 0.08943373568846094 -0.16868640067549584 -0.4391457075383593 -0.5549841115646588 -0.4386701744708405 -0.35161003670674185 -0.08741976926229043 -0.4555121673878304 -0.44116831758873454 0.7922332482308981 -0.5063874195650159 0.5101805082407163 -0.43197405657006793 -0.47215677886639257 -0.488647204545094 -0.7650109721513443 0.6046538260213165 0.22760097846677196 0.7570693117286929 0.9564697568998947 0.6462002105401746 -0.5398110761255173 -0.3225648482369275 0.7661435331955477 0.6829078936526609 -0.44474041942666487 -0.8471253926262869 0.2299408593623793 -0.9290358773667313 -0.7440665613051378 -0.19036118324265688 0.5869075088863794 -0.4660876543029749 0.860930925683037 -0.31118280222976547 0.008790010488533555 0.660278118525179 0.25829010572882766 -0.2805758421164175 -0.46807387262044464 -0.0549351312695998 0.17895605858139535 0.32363363974035214 0.4894301486158709 0.5125117533227205 0.6893401351318044 0.7085398618545421 0.9227129375718981 0.6538969480381231 0.33936940732242266 0.8636714847970186 -0.8659040135506272 -0.8490158592514534 -0.9925898577057106 0.2486609601035501 -0.5343406758073985 0.4212386986049854 0.8369838892086374 0.07769862191546131 -0.5315061120685499 0.9903589739430263 -0.16441494525675873 0.0709293632637577 0.9969099175174388 -0.43686325000929965 0.10819637233532738 0.7581690736987133 0.4880625268998568 -0.4638887616360713 -0.6622968584168721 0.6642118942781788 -0.8983410636127859 -0.7110914194914659 -0.46308401530626475 -0.39933573721859134 0.168798656580456 0.5133271951318826 -0.517917152457683 0.9118096155836535 -0.9150227862467146 0.9526061150027865 0.0349367281408246 -0.7478501016969803 -0.9927255084978452 0.5641574345444622 -0.05757094594423284 0.8707229873159834 0.10309702156549161 0.013385233061284332 -0.17380429986438467 -0.9305788524991797 0.888422423639677 0.8678773294357234 0.4293789323250609 -0.14152601999485062 -0.24121138592233748 0.25347775052050775 0.8868654612393158 -0.6341112570773638 0.7064101769484555 0.40181316980783244 0.9803210636339734 0.9471156951444092 -0.5563617774272533 0.05337300994398103 -0.24609349069063877 -0.15890694795284444 0.7775289840701833 0.27707292760495905 0.8969763442376211,-0.023514199545319192 -0.8904559188349959 0.4999246730378015 0.4533114197512518 0.12028120378296259 -0.4147812020213488 0.07572037873509507 -0.5831801957544134 0.1532280025692414 0.2467387687182938 -0.007183308704318492 -0.7998907332099627 -0.05379738021870195 -0.2872317589074005 0.8403214807124808 -0.3784700384573787 0.8188238996226311 -0.774865653962246 -0.9551251515368386 -0.36122741617984255 0.6767554260786033 -0.07938836178106956 -0.9712997064260298 -0.07461971992199135 0.37451540054130716 0.9679344027056249 0.7309295761161358 0.30575239387456676 0.11915987624444146 -0.8947662284357014 -0.8237007240466292 -0.23996277737508898 -0.7796192719723276 0.8576116121096451 -0.5531073690997778 -0.7273487060998193 0.3778784668876243 0.07142959158234291 0.3063359248227974 -0.7464297116279225 0.38835731476356306 -0.20077514316516365 -0.36786460339037874 0.08475380528810009 0.03413179177772019 0.05224340876902277 0.02916741680945371 0.8205333034533128 0.4553473552461131 -0.34692497844571957 -0.21851335642029834 -0.9051461866075303 -0.16794851500546026 -0.5904508007063471 -0.8992967538153924 -0.9037053621014379 0.5914485500748778 -0.13053647024797366 -0.40769392363019796 0.25958517582546103 -0.11303237602656205 0.5973543370935525 0.20557356220774417 0.06871968739471443 -0.3652036017155871 0.006044827800047613 0.18921573570359965 -0.036244048392691755 0.9995712294032721 -0.3953765409650926 0.9588000552832471 0.8257627649956257 -0.38726867145919336 0.6109990435405626 -0.1686123910985473 -0.5209518805070268 0.6150225448593248 0.6246452869189766 -0.4489830088304213 -0.2185429113261724 -0.35026666887919683 0.42569214262527333 0.7024386029903775 0.6754184966515113 0.8884046745784755 -0.15150416594130967 -0.8396054203851869 0.1762809295835328 0.46999204318122717 0.8893656190924683 -0.07008125324883598 0.5874551343707851 0.32035449423864143 -0.07116891722240289 0.7179718750191701 -0.2396370605825869 0.6085331114498493 -0.4992885990947936 0.8166981818638637 -0.14553901578536177 -0.9792470055567244 -0.4727409219671584 0.04928304428318958 -0.6090618145385244 -0.8490477645909907 0.09058497619313859 0.5920813987833572 -0.14991908501640308 0.8040767275712989 -0.014778410553429495 0.14354148563697788 0.5382362252413051 -0.5732346843737053 -0.25687357130931665 0.44449095652601955 -0.68899523037583 0.25192007195516974 -0.45597748567255564 -0.07175244520619212 0.8005738994202669 -0.6076449461695786 0.36214316596417934 -0.7169486501544136 -0.03971444968225465 -0.20639242975690847 0.5652634551132786 0.23538035911191496 0.11336416494917635 0.19661037704869658 -0.22132796128084986 0.7247776164291506 0.48982475802447445 -0.02303178320912016 -0.5191078606440614 0.8113621009533158 -0.5870332746058762 -0.4487484762447597 0.12216676409932242 -0.47807039667248746 -0.184216215905314 -0.7843169648100057 -0.7429087092676858 0.6935913318338162 -0.4250188343498764 0.8951757594038007 -0.18123667898873608 0.3189683233584488 0.6759883708753128 0.10088262698136283 -0.4486059147554417 -0.690789544699555 -0.6220098361639215 0.7988569977683814 0.32378293700353206 0.2750622667526964 -0.9086121315994706 0.7360816477509836 -0.08050161125286992 0.7427824562397544 -0.6551031936412067 -0.4766258197681355 0.8668081654809657 -0.7669172673428666 -0.938644045821407 0.5852702465007585 0.9315442680125129 0.10626971446143975 -0.011947706815781167 -0.4879355316095564 -0.004058478391828935 0.41517258709479304 0.8771569160560327 0.18629759309460572 0.2561214291747347 -0.1660481142272366 0.10322799424888336 0.6788186974264083 0.3679388093640702 0.48157866896990914 0.7218501225310932 -0.379108156616197 0.15316487158193037 0.982848669359227 -0.053956238534194734 0.751203519957796 0.9580389655905539 0.21427747831295182 -0.8129846674337137 -0.6556577699144894 -0.11705111495431801 0.2617684381357215 -0.07328243985343938 0.5912169037265792 0.2473353658854011 0.7857381024745281 0.2189566177278468 -0.7046032934833506 -0.35257076515974445 -0.6771260541493371 -0.7365317697775088 -0.32070537156025913 0.024231979051953605 0.5729441950234999 -0.1800004354599632 0.5657161594399692 0.6368229561624646 0.23547047695725104 -0.20474122151477858 -0.3529550158901112 -0.3116416777073819 -0.6887921509828567 0.7339320913260879 0.7556328743155568 -0.9053390334894449 0.6664018149403282 -0.9466985259486064 0.657091576396859 0.3183082290007663 0.5050068336199226 -0.0016231516552640002 0.07803677882492545 -0.5843713301160525 -0.4518590882318088 0.18751031141547994 -0.09804585006929623 0.9156108523534712 -0.40020313916405376 0.6009733617414944 -0.9513375504129405 0.969409126339509 0.7454417422029124 -0.3191607723738292 -0.8020359779395383 -0.9839019140999591 0.12784342419466183 -0.9054716171912871 0.42980309670124456 -0.8927215798085286 0.4772320858762076 -0.4760935917437908 -0.24235016406490387 -0.969415339338728 0.861333316986635 -0.5684189490768793 0.3860990326857804 0.7470518360492734 -0.09855302728000791 0.7660680464573737 0.35488237642882975 0.5972198212827081 0.2678006310663083 0.5306698800905206 -0.5466133855127898 0.5634260778493104 -0.16177289855149946 -0.3768180662361166 -0.23707194587225247 -0.5201232133234029 -0.04760070002611627 0.9021016260504786 0.061788027476003766 -0.5368110904415104 0.17496803444226328 -0.3557962035489747 -0.3787370219277469 -0.05605312885266455 0.31310409549096757 0.240226567858039 0.671615413450088 0.5306473767243673 0.43859324793967275 0.6042732068260166 0.40342430539516616 0.5343953672987326 -0.4380771256065322 0.33862033382170875 -0.7954536723826496 -0.21367776126878157 -0.23140413201330312 -0.22148447316164094 0.9913033431227891 0.7602768297176155 -0.7206962746307196 0.6106518530658894 -0.23341093524464626 0.21059393589112843 0.7878210458703789 0.9592183956898358 -0.21594435498799558 0.8810034066101163 0.641485549662407 -0.1908117071111621 -0.4288518927615222 0.5726736763956651 0.7777417173763027 0.7527769534242084 0.7442532805828608 0.7652609812111723 -0.7110454564250012 0.3691690824910908 0.744709043976502 0.8886259458802895 0.29165519483935265 0.7873879481881262 0.08641420739183767 -0.49669949424782 0.08967979489559937 0.9729214546193894 0.06698987247939325 -0.11547524252792511 -0.05964132275885611 -0.8390484290291134 0.8746217103644139 0.8917742630999721 0.2935636350850159 0.40963646590090536 0.3818839447793045 0.13920764417489773 -0.5820114243522231 0.244284158249509 -0.35831201951660263 -0.3494815512496277 -0.2447448700285874 -0.19414172347231173 -0.8975848735174057 0.7134283552158358 -0.953600397575926 0.9523568431575514 -0.8180366701660288 -0.6252453792211574 0.734894520423683 -0.13390842432753566 -0.16607946865731257 0.5003441795054993 0.7317792918337167 0.9659231638300556 0.20882677214095957 0.7205751451407297 -0.07476718152177096 0.7689659105076982 0.7885333034445238 0.14309986376799855 0.6234468130151524 -0.11511584196929729 0.862789631526958 1.0212657077037142 -0.16529440461027456 -0.5418349259286549 0.8678339460537761 0.7476656671007708 0.266577842046025 -0.31937325118376486 -0.2534473533325567 -0.13803090624690734 -0.6508125012775995 0.7562843101532997 -0.180076630453425 -0.8703289056253686 -0.2604452927893459 -0.1045158423771729 0.044384887768941145 0.6171052450333008 0.14706622798689578 0.2024561301119209 0.49014517833323534 0.4760151869468987 -0.7565986821619701 -0.29363020280708235 -0.7573697031697486 0.03693820983684057 0.36984497192146 -0.4247808236563651 -0.510770964690539 -0.37554142212099234 0.6831855487877165 -0.39647960854854175 -0.5798202500193066 -0.7867530766159171 0.8590707978962764 -0.873107565914441 0.9064393147153571 0.34998426379647635 -0.3214778951664488 -0.5187296184069395 0.7824262000109565 -0.8246470463954487 -0.7319996888105288 0.982101677508084 -0.10700976616186632 0.15712129929495314 -0.34590602476830923 0.17200073517662096 0.9322973316936396 0.7917408238532042 -0.028455253052131483 0.3031397067501216 -0.20798197184387796 0.7483971213021134 0.13830707597026304 0.4770626965150524 -0.15878749491749175 0.5758771546801149 0.8794112434341474 -0.08352356622721076 0.23940071290341614 0.32002983735786744 0.6972850042437115 -0.4024430735061163 -0.7507268986086137 0.27022244805040807 -0.7009520066740674 0.976153790279398 -0.22390131575889144 0.825803161404476 -0.591488055411933 0.18043804622965953 -0.17405749476267007 -0.5091629458644762 0.04605962421501571 0.7350231526691224 0.7483444553741605 -0.013635324393515003 0.9905349216294778 -0.8818624113224085 0.17859537794212027 0.3869912779354893 -0.15249110344895822 0.4686655260779347 1.0005929851016402 0.28021137887540154 -0.6941985664272243 -0.9471275609629084 -0.6327370634454961 0.5186050560160335 -0.08397261909469263 -0.9794112396392591 0.30001126737161943 0.5599057887462164 0.9517073406148493 -0.90460991076745 0.3276251539838577 -0.32640811037908424 0.2583267951932887 0.12523788206222017 -0.7131181628493899 0.061589470683722704 0.8292424462629644 0.9976139888572565 -0.25637569675472394 0.2018398467911271 -0.7906098347830661 0.9969048384968768 -0.7212929896763655 0.03175306422056868 -0.8377833357542943 0.744022210680691 -0.47354574925203635 0.35407283600501677 -0.8097284418377644 -0.5856220135234197 -0.7618117033143732 0.9219361811835525 0.46803457736313375 0.31048143339110623 -0.4003973826356276 -0.9446903552355297 0.20431727937188449 -0.44715766935762513 -0.8111876313802242 -0.311737211718944 -0.20958543237247262 -0.7143460116517742 -0.8557431930453836 0.35073954341828845 0.014308473119212831 0.7288495085375025 0.8923778306824399 -0.468502730400044 0.49368007062570757 0.3565851351514398 0.4672104495689945 -0.09547513475667396 -0.8147961349502786 -0.8952294517704021 -0.9177813526018758 -0.386329831696536 -0.7680267816054629 0.3030091202284908 0.8570918085664885 -0.6711429494066539 -0.6698164166245827 0.5210238450433109 0.6336865657249923 -0.07708246834794767 0.5694099090016715 0.7658727490740006 0.5113707515136043 -0.6180725073435959 -0.646608723786669 0.173384768812364 -0.3821950158663075 0.07453913452590982 0.7093823120975592 -0.42966985203298264 -0.025892583838608235 -0.489177367575377 -0.3605790943087837 -0.45479603854494377 -0.7141204457049091 -0.0833196623151969 0.3282029194415061 -0.92846722398704 0.019751319904371414 -0.2000969829311718 0.7437763694100558 -0.4064745540224856 -0.5674156018846934 -0.3189182449920941 0.23723430345148436 -0.9791165825632695 0.244329631133732 -0.5634654882806727 -0.8863791128150841 -0.9232076063246666 -0.5060034756082207 0.8805233061775015 0.3151509801898994 -0.17079817235831316 -0.22135914628636663 -0.20746853924616246 0.5630018617176125 -0.26281842991935717 0.03721980425241478 -0.49113366060671354 -0.7847392181479856 -0.9456132591782063 0.9622778470364397 -0.4479008649464573 0.5835757822426092 -0.9276851988465596 -0.14901697389571 0.9952640351367341 0.9942677520472346 0.14402765104355916 -0.19133890724028094 0.6841179389273976 -0.7248408119814443 0.878645188526303 -0.2734634484337018 0.4117274086278355 -0.9578813139821789 -0.22127866332219498 -0.4587069465616026 0.38553040379742565 -0.6566159931674567 -0.7698547526694776 0.9467746681869591 -0.7473094027729875 -0.815968770923793 0.32338783329074894 -0.7515844510666052 0.1501592858166628 -0.14405915386450188 0.9232710223761527 0.21074237882143168 -0.8066816409055305 -0.7354207268590865 -0.8880590900148285 0.14257031886474855 -0.6158577901809495 -0.9109387691471482 0.10703282109759485 -0.14157641520095218 0.5824169859917827 -0.4480743752998467 -0.5682301257794009 0.6018996139248851 0.6112536151409117 0.5246230900975944 0.7279307479896518 0.8154550082532488 -0.015688132717615835 -0.12553552631218667 0.9205640757814251 0.592896499899436 -0.6281891711998304 -0.881410829543528 0.18571729411557425 0.8993937868205373 -0.8781693748737764 0.24195189358758803 0.16558334492432142 0.06484277486566663 0.2278745097673829 0.45242190353864914 -0.4119070075356325 -0.8794713251724309 0.5683470756226395 0.00923967086417764 -0.7232249825648537 0.3132322203363374 0.23817424638673806 0.17560487132798863 0.1804503315875524 -0.8035393199907492 -0.22865189571496275 -0.2624470457014276 -0.7046994192572686 0.17794258780022015 0.40543003797577565 -0.7098744655941813 -0.4320951790223388 -0.41375906372311705 0.6956765200859304 -0.7366652353689858 -0.9104030553607452 -0.8916760211624291 -0.9622892661229223 0.8713654323658058 -0.1925336847438176 -0.06300802425653326 0.4317956231775107 -0.7551425605429914 0.2306548199231245 0.6795095665728058 0.879917401432449 -0.15785737573651967 0.884368285932218 -0.7959932341622663 0.9779462262285146 1.0406799857957596 -0.3276149609481301 0.37421688045345064 -0.07871699490335494 0.952501300099598 -0.3464665890056855 0.7604348451788172 -0.45348990058012634 -0.3590550017265363 0.8784052110847677 0.3999361779452007 -0.16032887563541848 0.9285277521460118 -0.5064456989839037 0.517795813059464 -0.04038231138935622 0.9984433317663765 -0.24588476284966532 -0.34424813323999354 -0.8705105886617481 -0.7654939840958283 0.29924476250067206 -0.9551249685460902 0.14770690963578054 0.05193729199436229 -0.3614370685626629 0.6240382695866218 -0.036021123243474 -0.40117329262573764 0.625209981749965 -0.982207785208038 0.08959341516368372 -0.8679255658073396 -0.9035337823164731 -0.7886148391051274 -0.25147537742040826 -0.5169616158006882 0.9526576278785944 0.8536691010802392 0.10257690128311203 -0.27286506772155067 -0.514268509430363 0.72916228313994 -0.9520570329163047 -0.22945900368720518 -0.8820892517727857 -0.361138320263227 0.7489560834862803 0.9919317984313191 0.0028281699381062513 -0.31259360178933243 -0.35978742231310695 -0.39824673422199486 -0.13795910600132316 -0.12490306654000015 0.4837250499446715 0.48806935553262065 0.28735169087073004 -0.42488681776365506 0.620697747851562 -0.6457801031999887 -0.8124799752919103 -0.7342310357813505 0.39244028049482227 0.585342416309654 0.4477881725796113 0.006837335881394861 -0.9413634318801858 0.8574027101332617 0.42072153640625154 0.14354826288932165 0.3539845868229383 0.7929873164115883 0.08221715175584383 -0.22770080132242554 0.29605902272491197 -0.9631799605953797 0.5486175011034586 -0.8900166704999567 0.8106816310536517 0.04859780507510032 0.1910273858673655 0.9101847823194048 0.5859706249661971 -0.3532156644653297 -0.6627459967809847 -0.8976013547296345 -0.8687733072111643 0.521448999484077 -0.31566552366860706 -0.8384856424053218 0.5481166931325816 0.9110623761594789 0.6156089869599326 0.7630246163165466 -0.6531411217801562 -0.29897485847249716 0.5024116779140886 0.13731682357532082 0.7716083231837161 -0.10604347641451284 0.7929985408065281 0.7739150782813121 0.347061681969924 -0.7737564883008633 0.5659909043340277 -0.9191104701836077 0.9611904813689013 -0.9721314137480299 -0.7996112006735482 0.981160601276628 -0.6152694102291416 0.23637864549700832 0.610910404016401 0.192052152788039 -0.9447205265573038 0.4546449771705933 0.013069984857744571 0.00687777685794104 -0.9042546878250648 -0.9199119908449619 -0.03595344127144123 0.9279441648424118 -0.3726813666363611 0.5920755628309118 -0.24641338837860127 0.5822109185870574 0.5988589878010528 -0.9344715326606958 0.8069029482330683 0.8841366386353229 0.22906550617010923 0.26334696887838016 0.8464598116660951 -0.07954211128535768 -0.1000793696056376 -0.43733463254447275 -0.4335107223818102 0.9228424340793573 -0.948564775647087 -0.9750735737182451 0.3243708574098736 -0.8467635171866567 0.32199395150248195 -0.8837967884664387 0.9174023896832261 -0.38116659566830996 -0.20033001590092736 -0.4374165264598153 -0.9918820561434127 -0.5502438387467077 0.4529060269279399 -0.8323215517491487 -0.011255532115014288,0.2776501253500605 -0.27630794995789687 -0.2633948928977772 -0.17840222805239336 0.40558588788700156 -0.25792803314766455 -0.33391738973797325 0.24377276236817647 -0.4964495908926445 -0.9741547666821069 -0.09433312556257278 0.4900803925623427 0.20224160617627174 -0.29200670562631426 -0.023637635377381727 0.29991317792385086 0.1788187719634231 -0.13566670459323338 0.6211526305769535 -0.843522336278945 0.8177544854274561 -0.48505157577067304 -0.5424284113745277 0.8942217793975056 -0.19878682358832034 0.3115527847065911 0.9709898865174835 0.19030157253310565 0.8240254346831419 -0.6983175888052688 0.4653188970507087 -0.015615634565658842 0.3088595248062058 0.24261385892499787 0.4494820095321184 0.09561080886975717 -0.18193843191488893 0.16720026920323075 0.677910300909039 0.3591270370500387 0.05924252750499343 0.6246333428083348 -0.2997126955966005 -0.6602099966043189 -0.14888556135767694 0.1846467182460516 0.3194794612230346 -0.04638682874728379 -0.040718489278371274 -0.3392701667877476 -0.18644430222305175 -0.9536294691812262 0.5963649826164457 -0.9449499258116765 0.5875009911105291 -0.9819612021674649 -0.4096598478406357 -0.17915632112704438 -0.674752450395933 -0.45311684524162255 -0.8690473323079345 0.6587672332688628 -0.23354040221850508 0.48769703082393034 -0.6700212055763352 0.9431821216111818 -0.45029187674954596 -0.035255096245642686 -0.32972739328726136 0.18595602028837274 0.13016699593783862 -0.25164744707641745 0.7613658609891106 0.32252843208658755 0.3336687436532547 -0.17609492388875403 -0.19506990326233362 0.2804762273760325 -0.09584946566962273 -0.9207002426345449 0.7297058561100483 -0.12407874282509722 0.9703587575207051 -0.22176273260197177 -0.6375110521923513 -0.2913001387337799 0.5722429139069645 -0.43723150343695405 -0.18298460780630993 -0.28359079403459536 0.10861332588086162 0.7962175145785745 0.20871771022962984 -0.2747797534464124 -0.6751595405583629 -0.37015077229575244 -0.7705853417875675 0.18087748020652103 -0.8127171621494851 -0.9424710717956394 -0.36713540906782854 0.9126088443395087 0.3312007769697351 -0.6170769798475872 0.4175558951174161 0.38214861869331473 0.22721484053609833 -0.4101672756580381 -0.047529964812723875 -0.5271110368286362 -0.5491349271701491 -0.7172292842538281 0.8877479351555624 -0.8220430855097294 -0.12628828538730055 -0.37702255103543414 -0.8411822384897429 0.6252170898205325 -0.5545428134672499 -0.8879179200583671 -0.2786847420129816 -0.838680570891229 -0.5668823929795178 -0.3395936239851105 -0.18961372197696594 0.264888435465999 0.3931385484409043 0.4863155988262344 0.6137420272186682 0.6685696839268058 -0.9134719430127017 -0.5907313030695271 -0.1158743012163018 -0.016304567159067224 -0.2884361909660751 -0.35102214022060924 -0.7517099263639775 -0.22231343609094956 -0.026198610897862917 -0.7154993321867513 0.8882996082580681 0.49912045295134755 0.11403272166444947 0.7129587256609319 0.915589733620521 0.5252889218116158 0.7481191559266747 -0.7517923737923388 -0.11426837327850965 -0.5898834065678432 0.9307077929738561 -0.3741389181491519 0.4798862926968345 0.3016038458147233 0.6200676903311048 -0.10887182030432532 1.0054982953041347 0.4993144320293523 -0.3150916954468111 -0.1881762681436414 0.408438876186788 0.8068971095148528 0.38521319349346433 0.028254124595053946 0.2821225361158324 0.07905820778657005 -0.6820015630571202 0.713668467712981 -0.09936093515552602 -0.7330466508723028 0.669679831112665 -0.2444693159947124 0.562499886486262 -0.0716758712728782 0.05668781799517738 -0.6799643881958081 0.7243194121928163 0.43927496169618746 0.9315286987092539 0.04407006752667926 0.5059174763062119 -0.40711506556551097 -0.9697524684230184 0.369887529877553 -0.08398691453408341 0.34720120381804404 -0.5593604064225439 0.3454793164411636 0.386567524863143 0.7499967156121876 0.13736576339937398 0.05238352023152425 0.6768402814740205 0.9122237437694697 -0.7159025924266122 0.9994167413341644 -0.7300609260960249 0.12666655087435655 0.31878270721031415 0.2177137863696633 -0.4391359926406511 -0.37595817776380197 0.2535572363944678 0.9171724500665492 0.6606099974749555 -0.3717423969409062 -0.2241188355608423 -0.4436572147065996 0.09983412741871957 -0.5556881153965954 0.12077584843674335 0.1377844311843318 0.3154597962741044 0.17576863625047695 -0.47547186789744833 0.42261749679759747 -0.3132389203387775 -0.8916400178222241 0.06395830405269579 0.9208180392319679 0.16684938439142438 0.568561357746808 0.1830028656576921 -0.37261322145210285 -0.5410299782185091 -0.012281487625767706 0.5716034159512922 0.9166206749472758 0.18915649345280391 -0.6353818683736688 -0.12684802045791077 -0.4213344590364449 -0.42288662101191976 -0.6531313261837498 -0.900591950038425 0.4882897376457694 -0.547216258957039 0.656863590050656 -0.09450880581413525 0.4835975977500164 -0.1069785343960224 -0.10940456606342007 0.5969621591288378 -0.5588757655704909 0.8164223359943256 -0.5695528545648607 0.881989427450414 -0.30905413924820646 -0.4627976507192192 -0.22017391344118462 -0.31867031688952063 -0.9891855242598148 0.35671303178978725 -0.5058510811666009 0.7663417272631807 0.8363302556802134 0.38741451556836154 -0.07890504152418318 -0.7349402016741176 -0.4949731574448402 0.5758003678083585 -0.9081430234621111 0.8877490069628009 -0.8524742924974106 -0.08113968760431722 -0.5258582930673679 -0.6545314724886103 0.227600754601715 0.4008612264350589 -0.8958358030623187 0.1929260419029098 -0.12678647105879842 0.6706602782447503 0.4539540997478296 0.5489176783730143 -0.10264390001214885 -0.3271910734081889 -0.1666127535181434 0.19030854576525663 -0.22105622897168617 -0.3588346796538659 -0.6755385140933148 0.7452429385390245 0.14516364070575677 -0.9151827834133086 0.3447081797003849 -0.30913379386481893 0.13665803361544582 -0.27758068453699963 0.9906138104853004 -0.6285286092213723 0.8006738330265896 -0.5106912292218914 0.2943882160475577 -0.05254163452450332 0.11376680648976362 0.33737769087673214 0.6117211724600169 1.017789683306194 0.5762363885338675 0.5776643105576752 -0.23200719881820503 -0.29395374710817496 -0.9443984606582931 -0.06610049576839053 -0.5586690014146646 -0.7627128349223637 0.7416186028184221 -0.05358431155572277 0.9586940345722604 0.01304845579375395 0.72450650632051 -0.39162348960806237 -0.15341372824640137 -0.1374914601367991 0.9633696913850783 -0.023621611850319704 0.21296263900276555 0.15319513364369847 0.5636074873078133 0.2968642364516753 -0.45658067740425445 -0.6440996240181454 0.7474816338061651 0.9002162295875683 -0.1988145682057649 0.6183775683748367 -0.27346181202118147 -0.6670157096478136 0.1391743614742756 -0.6398971883070247 0.9185796780657793 -0.8069125030796886 -0.537745623302546 -0.6761181467182582 0.7241293240070823 -0.43475339562425686 0.4306399576010167 -0.2195561793496698 -0.11452479699936569 0.12369975467096095 -0.3908298629057977 0.81567009160729 -0.44345917051351985 -0.37219474248127005 0.5609891629235156 0.4588784562791527 -0.2267884788591414 0.1369590171287026 0.142640796851039 0.5048082695870817 0.15182481704456585 0.6728935242319448 